date,AAPL,MSFT,GOOGL,AMZN,META,NVDA,TSLA,JPM,V,WMT
2022-03-01,0.10912612641843134,-0.08333333333333334,-0.08333333333333334,-0.08333333333333334,-0.08333333333333334,0.09614565897615669,-0.08333333333333334,0.2741467363303841,-0.08333333333333334,0.020581478275027935
2022-03-02,0.07087890007082547,-0.12068640608879443,-0.12068640608879443,0.03262253042554359,-0.12068640608879443,0.05795873899959749,0.25517831197292523,-0.12068640608879443,0.08336151853110814,-0.01725437564482229
2022-03-03,0.21570129403695806,-0.07142857142857142,0.2006969872958778,-0.07142857142857142,-0.07142857142857142,-0.07142857142857142,-0.07142857142857142,-0.07142857142857142,-0.07142857142857142,0.08360171866716412
2022-03-04,0.17011580414450456,-0.08333333333333334,0.15687152321324682,0.11950098205583834,-0.08333333333333334,-0.08333333333333334,-0.08333333333333334,-0.08333333333333334,-0.08333333333333334,0.05351169058641034
2022-03-07,0.07385809491312352,-0.1210470640418821,0.06367309801062959,0.03493474310044102,-0.1210470640418821,-0.1210470640418821,-0.1210470640418821,0.2409757219044163,0.08655834207138957,-0.015811743832471553
2022-03-08,-0.10000000000000002,-0.10000000000000002,0.032368287951780525,-0.10000000000000002,0.08540682933856766,-0.10000000000000002,0.1740360433637951,0.1594212556051287,0.04876758374072802,-0.10000000000000002
2022-03-09,-0.08333333333333333,0.1450016665405318,0.08287701752258782,-0.08333333333333333,-0.08333333333333333,-0.08333333333333333,0.2607643929382115,-0.08333333333333333,-0.08333333333333333,0.011356922998668976
2022-03-10,-0.09999999999999999,0.17196188130646936,0.09796737134629054,-0.09999999999999999,-0.09999999999999999,0.09479464347201846,-0.09999999999999999,-0.09999999999999999,0.12249383104070678,0.012782272834514864
2022-03-11,-0.09999999999999999,-0.09999999999999999,-0.09999999999999999,0.07153717419528632,0.18453806915674378,0.09988582576400377,-0.09999999999999999,-0.09999999999999999,0.12830896349240142,0.015729967391564733
2022-03-14,-0.11634969914493162,-0.11634969914493162,-0.11634969914493162,-0.11634969914493162,0.08464024023059726,0.024844201978377757,0.1807185800489338,0.16487544570442372,0.04492153203766746,-0.034601203420273556
2022-03-15,-0.08333333333333333,0.08490817990249558,-0.08333333333333333,-0.08333333333333333,0.08820473725258533,-0.08333333333333333,0.17020432931546206,0.15668275352945707,-0.08333333333333333,-0.08333333333333333
2022-03-16,-0.09999999999999999,0.0796018495478943,-0.09999999999999999,0.010396684635233924,0.08312100356541023,-0.09999999999999999,0.17065753431464242,0.15622292793681924,-0.09999999999999999,-0.09999999999999999
2022-03-17,-0.08333333333333333,0.08490817990249558,-0.08333333333333333,-0.08333333333333333,0.08820473725258533,-0.08333333333333333,0.17020432931546206,0.15668275352945707,-0.08333333333333333,-0.08333333333333333
2022-03-18,0.0527992198072755,0.09390896634990467,-0.08333333333333334,-0.08333333333333334,-0.08333333333333334,-0.08333333333333334,0.18376839156137312,0.16952342228144673,-0.08333333333333334,-0.08333333333333334
2022-03-21,0.07983636056999106,0.12911086989970016,0.07130973748881397,-0.08333333333333334,-0.08333333333333334,-0.08333333333333334,-0.08333333333333334,0.21974303204149478,-0.08333333333333334,-0.08333333333333334
2022-03-22,0.05540855786724952,0.10233933435741983,0.04728750202149644,-0.09999999999999999,0.10630401113106035,-0.09999999999999999,-0.09999999999999999,0.18866059462277399,-0.09999999999999999,-0.09999999999999999
2022-03-23,0.05223424131101624,-0.08333333333333331,-0.08333333333333331,-0.08333333333333331,0.09663188101689064,-0.08333333333333331,0.18265986367882178,0.16847401399327136,-0.08333333333333331,-0.08333333333333331
2022-03-24,0.09508846172031472,-0.07142857142857141,-0.07142857142857141,-0.07142857142857141,0.14962187992175577,-0.07142857142857141,0.2552896583579296,-0.07142857142857141,-0.07142857142857141,-0.07142857142857141
2022-03-25,-0.06250000000000001,0.1950602897459659,-0.06250000000000001,-0.06250000000000001,-0.06250000000000001,-0.06250000000000001,-0.06250000000000001,0.3049397102540341,-0.06250000000000001,-0.06250000000000001
2022-03-28,0.0284738137410713,-0.12499999999999999,-0.12499999999999999,-0.12499999999999999,0.0787356488785531,0.01812274113036565,0.17612650817668862,0.1600669418820891,0.03847434619123216,-0.12499999999999999
2022-03-29,0.08980789273761679,-0.12329386581221899,0.07891740822238189,-0.12329386581221899,0.15830502778485075,0.07517495553789136,-0.12329386581221899,-0.12329386581221899,0.09779471571725924,-0.006824536751124002
2022-03-30,-0.08333333333333333,-0.08333333333333333,-0.08333333333333333,-0.08333333333333333,-0.08333333333333333,0.09681010098304646,-0.08333333333333333,0.2676524325622429,0.11746383174655747,0.018073634708153152
2022-03-31,-0.08333333333333334,-0.08333333333333334,0.10486834774279158,-0.08333333333333334,-0.08333333333333334,-0.08333333333333334,-0.08333333333333334,0.27310036163930973,0.10959694853590246,0.012434342081996261
2022-04-01,0.06494205777153689,0.09809022148034975,0.047790701923805065,-0.09999999999999999,0.09636606585403275,-0.09999999999999999,-0.09999999999999999,0.19281095297027562,-0.09999999999999999,-0.09999999999999999
2022-04-04,0.06626161834449397,-0.14996170325505914,0.04477600228462019,0.03238214401305391,0.0975719535910147,0.011248158069672949,-0.14996170325505914,0.24776012369714437,-0.14996170325505914,-0.05011489023482254
2022-04-05,0.20065392558758258,-0.08333333333333333,-0.08333333333333333,0.1389575669380745,-0.08333333333333333,-0.08333333333333333,-0.08333333333333333,-0.08333333333333333,0.12261393423703405,0.03777457323730883
2022-04-06,0.24268871869367034,-0.07142857142857142,-0.07142857142857142,0.17895273812325715,-0.07142857142857142,-0.07142857142857142,-0.07142857142857142,-0.07142857142857142,-0.07142857142857142,0.07835854318307255
2022-04-07,0.11126091537985748,-0.12358660082326763,-0.12358660082326763,0.07337927335413208,0.16051217633642617,0.07660589985042467,-0.12358660082326763,-0.12358660082326763,0.0782417350791596,-0.005653596706929481
2022-04-08,0.11296499131323473,-0.09999999999999999,-0.09999999999999999,0.08959606415283558,0.17483507994619907,-0.09999999999999999,-0.09999999999999999,-0.09999999999999999,0.09695347246030855,0.025650392127422008
2022-04-11,0.06339402697409878,0.11839053369992414,-0.09999999999999998,0.04227035105179463,-0.09999999999999998,-0.09999999999999998,-0.09999999999999998,0.22777897783539414,0.04816611043878829,-0.09999999999999998
2022-04-12,0.07855769182851935,0.13023442702203145,-0.08333333333333333,-0.08333333333333333,-0.08333333333333333,-0.08333333333333333,-0.08333333333333333,0.260719357318869,-0.08333333333333333,0.030488523830580292
2022-04-13,-0.08333333333333333,0.12123840794297008,-0.08333333333333333,-0.08333333333333333,-0.08333333333333333,-0.08333333333333333,-0.08333333333333333,0.26638182348830874,0.07331763222045964,0.03906213634826159
2022-04-14,-0.08333333333333334,-0.08333333333333334,-0.08333333333333334,0.06448895967381671,-0.08333333333333334,-0.08333333333333334,-0.08333333333333334,0.29501472945103197,0.07934825385187175,0.06114805702327961
2022-04-18,-0.09999999999999999,0.060003346194337885,-0.09999999999999999,0.027020496349445196,0.05940218816161691,-0.09999999999999999,0.18151699955960307,0.17205696973499693,-0.09999999999999999,-0.09999999999999999
2022-04-19,0.09782941078480835,0.12344583937824753,-0.12499999999999999,0.08007520159903019,-0.12499999999999999,0.10247359105974739,-0.12499999999999999,-0.12499999999999999,0.06287800626791779,0.033297950910248786
2022-04-20,0.07472704314640487,-0.12499999999999999,-0.12499999999999999,0.06264720131311963,-0.12499999999999999,0.09053244419657802,-0.12499999999999999,0.21786170043197187,0.04618182411187751,0.008049786800048158
2022-04-21,0.1066233345714328,-0.10000000000000003,-0.10000000000000003,0.10634926072688101,-0.10000000000000003,0.13583879639833435,-0.10000000000000003,-0.10000000000000003,0.104424736859476,0.046763871443875824
2022-04-22,-0.09999999999999999,0.09219624589980892,0.054339781839556164,-0.09999999999999999,0.14784340818450165,0.05648864344591838,-0.09999999999999999,0.149131920630215,-0.09999999999999999,-0.09999999999999999
2022-04-25,-0.16193936928486327,-0.16193936928486327,0.0469958201561196,0.03038612968463921,0.16844524938216815,0.043150715627450126,0.1812629918470678,-0.16193936928486327,0.029759093302555113,-0.014181892145410315
2022-04-26,0.09054348805982244,-0.1,-0.1,0.11596557625223246,-0.1,0.11898555009353144,-0.1,-0.1,0.10803366422198721,0.0664717213724264
2022-04-27,0.06298674015748895,-0.07142857142857142,-0.07142857142857142,-0.07142857142857142,0.25813486548254566,-0.07142857142857142,0.17887839435996536,-0.07142857142857142,-0.07142857142857142,-0.07142857142857142
2022-04-28,0.01203746275707303,-0.15600644483558304,0.04798291390450553,0.002160033778880445,0.2586837152147648,0.018771561768239443,0.16036431257653677,-0.15600644483558304,-0.15600644483558304,-0.031980665493250855
2022-04-29,-0.08333333333333333,-0.08333333333333333,0.05213538190173564,-0.08333333333333333,0.1939957695056424,-0.08333333333333333,0.12956119141801636,0.12430765717460553,-0.08333333333333333,-0.08333333333333333
2022-05-02,-0.09999999999999999,-0.09999999999999999,0.04455595670159069,0.011527373057577728,0.19104565664688203,-0.09999999999999999,0.13865529553403255,0.11421571805991697,-0.09999999999999999,-0.09999999999999999
2022-05-03,0.010095319100057095,-0.12500000000000003,0.04308828079616163,0.005100873866184624,0.1881275884072811,-0.12500000000000003,0.13951422939790395,0.11407370843241163,-0.12500000000000003,-0.12500000000000003
2022-05-04,0.048527608282863365,-0.12374151133097612,0.09082943037981964,0.044963120974026674,0.2799831319995819,0.035696708363708265,-0.12374151133097612,-0.12374151133097612,-0.12374151133097612,-0.005033954676095607
2022-05-05,0.09973329536302755,-0.125,0.14860308180723927,0.0881908189108024,-0.125,0.0832585368368176,-0.125,-0.125,0.0663426707882569,0.013871596293856333
2022-05-06,0.11434408997981531,-0.10000000000000002,0.15870427424929204,0.0985457484189566,-0.10000000000000002,0.10159105649019819,-0.10000000000000002,-0.10000000000000002,-0.10000000000000002,0.026814830861737825
2022-05-09,0.06391198445722723,-0.09975841488663131,0.09810120728698866,-0.09975841488663131,0.2902377641359654,0.047749044119818645,-0.09975841488663131,-0.09975841488663131,-0.09975841488663131,-0.0012079255668433699
2022-05-10,-0.1,-0.1,0.15599353461735455,0.11438326480525407,-0.1,0.09663861353315283,-0.1,-0.1,0.10338266961261242,0.029601917431626185
2022-05-11,-0.11771659508049565,0.11869242799306091,0.06649554844117633,0.031376210163561145,0.2532485210986017,-0.11771659508049565,-0.11771659508049565,-0.11771659508049565,0.030187292303599927,-0.029133619678017336
2022-05-12,-0.08333333333333334,0.09118639483366293,-0.08333333333333334,-0.08333333333333334,0.15352297418804536,-0.08333333333333334,0.12369001753616134,0.13160061344213034,-0.08333333333333334,-0.08333333333333334
2022-05-13,0.03258744520723455,0.11222791804709525,-0.12499999999999999,-0.12499999999999999,0.19571161211704347,0.00041109827980883554,0.1569734756612191,-0.12499999999999999,0.0020884506875987544,-0.12499999999999999
2022-05-16,0.007773047565520166,0.1018414007247908,0.008586982356619574,-0.04365559609263227,0.21668730731057342,-0.03395152533687901,0.1651112620424961,-0.19786718787439236,-0.026658502821704046,-0.19786718787439236
2022-05-17,-0.08333333333333333,-0.08333333333333333,0.17316404345279202,0.09528235437642484,-0.08333333333333333,0.115250021164954,-0.08333333333333333,-0.08333333333333333,0.11630358100582908,-0.08333333333333333
2022-05-18,-0.12500000000000003,0.15107979497124738,0.07173100748326033,0.014837878064500555,-0.12500000000000003,0.030911745663776982,0.20050332990028308,-0.12500000000000003,0.03093624391693176,-0.12500000000000003
2022-05-19,-0.10000000000000003,0.16194694058451586,-0.10000000000000003,0.027283691982516248,0.22703603925393848,0.04017760821485108,-0.10000000000000003,-0.10000000000000003,0.043555719964178195,-0.10000000000000003
2022-05-20,0.09291794344604716,-0.12500000000000003,-0.12500000000000003,0.023028910169123944,0.22157513312541438,0.02678185852750327,-0.12500000000000003,-0.12500000000000003,0.037937397114331896,0.09775875761757932
2022-05-23,0.09716392626958975,-0.12500000000000003,-0.12500000000000003,0.0362693522008255,-0.12500000000000003,0.031065491960129987,0.18716481600087176,-0.12500000000000003,0.03808600729824121,0.11025040627034183
2022-05-24,-0.125,0.11310240332394357,-0.125,0.008197473368705056,0.16841494839921317,0.004119566579024546,0.1310629800565744,-0.125,-0.125,0.07510262827253918
2022-05-25,-0.08333333333333333,0.11181818693149928,-0.08333333333333333,-0.08333333333333333,0.09053425054143519,-0.08333333333333333,0.13174518231315693,0.16590238021390857,-0.08333333333333333,-0.08333333333333333
2022-05-26,0.09111859464866648,-0.07142857142857144,-0.07142857142857144,-0.07142857142857144,-0.07142857142857144,-0.07142857142857144,0.1910230964189343,0.2178583089323993,-0.07142857142857144,-0.07142857142857144
2022-05-27,-0.07142857142857142,0.1502181081054093,0.07280238360417451,-0.07142857142857142,-0.07142857142857142,-0.07142857142857142,-0.07142857142857142,0.2769795082904161,-0.07142857142857142,-0.07142857142857142
2022-05-31,0.13398435975514875,0.18002021657364947,0.06422768130711153,0.03355372908831124,-0.125,0.04671286348597913,-0.125,-0.125,0.04150114978979993,-0.125
2022-06-01,-0.08333333333333333,0.10502774825592782,0.026767155707993578,-0.08333333333333333,-0.08333333333333333,-0.08333333333333333,0.17266811355080267,0.1955369824852759,-0.08333333333333333,-0.08333333333333333
2022-06-02,-0.12500000000000003,0.12191457448296499,0.02525739725255272,-0.12500000000000003,0.10278281959224717,0.01783454403460707,0.21916326300600594,-0.12500000000000003,0.013047401631622152,-0.12500000000000003
2022-06-03,0.14325118527254924,0.17494917473304253,0.07053726589170406,-0.09999999999999999,-0.09999999999999999,0.06204523043012264,-0.09999999999999999,-0.09999999999999999,0.049217143672581565,-0.09999999999999999
2022-06-06,0.16060075905129215,-0.09999999999999999,0.07938805735131879,-0.09999999999999999,0.16138549460340124,0.06481802041299507,-0.09999999999999999,-0.09999999999999999,0.03380766858099278,-0.09999999999999999
2022-06-07,0.09840819173735858,-0.09999999999999999,0.03550916452944612,-0.09999999999999999,0.09775052933736975,0.024864162672560395,-0.09999999999999999,0.24346795172326519,-0.09999999999999999,-0.09999999999999999
2022-06-08,-0.09999999999999999,-0.09999999999999999,0.05130248834737118,0.021308028159249398,-0.09999999999999999,0.03252017765564653,-0.09999999999999999,0.2606866172663336,-0.09999999999999999,0.13418268857139942
2022-06-09,-0.1,-0.1,0.09620426317999319,0.07668013521454752,-0.1,0.07129309973940388,-0.1,-0.1,0.07393210326622995,0.18189039859982545
2022-06-10,0.13597297110680043,-0.09999999999999999,0.07917389977111265,0.0715782059978507,-0.09999999999999999,-0.09999999999999999,-0.09999999999999999,-0.09999999999999999,0.06516345524882752,0.14811146787540877
2022-06-13,0.058494383382439126,-0.16397778221618944,0.005195141532508197,-0.16397778221618944,-0.16397778221618944,0.0034016432140013555,0.1886653665191005,0.17444665418322644,-0.008066653351431642,0.06979681116872448
2022-06-14,-0.10000000000000002,0.101540121404016,0.031843555499352874,-0.10000000000000002,-0.10000000000000002,0.028932142293053412,0.17038892641167905,0.16729525439189868,-0.10000000000000002,-0.10000000000000002
2022-06-15,-0.08333333333333333,0.21903173975978435,-0.08333333333333333,0.10519588586323049,-0.08333333333333333,0.1070520898803623,-0.08333333333333333,-0.08333333333333333,-0.08333333333333333,0.06872028449662287
2022-06-16,-0.11636632908902671,0.11700203231951053,0.030163643692245484,-0.11636632908902671,0.12514967742100616,0.025992387074339905,0.2016922594928979,-0.11636632908902671,-0.11636632908902671,-0.034534683643893054
2022-06-17,0.051262726383650176,0.09475441058959287,0.024432559295642964,-0.1,-0.1,-0.1,0.16041867030115994,0.16913163342995413,-0.1,-0.1
2022-06-21,0.07343646909252775,0.1291266232452683,0.042625599777597244,-0.11622789193027716,-0.11622789193027716,0.0345913772035376,-0.11622789193027716,0.22021993068106904,-0.11622789193027716,-0.03508843227889147
2022-06-22,0.1329713462155689,0.1923474528958613,-0.08333333333333333,-0.08333333333333333,-0.08333333333333333,0.09008657894734605,-0.08333333333333333,-0.08333333333333333,0.08459462194122368,-0.08333333333333333
2022-06-23,-0.1,0.14953719252200873,0.06027627660830134,-0.1,0.16939829534398493,0.0614588965281972,-0.1,-0.1,0.05932933899750772,-0.1
2022-06-24,-0.1234864374946407,-0.1234864374946407,0.026954765709400474,-0.0060542500214372,0.12516919768552537,-0.1234864374946407,0.1642448129114041,0.16018983917121676,0.0234413845224533,-0.1234864374946407
2022-06-27,0.14708406056743403,-0.10000000000000002,-0.10000000000000002,0.07899262821911823,-0.10000000000000002,0.14072768110958273,-0.10000000000000002,-0.10000000000000002,0.132880390931185,0.00031523917268007774
2022-06-28,0.09131904672427164,-0.11669013468599176,-0.11669013468599176,0.03161541587458281,0.20532336079827399,0.08860709668493101,-0.11669013468599176,-0.11669013468599176,0.08313507991794046,-0.03323946125603297
2022-06-29,0.06635698125065458,0.14575847790354315,-0.11419562723389197,-0.11419562723389197,0.16457468624608912,0.06403495095407821,-0.11419562723389197,-0.11419562723389197,0.05927490364563503,-0.04321749106443207
2022-06-30,0.05890468002370105,0.14519732137046887,-0.14567087002204254,0.004355875478041697,-0.14567087002204254,0.05635387686793862,-0.14567087002204254,0.1836832849115913,0.05150496134825846,-0.0629873899338725
2022-07-01,0.08365338842313647,0.1591300587394087,0.08799528799613389,-0.08333333333333333,0.169221264841321,-0.08333333333333333,-0.08333333333333333,-0.08333333333333333,-0.08333333333333333,-0.08333333333333333
2022-07-05,-0.08333333333333333,0.13392222984593885,0.07789201657638355,-0.08333333333333333,0.1494284961459908,-0.08333333333333333,0.13875725743168685,-0.08333333333333333,-0.08333333333333333,-0.08333333333333333
2022-07-06,0.07818744189263445,-0.08333333333333334,0.09519032123227245,-0.08333333333333334,-0.08333333333333334,-0.08333333333333334,0.16553402117993973,0.1610882156951533,-0.08333333333333334,-0.08333333333333334
2022-07-07,0.07581869194844752,-0.08333333333333334,0.09517822082126769,-0.08333333333333334,-0.08333333333333334,-0.08333333333333334,0.1635775997229655,0.16542548750731917,-0.08333333333333334,-0.08333333333333334
2022-07-08,0.12360694930640993,-0.09684129703255187,0.1603091626499948,-0.09684129703255187,-0.09684129703255187,0.11298857231704605,-0.09684129703255187,-0.09684129703255187,0.10309531572654923,-0.015793514837240605
2022-07-11,0.10607162603199115,-0.09784093172716116,-0.09784093172716116,0.0545087593660694,0.250799506946279,-0.09784093172716116,-0.09784093172716116,-0.09784093172716116,0.08862010765566042,-0.010795341364194319
2022-07-12,0.014475657448932132,-0.1383581323925631,-0.1383581323925631,-0.024523617667904868,0.13817332659707415,-0.1383581323925631,0.14537384783127572,0.19266680233010944,0.009310365792608686,-0.060401985154405785
2022-07-13,0.026261825007553898,0.11642619451151902,-0.11503272682698824,-0.11503272682698824,-0.11503272682698824,-0.11503272682698824,0.14960297170581838,0.18795486750047313,0.019754141274635616,-0.03986909269204704
2022-07-14,0.09188513870951914,-0.1,-0.1,0.062486096027408886,-0.1,-0.1,0.24331594164736683,-0.1,0.08908716528904302,0.013225658326662169
2022-07-15,-0.08333333333333333,0.1394819606392017,-0.08333333333333333,0.03779716278062948,0.15335198184503948,-0.08333333333333333,0.16936889473512934,-0.08333333333333333,-0.08333333333333333,-0.08333333333333333
2022-07-18,-0.07142857142857142,0.14853618698363963,-0.07142857142857142,-0.07142857142857142,0.16978383317287782,-0.07142857142857142,0.18167997984348253,-0.07142857142857142,-0.07142857142857142,-0.07142857142857142
2022-07-19,-0.07142857142857142,0.14404375446398907,-0.07142857142857142,-0.07142857142857142,0.17298846686722869,-0.07142857142857142,0.18296777866878222,-0.07142857142857142,-0.07142857142857142,-0.07142857142857142
2022-07-20,-0.07142857142857142,0.14192038614908148,-0.07142857142857142,-0.07142857142857142,-0.07142857142857142,-0.07142857142857142,0.183370365465628,0.17470924838529056,-0.07142857142857142,-0.07142857142857142
2022-07-21,0.03240294644389888,0.16316839710224654,-0.15333734946700148,0.010917827914276118,-0.15333734946700148,0.05323694085616586,-0.15333734946700148,0.22909829392234232,0.011175593761070168,-0.039987951598995604
2022-07-22,0.1680547735762883,-0.08333333333333333,-0.08333333333333333,0.13300785231623477,-0.08333333333333333,-0.08333333333333333,-0.08333333333333333,-0.08333333333333333,0.1296722274119507,0.06926514669552622
2022-07-25,0.04674293315465872,-0.12499999999999999,0.13275477625266383,0.01657223397732327,-0.12499999999999999,0.056547265111368296,0.23211248049552233,-0.12499999999999999,0.015270311008463665,-0.12499999999999999
2022-07-26,-0.125,0.09109401966568607,0.086360251758666,-0.125,-0.125,0.016131828353816775,0.14607747152309428,0.14237248504344902,-0.125,0.017963943655287844
2022-07-27,-0.12499999999999997,0.08572260765535787,0.08956909332301216,-0.12499999999999997,-0.12499999999999997,0.03204253674362729,0.12578722616349336,0.13144373195395043,-0.12499999999999997,0.03543480416055888
2022-07-28,0.0047702868820111806,0.13416803611900036,0.10700774102811328,-0.12500000000000003,-0.12500000000000003,0.05092409784976703,-0.12500000000000003,0.15069715907462528,-0.12500000000000003,0.052432679046483015
2022-07-29,-0.08333333333333334,-0.08333333333333334,0.12412111623485758,-0.08333333333333334,-0.08333333333333334,-0.08333333333333334,0.12929472002371814,0.16836365763883254,-0.08333333333333334,0.07822050610259176
2022-08-01,-0.07142857142857144,-0.07142857142857144,-0.07142857142857144,-0.07142857142857144,0.19111051343878876,-0.07142857142857144,0.18476786486860577,-0.07142857142857144,-0.07142857142857144,0.12412162169260547
2022-08-02,-0.002980537754008957,0.10512781714294685,0.07052606475394495,-0.12425486556149778,0.09655057092441868,-0.12425486556149778,0.08853110199889137,0.13926444517979822,-0.12425486556149778,-0.12425486556149778
2022-08-03,-0.004206136658989758,0.13534239351845243,0.07950706581307845,-0.1536178258243369,0.12787727610164082,0.046296198094525454,0.11097706647230272,-0.1536178258243369,-0.034940385867999725,-0.1536178258243369
2022-08-04,0.013365663450128651,0.17222323112130064,0.09994439539740438,-0.009674970442583667,-0.15723764962537853,0.06983761752139968,0.1446290925097666,-0.15723764962537853,-0.018612080681280636,-0.15723764962537853
2022-08-05,0.01726403431315139,-0.1595550141213759,0.1093852231573109,-0.007293072420946953,0.1644464187821134,0.07870579577597338,-0.1595550141213759,-0.1595550141213759,-0.01404188521492541,0.1301985279714507
2022-08-08,0.05563403246788854,-0.09999999999999999,-0.09999999999999999,0.031813621795763275,0.1744598972574601,0.08781547270788335,-0.09999999999999999,-0.09999999999999999,-0.09999999999999999,0.15027697577100463
2022-08-09,0.023685464130660326,0.14247252540410948,-0.12500000000000003,0.007433136966692232,0.14282711903180265,0.03177475693393606,0.15180699753279914,-0.12500000000000003,-0.12500000000000003,-0.12500000000000003
2022-08-10,0.02048327946958408,-0.12384671645876999,0.07671237490284938,-0.004613134164920178,0.14127123487057278,-0.12384671645876999,0.14926070257889695,-0.12384671645876999,-0.12384671645876999,0.11227240817809664
2022-08-11,0.027753679503115122,-0.09930270697956586,-0.09930270697956586,-0.0034864651021707326,-0.09930270697956586,-0.09930270697956586,0.15419361871519016,0.20135440425580547,-0.09930270697956586,0.11669829752588927
2022-08-12,-0.06249999999999999,-0.06249999999999999,-0.06249999999999999,-0.06249999999999999,-0.06249999999999999,-0.06249999999999999,0.21972798340541685,0.2802720165945831,-0.06249999999999999,-0.06249999999999999
2022-08-15,-0.07142857142857144,-0.07142857142857144,-0.07142857142857144,0.08535039051531934,-0.07142857142857144,-0.07142857142857144,-0.07142857142857144,-0.07142857142857144,0.10723772199693857,0.307411887487742
2022-08-16,0.06648562812030162,-0.1,-0.1,0.03754090611572239,-0.1,0.11153471517573829,-0.1,-0.1,0.05023531507801009,0.23420343551022757
2022-08-17,0.03605124828004828,-0.10000000000000002,-0.10000000000000002,-0.10000000000000002,-0.10000000000000002,0.07641271497280636,0.18712781763771968,-0.10000000000000002,0.021214322851307057,0.17919389625811866
2022-08-18,0.05261159007038344,-0.1,0.1115359697122067,-0.1,-0.1,0.09620725280485427,-0.1,-0.1,0.032090213867243395,0.2075549735453121
2022-08-19,0.02838166466680931,-0.125,-0.125,0.02105065973720735,-0.125,0.06664413612190022,-0.125,0.21419547008513407,0.002452059554378408,0.1672760098345706
2022-08-22,-0.07142857142857142,-0.07142857142857142,0.13711449548234633,0.08221257792766037,-0.07142857142857142,-0.07142857142857142,-0.07142857142857142,0.2806729265899932,-0.07142857142857142,-0.07142857142857142
2022-08-23,-0.07142857142857142,-0.07142857142857142,-0.07142857142857142,-0.07142857142857142,0.1213362825962275,-0.07142857142857142,0.17630026897352055,0.20236344843025197,-0.07142857142857142,-0.07142857142857142
2022-08-24,-0.09999999999999998,0.14518046788199215,0.03873140557369451,0.036106762688285714,0.11729441129155052,-0.09999999999999998,0.16268695256447713,-0.09999999999999998,-0.09999999999999998,-0.09999999999999998
2022-08-25,-0.08333333333333331,-0.08333333333333331,-0.08333333333333331,0.08990074895929659,0.19201366012463653,-0.08333333333333331,-0.08333333333333331,-0.08333333333333331,0.06961365236839687,0.14847193854766993
2022-08-26,-0.16666666666666669,0.0995978234571739,0.04778631758921354,0.04232174293986586,-0.16666666666666669,0.041742896123534046,-0.16666666666666669,0.17459186157204257,0.015994697523798864,0.07796466079437112
2022-08-29,-0.1,0.13946746550082814,0.09326245882011823,0.08412225371335419,-0.1,-0.1,-0.1,-0.1,0.06324437516841151,0.11990344679728793
2022-08-30,-0.09999999999999999,-0.09999999999999999,0.07347582253251124,0.08033104215708466,0.1583968751297575,0.07696809631880429,-0.09999999999999999,-0.09999999999999999,-0.09999999999999999,0.11082816386184233
2022-08-31,0.03451204890870668,0.06292634551486957,0.010640225965746765,0.032617174670552904,0.1253282281847457,-0.24703846302376842,-0.24703846302376842,0.1883369488629107,-0.005923073952463138,0.04563902789246754
2022-09-01,0.09232423151241516,0.1182673914535206,0.0734423709687032,0.08254862454000726,-0.12500000000000003,-0.12500000000000003,-0.12500000000000003,-0.12500000000000003,0.04703126940662622,0.08638611211872756
2022-09-02,-0.09999999999999999,0.11674624038640835,-0.09999999999999999,0.08290566505040237,-0.09999999999999999,-0.09999999999999999,-0.09999999999999999,0.16249882566131452,0.0484778926456555,0.08937137625621937
2022-09-06,-0.12499999999999997,0.1005219625793337,0.07069310210629463,0.06698111497919515,-0.12499999999999997,-0.12499999999999997,-0.12499999999999997,0.15917133575056183,0.03010622990019168,0.07252625468442302
2022-09-07,-0.09999999999999999,0.055231943438187305,-0.09999999999999999,0.0449150941400086,0.07582966023835765,-0.09999999999999999,0.20507050244802422,0.1189527997354223,-0.09999999999999999,-0.09999999999999999
2022-09-08,-0.08333333333333334,0.06916199875858103,-0.08333333333333334,-0.08333333333333334,0.0993892125566347,-0.08333333333333334,0.20630206785825478,0.1251467208265294,-0.08333333333333334,-0.08333333333333334
2022-09-09,0.08036221614380468,0.10995717901470715,-0.08333333333333331,-0.08333333333333331,0.14023347926927152,-0.08333333333333331,-0.08333333333333331,0.16944712557221664,-0.08333333333333331,-0.08333333333333331
2022-09-12,0.09356084372577736,-0.10000000000000002,-0.10000000000000002,0.09176982253618847,-0.10000000000000002,-0.10000000000000002,-0.10000000000000002,0.17496895382670502,0.06756377567163394,0.07213660423969517
2022-09-13,-0.1,0.14108096780659946,-0.1,0.08851227326143601,-0.1,-0.1,-0.1,0.18067660305753913,0.05435532277932109,0.03537483309510436
2022-09-14,-0.07142857142857144,0.1684539847172593,-0.07142857142857144,0.11760440634634542,-0.07142857142857144,-0.07142857142857144,-0.07142857142857144,0.2139416089363953,-0.07142857142857144,-0.07142857142857144
2022-09-15,-0.08333333333333334,-0.08333333333333334,0.06902427562678179,0.06545048684898899,-0.08333333333333334,-0.08333333333333334,0.2255612047108252,0.13996403281340397,-0.08333333333333334,-0.08333333333333334
2022-09-16,0.07526903606893545,-0.08333333333333334,-0.08333333333333334,-0.08333333333333334,-0.08333333333333334,-0.08333333333333334,0.25153177456798465,0.14439718479819508,-0.08333333333333334,0.028802004564884773
2022-09-19,0.1033454302249379,-0.07142857142857142,-0.07142857142857142,-0.07142857142857142,-0.07142857142857142,-0.07142857142857142,0.24902727940155864,0.1476272903735035,-0.07142857142857142,-0.07142857142857142
2022-09-20,0.11425481517579326,-0.08333333333333333,-0.08333333333333333,-0.08333333333333333,-0.08333333333333333,0.07665520050688548,0.2799367029857932,-0.08333333333333333,-0.08333333333333333,0.029153281331527968
2022-09-21,0.11869535638700383,-0.1,0.08588201522824192,-0.1,0.19567045262689317,0.07392488480321437,-0.1,-0.1,-0.1,0.025827290954646795
2022-09-22,0.11594586141709888,-0.09999999999999999,0.07496788412500725,-0.09999999999999999,0.17572655035442966,0.071031249804972,-0.09999999999999999,-0.09999999999999999,0.0623284542984922,-0.09999999999999999
2022-09-23,0.07549959503974446,0.09134382308350485,0.028543811394913132,-0.16157639363040177,-0.16157639363040177,0.024494881899975146,0.26207464283302995,-0.16157639363040177,0.018043245748832596,-0.015270819108794614
2022-09-26,0.10597239250485183,0.12448485127674673,-0.08333333333333333,-0.08333333333333333,-0.08333333333333333,-0.08333333333333333,-0.08333333333333333,0.22956374282316588,-0.08333333333333333,0.03997901339523552
2022-09-27,-0.12125271531468987,0.061108131459606814,0.011828941684578546,-0.12125271531468987,0.11371781653125977,-0.12125271531468987,0.16346791647671566,0.1498771938478391,-0.12125271531468987,-0.014989138741240613
2022-09-28,-0.16594734591525934,0.10798318690629752,0.0382325497691745,0.0869326576976793,0.19558434290495538,0.03127256289509687,-0.16594734591525934,-0.16594734591525934,0.039994699826796466,-0.0021579622542219506
2022-09-29,-0.16317554819482186,0.07991381645094413,-0.16317554819482186,0.06154824538202007,0.1560141968992799,0.012414999596978726,0.17228252579311173,-0.16317554819482186,0.017826215877665592,-0.010473355415534492
2022-09-30,0.06581160783320908,0.06054153801895405,-0.002579139688710682,0.04130645888248359,0.15730471432138848,-0.01779019678533092,0.1750356809439649,-0.2335999646495334,-0.012430734226891647,-0.2335999646495334
2022-10-03,0.08762174283252612,0.09145361758338959,0.04256753860063916,0.08499037373210502,-0.12499999999999997,0.03966817857118494,0.15369854868015512,-0.12499999999999997,-0.12499999999999997,-0.12499999999999997
2022-10-04,0.08603666828152953,0.08914019511490348,0.028409632797965566,0.08088306276479905,-0.1666666666666667,0.030719883072915954,0.1666015546075456,-0.1666666666666667,0.018209003360340637,-0.1666666666666667
2022-10-05,0.08192126739834207,0.07959343122990258,0.02570130898767941,-0.16666666666666669,0.11610850889806301,0.024592677734938933,0.15676449943220547,-0.16666666666666669,0.01531830631886845,-0.16666666666666669
2022-10-06,0.1373983721648216,-0.12500000000000003,0.0673597229419829,0.0977706469878144,0.13007741453729418,-0.12500000000000003,-0.12500000000000003,-0.12500000000000003,0.043629594991431354,0.023764248376655462
2022-10-07,0.12698122799113304,-0.12499999999999999,0.07331094105946938,0.10641827571490105,0.12363869968328217,-0.12499999999999999,-0.12499999999999999,-0.12499999999999999,0.0418657308059508,0.027785124745263658
2022-10-10,0.23277910961421186,-0.07142857142857141,0.13698016193252907,-0.07142857142857141,-0.07142857142857141,-0.07142857142857141,-0.07142857142857141,-0.07142857142857141,-0.07142857142857141,0.13024072845325899
2022-10-11,-0.09999999999999999,0.11064992641303571,0.04307954444788024,0.10703028342040981,-0.09999999999999999,-0.09999999999999999,0.19481658475133468,-0.09999999999999999,-0.09999999999999999,0.04442366096733952
2022-10-12,0.06639717072208627,-0.125,-0.125,0.09436235426851886,-0.125,0.04920863669810401,0.13894621978190977,0.14057998124794696,0.010505637281434126,-0.125
2022-10-13,0.07313473945356902,-0.12500000000000003,-0.12500000000000003,0.14429568154426825,0.03844379652194868,0.06539831166741639,0.1497152759148433,-0.12500000000000003,0.02901219489795445,-0.12500000000000003
2022-10-14,-0.07142857142857142,-0.07142857142857142,-0.07142857142857142,0.23718852413526928,0.11998750913200731,0.14282396673272343,-0.07142857142857142,-0.07142857142857142,-0.07142857142857142,-0.07142857142857142
2022-10-17,-0.08333333333333333,0.08596050489244628,-0.08333333333333333,0.14445166095937845,-0.08333333333333333,-0.08333333333333333,0.1356931511184615,0.13389468302971372,-0.08333333333333333,-0.08333333333333333
2022-10-18,0.20755712444633467,-0.07142857142857142,-0.07142857142857142,-0.07142857142857142,-0.07142857142857142,-0.07142857142857142,-0.07142857142857142,-0.07142857142857142,0.16227660048113235,0.13016627507253292
2022-10-19,0.08664997226298611,0.10896191549209892,0.039749600184649875,-0.12499999999999999,-0.12499999999999999,-0.12499999999999999,0.19159991766400933,-0.12499999999999999,0.04438890967055279,0.028649684725703096
2022-10-20,0.04124414848303661,0.061031798504373604,-0.125,0.11576490200905788,-0.125,0.05685272780973877,0.11231488016446156,0.11279154302933164,-0.125,-0.125
2022-10-21,0.06167105856442039,0.07850418460557781,0.021564315580935585,0.12911756518917722,-0.12499999999999997,0.07991993763560297,0.12922293842428606,-0.12499999999999997,-0.12499999999999997,-0.12499999999999997
2022-10-24,-0.07142857142857142,-0.07142857142857142,-0.07142857142857142,-0.07142857142857142,0.11594241072534349,-0.07142857142857142,0.1837284127970048,0.20032917647765172,-0.07142857142857142,-0.07142857142857142
2022-10-25,-0.09999999999999999,-0.09999999999999999,-0.09999999999999999,0.12741499789609295,-0.09999999999999999,-0.09999999999999999,0.14257315044053132,0.18041530922258245,0.03592594189916816,0.01367060054162512
2022-10-26,-0.12299511104976092,-0.12299511104976092,-0.12299511104976092,0.10661575201472193,-0.12299511104976092,0.09169711109756302,0.12135338935587334,0.16059691261693462,0.019736834914907183,-0.008019555800956273
2022-10-27,0.024862499972225612,-0.15187332915398521,0.04101490801626194,-0.15187332915398521,0.26317239672174497,0.07166917100745575,0.09928102428231175,-0.15187332915398521,-0.002843659701096672,-0.04153635283694768
2022-10-28,0.058256965526437464,0.1378056752548112,0.07227959291761445,-0.12221710776204577,-0.12221710776204577,0.10352897866158303,0.12812878763955385,-0.12221710776204577,-0.12221710776204577,-0.011131568951816991
2022-10-31,0.06011559905744841,-0.12273808367895414,-0.12273808367895414,0.11473788054402848,-0.12273808367895414,-0.12273808367895414,0.13354037498615048,0.15501610236059338,0.036590043051779285,-0.009047665284183331
2022-11-01,-0.09877764895987534,-0.09877764895987534,-0.09877764895987534,0.09030453994984843,0.25622493139250246,-0.09877764895987534,0.11212482281409536,-0.09877764895987534,0.04134570584355374,-0.006111755200623415
2022-11-02,-0.08333333333333333,-0.08333333333333333,-0.08333333333333333,0.12952153662234303,-0.08333333333333333,-0.08333333333333333,0.15995276588107157,0.1919244098000685,-0.08333333333333333,0.01860128769651686
2022-11-03,-0.07142857142857144,-0.07142857142857144,-0.07142857142857144,0.20876859965676256,-0.07142857142857144,-0.07142857142857144,0.24708489021829558,-0.07142857142857144,-0.07142857142857144,0.04414651012494178
2022-11-04,-0.125,-0.125,0.0873627967717116,0.04054380479568988,0.2320444952221754,0.06809036141343319,0.046651661030735606,-0.125,0.02530688076625433,-0.125
2022-11-07,0.052894474368060995,-0.14207148092010224,0.09001062163329492,-0.14207148092010224,0.2455508127977425,0.06567364102330428,0.031193648777307955,-0.14207148092010224,0.01467680140028947,-0.07378555723969321
2022-11-08,-0.09462188091962587,-0.09462188091962587,0.10942229477273602,0.047907082908984225,0.2535905609946213,0.0890800613236584,-0.09462188091962587,-0.09462188091962587,-0.09462188091962587,-0.02689059540187071
2022-11-09,0.03794497774409289,0.10320679837209697,0.06340124879869549,-0.125,0.19402119230847772,0.04365010444472282,0.05777567833191406,-0.125,-0.125,-0.125
2022-11-10,0.05374245043673216,0.1221852417748384,-0.10000000000000002,-0.10000000000000002,0.19092101666924713,0.05373170438376483,0.07941958673541745,-0.10000000000000002,-0.10000000000000002,-0.10000000000000002
2022-11-11,0.051819998601433534,-0.1,0.07295325164537905,-0.1,0.18961778955803654,-0.1,0.0751877246067626,0.11042123558838826,-0.1,-0.1
2022-11-14,-0.09624093319875678,-0.09624093319875678,0.11008514542400687,-0.09624093319875678,0.24907087774440997,-0.09624093319875678,0.10968565276600786,-0.09624093319875678,0.031158324065575234,-0.018795334006216056
2022-11-15,-0.1,-0.1,0.20393926105363455,0.028072571460707855,-0.1,0.16409582388017807,-0.1,-0.1,0.08655241393048418,0.01733992967499532
2022-11-16,0.1368460370223346,-0.12205494108157419,0.1717342485388511,-0.002756886509634276,-0.12205494108157419,0.13318055589906028,-0.12205494108157419,-0.12205494108157419,0.058239158539753914,-0.009023349164069005
2022-11-17,0.09470668460057428,-0.112849839594545,-0.112849839594545,-0.026262004279845628,0.28498436303191466,0.08967464218254509,-0.112849839594545,-0.112849839594545,0.03063431018496598,-0.02233863734197447
2022-11-18,0.22288592961358317,-0.08333333333333334,-0.08333333333333334,0.026628143521969207,-0.08333333333333334,0.20724248856147418,-0.08333333333333334,-0.08333333333333334,-0.08333333333333334,0.04324343830297351
2022-11-21,-0.08333333333333333,-0.08333333333333333,-0.08333333333333333,0.016860327284031997,-0.08333333333333333,0.1781780763436884,0.2753567305621132,-0.08333333333333333,-0.08333333333333333,0.029604865810166463
2022-11-22,-0.0625,-0.0625,-0.0625,-0.0625,-0.0625,-0.0625,0.25281452006894584,0.24718547993105422,-0.0625,-0.0625
2022-11-23,-0.08306669120430414,-0.08306669120430414,-0.08306669120430414,-0.0015998527741751397,-0.08306669120430414,-0.08306669120430414,0.21948441418668338,0.22422572891631,0.05628985689700667,-0.08306669120430414
2022-11-25,-0.08333333333333333,0.2082493305319392,-0.08333333333333333,-0.08333333333333333,-0.08333333333333333,-0.08333333333333333,-0.08333333333333333,0.2292649039080196,0.053431222072184106,0.009054543487857138
2022-11-28,-0.08333333333333333,-0.08333333333333333,-0.08333333333333333,0.015674855108461845,0.1966010423506929,-0.08333333333333333,-0.08333333333333333,0.2684826022234475,-0.08333333333333333,0.01924150031739774
2022-11-29,-0.09999999999999998,-0.09999999999999998,0.07299583954513261,-0.09999999999999998,0.09075463375667611,0.05471130024559647,0.13995091763625875,0.1415873088163361,-0.09999999999999998,-0.09999999999999998
2022-11-30,-0.1,-0.1,0.05661053714272434,-0.1,0.10009248829414673,0.04840194685988378,0.14548135674418192,0.14941367095906322,-0.1,-0.1
2022-12-01,0.12496116182963964,-0.09999999999999998,-0.09999999999999998,-0.09999999999999998,0.20712757143551408,0.10999414955635518,-0.09999999999999998,-0.09999999999999998,0.049438126530036416,0.008478990648454716
2022-12-02,0.06071355493372855,-0.11760872428523449,0.052303712152267756,-0.11760872428523449,0.13137099300505892,0.05373370733922518,0.20187803256971956,-0.11760872428523449,-0.11760872428523449,-0.029565102859062026
2022-12-05,0.14198819855968733,-0.12499999999999999,0.13044927892268413,0.018157206498780522,-0.12499999999999999,0.12907731210771406,-0.12499999999999999,-0.12499999999999999,0.06837770192670337,0.011950301984430634
2022-12-06,-0.1193773038170979,0.14255266961725946,-0.1193773038170979,-0.009199482344886333,-0.1193773038170979,0.07725887606269156,0.2498038778389109,-0.1193773038170979,0.030384576481137994,-0.013291302386722149
2022-12-07,-0.08333333333333333,0.12082051607349674,-0.08333333333333333,0.005447364347563735,0.16642703260528283,-0.08333333333333333,0.20730508697365677,-0.08333333333333333,-0.08333333333333333,-0.08333333333333333
2022-12-08,-0.07142857142857142,-0.07142857142857142,-0.07142857142857142,-0.07142857142857142,-0.07142857142857142,0.0758626372892541,0.22055442680132678,0.20358293590941903,-0.07142857142857142,-0.07142857142857142
2022-12-09,0.06734763795803916,0.08273116585510747,-0.12355268955324304,-0.005789241787027779,-0.12355268955324304,0.06621829133922749,0.24104752580709835,-0.12355268955324304,0.042655379040527366,-0.12355268955324304
2022-12-12,0.03045058806474233,0.0531778884190328,0.06281389263052824,-0.12499999999999999,0.14084673721485452,0.035180251448202575,0.1775306422226397,-0.12499999999999999,-0.12499999999999999,-0.12499999999999999
2022-12-13,-0.12163646529140804,-0.12163646529140804,0.12093675089787835,0.011725710097816377,0.2152162260465267,0.09293161077108646,-0.12163646529140804,-0.12163646529140804,0.059189702186692075,-0.013454138834367805
2022-12-14,-0.11624453299499835,-0.11624453299499835,-0.11624453299499835,-0.0024216983299250416,0.1558337863174708,0.06373241047952968,-0.11624453299499835,0.2457712817995519,0.03466252140344766,-0.032600169690081525
2022-12-15,-0.11748729703187574,0.06921130038894482,-0.11748729703187574,-0.0013733377427137448,0.151742122687074,-0.11748729703187574,-0.11748729703187574,0.2440096271941378,0.03503694972984337,-0.028677474129783345
2022-12-16,-0.08333333333333333,-0.08333333333333333,0.23205993360512162,0.08676694347733381,-0.08333333333333333,-0.08333333333333333,-0.08333333333333333,-0.08333333333333333,0.14330270795474467,0.03787041496280001
2022-12-19,-0.11870839964830242,-0.11870839964830242,0.12356981160144821,0.014402748938531799,0.2005677103557207,0.11268674713202519,-0.11870839964830242,-0.11870839964830242,0.04877298197227411,-0.0251664014067903
2022-12-20,0.05201396544230245,0.04034333888069799,0.05768052628379158,-0.14521972553325396,0.12866353458643692,0.047041261992114745,0.1742573728146563,-0.14521972553325396,-0.14521972553325396,-0.06434082340023807
2022-12-21,0.09257051707460551,-0.14629265623137375,0.09852100798447073,-0.014695991971741169,0.19286514065777038,0.09214135267004554,-0.14629265623137375,-0.14629265623137375,0.02390198161310785,-0.046426039334137546
2022-12-22,-0.14562627557660188,0.0839560405458932,0.10313640730420583,-0.016439777597063856,0.19588679679811472,0.09469503087849372,-0.14562627557660188,-0.14562627557660188,0.02232572447329248,-0.046681395673130434
2022-12-23,0.07894351969409803,0.06755757571643535,0.08855946482202133,-0.04399576086784305,0.18757797317718622,0.07644588909699448,-0.18824934020393885,-0.18824934020393885,0.0009155774932645005,-0.07950555872427938
2022-12-27,-0.1,-0.1,-0.1,0.03367788113962109,0.24867741868837137,0.1422029051731997,-0.1,-0.1,0.07228324198619762,0.0031585530126102025
2022-12-28,-0.07142857142857144,-0.07142857142857144,-0.07142857142857144,-0.07142857142857144,0.1109564282959083,-0.07142857142857144,0.17254016194387797,0.21650340976021376,-0.07142857142857144,-0.07142857142857144
2022-12-29,-0.08333333333333333,-0.08333333333333333,0.05631463908694897,-0.08333333333333333,0.11891903554335272,0.053136774496334895,-0.08333333333333333,0.2716295508733634,-0.08333333333333333,-0.08333333333333333
2022-12-30,-0.15674868265357658,0.13435335050162187,0.09123853969765232,-0.002592038558504458,0.1953556214199687,0.0722619741118129,-0.15674868265357658,-0.15674868265357658,0.00679051426894416,-0.027161913480765874
2023-01-03,-0.11851783360421095,0.09648809962777824,-0.11851783360421095,-0.008107212955476947,0.14721783975439848,-0.11851783360421095,0.24691267419573962,-0.11851783360421095,0.009381386422083653,-0.01782145262767923
2023-01-04,-0.09913318597141828,-0.09913318597141828,-0.09913318597141828,0.0014934414759011074,0.12983678698337142,-0.09913318597141828,-0.09913318597141828,0.35429975680676223,0.014370014733965316,-0.0043340701429086205
2023-01-05,0.03337864564400626,-0.12661654275286982,-0.12661654275286982,-0.04476271014695522,0.044159734439345344,-0.12661654275286982,0.16479011036005253,0.257671509556596,-0.034471945426442704,-0.04091571616799263
2023-01-06,-0.07142857142857141,0.06584054248767555,-0.07142857142857141,-0.07142857142857141,-0.07142857142857141,-0.07142857142857141,0.1460724655205008,0.28808699199182364,-0.07142857142857141,-0.07142857142857141
2023-01-09,-0.08333333333333333,0.10928071333789963,-0.08333333333333333,-0.08333333333333333,0.09251100558168189,0.08720933130790427,0.21099894977251427,-0.08333333333333333,-0.08333333333333333,-0.08333333333333333
2023-01-10,-0.08333333333333333,0.16659115351976284,0.11613936061316084,-0.08333333333333333,0.11286956402051083,0.10439992184656548,-0.08333333333333333,-0.08333333333333333,-0.08333333333333333,-0.08333333333333333
2023-01-11,-0.08333333333333333,0.14021125832029338,-0.08333333333333333,-0.08333333333333333,0.08886183678933929,0.07789309369616063,0.19303381119420676,-0.08333333333333333,-0.08333333333333333,-0.08333333333333333
2023-01-12,-0.08333333333333334,-0.08333333333333334,-0.08333333333333334,0.003238896873712746,0.12391682006612505,0.11494161380443176,0.2579026692557304,-0.08333333333333334,-0.08333333333333334,-0.08333333333333334
2023-01-13,-0.06958339499713967,-0.06958339499713967,-0.06958339499713967,-0.012916235020022409,-0.06958339499713967,-0.06958339499713967,0.17052372865710955,0.32947627134289054,-0.06958339499713967,-0.06958339499713967
2023-01-17,0.02541374258610272,-0.08333333333333336,-0.08333333333333336,-0.08333333333333336,-0.08333333333333336,0.03481562351805404,0.14201342777554438,0.2977572061202989,-0.08333333333333336,-0.08333333333333336
2023-01-18,0.1466522717682533,-0.08333333333333333,0.1632607302746328,-0.08333333333333333,0.16350269718221275,-0.08333333333333333,-0.08333333333333333,-0.08333333333333333,0.02658430077490106,-0.08333333333333333
2023-01-19,-0.08333333333333331,-0.08333333333333331,0.048932044583946475,-0.08333333333333331,0.029401565737951284,-0.08333333333333331,0.14143448609536147,0.28023190358274075,-0.08333333333333331,-0.08333333333333331
2023-01-20,-0.07142857142857141,-0.07142857142857141,-0.07142857142857141,-0.07142857142857141,0.035604852941615285,-0.07142857142857141,0.17269997279301094,0.2916951742653738,-0.07142857142857141,-0.07142857142857141
2023-01-23,0.020448686940385225,-0.0968666428584889,-0.0968666428584889,-0.015666785707555562,0.02041554970256756,-0.0968666428584889,0.1693403077743009,0.2897954555827463,-0.0968666428584889,-0.0968666428584889
2023-01-24,0.011464968095819426,0.06288917343175976,-0.10687095050130721,-0.02173988615007711,-0.10687095050130721,-0.10687095050130721,0.15335801568549767,0.2722878427869231,-0.05077631184469407,-0.10687095050130721
2023-01-25,-0.1,0.07572769387633739,-0.1,-0.1,0.020222934795758884,0.04358582720592844,0.1252104792286451,0.2352530648933302,-0.1,-0.1
2023-01-26,-0.07142857142857142,0.1218749418981563,-0.07142857142857142,-0.07142857142857142,0.05944244227895279,-0.07142857142857142,-0.07142857142857142,0.3186826158228908,-0.07142857142857142,-0.07142857142857142
2023-01-27,0.042644726577032506,0.12779185013186417,-0.08133288487000827,-0.08133288487000827,-0.08133288487000827,-0.08133288487000827,-0.08133288487000827,0.3295634232911032,-0.01200269077995041,-0.08133288487000827
2023-01-30,-0.09999999999999999,0.16610428780824416,0.13361018805844704,0.03535041242329647,-0.09999999999999999,0.13136436817176447,-0.09999999999999999,-0.09999999999999999,-0.09999999999999999,0.03357074353824793
2023-01-31,-0.07142857142857142,0.10279342806665377,-0.07142857142857142,-0.07142857142857142,-0.07142857142857142,-0.07142857142857142,0.15033674583013684,0.24686982610320946,-0.07142857142857142,-0.07142857142857142
2023-02-01,-0.1,0.060761634713667745,0.04376082822261934,-0.1,0.15505988143851746,-0.1,0.08786354584632407,0.1525541097788715,-0.1,-0.1
2023-02-02,-0.029943836940658476,-0.11114940407362787,-0.11114940407362787,-0.025458546764830076,0.18848934236701587,0.02018463445770399,0.10358025865441747,0.18774576452086264,-0.11114940407362787,-0.11114940407362787
2023-02-03,0.0052179781848735035,-0.08333333333333331,-0.08333333333333331,0.012286253970823993,0.2428208923606703,-0.08333333333333331,-0.08333333333333331,0.2396748754836322,-0.08333333333333331,-0.08333333333333331
2023-02-06,-0.09999999999999999,-0.09999999999999999,0.07770165569603558,0.0004174623069456981,0.232176333933471,0.04968775855021637,0.14001678951333132,-0.09999999999999999,-0.09999999999999999,-0.09999999999999999
2023-02-07,-0.007984349491143026,-0.11462066158566826,-0.11462066158566826,0.007235427952407644,-0.11462066158566826,0.06814755795356889,0.17804760971725683,0.24656940437676664,-0.033533004166183884,-0.11462066158566826
2023-02-08,-0.09663871043303524,-0.09663871043303524,-0.09663871043303524,0.028457605468977746,-0.09663871043303524,-0.09663871043303524,0.1991488966893009,0.2579216295404805,-0.016806447834823834,0.014471868301240915
2023-02-09,0.14842285417137896,-0.08333333333333333,-0.08333333333333333,0.14801123228561358,-0.08333333333333333,-0.08333333333333333,-0.08333333333333333,-0.08333333333333333,0.07705398453717775,0.12651192900582964
2023-02-10,-0.0010573129480639096,0.1310583183589548,-0.12176023972918255,-0.0027682349409228453,0.29596941624466877,0.07297226539637643,-0.12176023972918255,-0.12176023972918255,-0.12176023972918255,-0.00913349319428299
2023-02-13,-0.06249999999999999,-0.06249999999999999,-0.06249999999999999,-0.06249999999999999,-0.06249999999999999,-0.06249999999999999,0.2270841231454268,0.27291587685457314,-0.06249999999999999,-0.06249999999999999
2023-02-14,-0.08333333333333333,0.0930175983020602,0.09753981720905365,-0.08333333333333333,-0.08333333333333333,-0.08333333333333333,0.13317786287563277,0.17626472161325335,-0.08333333333333333,-0.08333333333333333
2023-02-15,0.03881582588242488,0.2183700061632357,0.23840284063345013,-0.009425189556929076,-0.11967119655665952,-0.11967119655665952,-0.11967119655665952,-0.11967119655665952,-0.011890024216432768,0.004411327320889298
2023-02-16,-0.017203278981062515,-0.1134271278403939,0.08125575563501156,-0.047570272251747835,0.23344284967193724,-0.1134271278403939,-0.1134271278403939,0.18530139469305112,-0.05428986965533493,-0.04065519559067311
2023-02-17,-0.0891350852198895,-0.0891350852198895,-0.0891350852198895,-0.0164629491237072,0.278759249414014,-0.0891350852198895,-0.0891350852198895,0.22124075058598605,-0.023705311692789704,-0.01415631308405555
2023-02-21,-0.07142857142857144,0.36451103902301396,-0.07142857142857144,-0.07142857142857144,-0.07142857142857144,-0.07142857142857144,-0.07142857142857144,-0.07142857142857144,0.06001911202702467,0.07546984894996128
2023-02-22,-0.0625,-0.0625,-0.0625,-0.0625,-0.0625,-0.0625,0.24005690657426187,0.2599430934257381,-0.0625,-0.0625
2023-02-23,-0.08942420986924535,-0.08942420986924535,-0.08942420986924535,-0.016734190723971767,0.2874543078753772,-0.08942420986924535,0.21254569212462276,-0.08942420986924535,-0.02595278601885986,-0.010191973910941671
2023-02-24,-0.06249999999999998,-0.06249999999999998,-0.06249999999999998,0.06912896704602875,-0.06249999999999998,-0.06249999999999998,-0.06249999999999998,0.4308710329539713,-0.06249999999999998,-0.06249999999999998
2023-02-27,-0.080445289517928,-0.080445289517928,0.0957045697509346,-0.017328262892432042,0.23988679801138765,-0.080445289517928,-0.080445289517928,0.16440863223767782,-0.080445289517928,-0.080445289517928
2023-02-28,-0.0935238490111116,-0.0935238490111116,0.1501953596576601,-0.00514518071875132,0.3497965908838758,-0.0935238490111116,-0.0935238490111116,-0.0935238490111116,-0.02723557422569066,8.049458464066433e-06
2023-03-01,-0.01880918559308617,-0.13884929298418483,0.07015677375102419,-0.060450298492290604,0.24746056820441562,0.020908327116922674,0.16147433092763758,-0.13884929298418483,-0.08301712597457578,-0.06002480397167769
2023-03-02,0.013016939306447383,-0.09999999999999999,0.0686938166818919,-0.09999999999999999,0.06881068474299747,-0.09999999999999999,0.16920415119261006,0.1802744080760531,-0.09999999999999999,-0.09999999999999999
2023-03-03,0.0704525822785256,-0.1,0.16036974283568875,-0.1,0.1586658797687717,0.10265946894899874,-0.1,-0.1,0.007852326168015148,-0.1
2023-03-06,0.04683304518261231,0.06084125690408615,0.15323088361293374,-0.148597794508855,0.15300014679413151,0.08609466750623627,-0.148597794508855,-0.148597794508855,-0.023310945588825443,-0.030895670884609736
2023-03-07,0.04376468110670847,0.054885497486961886,0.10332043495192149,-0.09999999999999999,-0.09999999999999999,0.05856643335047922,0.239462953103929,-0.09999999999999999,-0.09999999999999999,-0.09999999999999999
2023-03-08,0.007712384292062706,0.021153383113162408,0.08056668529107519,-0.18998937235563415,0.10923742952524476,0.014982056331801667,0.26634806144665324,-0.18998937235563415,-0.05983113768002156,-0.06019011760871006
2023-03-09,-0.08333333333333333,-0.08333333333333333,-0.08333333333333333,0.16144321342896004,-0.08333333333333333,0.16743116025138474,-0.08333333333333333,-0.08333333333333333,0.0904195198270952,0.08070610649255999
2023-03-10,0.09825455025524822,0.08684320814176721,-0.125,0.09469070986378605,0.12917538929106787,0.08217344105565065,-0.125,-0.125,-0.125,0.008862701392480037
2023-03-13,-0.09999999999999999,0.029373272802295215,-0.09999999999999999,-0.09999999999999999,0.07190884889002117,0.020145289563637443,0.1688064624367786,0.20976612630726751,-0.09999999999999999,-0.09999999999999999
2023-03-14,-0.12500000000000003,0.019742913331631997,0.029225921157790793,-0.12500000000000003,0.07592029963527777,0.014447111490753948,0.16152429907398094,0.19913945531056454,-0.12500000000000003,-0.12500000000000003
2023-03-15,-0.09999999999999999,0.06843979045855053,0.07695068846440274,-0.09999999999999999,0.1080087687210448,0.06019472734785259,0.18640602500814937,-0.09999999999999999,-0.09999999999999999,-0.09999999999999999
2023-03-16,-0.08333333333333334,0.09104506477408555,0.10756917699696557,-0.08333333333333334,-0.08333333333333334,0.08823524174933312,0.2131505164796157,-0.08333333333333334,-0.08333333333333334,-0.08333333333333334
2023-03-17,0.13889450141302065,-0.08333333333333334,0.23309395758177792,-0.08333333333333334,-0.08333333333333334,-0.08333333333333334,-0.08333333333333334,-0.08333333333333334,0.07465806985098206,0.053353471154219345
2023-03-20,-0.06249999999999999,-0.06249999999999999,0.17332264058228536,-0.06249999999999999,-0.06249999999999999,-0.06249999999999999,-0.06249999999999999,0.32667735941771464,-0.06249999999999999,-0.06249999999999999
2023-03-21,0.021425678035537497,0.0583046110433975,0.07219642763576696,-0.1,-0.1,-0.1,0.15841691403110944,0.18965636925418863,-0.1,-0.1
2023-03-22,-0.1165184835378562,-0.1165184835378562,0.10931326243019863,-0.1165184835378562,0.14546396465846134,0.09332624672932187,0.14682458698358827,-0.1165184835378562,0.005071939198429766,-0.03392606584857516
2023-03-23,0.05951998983413754,-0.11904827676548918,0.1254719739524658,-0.11904827676548918,0.18083061771527015,0.1143852892403741,-0.11904827676548918,-0.11904827676548918,0.019792129257752422,-0.023806892938043223
2023-03-24,-0.09839140631658705,0.11422860964177599,-0.09839140631658705,0.09127125275955116,-0.09839140631658705,-0.09839140631658705,-0.09839140631658705,0.27363758308663233,0.020862554512040568,-0.008042968417064743
2023-03-27,-0.07142857142857144,-0.07142857142857144,-0.07142857142857144,0.26920523351362974,-0.07142857142857144,-0.07142857142857144,-0.07142857142857144,-0.07142857142857144,0.14241073877340796,0.08838402771296229
2023-03-28,0.04186372328006164,0.09671263190875327,-0.1,-0.1,0.14360703716429835,0.08301460780122794,0.13480199984565877,-0.1,-0.1,-0.1
2023-03-29,0.009321546780332299,0.06247950309469341,-0.12500000000000003,-0.12500000000000003,0.10679471998265415,0.04934211043013789,0.09858763309784298,0.1734744866143391,-0.12500000000000003,-0.12500000000000003
2023-03-30,-0.07142857142857142,-0.07142857142857142,0.13261795360448655,-0.07142857142857142,0.14255506511152685,-0.07142857142857142,-0.07142857142857142,0.22482698128398643,-0.07142857142857142,-0.07142857142857142
2023-03-31,0.0373111466084857,-0.09999999999999998,0.1449257448136733,-0.09999999999999998,0.15501944383762978,-0.09999999999999998,0.1526069261186745,-0.09999999999999998,0.010136738621536806,-0.09999999999999998
2023-04-03,0.03857695946831511,0.12294939316701732,0.1575594854256947,-0.1,0.16402791200768824,-0.1,-0.1,-0.1,0.016886249931284663,-0.1
2023-04-04,-0.14057332319162508,0.09743051945056255,0.12773101513271878,0.06450705914572008,0.13147742124623887,0.07885398502475988,-0.14057332319162508,-0.14057332319162508,-0.025725126991380735,-0.05255490343374381
2023-04-05,-0.11583835839768838,-0.11583835839768838,0.11634806964362157,0.044859145397991684,0.12305136046040527,0.07725710460434883,0.13848431989363277,-0.11583835839768838,-0.11583835839768838,-0.036646566409246455
2023-04-06,-0.08333333333333331,0.11689600737403585,-0.08333333333333331,-0.08333333333333331,0.13796157374261658,0.09701206191042092,0.1481303569729266,-0.08333333333333331,-0.08333333333333331,-0.08333333333333331
2023-04-10,-0.08304608652645486,-0.08304608652645486,-0.08304608652645486,0.08450404735240781,-0.08304608652645486,-0.08304608652645486,0.15341291726145723,0.2620830353861349,-0.0017234808412708482,-0.08304608652645486
2023-04-11,0.050047465455225884,-0.12339743045964559,-0.12339743045964559,0.1156154962973211,0.17021546642385824,0.1611321231754437,-0.12339743045964559,-0.12339743045964559,-0.006410278161417717,0.0029894486481510333
2023-04-12,0.025339949914192746,0.12832505664557592,0.15069446290954347,-0.1176980745865417,0.09574203972405436,0.0998984908066336,-0.1176980745865417,-0.1176980745865417,-0.02920770165383311,-0.1176980745865417
2023-04-13,-0.08333333333333334,0.1184028176412817,0.1413446882116907,0.14420825286899414,0.0960442412780335,-0.08333333333333334,-0.08333333333333334,-0.08333333333333334,-0.08333333333333334,-0.08333333333333334
2023-04-14,-0.07142857142857142,-0.07142857142857142,-0.07142857142857142,0.13171584189019372,-0.07142857142857142,-0.07142857142857142,0.12468186673265258,0.2436022913771537,-0.07142857142857142,-0.07142857142857142
2023-04-17,0.07412520105033232,-0.08333333333333333,-0.08333333333333333,0.19367366071662204,-0.08333333333333333,-0.08333333333333333,0.2020958757614423,-0.08333333333333333,-0.08333333333333333,0.03010526247160335
2023-04-18,0.03783868480019037,0.1098490135338019,-0.12094787265864443,0.16924125482474991,-0.12094787265864443,-0.12094787265864443,0.18225419882686225,-0.12094787265864443,-0.01620850936542229,0.0008168480143955993
2023-04-19,0.009742917758241725,0.10971835802867184,0.1122916075278209,0.16161487525779353,0.09137377409887021,0.015258467328601906,-0.19268737575643405,-0.19268737575643405,-0.06356513961954167,-0.05106010886759011
2023-04-20,-0.09999999999999998,0.15502665555449702,0.1510833004489384,0.17235315538437007,-0.09999999999999998,-0.09999999999999998,-0.09999999999999998,-0.09999999999999998,0.005743323537692381,0.015793565074502188
2023-04-21,0.009938821125613107,0.0802212763635586,0.08984834803322744,0.09465721771900132,0.07431111170923403,-0.15269664221859777,0.1510232250493654,-0.15269664221859777,-0.15269664221859777,-0.04191007334420677
2023-04-24,0.08600322713818162,-0.09999999999999998,0.16696758833593595,0.18922974610074153,-0.09999999999999998,-0.09999999999999998,-0.09999999999999998,-0.09999999999999998,0.04341162567933081,0.01438781274581008
2023-04-25,-0.08333333333333334,0.13248680850043915,-0.08333333333333334,-0.08333333333333334,0.10458243096259896,0.09988130170204411,0.1630494588349177,-0.08333333333333334,-0.08333333333333334,-0.08333333333333334
2023-04-26,0.032154410426931485,0.11844236669960888,0.07145162516944872,-0.09999999999999998,0.20015612113449302,0.07779547656951794,-0.09999999999999998,-0.09999999999999998,-0.09999999999999998,-0.09999999999999998
2023-04-27,0.04954146001347784,-0.08333333333333333,0.08398427690049838,-0.08333333333333333,-0.08333333333333333,0.09959571882391258,-0.08333333333333333,0.2668785442621113,-0.08333333333333333,-0.08333333333333333
2023-04-28,-0.08333333333333334,-0.08333333333333334,-0.08333333333333334,0.12076102607099629,0.19333367278436028,-0.08333333333333334,0.15920293603638747,-0.08333333333333334,0.026702365108256028,-0.08333333333333334
2023-05-01,0.036182250639634525,-0.09705520846016769,-0.09705520846016769,-0.09705520846016769,0.20360222417737628,0.09752023404244735,0.16269529114054176,-0.09705520846016769,-0.09705520846016769,-0.014723957699161514
2023-05-02,-0.08269812838204352,0.16102477920966907,-0.08269812838204352,-0.08269812838204352,-0.08269812838204352,0.10483003157263768,-0.08269812838204352,0.23414518921769334,-0.08269812838204352,-0.003811229707738867
2023-05-03,-0.11673680133170604,0.1410656979125459,0.053723972937418464,-0.11673680133170604,-0.11673680133170604,0.08149515122040292,-0.11673680133170604,0.20415676357862275,0.019558414351010075,-0.033052794673175775
2023-05-04,0.07641507105631229,-0.08333333333333333,-0.08333333333333333,-0.08333333333333333,-0.08333333333333333,-0.08333333333333333,0.15504861046194826,0.2160037881260092,0.052532530355730266,-0.08333333333333333
2023-05-05,-0.07142857142857142,-0.07142857142857142,0.08067486142036781,-0.07142857142857142,-0.07142857142857142,-0.07142857142857142,0.17424970308143511,0.24507543549819705,-0.07142857142857142,-0.07142857142857142
2023-05-08,-0.1135466484929852,0.11972532566888087,0.042503110010107426,-0.1135466484929852,0.17275809446051424,-0.1135466484929852,0.13649856176723071,-0.1135466484929852,0.02851490809326673,-0.04581340602805925
2023-05-09,-0.07142857142857142,0.22776110473043457,0.13070916333866167,-0.07142857142857142,-0.07142857142857142,0.14152973193090373,-0.07142857142857142,-0.07142857142857142,-0.07142857142857142,-0.07142857142857142
2023-05-10,-0.06250000000000001,0.26852403105818357,0.2314759689418165,-0.06250000000000001,-0.06250000000000001,-0.06250000000000001,-0.06250000000000001,-0.06250000000000001,-0.06250000000000001,-0.06250000000000001
2023-05-11,-0.08169398603587479,-0.08169398603587479,0.17087769523555055,-0.08169398603587479,0.24944019198710038,-0.08169398603587479,-0.08169398603587479,-0.08169398603587479,0.07968211277734909,-0.00983608378475133
2023-05-12,-0.1,-0.1,0.1071796128970195,-0.1,0.17410117102762263,0.06509827234898748,0.11999599299114522,-0.1,0.03362495073522521,-0.1
2023-05-15,-0.10000000000000002,0.11442820929844669,0.09197445629763921,-0.10000000000000002,0.14988303045329307,0.05005779843381797,0.09365650551680307,-0.10000000000000002,-0.10000000000000002,-0.10000000000000002
2023-05-16,-0.1,0.09093869211941392,0.06142651769982833,-0.1,0.11430298575647624,-0.1,0.07712401003898305,0.15620779438529853,-0.1,-0.1
2023-05-17,-0.08333333333333334,0.10790779474251272,-0.08333333333333334,-0.08333333333333334,0.13377297122522352,-0.08333333333333334,0.11492931356206337,0.1433899204702004,-0.08333333333333334,-0.08333333333333334
2023-05-18,0.018289354212338422,-0.125,0.0674942061249576,-0.125,0.1329670437905258,0.026858413884218384,0.10530143867737261,0.1490895433105871,-0.125,-0.125
2023-05-19,-0.08333333333333333,-0.08333333333333333,0.0964709952358874,-0.08333333333333333,0.15859652729557816,0.05517704287943736,-0.08333333333333333,0.18975543458909702,-0.08333333333333333,-0.08333333333333333
2023-05-22,-0.09610468927736607,-0.09610468927736607,0.07848523353401982,-0.09610468927736607,0.13641589453764383,-0.09610468927736607,0.1136519785567037,0.17144689337163266,-0.09610468927736607,-0.01947655361316968
2023-05-23,0.09673805713582301,0.1760375682709172,-0.08333333333333334,-0.08333333333333334,0.2154017902214423,-0.08333333333333334,-0.08333333333333334,-0.08333333333333334,-0.08333333333333334,0.011822584371817517
2023-05-24,-0.06249999999999999,-0.06249999999999999,-0.06249999999999999,-0.06249999999999999,-0.06249999999999999,0.06137698694285542,0.4386230130571446,-0.06249999999999999,-0.06249999999999999,-0.06249999999999999
2023-05-25,-0.08333333333333333,0.15220105324858016,-0.08333333333333333,-0.08333333333333333,0.07772691463203457,0.053060667764078515,-0.08333333333333333,0.21701136435530674,-0.08333333333333333,-0.08333333333333333
2023-05-26,-0.08333333333333333,0.04842603440268757,-0.08333333333333333,-0.08333333333333333,0.027033123992833495,-0.08333333333333333,0.2897970746131208,0.13474376699135815,-0.08333333333333333,-0.08333333333333333
2023-05-30,0.07536845591606446,-0.09999999999999999,-0.09999999999999999,0.08081970500050338,0.08545718043051641,-0.09999999999999999,-0.09999999999999999,0.2548771603272581,-0.09999999999999999,0.003477498325657713
2023-05-31,-0.07142857142857142,-0.07142857142857142,-0.07142857142857142,-0.07142857142857142,0.11584510041453204,-0.07142857142857142,-0.07142857142857142,0.2812721633658302,0.10288273621963767,-0.07142857142857142
2023-06-01,-0.1,0.10481812810550109,-0.1,0.045285467048022846,-0.1,0.049244860672081454,-0.1,0.23086490591366818,0.06978663826072642,-0.1
2023-06-02,-0.1,0.10433708605188513,0.10766007119620453,-0.1,-0.1,0.047494090257053534,-0.1,0.22550117937517936,-0.1,0.015007573119677434
2023-06-05,-0.07142857142857141,0.12907301441357416,0.13018256093112773,-0.07142857142857141,-0.07142857142857141,-0.07142857142857141,-0.07142857142857141,0.24074442465529805,-0.07142857142857141,-0.07142857142857141
2023-06-06,-0.08333333333333334,-0.08333333333333334,-0.08333333333333334,0.08706102303736875,-0.08333333333333334,-0.08333333333333334,-0.08333333333333334,0.27776468157120987,0.09365394522710643,0.041520350164314976
2023-06-07,0.06607820256658557,-0.08333333333333336,-0.08333333333333336,0.0935185959523954,-0.08333333333333336,-0.08333333333333336,-0.08333333333333336,0.28325724504061056,-0.08333333333333336,0.057145956440408416
2023-06-08,-0.07142857142857144,-0.07142857142857144,-0.07142857142857144,-0.07142857142857144,-0.07142857142857144,-0.07142857142857144,0.34039671712543706,0.14784699624481076,-0.07142857142857144,0.011756286629752262
2023-06-09,-0.07142857142857141,0.1913904648992457,-0.07142857142857141,-0.07142857142857141,0.15797146844932644,0.15063806665142784,-0.07142857142857141,-0.07142857142857141,-0.07142857142857141,-0.07142857142857141
2023-06-12,-0.07142857142857141,0.07065645642970013,-0.07142857142857141,-0.07142857142857141,-0.07142857142857141,-0.07142857142857141,0.3297831161665201,0.09956042740377975,-0.07142857142857141,-0.07142857142857141
2023-06-13,-0.0831801623073099,-0.0831801623073099,-0.0831801623073099,-0.0831801623073099,-0.0831801623073099,0.04832999371219936,0.3580497997838324,0.09362020650396823,-0.0831801623073099,-0.0009190261561405572
2023-06-14,-0.07142857142857144,-0.07142857142857144,-0.07142857142857144,-0.07142857142857144,0.06780291513474718,0.06787330826163541,0.3643237766036175,-0.07142857142857144,-0.07142857142857144,-0.07142857142857144
2023-06-15,-0.08333333333333333,-0.08333333333333333,-0.08333333333333333,0.054594963485036105,0.12959406116832542,-0.08333333333333333,-0.08333333333333333,0.20915006644402265,0.10666090890261584,-0.08333333333333333
2023-06-16,-0.09840334216255776,-0.09840334216255776,-0.09840334216255776,-0.00798328918721116,0.0425453620667415,-0.09840334216255776,0.3350276383518149,0.09694102816414313,0.025485971417300544,-0.09840334216255776
2023-06-20,-0.030502260735699494,0.03622348599213255,-0.13714871232423936,-0.026802360352101717,0.039427161571282766,-0.13714871232423936,0.4066369143005536,-0.13714871232423936,0.017712438136031274,-0.03124924193948061
2023-06-21,-0.006966192836135547,0.11292281932399865,0.08165965112570545,-0.163252728494203,0.11146378069040551,0.14338835678320555,-0.163252728494203,-0.163252728494203,0.05056539207668494,-0.003275621681255342
2023-06-22,-0.002380695806163733,0.10096922770854923,0.06658189572723289,-0.12440482604845907,0.09955347020075037,-0.12440482604845907,-0.12440482604845907,0.2044857142121087,0.028409692151358818,-0.12440482604845907
2023-06-23,0.0019513735166619387,0.14653711050123486,-0.16494200218462485,0.017076414001753353,0.14371350594325707,0.14735932596212473,-0.16494200218462485,-0.16494200218462485,0.043362270074968096,-0.005173993446125461
2023-06-26,0.009012584750638424,0.10296750741603516,-0.1,0.018467999459403174,-0.1,0.10029870961028872,-0.1,0.2692531987636346,-0.1,-0.1
2023-06-27,0.046150014253381166,-0.07142857142857144,0.13985272271975405,-0.07142857142857144,-0.07142857142857144,-0.07142857142857144,-0.07142857142857144,0.3139972630268647,-0.07142857142857144,-0.07142857142857144
2023-06-28,-0.08333333333333333,-0.08333333333333333,0.1107453752140513,0.05168690088080136,-0.08333333333333333,-0.08333333333333333,-0.08333333333333333,0.27493626158816875,0.06263146231697857,-0.08333333333333333
2023-06-29,0.12318638194269131,-0.07142857142857142,-0.07142857142857142,0.1893952772098735,-0.07142857142857142,-0.07142857142857142,-0.07142857142857142,-0.07142857142857142,0.1874183408474351,-0.07142857142857142
2023-06-30,-0.07142857142857142,-0.07142857142857142,-0.07142857142857142,-0.07142857142857142,-0.07142857142857142,-0.07142857142857142,0.18254535051949877,0.2775263509141113,-0.07142857142857142,0.03992829856638985
2023-07-03,-0.09999999999999999,-0.09999999999999999,0.09308527197182155,-0.09999999999999999,0.08309565793627094,-0.09999999999999999,-0.09999999999999999,0.26663462508874336,0.04270007295987444,0.014484372043289723
2023-07-05,-0.08333333333333333,-0.08333333333333333,0.13386687998721525,-0.08333333333333333,0.13325014334827107,0.14453549799398452,-0.08333333333333333,-0.08333333333333333,0.0883474786705292,-0.08333333333333333
2023-07-06,-0.0072228364607571675,0.07145715581550326,0.09473395210379451,0.06284297844149248,-0.12319429088481072,0.09237185551704752,0.17859405812216214,-0.12319429088481072,-0.12319429088481072,-0.12319429088481072
2023-07-07,-0.1,-0.1,-0.1,0.08166432031469252,0.09547058106210195,-0.1,0.1920747860860587,-0.1,0.06576591832704673,0.0650243942101
2023-07-10,-0.08333333333333334,-0.08333333333333334,-0.08333333333333334,0.13843199007829107,0.1476783870310232,-0.08333333333333334,-0.08333333333333334,-0.08333333333333334,0.10862774180286877,0.10526188108781694
2023-07-11,-0.08333333333333333,0.08620302881513453,0.10978274710279533,-0.08333333333333333,0.1152801146298622,-0.08333333333333333,0.18873410945220792,-0.08333333333333333,-0.08333333333333333,-0.08333333333333333
2023-07-12,-0.08333333333333333,0.07937804864650537,0.12406326825898784,-0.08333333333333333,0.1092700205383732,-0.08333333333333333,0.1872886625561337,-0.08333333333333333,-0.08333333333333333,-0.08333333333333333
2023-07-13,-0.08333333333333333,-0.08333333333333333,0.099684472965216,-0.08333333333333333,-0.08333333333333333,0.06800568291629742,0.1125657800130589,0.21974406410542777,-0.08333333333333333,-0.08333333333333333
2023-07-14,0.049855275892791616,-0.07142857142857142,-0.07142857142857142,0.1068710406101295,-0.07142857142857142,-0.07142857142857142,-0.07142857142857142,0.3432736834970788,-0.07142857142857142,-0.07142857142857142
2023-07-17,-0.1,-0.1,-0.1,0.04459404425441255,0.06752077954298262,0.06194319174470159,0.10119954611156241,0.22474243834634072,-0.1,-0.1
2023-07-18,0.024909249030328894,0.0938824531615297,-0.09999999999999999,-0.09999999999999999,0.12195402068248096,0.09153403060727795,0.16772024651838263,-0.09999999999999999,-0.09999999999999999,-0.09999999999999999
2023-07-19,0.05059737582566678,0.15619529505741403,-0.09999999999999999,0.1352819239016241,-0.09999999999999999,-0.09999999999999999,-0.09999999999999999,-0.09999999999999999,0.09402573747842273,0.06389966773687232
2023-07-20,0.04930806401114476,-0.1,0.22172427593179309,0.08994982082771812,-0.1,-0.1,-0.1,-0.1,0.07991175114186562,0.059106088087478525
2023-07-21,-0.09999999999999999,-0.09999999999999999,0.12398354616399694,0.011911527588216257,-0.09999999999999999,-0.09999999999999999,-0.09999999999999999,0.32515279994557894,0.025580709794467985,0.013371416507739967
2023-07-24,-0.08333333333333333,-0.08333333333333333,-0.08333333333333333,0.014784212005351302,-0.08333333333333333,0.08034987784537022,0.1331675422899151,0.27169836785936347,-0.08333333333333333,-0.08333333333333333
2023-07-25,0.00828907974814146,-0.09999999999999999,0.15912592371286532,0.015536503856560711,0.16455061045367525,-0.09999999999999999,0.15249788222875724,-0.09999999999999999,-0.09999999999999999,-0.09999999999999999
2023-07-26,-0.08333333333333333,0.11323259056421639,-0.08333333333333333,-0.08333333333333333,0.25014710774110693,-0.08333333333333333,-0.08333333333333333,-0.08333333333333333,0.0795940205816195,0.05702628111305719
2023-07-27,-0.08333333333333333,0.06052740959858242,0.14141548774364252,-0.08333333333333333,0.15754066364985422,-0.08333333333333333,0.14051643900792085,-0.08333333333333333,-0.08333333333333333,-0.08333333333333333
2023-07-28,-0.08333333333333333,0.07138536216273501,0.14301396898844532,-0.08333333333333333,-0.08333333333333333,-0.08333333333333333,-0.08333333333333333,0.28234788977162706,0.0032527790771925973,-0.08333333333333333
2023-07-31,0.013608148389886117,-0.1,-0.1,0.019405250049091296,0.2560239576498623,0.1778899762951126,-0.1,-0.1,0.03307266761604774,-0.1
2023-08-01,0.0009204391767697837,-0.12499999999999996,0.22659907041892632,0.009655128086017838,0.23972789115047746,-0.12499999999999996,-0.12499999999999996,-0.12499999999999996,0.011548921929450283,0.01154854923835842
2023-08-02,-0.08333333333333334,-0.08333333333333334,-0.08333333333333334,0.028570844269645422,-0.08333333333333334,-0.08333333333333334,-0.08333333333333334,0.3973746235530722,0.03232370254832762,0.041730829628954705
2023-08-03,-0.07142857142857142,0.23791356260032984,-0.07142857142857142,-0.07142857142857142,-0.07142857142857142,-0.07142857142857142,0.2334831248457203,-0.07142857142857142,0.028603312553949982,-0.07142857142857142
2023-08-04,-0.1229973082100808,0.13889795306591107,0.1051617497227651,-0.0409905507199954,0.11897533183592283,-0.1229973082100808,0.136964965375401,-0.1229973082100808,-0.034485596280274707,-0.055531928369487595
2023-08-07,-0.08333333333333334,-0.08333333333333334,0.22184197831603225,-0.08333333333333334,0.23997996527470497,-0.08333333333333334,-0.08333333333333334,-0.08333333333333334,0.030138485847623048,0.00803957056163972
2023-08-08,0.10564102542254411,-0.12075559608173464,0.22208011863395083,0.0018320923019865465,-0.12075559608173464,0.16840601123770718,-0.12075559608173464,-0.12075559608173464,0.002040752403811491,-0.016977615673061226
2023-08-09,-0.11453638071200721,0.21778800698351627,0.15632097537183434,-0.001934263308313629,-0.11453638071200721,0.12589101764464947,-0.11453638071200721,-0.11453638071200721,-0.010571393669036325,-0.029348820174621218
2023-08-10,0.13395812564097598,0.30300347262114785,-0.09999999999999999,0.03662705259344868,-0.09999999999999999,-0.09999999999999999,-0.09999999999999999,-0.09999999999999999,0.02615278949881406,0.00025855964561346693
2023-08-11,-0.07142857142857142,0.1858475512294446,0.12672983061678889,-0.07142857142857142,-0.07142857142857142,-0.07142857142857142,0.18742261815376646,-0.07142857142857142,-0.07142857142857142,-0.07142857142857142
2023-08-14,-0.05555555555555556,-0.05555555555555556,-0.05555555555555556,-0.05555555555555556,-0.05555555555555556,-0.05555555555555556,0.4999999999999999,-0.05555555555555556,-0.05555555555555556,-0.05555555555555556
2023-08-15,0.10769290597033328,-0.12499999999999999,0.21586043589688808,0.03929250625073204,-0.12499999999999999,0.11073642910214461,-0.12499999999999999,-0.12499999999999999,0.018372888548218776,0.008044834231683317
2023-08-16,0.12553714516251965,-0.1,0.19183366161075893,0.04561991460065598,-0.1,0.10058557422709175,-0.1,-0.1,0.03642370439897366,-0.1
2023-08-17,0.013434468766216241,0.18127590576223138,0.06961117444954942,-0.045832609264522664,-0.16327975584078175,-0.014675479216451374,0.2356784510220029,-0.16327975584078175,-0.05644584141860627,-0.056486558418856324
2023-08-18,-0.07142857142857141,-0.07142857142857141,-0.07142857142857141,-0.07142857142857141,0.09857664844389723,-0.07142857142857141,0.22926629525284006,0.1721570563032627,-0.07142857142857141,-0.07142857142857141
2023-08-21,0.016165750269303183,-0.12360503807607398,0.03957017938328305,-0.12360503807607398,0.07032577017037772,-0.005579847695704166,0.2144051598969997,0.15953314028003637,-0.12360503807607398,-0.12360503807607398
2023-08-22,0.13087101278037394,-0.12477815878697605,0.08549628351790793,-0.12477815878697605,0.20501175478540823,0.06860719047579945,-0.12477815878697605,-0.12477815878697605,-0.0008873648520958043,0.010013758440510459
2023-08-23,-0.08333333333333334,-0.08333333333333334,-0.08333333333333334,0.007260688623730196,-0.08333333333333334,-0.08333333333333334,0.280266596318547,0.21220073778732884,-0.08333333333333334,0.00027197727039400673
2023-08-24,0.12391755129820986,-0.09999999999999999,-0.09999999999999999,0.02901374312136434,-0.09999999999999999,-0.09999999999999999,-0.09999999999999999,0.32159462664908195,0.0064420923326869535,0.019031986598656864
2023-08-25,0.08379269488862402,-0.08333333333333333,0.06385355336579128,-0.08333333333333333,0.12607202370878634,-0.08333333333333333,-0.08333333333333333,0.22628172803679833,-0.08333333333333333,-0.08333333333333333
2023-08-28,-0.08333333333333333,-0.08333333333333333,0.02891949278091616,-0.08333333333333333,0.08130585346066278,-0.08333333333333333,0.22855460235811265,0.16122005140030843,-0.08333333333333333,-0.08333333333333333
2023-08-29,0.07433408873156507,-0.07142857142857142,-0.07142857142857142,-0.07142857142857142,-0.07142857142857142,-0.07142857142857142,0.23826388711867505,0.18740202414975993,-0.07142857142857142,-0.07142857142857142
2023-08-30,0.04150072206620919,0.07764053396200517,0.00510167965888666,-0.11576324098098884,-0.11576324098098884,-0.11576324098098884,0.2129614810804603,0.16279558323243873,-0.11576324098098884,-0.036947036076044826
2023-08-31,0.10842741870260923,0.0882887067547136,0.08035335988402001,-0.15194883428715625,0.19351519454717722,0.02941532011147991,-0.15194883428715625,-0.15194883428715625,-0.04256956954820463,-0.0015839275903266534
2023-09-01,0.0609898944082086,-0.09918949531077402,-0.09918949531077402,-0.004052523446129868,0.1391641086598035,0.02721838596620252,-0.09918949531077402,0.2726276109657853,-0.09918949531077402,-0.09918949531077402
2023-09-05,-0.08333333333333336,-0.08333333333333336,-0.08333333333333336,-0.08333333333333336,0.15113966141834784,0.04244066763131373,-0.08333333333333336,0.28389031442775237,-0.08333333333333336,0.022529356522586034
2023-09-06,-0.15605248764431043,0.1120932404505496,0.09640634894589636,-0.0011917608176457296,0.2168316057368856,0.046106248605828314,-0.15605248764431043,-0.15605248764431043,-0.030650776249423004,0.028562556260840158
2023-09-07,0.10795201055084279,0.08056412284756496,0.06052316280598097,-0.08333333333333333,-0.08333333333333333,-0.08333333333333333,-0.08333333333333333,0.25096070379561125,-0.08333333333333333,-0.08333333333333333
2023-09-08,-0.08333333333333333,0.09076006920788944,-0.08333333333333333,-0.08333333333333333,0.11760138080271497,0.027021154426904257,-0.08333333333333333,0.2646173955624914,-0.08333333333333333,-0.08333333333333333
2023-09-11,-0.11245351088919085,0.08758146444416402,-0.11245351088919085,-0.013662537358661572,0.11913272730046455,-0.11245351088919085,-0.11245351088919085,0.28885661205983715,-0.03652341908457501,0.004429196195534297
2023-09-12,-0.09665144517538263,0.11834938031030265,0.06682206728553536,0.011642211903039828,-0.09665144517538263,-0.09665144517538263,0.3031863405011223,-0.09665144517538263,-0.016742774123086862,-0.09665144517538263
2023-09-13,-0.12356909216973208,0.036597447535281005,0.0053899731109459765,-0.12356909216973208,0.06843267587162391,-0.005723631321071667,0.19723744342040964,0.1923424600617394,-0.12356909216973208,-0.12356909216973208
2023-09-14,0.13905933962627498,-0.0998178349465419,0.0660485166763491,0.011160858466535188,-0.0998178349465419,-0.0998178349465419,-0.0998178349465419,0.2837312852308406,-0.0998178349465419,-0.0009108252672904976
2023-09-15,0.2392605694667288,-0.09999999999999999,0.12536865529495894,0.0543045295656339,-0.09999999999999999,-0.09999999999999999,-0.09999999999999999,-0.09999999999999999,0.04991713385175713,0.031149111820921196
2023-09-18,0.12266899324191753,-0.11851105919996796,0.04273786147527508,-0.011371377325289705,0.09072277109633083,-0.11851105919996796,0.2438703741864766,-0.11851105919996796,-0.014584385874838514,-0.11851105919996796
2023-09-19,0.13583835255311813,-0.11569053388637456,-0.11569053388637456,-0.015993803315400477,0.1023773524684447,-0.11569053388637456,-0.11569053388637456,0.2617842949784371,-0.0024538110462676626,-0.018790250092833805
2023-09-20,0.19016180901080085,-0.12499999999999999,-0.12499999999999999,0.003074676990044281,0.16216259504499017,0.10613278073530535,-0.12499999999999999,-0.12499999999999999,0.037657465819453596,0.0008106723994057857
2023-09-21,0.09816222538409786,-0.11830720604743745,0.07321356751420242,-0.11830720604743745,0.0805006505973344,0.040175123394985114,0.20794843310938024,-0.11830720604743745,-0.11830720604743745,-0.026771175810250052
2023-09-22,0.0944642010427006,0.12919966377068173,0.05893057929258583,-0.1179557224617373,0.05150981720720589,-0.1179557224617373,0.16589573868682606,-0.1179557224617373,-0.1179557224617373,-0.028177110153050747
2023-09-25,-0.09587902844450012,-0.09587902844450012,-0.09587902844450012,-0.00984409994428476,0.06681967721663756,-0.09587902844450012,0.1793898231444238,0.2537904996389386,-0.09587902844450012,-0.0107607578332147
2023-09-26,-0.08333333333333334,-0.08333333333333334,0.12511693322640854,0.02674151716555361,0.10799386055751777,-0.08333333333333334,0.24014768905052009,-0.08333333333333334,-0.08333333333333334,-0.08333333333333334
2023-09-27,-0.09999999999999999,-0.09999999999999999,0.07937033352372322,0.0014624904504412814,0.058240948110909886,-0.09999999999999999,0.14413374941246387,0.21679247850246178,-0.09999999999999999,-0.09999999999999999
2023-09-28,0.05810031014940565,0.12790827018913747,-0.09999999999999999,-0.09999999999999999,-0.09999999999999999,0.025579065220838467,0.11223377146899487,0.17617858297162356,-0.09999999999999999,-0.09999999999999999
2023-09-29,0.047967540781892255,0.119219678119862,0.03914603726183626,-0.12500000000000003,-0.12500000000000003,0.015612800441933108,0.11383179854333135,0.16422214485114495,-0.12500000000000003,-0.12500000000000003
2023-10-02,0.11307292762612173,-0.09917615268160875,0.09952399619712254,-0.09917615268160875,-0.09917615268160875,-0.09917615268160875,-0.09917615268160875,0.25288474261127514,0.03451833356548055,-0.004119236591956191
2023-10-03,0.1158396205767075,-0.08333333333333334,0.10691481361612748,-0.08333333333333334,-0.08333333333333334,-0.08333333333333334,-0.08333333333333334,0.26691423767370204,-0.08333333333333334,0.010331328133462905
2023-10-04,0.019371791282183068,-0.16359770026839693,0.05312411594018771,-0.16359770026839693,0.029357748513779293,0.02154592959509629,0.13215815809767473,0.24444225657107888,-0.009206899194809135,-0.16359770026839693
2023-10-05,0.048614583035968786,-0.16666666666666666,0.0825836724741972,0.00956248784787317,0.07664789653377987,0.06135211108786934,0.19730101104866274,-0.16666666666666666,0.02393823797164882,-0.16666666666666666
2023-10-06,0.043455435695652564,0.1169949399094897,0.06472358673656912,-0.12500000000000003,0.07685211521058717,0.05693243660818943,0.1410414858395119,-0.12500000000000003,-0.12500000000000003,-0.12500000000000003
2023-10-09,-0.08333333333333334,0.12053114166069208,-0.08333333333333334,-0.08333333333333334,0.0888720434339348,-0.08333333333333334,0.13309238462947637,0.1575044302758967,-0.08333333333333334,-0.08333333333333334
2023-10-10,-0.08333333333333334,0.11994750477406783,-0.08333333333333334,-0.08333333333333334,0.0885999573476496,-0.08333333333333334,0.13521184034639563,0.15624069753188694,-0.08333333333333334,-0.08333333333333334
2023-10-11,0.033966577914828225,0.1374087867005798,0.07414127643406965,-0.12198131526044974,0.09479586385507678,-0.12198131526044974,0.15968749509544564,-0.12198131526044974,-0.12198131526044974,-0.012074738958201008
2023-10-12,0.11795819777203474,-0.1,-0.1,0.08526198181733256,-0.1,0.14125324946326212,-0.1,-0.1,0.09932100814720196,0.056205562800168626
2023-10-13,-0.09999999999999999,0.18288896684636036,0.1339715390436001,-0.09999999999999999,-0.09999999999999999,0.08635884567634551,-0.09999999999999999,-0.09999999999999999,0.06517839316412068,0.03160225526957332
2023-10-16,-0.12288939796797337,0.12053252852782476,0.08011192495645797,-0.12288939796797337,0.0923112928235842,-0.12288939796797337,-0.12288939796797337,0.18746062642062714,0.019583627271505987,-0.008442408128106569
2023-10-17,0.06597822031711237,-0.1666666666666667,0.12288369459650703,0.03573909904690861,0.15461169116499218,0.06859270213482556,-0.1666666666666667,-0.1666666666666667,0.0458376010728463,0.006356991666807898
2023-10-18,0.044325982637600195,0.12811437059781658,0.05010799634958826,0.03762672625858216,-0.16666666666666669,0.047774833677657495,0.18103179321462892,-0.16666666666666669,-0.16666666666666669,0.011018297264126337
2023-10-19,0.09463577087109244,-0.12500000000000003,0.100928042790251,0.07911490441962757,-0.12500000000000003,0.09321212320935886,-0.12500000000000003,-0.12500000000000003,0.07865210059119969,0.05345705811847031
2023-10-20,-0.08333333333333333,-0.08333333333333333,0.08549659358950545,-0.08333333333333333,0.17676224523769338,-0.08333333333333333,0.19041689340516707,-0.08333333333333333,-0.08333333333333333,0.04732426776763421
2023-10-23,-0.1,0.07537884400619603,0.028066827749558192,-0.1,-0.1,-0.1,0.12528715430009052,0.2602702737205741,-0.1,0.010996900223581126
2023-10-24,0.026111899079374015,-0.12500000000000003,-0.12500000000000003,0.03513116451087668,-0.12500000000000003,0.03575889765070591,-0.12500000000000003,0.36320123103086094,0.014553931554745481,0.025242876173436995
2023-10-25,0.14602671058012429,-0.08333333333333334,-0.08333333333333334,0.1234975410757746,-0.08333333333333334,-0.08333333333333334,-0.08333333333333334,-0.08333333333333334,0.10736772348521251,0.12310802485888862
2023-10-26,-0.08333333333333333,0.15364600399196104,0.14341831073556208,-0.08333333333333333,0.17513632267284782,-0.08333333333333333,-0.08333333333333333,-0.08333333333333333,-0.08333333333333333,0.027799362599628976
2023-10-27,0.004325703519953812,0.15436304379787116,0.12162903957482889,-0.15288046428211108,0.1652665709984037,0.054415642108942314,-0.15288046428211108,-0.15288046428211108,-0.016880200929493983,-0.024478406224172817
2023-10-30,-0.010656183755847823,0.16022064168027672,0.12171630185051385,-0.03194648790231463,0.17227708295323527,0.045785973515974264,-0.19067419234874874,-0.19067419234874874,-0.03373987484943668,-0.04230906879490338
2023-10-31,0.004932293750554907,0.09671085393468835,-0.09999999999999999,-0.09999999999999999,0.1040541389267886,-0.09999999999999999,0.11465904016270093,0.17964367322526723,-0.09999999999999999,-0.09999999999999999
2023-11-01,0.05545454241863127,-0.07142857142857142,-0.07142857142857142,-0.07142857142857142,-0.07142857142857142,-0.07142857142857142,0.188126062029247,0.2564193955521218,-0.07142857142857142,-0.07142857142857142
2023-11-02,-0.1,-0.1,-0.1,0.007971192013776872,-0.1,0.0557314508645255,0.172583466248414,0.2520297011158096,0.011684189757473956,-0.1
2023-11-03,0.050869418299618434,-0.1,0.131545793961115,0.02603173705774438,-0.1,0.06843250513886752,0.22312054554265465,-0.1,-0.1,-0.1
2023-11-06,0.037936403825262886,0.1341933327051939,0.10169548077682664,-0.09999999999999999,-0.09999999999999999,0.04777767235846234,0.1783971103342542,-0.09999999999999999,-0.09999999999999999,-0.09999999999999999
2023-11-07,0.023808631885299306,0.10499061805096419,-0.1,-0.1,-0.1,0.030772565343976693,0.14244038332725883,0.19798780139250108,-0.1,-0.1
2023-11-08,0.03680018006557534,-0.1248399025432582,0.10672805298706609,-0.0006403898269672601,0.11573035987172031,0.04705535230079625,0.19368605477484194,-0.1248399025432582,-0.1248399025432582,-0.1248399025432582
2023-11-09,0.035773800300611086,0.13434546386525378,-0.11783452786080985,-0.11783452786080985,0.10565438733682497,0.045293188986154025,0.17893315951115615,-0.11783452786080985,-0.11783452786080985,-0.028661888556760533
2023-11-10,-0.07142857142857141,-0.07142857142857141,-0.07142857142857141,-0.07142857142857141,0.1054434668119435,-0.07142857142857141,0.15653479585857533,0.23802173732948118,-0.07142857142857141,-0.07142857142857141
2023-11-13,-0.08333333333333334,0.08971901945737812,-0.08333333333333334,-0.08333333333333334,0.07542231147668492,-0.08333333333333334,0.1149703304632526,0.21988833860268445,-0.08333333333333334,-0.08333333333333334
2023-11-14,-0.08333333333333334,-0.08333333333333334,-0.08333333333333334,0.0468200497902197,-0.08333333333333334,-0.08333333333333334,-0.08333333333333334,0.39499026650911623,0.042621320251889666,0.015568363448774379
2023-11-15,0.0924889977888521,-0.1,0.18778627040562026,0.06506594384441962,-0.1,0.11528013350311052,-0.1,-0.1,0.03937865445799754,-0.1
2023-11-16,-0.09999999999999999,0.1591664455825583,-0.09999999999999999,0.027494640746360686,0.12977987182914352,-0.09999999999999999,0.18124190734887236,-0.09999999999999999,0.002317134493065137,-0.09999999999999999
2023-11-17,-0.08333333333333333,0.10235999097804112,-0.08333333333333333,-0.08333333333333333,0.08568012350800033,-0.08333333333333333,0.11889323421441245,0.19306665129954612,-0.08333333333333333,-0.08333333333333333
2023-11-20,-0.08326557470455472,-0.08326557470455472,0.10931526178620204,-0.08326557470455472,-0.08326557470455472,-0.08326557470455472,0.14414606073747102,0.24653867747632696,-0.0004065517726717823,-0.08326557470455472
2023-11-21,-0.09999999999999999,0.18075935736592563,0.06309119765217416,-0.09999999999999999,0.14454692819884687,0.0943967677076588,-0.09999999999999999,-0.09999999999999999,0.01720574907539466,-0.09999999999999999
2023-11-22,-0.16444311091684105,0.1930819417033244,-0.006670667249476903,0.032327257659699564,0.06207555440336119,0.0469730226161094,-0.16444311091684105,-0.16444311091684105,0.013377962396757277,0.1521642612207481
2023-11-24,-0.09569130670413582,0.09084437095231586,-0.09569130670413582,-0.09569130670413582,-0.09569130670413582,-0.009435352458239229,-0.09569130670413582,0.317459685857679,-0.01210811402108179,0.09169594319000515
2023-11-27,-0.07142857142857142,-0.07142857142857142,-0.07142857142857142,-0.07142857142857142,-0.07142857142857142,0.019347412347597293,-0.07142857142857142,0.34666979105104373,-0.07142857142857142,0.13398279660135898
2023-11-28,-0.0625,-0.0625,-0.0625,0.039223666490340654,-0.0625,-0.0625,-0.0625,0.4607763335096593,-0.0625,-0.0625
2023-11-29,0.12991456170131482,0.2077856176888349,-0.09999999999999999,0.03488218987191604,-0.09999999999999999,0.07614863800327677,-0.09999999999999999,-0.09999999999999999,0.0512689927346574,-0.09999999999999999
2023-11-30,0.1356171050713224,0.2513460770353908,-0.08333333333333333,0.06807043332009957,-0.08333333333333333,-0.08333333333333333,-0.08333333333333333,-0.08333333333333333,0.04496638457318719,-0.08333333333333333
2023-12-01,0.01387082003533946,0.07558063964870812,-0.10739166440990564,-0.030184483058361432,-0.10739166440990564,-0.10739166440990564,-0.10739166440990564,0.3025614702388912,-0.040248859302016035,0.10798707007706133
2023-12-04,-0.01080363867134356,0.05445443302509722,-0.11178613488363419,-0.042051821794119607,-0.11178613488363419,-0.11178613488363419,0.09884841718096331,0.25848036626795357,-0.11178613488363419,0.08821678352598593
2023-12-05,-0.0032931141433305447,0.08213315203039358,0.07474145335690817,-0.09934137717133389,-0.09934137717133389,0.016757166727680718,-0.09934137717133389,0.3263682278850176,-0.09934137717133389,-0.09934137717133389
2023-12-06,-0.0625,-0.0625,0.2423414055243977,-0.0625,0.25765859447560224,-0.0625,-0.0625,-0.0625,-0.0625,-0.0625
2023-12-07,-0.07142857142857142,-0.07142857142857142,-0.07142857142857142,-0.07142857142857142,0.2081558827913635,0.06973195642423582,0.22211216078440066,-0.07142857142857142,-0.07142857142857142,-0.07142857142857142
2023-12-08,-0.09851970763428475,0.1506470324879228,-0.09851970763428475,0.05033325460470983,0.23510525163269577,0.0639144612746717,-0.09851970763428475,-0.09851970763428475,-0.007401461828576203,-0.09851970763428475
2023-12-11,0.005978164907239494,0.15336937994025404,-0.12332717671971138,0.04371646960340703,0.2371331244328068,0.05980286111629271,-0.12332717671971138,-0.12332717671971138,-0.006691293121154414,-0.12332717671971138
2023-12-12,0.017797909711549594,0.10415296440334393,-0.09974744602380806,-0.09974744602380806,0.17049252062467632,-0.09974744602380806,0.2075566052604302,-0.09974744602380806,-0.001262769880959761,-0.09974744602380806
2023-12-13,0.02726027430843142,-0.08333333333333334,-0.08333333333333334,0.026390788927850194,-0.08333333333333334,-0.08333333333333334,0.19480324744196534,0.25154568932175303,-0.08333333333333334,-0.08333333333333334
