date,AAPL,MSFT,GOOGL,AMZN,META,NVDA,TSLA,JPM,V,WMT
2023-12-14,-0.07142857142857142,-0.07142857142857142,-0.07142857142857142,0.05393667425127735,-0.07142857142857142,-0.07142857142857142,0.2398664211039099,0.20619690464481275,-0.07142857142857142,-0.07142857142857142
2023-12-15,-0.08333333333333334,0.1123976517007451,0.0691779493971403,-0.08333333333333334,0.1103754491918073,-0.08333333333333334,0.20804894971030727,-0.08333333333333334,-0.08333333333333334,-0.08333333333333334
2023-12-18,-0.07142857142857144,0.1865427829551515,0.12957967546667173,-0.07142857142857144,0.18387754157817682,-0.07142857142857144,-0.07142857142857144,-0.07142857142857144,-0.07142857142857144,-0.07142857142857144
2023-12-19,-0.1,-0.1,0.1352552182522137,0.0810112030113494,0.19880413497575883,0.06831451863006553,-0.1,-0.1,0.016614925130612516,-0.1
2023-12-20,-0.07142857142857144,0.1865427829551515,0.12957967546667173,-0.07142857142857144,0.18387754157817682,-0.07142857142857144,-0.07142857142857144,-0.07142857142857144,-0.07142857142857144,-0.07142857142857144
2023-12-21,-0.08333333333333333,-0.08333333333333333,0.20515843167852993,-0.08333333333333333,-0.08333333333333333,0.12306953805654638,-0.08333333333333333,-0.08333333333333333,0.05967070214608001,0.11210132811884366
2023-12-22,-0.1,-0.1,0.09712676759765389,0.051674226882974815,-0.1,0.041035328541485824,0.27662293938690014,-0.1,-0.1,0.03354073759098542
2023-12-26,-0.09999999999999999,-0.09999999999999999,-0.09999999999999999,0.021523939746317194,0.10060557076385929,-0.09999999999999999,0.20175662888624868,0.16911877724503702,-0.09999999999999999,0.006995083358537825
2023-12-27,0.10134356550599606,-0.125,-0.125,0.07550887925552469,0.2059899123600068,0.06144456769248441,-0.125,-0.125,0.0041761369098241175,0.0515369382761639
2023-12-28,0.05407194920352091,-0.15480144099629325,0.08568045265363024,0.030231295771110733,-0.15480144099629325,0.01725252860169082,0.30465416089650627,-0.15480144099629325,-0.035595677011120264,0.00810961287354103
2023-12-29,-0.10000000000000002,-0.10000000000000002,0.17337260430225154,0.11033966575842578,-0.10000000000000002,0.09558579249218366,-0.10000000000000002,-0.10000000000000002,0.03550953734548094,0.08519240010165798
2024-01-02,-0.10000000000000002,-0.10000000000000002,0.17337260430225154,0.11033966575842578,-0.10000000000000002,0.09558579249218366,-0.10000000000000002,-0.10000000000000002,0.03550953734548094,0.08519240010165798
2024-01-03,-0.11917630372618465,-0.11917630372618465,0.07425200372766298,0.029652236141243595,0.12650231933674164,0.019212943068838688,0.25038049772551296,-0.11917630372618465,-0.02329478509526141,-0.11917630372618465
2024-01-04,-0.08333333333333333,-0.08333333333333333,-0.08333333333333333,0.06088951064081835,0.1547424399918029,-0.08333333333333333,0.2747870444035671,-0.08333333333333333,0.009581004963811673,-0.08333333333333333
2024-01-05,-0.07142857142857142,0.13392295373004384,-0.07142857142857142,-0.07142857142857142,0.1318013562256035,-0.07142857142857142,0.23427569004435278,-0.07142857142857142,-0.07142857142857142,-0.07142857142857142
2024-01-08,-0.07142857142857142,0.147149415104716,0.09888482630470949,-0.07142857142857142,-0.07142857142857142,-0.07142857142857142,0.25396575859057446,-0.07142857142857142,-0.07142857142857142,-0.07142857142857142
2024-01-09,-0.12462464743645335,0.10862954769477828,0.057124279518237134,-0.12462464743645335,0.10621967263829445,0.005408528359517827,0.22261797178917228,-0.12462464743645335,-0.12462464743645335,-0.0015014102541866768
2024-01-10,-0.1,0.11912140211012276,-0.1,-0.1,0.11685754057061278,0.022154509526462085,0.22620330602972588,-0.1,-0.1,0.01566324176307653
2024-01-11,0.010449776400073949,0.10379366190136056,0.040025977958464534,-0.18499388003512818,0.10081004184880597,-0.02400230092467896,0.244920541891295,-0.18499388003512818,-0.0734525757113634,-0.032557363293701125
2024-01-12,-0.11798710733167783,-0.11798710733167783,0.06344596636366494,-0.11798710733167783,-0.11798710733167783,0.011820089675385666,0.22865205461414664,0.19115972981459248,-0.0280515706732887,0.0049221595322102634
2024-01-16,0.0591474815760641,-0.09547035499340001,-0.09547035499340001,0.03581430580196475,-0.09547035499340001,-0.09547035499340001,0.24284523767463687,0.16219297494733423,-0.022648225033000003,-0.09547035499340001
2024-01-17,0.1418565234209876,-0.0984022827485864,0.10939342966441576,-0.0984022827485864,0.18431498172920302,0.06443506518539366,-0.0984022827485864,-0.0984022827485864,-0.007988586257068065,-0.0984022827485864
2024-01-18,0.09451514881079812,-0.10000000000000002,0.0560993073077147,0.02130075583324261,0.10767717252960876,-0.10000000000000002,0.2204076155186358,-0.10000000000000002,-0.10000000000000002,-0.10000000000000002
2024-01-19,0.15590738464865478,-0.08327239273957983,-0.08327239273957983,0.06415796646102141,-0.08327239273957983,-0.08327239273957983,0.2799346488903239,-0.08327239273957983,-0.00036564356252108946,-0.08327239273957983
2024-01-22,0.12823027581396934,-0.10000000000000002,0.07532697421166142,-0.10000000000000002,-0.10000000000000002,0.03990872528945511,0.24123004355850142,-0.10000000000000002,-0.10000000000000002,0.01530398112641271
2024-01-23,-0.09999999999999999,0.09859353513246157,0.05866558921135177,-0.09999999999999999,0.11104299503548914,0.02806329862305239,0.2036345819976451,-0.09999999999999999,-0.09999999999999999,-0.09999999999999999
2024-01-24,0.07542488852489963,0.0746140915542689,0.02106290106866207,-0.0254925848802329,0.09265973672453731,-0.03597890131701291,0.23623838212763196,-0.23693748520125954,-0.12780115969901473,-0.07378986890247993
2024-01-25,-0.12499999999999997,0.14049598554994905,0.08937182744636173,0.05256919044235599,0.1536891741473168,0.04409680649256296,-0.12499999999999997,-0.12499999999999997,-0.12499999999999997,0.0197770159214535
2024-01-26,-0.11785879256057938,0.057793378815792225,0.018594903135397384,-0.11785879256057938,0.06501326842995064,-0.11785879256057938,0.15317111838488967,0.20542733123397,-0.02856482975768246,-0.11785879256057938
2024-01-29,-0.09999999999999999,-0.09999999999999999,-0.09999999999999999,0.01972451149578281,0.07349428864571166,-0.09999999999999999,0.16474815115769584,0.22990024138346646,0.012132807317343345,-0.09999999999999999
2024-01-30,-0.08333333333333334,-0.08333333333333334,-0.08333333333333334,0.08780070060247996,-0.08333333333333334,-0.08333333333333334,0.2845956215136279,-0.08333333333333334,0.07683725761424531,0.05076642026964691
2024-01-31,-0.09849177198268108,0.07667779050803823,-0.09849177198268108,-0.09849177198268108,0.060626572513812,-0.09849177198268108,0.12881925709682934,0.2338763798813204,-0.09849177198268108,-0.007541140086594608
2024-02-01,-0.07142857142857144,0.12109447218645243,-0.07142857142857144,-0.07142857142857144,0.2620501472575049,-0.07142857142857144,0.11685538055604269,-0.07142857142857144,-0.07142857142857144,-0.07142857142857144
2024-02-02,0.12108164967945459,-0.07142857142857144,0.17116717818958838,-0.07142857142857144,-0.07142857142857144,-0.07142857142857144,0.2077511721309572,-0.07142857142857144,-0.07142857142857144,-0.07142857142857144
2024-02-05,0.05411590338977797,-0.14014637552979925,0.10725340957165003,-0.009484709541651785,-0.14014637552979925,-0.14014637552979925,0.12794709097392729,0.21068359606464468,-0.017662581723633136,-0.05241358214531738
2024-02-06,-0.07142857142857144,-0.07142857142857144,-0.07142857142857144,-0.07142857142857144,-0.07142857142857144,0.08852493932194953,-0.07142857142857144,0.3477160665679151,0.06375899411013533,-0.07142857142857144
2024-02-07,-0.09905311166991301,-0.09905311166991301,0.057753304085715,-0.09905311166991301,0.21534718275013298,-0.004734441650434828,0.06458371602014926,0.16231579714400285,-0.09905311166991301,-0.09905311166991301
2024-02-08,-0.1,0.09940977601383488,0.08711808984330774,-0.1,-0.1,0.008727095688983047,0.09329146791181911,0.21145357054205535,-0.1,-0.1
2024-02-09,-0.0969356592738199,0.16508723561505426,0.1489371140045129,0.03526619479006955,-0.0969356592738199,-0.0969356592738199,0.15070945559036328,-0.0969356592738199,-0.0969356592738199,-0.015321703630900534
2024-02-12,0.06873891692891464,-0.10916526645967768,-0.10916526645967768,-0.024415151067342586,0.3140471218665799,-0.10916526645967768,0.10845590060693766,-0.10916526645967768,0.008758060597567754,-0.038923783093946646
2024-02-13,-0.08333333333333336,0.07454782211803669,-0.08333333333333336,-0.08333333333333336,0.20130274356558506,-0.08333333333333336,0.06856387220175308,0.15558556211462524,-0.08333333333333336,-0.08333333333333336
2024-02-14,-0.08205686102826874,-0.08205686102826874,-0.08205686102826874,-0.007658833830387621,0.254828538534968,-0.08205686102826874,-0.08205686102826874,0.2320290483070887,0.01314241315794323,-0.08205686102826874
2024-02-15,-0.08333333333333333,-0.08333333333333333,-0.08333333333333333,0.0272650814927048,-0.08333333333333333,-0.08333333333333333,-0.08333333333333333,0.4088656321769319,0.059299376611965424,0.004569909718397863
2024-02-16,0.0064931200269259925,0.10432594470395955,0.08442483574467162,-0.045007795069497016,0.2963731795380519,0.008382919986390886,-0.1369937604683263,-0.1369937604683263,-0.1369937604683263,-0.04401092352552425
2024-02-20,-0.0010381804244879293,0.10347963304486593,0.08844362213652471,-0.054096881661105344,0.302419603881683,0.005657140936926533,-0.14454125889895705,-0.14454125889895705,-0.011241161217535564,-0.14454125889895705
2024-02-21,-0.06249999999999999,-0.06249999999999999,-0.06249999999999999,-0.06249999999999999,0.25023020893010617,-0.06249999999999999,0.24976979106989383,-0.06249999999999999,-0.06249999999999999,-0.06249999999999999
2024-02-22,-0.09690128004900944,0.13501680194441673,-0.09690128004900944,-0.015493599754952807,-0.09690128004900944,-0.09690128004900944,0.3204688751578147,-0.09690128004900944,0.0383992644813516,0.006115058416416947
2024-02-23,-0.09985315035645641,0.1798925402625598,-0.09985315035645641,-0.0007342482177180025,-0.09985315035645641,-0.09985315035645641,-0.09985315035645641,0.2397977736143506,0.05716235444157697,0.023147331681512506
2024-02-26,0.029028256188194115,-0.09903882602348946,-0.09903882602348946,-0.09903882602348946,0.28944709789369105,-0.09903882602348946,-0.09903882602348946,0.1661964132144195,0.015328232703695299,-0.004805869882552726
2024-02-27,0.042813619526978305,-0.11830503506572934,-0.11830503506572934,-0.02677985973708257,0.3860185790705148,0.05950692293219813,-0.11830503506572934,-0.11830503506572934,0.007635632510826564,0.0040252459594821485
2024-02-28,-0.10808545565211271,0.04959190909395184,-0.10808545565211271,-0.05334077238596599,0.18001066249773026,-0.014317405005583282,0.1900059140630996,0.08039151434521827,-0.10808545565211271,-0.10808545565211271
2024-02-29,-0.08333333333333333,0.07467795621282966,-0.08333333333333333,-0.08333333333333333,0.20187263985228834,0.010664341004381595,0.21278506293050045,-0.08333333333333333,-0.08333333333333333,-0.08333333333333333
2024-03-01,-0.11550124658565836,0.040431290036987276,-0.11550124658565836,-0.037995013657366516,0.06846289373335164,0.02934966717254145,0.360931737277767,-0.11550124658565836,-0.11550124658565836,0.0008244117793526908
2024-03-04,-0.08333333333333333,-0.08333333333333333,-0.08333333333333333,0.005102687929095558,-0.08333333333333333,-0.08333333333333333,0.39768668647274846,-0.08333333333333333,0.04499927036002963,0.052211355238126415
2024-03-05,-0.09782502349477054,-0.09782502349477054,-0.09782502349477054,-0.010874882526147352,0.08099436640346758,-0.09782502349477054,0.36245036167199507,-0.09782502349477054,0.024044184916272308,0.03251108700826502
2024-03-06,-0.08333333333333333,-0.08333333333333333,0.0654432309390055,-0.08333333333333333,0.07156421292975977,0.055142858606739634,0.30784969752449515,-0.08333333333333333,-0.08333333333333333,-0.08333333333333333
2024-03-07,-0.011943008679510814,0.05469447742008407,0.06635154030251826,-0.12201424783012232,0.06285530751062145,0.04269763973999901,-0.12201424783012232,0.2734010350267772,-0.12201424783012232,-0.12201424783012232
2024-03-08,0.06687872925097284,-0.125,0.16273414932336996,0.021805556524264455,-0.125,0.11583434552966301,-0.125,-0.125,0.04871178848769027,0.08403543088403943
2024-03-11,-0.07142857142857142,-0.07142857142857142,-0.07142857142857142,-0.07142857142857142,-0.07142857142857142,0.07009271171617627,0.383720876395583,-0.07142857142857142,-0.07142857142857142,0.04618641188824082
2024-03-12,-0.11560230640481087,0.026535302060229787,0.06170206696163773,-0.029525221556112997,-0.11560230640481087,0.02865221928185321,0.38311041169627924,-0.11560230640481087,-0.008065552824643551,-0.11560230640481087
2024-03-13,0.04814609725406381,0.09036204569007737,0.16139515067346152,-0.125,-0.125,0.09795477795575395,-0.125,-0.125,0.03648227666004277,0.06565965176660056
2024-03-14,0.07249913225585293,-0.1,0.17757192836392735,0.031820599387451534,-0.1,0.1235281196807991,-0.1,-0.1,-0.1,0.09458022031196915
2024-03-15,-0.07142857142857142,-0.07142857142857142,0.1515948620211912,0.044431648107431436,-0.07142857142857142,-0.07142857142857142,-0.07142857142857142,0.3039734898713774,-0.07142857142857142,-0.07142857142857142
2024-03-18,-0.09999999999999999,-0.09999999999999999,-0.09999999999999999,0.016504208821739138,0.12719633243134457,0.06783755453915631,-0.09999999999999999,0.2689532506850472,0.01950865352271279,-0.09999999999999999
2024-03-19,0.032082019802691694,0.05037812152760298,-0.08333333333333334,-0.08333333333333334,0.09881807714415317,-0.08333333333333334,0.31872178152555214,-0.08333333333333334,-0.08333333333333334,-0.08333333333333334
2024-03-20,-0.14611150027424066,0.03594796050251501,-0.14611150027424066,-0.006344891008949144,0.10599957988139008,0.03852668978926516,0.3195257698268298,-0.14611150027424066,-0.034912370350110085,-0.02040823781821874
2024-03-21,-0.12381684037859676,0.04537192199806343,0.09975572933041804,0.006887943167817164,-0.12381684037859676,0.04847157702573732,0.29951282847796395,-0.12381684037859676,-0.12381684037859676,-0.004732638485612974
2024-03-22,-0.08333333333333333,0.036329765703688864,0.054141519672297835,-0.08333333333333333,-0.08333333333333333,-0.08333333333333333,0.21327701756514375,0.19625169705886944,-0.08333333333333333,-0.08333333333333333
2024-03-25,-0.07142857142857141,0.08521178844149013,0.10212071002410737,-0.07142857142857141,-0.07142857142857141,-0.07142857142857141,-0.07142857142857141,0.3126675015344025,-0.07142857142857141,-0.07142857142857141
2024-03-26,0.05521345273167347,0.04719693743102723,0.06186627340911204,0.03357278367666673,-0.12500000000000003,-0.12500000000000003,-0.12500000000000003,0.30118179600218353,-0.12500000000000003,0.000968756749336953
2024-03-27,0.11695097265184308,0.09454043841669076,0.12468310332103504,0.092044205020302,-0.09999999999999999,-0.09999999999999999,-0.09999999999999999,-0.09999999999999999,0.07178128059012916,-0.09999999999999999
2024-03-28,-0.08333333333333333,0.03999540740689361,0.08300491158631836,-0.08333333333333333,-0.08333333333333333,0.06443756364052972,0.3125621173662583,-0.08333333333333333,-0.08333333333333333,-0.08333333333333333
2024-04-01,-0.12499999999999997,0.048910500205372215,0.07363679630313268,0.07089928610802274,0.17746238201332162,0.08365931945759666,-0.12499999999999997,-0.12499999999999997,0.04543171591255415,-0.12499999999999997
2024-04-02,-0.08333333333333333,0.04468901223926632,0.045521213183604914,-0.08333333333333333,0.15919509422961883,-0.08333333333333333,-0.08333333333333333,0.2505946803475099,-0.08333333333333333,-0.08333333333333333
2024-04-03,0.04545644307526748,0.025321570703640085,-0.09999999999999999,-0.09999999999999999,0.16263105065474368,-0.09999999999999999,-0.09999999999999999,0.26158956904003333,-0.09999999999999999,0.005001366526315301
2024-04-04,0.07279056478400582,0.048116707610324695,-0.125,-0.125,0.23260893568509106,0.05555870277529607,-0.125,-0.125,0.07011837462983427,0.02080671451544809
2024-04-05,-0.10000000000000002,0.035506300455630586,0.07166632082832844,0.06078926481509452,-0.10000000000000002,0.039119105097131346,-0.10000000000000002,0.2929190088038151,-0.10000000000000002,-0.10000000000000002
2024-04-08,0.03176927708157639,-0.12297675529451328,0.06789146373410808,-0.12297675529451328,-0.12297675529451328,0.028600491862386456,-0.12297675529451328,0.3280425369343357,0.043696230387593286,-0.008092978821946881
2024-04-09,-0.08333333333333334,-0.08333333333333334,0.09567254361339184,-0.08333333333333334,0.15975150258897103,-0.08333333333333334,0.2317984094042748,-0.08333333333333334,-0.08333333333333334,0.012777544393362305
2024-04-10,0.0704825494621777,0.043830526638965424,-0.08333333333333333,-0.08333333333333333,0.14084950502489194,-0.08333333333333333,0.24483741887396493,-0.08333333333333333,-0.08333333333333333,-0.08333333333333333
2024-04-11,0.10606985698723907,0.03724011423222608,0.06786808184633014,-0.09999999999999999,-0.09999999999999999,-0.09999999999999999,0.2505792806604391,-0.09999999999999999,0.03824266627376576,-0.09999999999999999
2024-04-12,0.16664518543686224,0.07330121751675928,0.12898971205866303,-0.125,-0.125,0.05745015231021765,-0.125,-0.125,0.06459234787013175,0.009021384807366056
2024-04-15,-0.15340967004204628,0.021034069419464528,0.06156930110221141,0.12416624423680966,-0.15340967004204628,0.017044474085592835,0.26708386537711964,-0.15340967004204628,0.00910204577880178,-0.03977098987386115
2024-04-16,-0.1189933125187055,-0.1189933125187055,0.05730050081025938,-0.1189933125187055,0.13680001056529859,0.01589593084213529,-0.1189933125187055,0.2759608522228602,0.014042705559446478,-0.024026749925177875
2024-04-17,0.12382499180136304,-0.12213448581171674,0.07774850503381844,0.12824144909117063,0.1484866624631528,-0.12213448581171674,-0.12213448581171674,-0.12213448581171674,0.02169839161049501,-0.01146205675313301
2024-04-18,0.15928307077140638,-0.09999999999999999,0.1160791235364124,0.16879059482095174,-0.09999999999999999,-0.09999999999999999,-0.09999999999999999,-0.09999999999999999,0.044930131595741024,0.010917079275488455
2024-04-19,0.12147311300694198,0.0866646568802748,0.08482057387839727,0.17695472530465203,-0.15873771049712448,0.02965448864424671,-0.15873771049712448,-0.15873771049712448,0.00043244228548708813,-0.023786868508626473
2024-04-22,-0.08333333333333331,-0.08333333333333331,0.03814456422112457,0.08523810368189419,-0.08333333333333331,-0.08333333333333331,0.19036368990483013,0.1862536421921511,-0.08333333333333331,-0.08333333333333331
2024-04-23,0.12102853450791708,-0.0625,-0.0625,-0.0625,-0.0625,-0.0625,-0.0625,0.3789714654920829,-0.0625,-0.0625
2024-04-24,0.029656550773904496,-0.11513064777255651,0.013645490460031303,0.056603080173227405,-0.11513064777255651,-0.11513064777255651,0.15805484973174436,0.24204002886109244,-0.11513064777255651,-0.03947740890977387
2024-04-25,-0.09999999999999999,0.019174881724478055,0.0732291741482933,-0.09999999999999999,0.10794126499103426,-0.09999999999999999,0.13913931258219311,0.16051536655400125,-0.09999999999999999,-0.09999999999999999
2024-04-26,0.02756527311860774,0.04544877338838924,-0.08333333333333334,-0.08333333333333334,-0.08333333333333334,-0.08333333333333334,0.1792298280369478,0.24775612545605516,-0.08333333333333334,-0.08333333333333334
2024-04-29,0.03651416444393998,-0.10812379302632495,-0.10812379302632495,0.05635138919296524,0.1754246424216204,-0.10812379302632495,0.23170980394147442,-0.10812379302632495,-0.026778788052435033,-0.04072603984226512
2024-04-30,-0.11761846597751675,0.07111911737991425,0.16501533205743735,0.05909840593977506,0.17618997953033122,0.028577165092542045,-0.11761846597751675,-0.11761846597751675,-0.029526136089933135,-0.11761846597751675
2024-05-01,0.05193113734352261,0.07748446351688641,0.15815812877513857,-0.1,0.17343073190065741,0.038995538463795,-0.1,-0.1,-0.1,-0.1
2024-05-02,0.05805787365874983,0.062076369741704746,-0.09999999999999998,-0.09999999999999998,0.14254369702239655,0.028437010798571683,0.20888504877857722,-0.09999999999999998,-0.09999999999999998,-0.09999999999999998
2024-05-03,-0.08333333333333334,-0.08333333333333334,-0.08333333333333334,-0.08333333333333334,0.11401230461965066,0.021883543640795405,0.16375432607117596,0.200349825668378,-0.08333333333333334,-0.08333333333333334
2024-05-06,-0.10798055125027416,0.05059059236793067,0.10974570453109386,-0.10798055125027416,0.14264494925292093,-0.10798055125027416,0.19701875384805456,-0.10798055125027416,-0.029430127616620727,-0.03864766738228271
2024-05-07,-0.09774037815911005,-0.09774037815911005,0.18292839308185638,0.08415044955376141,0.22717243855010225,-0.09774037815911005,-0.09774037815911005,-0.09774037815911005,0.0057487188142800105,-0.011298109204449824
2024-05-08,0.08238904597648948,0.08124784535075236,-0.09999999999999999,0.07806736959569312,0.2014387687828547,0.05685697029421043,-0.09999999999999999,-0.09999999999999999,-0.09999999999999999,-0.09999999999999999
2024-05-09,0.09033148539226081,-0.11993575263577129,-0.11993575263577129,0.05416575167707972,0.2660788776089581,0.08311348882472092,-0.11993575263577129,-0.11993575263577129,0.00631039649698052,-0.020256989456914794
2024-05-10,0.050321867357249396,-0.1403062569614796,0.1576486274917214,0.003069793809529405,-0.1403062569614796,0.04003510723607846,0.24892460410542142,-0.1403062569614796,-0.029245939008331796,-0.0498352901072294
2024-05-13,0.021325707778371526,-0.09826533918867629,0.1000766809067387,-0.00867330405661852,-0.09826533918867629,-0.09826533918867629,0.16202846600576185,0.21656914530912805,-0.09826533918867629,-0.09826533918867629
2024-05-14,-0.07142857142857142,-0.07142857142857142,-0.07142857142857142,-0.07142857142857142,0.19702597795187074,0.06912825281508063,0.23384576923304853,-0.07142857142857142,-0.07142857142857142,-0.07142857142857142
2024-05-15,0.0498916863050722,-0.09896899109475304,0.1641807159203652,-0.09896899109475304,-0.09896899109475304,-0.09896899109475304,0.24420046068810256,-0.09896899109475304,-0.005155044526234743,0.04172713708646009
2024-05-16,-0.08333333333333336,-0.08333333333333336,0.15525761188432693,0.014540433620074887,-0.08333333333333336,-0.08333333333333336,-0.08333333333333336,0.2857489253309487,-0.08333333333333336,0.04445302916464952
2024-05-17,0.017889028557754982,-0.09999999999999999,0.11498037433566312,-0.09999999999999999,-0.09999999999999999,0.018109349784061764,0.12627710050297372,0.22274414681954643,-0.09999999999999999,-0.09999999999999999
2024-05-20,0.008347878306290189,-0.12499999999999999,0.11592843861319171,-0.12499999999999999,-0.12499999999999999,0.008585591903917698,0.12113715567031456,0.2423291167483405,-0.12499999999999999,0.003671818757945405
2024-05-21,-0.09999999999999999,-0.09999999999999999,-0.09999999999999999,0.021743451128805904,-0.09999999999999999,0.04253274854939076,0.15968632439402483,0.23916318383250446,-0.09999999999999999,0.036874292095274104
2024-05-22,-0.08333333333333334,-0.08333333333333334,-0.08333333333333334,-0.08333333333333334,0.12408081156978035,-0.08333333333333334,0.2701863920863784,-0.08333333333333334,0.020311472098709458,0.08542132424513173
2024-05-23,-0.08333333333333334,-0.08333333333333334,-0.08333333333333334,0.0759975241876153,0.10884286910896486,-0.08333333333333334,0.2246675992937242,-0.08333333333333334,-0.08333333333333334,0.09049200740969564
2024-05-24,-0.0625,-0.0625,-0.0625,-0.0625,0.1575594532558715,-0.0625,0.34244054674412855,-0.0625,-0.0625,-0.0625
2024-05-28,-0.07142857142857142,0.07631712615925536,0.08090610100728159,-0.07142857142857142,-0.07142857142857142,-0.07142857142857142,0.3427767728334631,-0.07142857142857142,-0.07142857142857142,-0.07142857142857142
2024-05-29,0.10111396092444706,-0.1,-0.1,0.08219606221862591,-0.1,-0.1,-0.1,0.20702453039808028,0.027004432450803844,0.08266101400804302
2024-05-30,0.096500959613961,-0.09999999999999998,-0.09999999999999998,0.08557782787794141,-0.09999999999999998,-0.09999999999999998,-0.09999999999999998,0.2046643941702978,0.030629286716008078,0.0826275316217918
2024-05-31,0.02059009810880295,-0.1,-0.1,0.06753485955917317,0.08786091590854565,-0.1,0.2542120667324243,-0.1,-0.1,0.0698020596910539
2024-06-03,-0.005201009394043842,0.010808506930379932,0.0474075340538214,-0.12369974765148906,0.07479568782386115,-0.12369974765148906,0.2875556496577933,-0.12369974765148906,-0.12369974765148906,0.07943262153414431
2024-06-04,-0.08333333333333334,0.04202739582017841,-0.08333333333333334,-0.08333333333333334,0.1006411244593208,0.06535441985899508,0.29197705986150585,-0.08333333333333334,-0.08333333333333334,-0.08333333333333334
2024-06-05,-0.12298276001242561,0.020358864048382993,-0.12298276001242561,-0.12298276001242561,0.0625132041900785,0.025668694117157085,0.24598957197149535,0.14546966567288605,-0.00806895995029752,-0.12298276001242561
2024-06-06,0.02800408473653848,0.07887057484648995,-0.09999999999999999,0.11187780399492243,-0.09999999999999999,-0.09999999999999999,-0.09999999999999999,0.2337769008828686,0.047470635539180565,-0.09999999999999999
2024-06-07,-0.10000000000000002,0.04486348217037457,-0.10000000000000002,0.06574180989544562,0.0771490092840045,0.044655400450383194,0.26759029819979213,-0.10000000000000002,-0.10000000000000002,-0.10000000000000002
2024-06-10,0.10247001746078233,0.08807744447604539,0.09346496171789376,-0.09999999999999999,0.12372405626709794,0.0922635200781806,-0.09999999999999999,-0.09999999999999999,-0.09999999999999999,-0.09999999999999999
2024-06-11,0.11873223737056297,-0.1,-0.1,-0.1,0.042328353549442435,0.03639803696025271,0.20010735908503433,0.10243401303470756,-0.1,-0.1
2024-06-12,0.1260836592398064,-0.08333333333333334,-0.08333333333333334,-0.08333333333333334,-0.08333333333333334,0.0385155754562174,0.19727961472318672,0.13812115058078944,-0.08333333333333334,-0.08333333333333334
2024-06-13,-0.157050695606877,-0.157050695606877,0.0035086985962830444,0.07909762237003706,0.05909332211309112,0.046400720761806326,0.3118996361587824,-0.157050695606877,-0.0029158674928951365,-0.025932045686473785
2024-06-14,0.22178663019971662,-0.1,0.047316444233029595,0.11891346884753554,-0.1,0.08993557457580996,-0.1,-0.1,-0.1,0.022047882143908282
2024-06-17,-0.08333333333333334,-0.08333333333333334,-0.08333333333333334,0.06389427670491765,-0.08333333333333334,-0.08333333333333334,0.21412846413477124,0.19387966782464625,0.02809759133566488,-0.08333333333333334
2024-06-18,-0.09999999999999999,0.06972905421639936,-0.09999999999999999,0.08480361203787329,-0.09999999999999999,-0.09999999999999999,0.28303919146791234,-0.09999999999999999,0.04938996485198032,0.013038177425834655
2024-06-20,-0.12499999999999997,0.12134525755684089,0.06405406655299659,0.11638051572937004,-0.12499999999999997,0.10656008948710878,-0.12499999999999997,-0.12499999999999997,0.06990962256347141,0.021750448110212258
2024-06-21,-0.12499999999999999,-0.12499999999999999,0.03912116137968863,0.09147026743377924,-0.12499999999999999,0.08095865545882111,-0.12499999999999999,0.23108433470132334,0.050367687192825604,0.006997893833562031
2024-06-24,0.12366642013867721,-0.09956848023354341,-0.0021575988322829584,-0.09956848023354341,0.03168279686343429,-0.09956848023354341,0.23867810545568946,0.105972677542199,-0.09956848023354341,-0.09956848023354341
2024-06-25,-0.09999999999999999,0.05157839539148542,0.012171752416427878,-0.09999999999999999,0.04609426103214555,-0.09999999999999999,0.23863172049600578,0.1515238706639354,-0.09999999999999999,-0.09999999999999999
2024-06-26,-0.07142857142857144,0.14444637685504474,-0.07142857142857144,-0.07142857142857144,0.10534089729013953,-0.07142857142857144,-0.07142857142857144,0.25021272585481574,-0.07142857142857144,-0.07142857142857144
2024-06-27,-0.07142857142857142,-0.07142857142857142,-0.07142857142857142,0.0632442298575295,-0.07142857142857142,-0.07142857142857142,0.2486779708155884,0.18807779932688218,-0.07142857142857142,-0.07142857142857142
2024-06-28,0.1838458923559727,-0.08333333333333333,-0.08333333333333333,0.070655683759638,-0.08333333333333333,0.02690880933520476,-0.08333333333333333,0.21858961454918463,-0.08333333333333333,-0.08333333333333333
2024-07-01,0.15481258964182426,0.08251913605084749,-0.07142857142857144,-0.07142857142857144,-0.07142857142857144,-0.07142857142857144,-0.07142857142857144,0.2626682743073282,-0.07142857142857144,-0.07142857142857144
2024-07-02,-0.06250000000000001,-0.06250000000000001,-0.06250000000000001,-0.06250000000000001,-0.06250000000000001,-0.06250000000000001,0.2142666054183326,0.28573339458166747,-0.06250000000000001,-0.06250000000000001
2024-07-03,0.09490776944191417,-0.1122912031158675,-0.01822552342770206,-0.1122912031158675,0.0350861459067079,-0.1122912031158675,0.14422672301256914,0.22577936163880885,-0.1122912031158675,-0.03260966410882795
2024-07-05,0.13556985330801619,-0.11603156495602604,-0.00027776375752553713,-0.11603156495602604,0.06923960925547955,-0.02214682891758803,-0.11603156495602604,0.2951905374365044,-0.11603156495602604,-0.01344914750078216
2024-07-08,0.10453377135725062,-0.08333333333333333,-0.08333333333333333,0.023090080825365362,-0.08333333333333333,-0.08333333333333333,0.14647660547720373,0.2258995423401803,-0.08333333333333333,-0.08333333333333333
2024-07-09,0.11246222942926094,-0.07142857142857144,-0.07142857142857144,-0.07142857142857144,-0.07142857142857144,-0.07142857142857144,0.1587124514487929,0.22882531912194617,-0.07142857142857144,-0.07142857142857144
2024-07-10,0.2426103432830025,-0.125,0.0590116986860475,0.07458274877752387,-0.125,0.044840019450302755,-0.125,-0.125,0.06557640437481967,0.013378785428303612
2024-07-11,0.18314375644657616,-0.1,-0.1,0.07990545642927539,-0.1,0.07677578739432085,-0.1,-0.1,0.1068049273748299,0.05337007235499779
2024-07-12,0.07625541333588136,-0.08333333333333331,-0.08333333333333331,0.020225678393022365,-0.08333333333333331,-0.08333333333333331,-0.08333333333333331,0.3692245315078258,0.034294376763270455,-0.08333333333333331
2024-07-15,-0.08333333333333334,-0.08333333333333334,-0.08333333333333334,0.0387954153923324,-0.08333333333333334,-0.08333333333333334,-0.08333333333333334,0.394738361376222,0.05033004324691053,0.016136179984535058
2024-07-16,-0.08333333333333334,-0.08333333333333334,-0.08333333333333334,0.13722759048108787,-0.08333333333333334,0.12108898742602385,-0.08333333333333334,-0.08333333333333334,0.1513335383698717,0.09034988372301657
2024-07-17,-0.09972063013299104,-0.09972063013299104,-0.09972063013299104,-0.09972063013299104,0.18688444376460583,0.015598852868689863,0.2677691841839597,-0.09972063013299104,0.029747519182744677,-0.001396849335044778
2024-07-18,-0.07142857142857144,-0.07142857142857144,-0.07142857142857144,-0.07142857142857144,0.33519937306791037,0.0963170244628836,-0.07142857142857144,-0.07142857142857144,-0.07142857142857144,0.06848360246920603
2024-07-19,-0.09788622416458896,-0.09788622416458896,0.019005398924993304,-0.09788622416458896,0.10457729122824776,-0.010568879177055134,0.13360333678970807,0.24281397305705085,-0.09788622416458896,-0.09788622416458896
2024-07-22,-0.11880497919190157,0.041368642872138525,0.005593471123046583,-0.11880497919190157,0.09808561784468654,-0.024780083232393786,0.10960880186439279,0.24534346629573567,-0.11880497919190157,-0.11880497919190157
2024-07-23,0.12466762281034004,0.17063234765524285,-0.10000000000000002,0.09864225705543718,-0.10000000000000002,0.07888413460934422,-0.10000000000000002,-0.10000000000000002,-0.10000000000000002,0.02717363786963568
2024-07-24,-0.09663519369838186,0.06344818270726925,-0.09663519369838186,0.029204190505798863,-0.09663519369838186,-0.09663519369838186,-0.09663519369838186,0.37557315541108444,0.031774471375847456,-0.016824031508090698
2024-07-25,-0.1,-0.1,-0.1,0.0038592992167137113,0.09350059734633638,-0.1,0.11526058518735519,0.2822874744422873,0.005092043807307394,-0.1
2024-07-26,-0.10000000000000002,0.026094743752188822,0.053541489472195045,-0.10000000000000002,-0.10000000000000002,0.03481703834490112,-0.10000000000000002,0.358895036011258,0.02665169241945707,-0.10000000000000002
2024-07-29,0.035831948647221834,-0.11792709603553332,0.05233534795808726,0.010091944363822776,-0.11792709603553332,-0.11792709603553332,-0.11792709603553332,0.38207969172026085,0.019661067310607336,-0.028291615857866572
2024-07-30,0.043154059658107244,0.025350058165919228,-0.1,-0.1,0.15656239191882967,-0.1,0.23778152241072614,-0.1,0.0371519678464177,-0.1
2024-07-31,-0.08333333333333333,0.08229715908897131,-0.08333333333333333,-0.08333333333333333,0.28315018494544913,-0.08333333333333333,-0.08333333333333333,-0.08333333333333333,0.0935161526351959,0.041036503330383625
2024-08-01,0.10753852000012663,-0.09999999999999999,0.14286533287233402,-0.09999999999999999,-0.09999999999999999,0.11489007286103313,-0.09999999999999999,-0.09999999999999999,0.11241758513212527,0.022288489134380928
2024-08-02,-0.09592834593091279,0.10771874816827678,-0.09592834593091279,-0.09592834593091279,0.1420290130668387,-0.09592834593091279,0.2125365674086834,-0.09592834593091279,0.03771567135620102,-0.020358270345436122
2024-08-05,-0.08333333333333331,0.06144174982925721,-0.08333333333333331,-0.08333333333333331,0.1015959202655743,-0.08333333333333331,0.1595669469590897,0.1773953829460787,-0.08333333333333331,-0.08333333333333331
2024-08-06,0.03619502233737998,0.1256039677639816,0.04103766943138659,0.08300151931790144,0.19763354386094292,-0.12499999999999999,-0.12499999999999999,-0.12499999999999999,0.016528277288407542,-0.12499999999999999
2024-08-07,0.07181727758562981,-0.1,0.06667338286074553,0.10543630403709273,0.2181430324583273,-0.1,-0.1,-0.1,0.03793000305820467,-0.1
2024-08-08,-0.08333333333333333,-0.08333333333333333,0.026792152107222612,-0.08333333333333333,0.11516956085632304,-0.08333333333333333,0.1763272640504912,0.18171102298596314,-0.08333333333333333,-0.08333333333333333
2024-08-09,0.03758331220904021,-0.09999999999999996,0.03668923252802937,0.05752585015727603,0.14416359595237627,-0.09999999999999996,0.22403800915327815,-0.09999999999999996,-0.09999999999999996,-0.09999999999999996
2024-08-12,0.0292516540955032,-0.08333333333333334,-0.08333333333333334,-0.08333333333333334,0.11023391248928076,-0.08333333333333334,0.19570987064018047,0.1648045627750356,-0.08333333333333334,-0.08333333333333334
2024-08-13,0.004524118192607931,0.05636440416490139,-0.12459682480426956,-0.12459682480426956,0.07582107230423665,-0.0016127007829217137,0.1956845090336837,0.16760589630457032,-0.12459682480426956,-0.12459682480426956
2024-08-14,-0.08333333333333333,0.08176257327101222,-0.08333333333333333,-0.08333333333333333,-0.08333333333333333,-0.08333333333333333,0.2108797525571866,0.1870177363503192,-0.08333333333333333,0.020339937821482027
2024-08-15,-0.08333333333333333,-0.08333333333333333,0.03598377204296044,-0.08333333333333333,-0.08333333333333333,-0.08333333333333333,0.2387097752878359,0.2154064940326558,0.009899958636547808,-0.08333333333333333
2024-08-16,-0.07142857142857142,-0.07142857142857142,0.04603134056997131,-0.07142857142857142,-0.07142857142857142,-0.07142857142857142,0.23799734310678136,0.21597131632324731,-0.07142857142857142,-0.07142857142857142
2024-08-19,-0.10000000000000002,-0.10000000000000002,0.026220722377592896,-0.10000000000000002,-0.10000000000000002,0.02058732137546558,0.23093262287777588,0.20771159102964795,-0.10000000000000002,0.014547742339517548
2024-08-20,-0.09970181558898181,0.16823262166024847,-0.09970181558898181,-0.09970181558898181,0.1760325172717193,0.07699441661383445,-0.09970181558898181,-0.09970181558898181,-0.001490922055090978,0.07874044445419777
2024-08-21,0.06666265896305552,-0.12233176255338817,0.05926794407073573,0.11024943119698119,0.1792102064780194,-0.12233176255338817,-0.12233176255338817,-0.12233176255338817,-0.01067294978644738,0.08460975929120812
2024-08-22,0.04535492339101229,-0.09718148205249609,-0.09718148205249609,0.07835822039514914,-0.09718148205249609,-0.09718148205249609,0.3193681327446617,-0.09718148205249609,-0.01409258973751946,0.05691872346917678
2024-08-23,0.036398131315542044,-0.1163143774482378,0.019158883280364396,0.07284228316240646,-0.1163143774482378,-0.1163143774482378,0.3234548032461965,-0.1163143774482378,-0.03474249020704889,0.04814589899549064
2024-08-26,0.11049103533955539,-0.1,-0.1,0.15967940966550986,-0.1,0.09328909796130469,-0.1,-0.1,0.012687273435912501,0.12385318359771756
2024-08-27,0.016417610448471957,-0.14613634880327073,-0.14613634880327073,0.05471806389280782,0.1313277852264374,-0.0013581283761681599,0.27318864511934865,-0.14613634880327073,-0.06023282521401964,0.024347895312934225
2024-08-28,0.03389628792715816,0.1722201998910614,-0.1507531577012818,0.07158354937010293,0.15440656608784095,0.018621628750056414,-0.1507531577012818,-0.1507531577012818,-0.0477405268961545,0.04927176797378026
2024-08-29,-0.09999999999999998,0.09396620835331375,-0.09999999999999998,0.03826181792819206,-0.09999999999999998,-0.09999999999999998,-0.09999999999999998,0.2769041829435099,0.003526904813804164,0.08734088596118018
2024-08-30,-0.11696563564548253,0.09820278636681003,-0.11696563564548253,-0.012899693124511098,-0.11696563564548253,0.028242078478194797,-0.11696563564548253,0.2860540732735856,-0.019237764293558824,0.08750106188140948
2024-09-03,-0.09914926126038781,-0.09914926126038781,-0.09914926126038781,0.010851174500747303,0.10156882030590586,-0.09914926126038781,-0.09914926126038781,0.27318660746690127,-0.0042536936980609045,0.11439339772644556
2024-09-04,-0.08333333333333336,0.04120085304987407,-0.08333333333333336,-0.08333333333333336,0.03651437684678673,-0.08333333333333336,0.2596483865537564,0.16263638354958282,-0.08333333333333336,-0.08333333333333336
2024-09-05,0.029117866575394943,0.05989370967279881,-0.11614732580524581,-0.11614732580524581,-0.11614732580524581,0.004357703230226759,0.351390882829409,-0.11614732580524581,-0.03541069677901676,0.055239837692170536
2024-09-06,0.01904840084071636,0.05282970883616178,-0.14789275692568654,-0.002829432565827758,-0.14789275692568654,-0.011994052160649854,0.3818738149843978,-0.14789275692568654,-0.0414982444964628,0.0462480753387241
2024-09-09,-0.1113244465686855,0.031847111348194714,-0.1113244465686855,-0.1113244465686855,-0.1113244465686855,-0.015354092373988108,0.24638709357192434,0.1990228578947596,-0.03934812135126997,0.022742937185121347
2024-09-10,-0.1,0.046175315279370785,-0.1,-0.1,-0.1,0.0038018494453310892,0.23352170736761357,0.1905120736407961,-0.1,0.0259890542668885
2024-09-11,-0.09999999999999999,0.07451890772574728,0.07060723292106749,-0.09999999999999999,0.03558985466952125,0.02271072660194344,0.2965732780817205,-0.09999999999999999,-0.09999999999999999,-0.09999999999999999
2024-09-12,-0.11438951214888979,-0.11438951214888979,0.05174904181031691,-0.11438951214888979,0.010166876469003158,-0.00042879347108273463,0.25015320257234397,0.18793087914833603,-0.11438951214888979,-0.04201315793335813
2024-09-13,-0.12393202370039184,-0.12393202370039184,0.1736386685211478,0.13160732352356955,0.11248440557607568,0.08226960237920712,-0.12393202370039184,-0.12393202370039184,-0.0024898114219576517,-0.0017820937764750344
2024-09-16,-0.12097868242281494,0.12203969526761094,0.12373841088032883,0.10095150621586878,0.09306769814569829,0.06020268949049317,-0.12097868242281494,-0.12097868242281494,-0.01608527030874023,-0.12097868242281494
2024-09-17,0.056128723042463094,0.12273743556186258,0.12187526391428544,0.10300368449776966,0.09625489298361918,-0.1,-0.1,-0.1,-0.1,-0.1
2024-09-18,0.09957432804203725,-0.07142857142857144,-0.07142857142857144,-0.07142857142857144,0.1132842785355712,-0.07142857142857144,-0.07142857142857144,0.28714139342239164,-0.07142857142857144,-0.07142857142857144
2024-09-19,0.0623990460957712,0.07550840447871679,-0.10000000000000002,0.06371451002171978,0.07693538882151005,-0.10000000000000002,-0.10000000000000002,0.22144265058228219,-0.10000000000000002,-0.10000000000000002
2024-09-20,-0.12499999999999997,0.07717958755109526,-0.12499999999999997,0.06603717375173584,0.08203567849419678,-0.12499999999999997,-0.12499999999999997,0.26237271751378843,0.004073929860380955,0.008300912828802704
2024-09-23,-0.08333333333333333,0.053932344071326604,-0.08333333333333333,-0.08333333333333333,-0.08333333333333333,-0.08333333333333333,0.24479148381472432,0.1897816647158024,-0.08333333333333333,0.01149450739814663
2024-09-24,-0.08333333333333333,-0.08333333333333333,-0.08333333333333333,-0.08333333333333333,0.048524099683037676,-0.08333333333333333,0.26143797218359344,0.17758265374015061,-0.08333333333333333,0.01245527439321822
2024-09-25,0.028105101950374505,-0.12420548028689778,0.04245231193738864,-0.12420548028689778,0.020466692807899797,-0.0031780788524088974,0.2576756684824013,0.1513002248219358,-0.12420548028689778,-0.12420548028689778
2024-09-26,0.07395514651663172,-0.09999999999999999,0.08958543071883371,0.05866830140316019,-0.09999999999999999,-0.09999999999999999,-0.09999999999999999,0.21136124578755464,0.06642987557381974,-0.09999999999999999
2024-09-27,0.06945774109147589,-0.12499999999999999,0.0874432731823984,-0.12499999999999999,0.0608249337024904,-0.12499999999999999,-0.12499999999999999,0.21424541193947713,0.05175821912421269,0.016270420959945537
2024-09-30,-0.1,-0.1,0.1380387781636915,0.09413729225683279,0.10443783108936606,-0.1,-0.1,-0.1,0.10003213092916324,0.06335396756094631
2024-10-01,0.06554181901764822,0.09195434684102519,0.10374760082559864,0.06518645067279029,0.07558631234058585,-0.16666666666666669,-0.16666666666666669,-0.16666666666666669,0.06832277446983663,0.0296606958325153
2024-10-02,-0.07142857142857142,-0.07142857142857142,-0.07142857142857142,-0.07142857142857142,0.10401301450235384,-0.07142857142857142,0.2950766931516407,-0.07142857142857142,0.1009102923460054,-0.07142857142857142
2024-10-03,-0.09999999999999998,0.05362575225001246,-0.09999999999999998,0.0434593693019702,0.049678159338396755,-0.09999999999999998,0.20040734107213998,0.1528293780374806,-0.09999999999999998,-0.09999999999999998
2024-10-04,-0.08333333333333333,-0.08333333333333333,-0.08333333333333333,0.090852914809776,0.07224703144954597,-0.08333333333333333,0.2745337027307043,-0.08333333333333333,-0.08333333333333333,0.06236635100997367
2024-10-07,0.1397953257790861,-0.0625,-0.0625,-0.0625,-0.0625,-0.0625,0.36020467422091396,-0.0625,-0.0625,-0.0625
2024-10-08,0.08487444397388652,0.07267249612341917,-0.12247214530504025,-0.01011141877983909,-0.12247214530504025,0.03929269391723403,0.2666897695731914,-0.12247214530504025,-0.12247214530504025,0.03647059641226886
2024-10-09,0.10436870747352571,0.07359542919786091,-0.09999999999999999,0.012687717424445452,-0.09999999999999999,-0.09999999999999999,0.22886000530962788,-0.09999999999999999,0.08048814059454001,-0.09999999999999999
2024-10-10,0.08581167996099134,0.03959426269804389,0.010042554163168,-0.03266983310298876,0.046157699915198955,-0.027513626253687692,0.27265165777735306,-0.21990827032166185,0.045742145485244606,-0.21990827032166185
2024-10-11,-0.08333333333333333,-0.08333333333333333,0.07837241846243223,0.05802523709848021,-0.08333333333333333,-0.08333333333333333,0.2587030125486002,-0.08333333333333333,0.1048993318904873,-0.08333333333333333
2024-10-14,0.14502529095969102,-0.10000000000000003,0.0992148134043398,-0.10000000000000003,-0.10000000000000003,0.055503511523019924,-0.10000000000000003,-0.10000000000000003,0.12814287156174045,0.07211351255120876
2024-10-15,-0.08333333333333333,-0.08333333333333333,-0.08333333333333333,0.05309237893927159,-0.08333333333333333,-0.08333333333333333,-0.08333333333333333,0.2928012158945471,0.10578211443776243,0.04832429072841894
2024-10-16,-0.07142857142857142,-0.07142857142857142,-0.07142857142857142,0.07353090162802049,-0.07142857142857142,-0.07142857142857142,0.2763077459620942,-0.07142857142857142,0.15016135240988546,-0.07142857142857142
2024-10-17,0.0864434471552907,0.11400521715804353,-0.09999999999999999,0.07446398729590424,-0.09999999999999999,-0.09999999999999999,-0.09999999999999999,-0.09999999999999999,0.1568726326065145,0.0682147157842471
2024-10-18,-0.08333333333333333,0.09413867343099137,0.08660689319071614,-0.08333333333333333,-0.08333333333333333,0.04255321374309219,0.2767012196352003,-0.08333333333333333,-0.08333333333333333,-0.08333333333333333
2024-10-21,-0.10000000000000002,-0.10000000000000002,0.07419384048698381,-0.10000000000000002,0.08066105936984573,0.053064100971446745,0.26844860018909505,-0.10000000000000002,-0.10000000000000002,0.02363239898262867
2024-10-22,-0.09999999999999999,-0.09999999999999999,0.11713159098118484,0.09899698611517341,-0.09999999999999999,0.10235264838333982,-0.09999999999999999,-0.09999999999999999,0.10695727215192738,0.07456150236837458
2024-10-23,-0.0625,-0.0625,-0.0625,-0.0625,-0.0625,-0.0625,-0.0625,0.45485896371772316,-0.0625,0.04514103628227688
2024-10-24,-0.055555555555555566,-0.055555555555555566,-0.055555555555555566,-0.055555555555555566,-0.055555555555555566,-0.055555555555555566,-0.055555555555555566,0.5000000000000001,-0.055555555555555566,-0.055555555555555566
2024-10-25,0.024295945280150725,-0.08333333333333336,0.03680731947945371,-0.08333333333333336,0.04638501135617235,-0.08333333333333336,-0.08333333333333336,0.3925117238842232,-0.08333333333333336,-0.08333333333333336
2024-10-28,0.05647406328178569,0.058490559890394714,0.0806280312671959,0.05617624143916597,0.12047651395328202,0.0594858434821429,-0.16666666666666669,-0.16666666666666669,0.06826874668603279,-0.16666666666666669
2024-10-29,-0.09999999999999999,0.08719570668508599,0.1266201627166277,-0.09999999999999999,0.13266191139352948,0.06077296454426092,-0.09999999999999999,-0.09999999999999999,0.092749254660496,-0.09999999999999999
2024-10-30,0.03072898680467689,-0.1,-0.1,0.00950693713200821,-0.1,-0.1,-0.1,0.4307227837127186,0.027930505721518794,0.0011107866290774868
2024-10-31,-0.08333333333333334,0.19426318066917192,-0.08333333333333334,0.08472932821858142,-0.08333333333333334,-0.08333333333333334,-0.08333333333333334,-0.08333333333333334,0.13289815792220194,0.08810933319004477
2024-11-01,0.048760615391915375,-0.125,0.10386384474051379,-0.125,-0.125,0.10556224404487621,0.19472053514909865,-0.125,0.041615055315208635,0.0054777053583874025
2024-11-04,-0.09680003579082311,0.03510452406005118,-0.09680003579082311,-0.09680003579082311,0.04317312060929982,-0.09680003579082311,0.07629219705335245,0.3454301582772967,-0.09680003579082311,-0.01599982104588442
2024-11-05,-0.08333333333333334,0.036708630674716976,-0.08333333333333334,0.08203487114210777,-0.08333333333333334,-0.08333333333333334,0.06715381620898457,0.3141026819741907,-0.08333333333333334,-0.08333333333333334
2024-11-06,-0.12500000000000003,0.029564397957447357,0.021226021133578105,-0.12500000000000003,0.02706485882995658,0.01816121559309176,0.0608661257679373,0.34311738071798886,-0.12500000000000003,-0.12500000000000003
2024-11-07,-0.06250000000000001,-0.06250000000000001,-0.06250000000000001,-0.06250000000000001,0.09737747305470765,-0.06250000000000001,-0.06250000000000001,0.4026225269452923,-0.06250000000000001,-0.06250000000000001
2024-11-08,-0.06250000000000001,-0.06250000000000001,-0.06250000000000001,-0.06250000000000001,-0.06250000000000001,-0.06250000000000001,-0.06250000000000001,0.4433449174163507,0.056655082583649374,-0.06250000000000001
2024-11-11,-0.07857235809169605,0.06884329078644108,0.04581653652889411,0.1584648389442964,0.06803250377960582,0.045460052559214224,0.11338277740154838,-0.2862557302758324,-0.019286710905617534,-0.11588520072685397
2024-11-12,0.020388916001390072,0.12737925636170108,-0.12414052155943445,0.1865395309426335,-0.12414052155943445,0.10811594871817524,-0.12414052155943445,-0.12414052155943445,0.057576347976100166,-0.003437913762262183
2024-11-13,0.02979207336133663,0.1307634720469419,-0.12433937660694983,0.19088989632388595,-0.12433937660694983,0.11300331642008962,-0.12433937660694983,-0.12433937660694983,0.035551241847745954,-0.0026424935722006364
2024-11-14,-0.005639932552778414,-0.09410557389214304,-0.09410557389214304,0.08836620444766849,-0.09410557389214304,-0.09410557389214304,-0.09410557389214304,0.4116337955523315,-0.0019488295158927018,-0.021883368470613705
2024-11-15,-0.012392490132785051,-0.0955268686367324,0.04376792941555266,0.07436965449354524,-0.0955268686367324,-0.0955268686367324,-0.0955268686367324,0.3818624160909021,-0.009973166683552978,-0.0955268686367324
2024-11-18,-0.08117367692243953,-0.08117367692243953,0.053848510134005885,-0.08117367692243953,-0.08117367692243953,-0.08117367692243953,0.07562985048200156,0.3705216393839925,-0.08117367692243953,-0.012957938465362894
2024-11-19,-0.10000000000000002,0.04837233620634856,0.03036117388974356,-0.10000000000000002,0.03612903513800666,-0.10000000000000002,0.053799034822554936,0.33133841994334623,-0.10000000000000002,-0.10000000000000002
2024-11-20,-0.007025621513036152,-0.15258069617147016,-0.15258069617147016,0.16095074735444942,0.11363714202343878,0.07386635825527642,0.15154575236683543,-0.15258069617147016,-0.00582589043298938,-0.02940639953956407
2024-11-21,-0.0161459760240374,-0.11248440247637359,-0.11248440247637359,0.09722977479274895,-0.11248440247637359,0.03732457297485926,-0.11248440247637359,0.3654456522323917,-0.01577707360408162,-0.018139340466386676
2024-11-22,0.001018150842763359,0.13903587503225062,0.1422534135366991,0.14688962230523303,-0.125,0.07047611906733492,-0.125,-0.125,0.00032681921571899936,-0.125
2024-11-25,0.00725385281367104,0.1559657514779375,0.15016495253125486,-0.12304503642434964,0.10616801122796593,0.08044743194917056,-0.12304503642434964,-0.12304503642434964,-0.12304503642434964,-0.007819854302601419
2024-11-26,0.005792295914914696,0.16098329970582653,0.14249897749487309,-0.12250462863076167,0.10643691134705387,0.08428851553733167,-0.12250462863076167,-0.12250462863076167,-0.12250462863076167,-0.009981485476953423
2024-11-27,-0.007443952910647775,-0.08209267451489202,-0.08209267451489202,-0.08209267451489202,-0.08209267451489202,-0.08209267451489202,0.13837112878868624,0.35828055825067834,0.003348312960635418,-0.08209267451489202
2024-11-29,-0.03527463562376116,0.08892237175104942,-0.09294507287524778,-0.09294507287524778,0.05265979471170612,0.005200653467899456,-0.09294507287524778,0.353217180069345,-0.09294507287524778,-0.09294507287524778
2024-12-02,-0.010282105401205374,0.15998710540253244,0.15069343084255343,-0.09794357891975891,0.14243636265688706,0.046883101098027166,-0.09794357891975891,-0.09794357891975891,-0.09794357891975891,-0.09794357891975891
2024-12-03,-0.1352600313483045,0.044517512576184665,0.03474656390163514,-0.1352600313483045,0.03153121755699642,-0.03587586796694169,0.09476741074450534,0.2944372952206784,-0.1352600313483045,-0.05834403798814487
2024-12-04,-0.09698783905515138,0.07646823478657844,-0.09698783905515138,-0.09698783905515138,-0.09698783905515138,0.0035854137173554554,0.12687709586412205,0.2930692556319441,-0.09698783905515138,-0.015060804724243211
2024-12-05,-0.06249999999999999,0.12309924824677154,-0.06249999999999999,-0.06249999999999999,-0.06249999999999999,-0.06249999999999999,-0.06249999999999999,0.37690075175322846,-0.06249999999999999,-0.06249999999999999
2024-12-06,-0.041846675237613054,0.07570424758063607,0.062397947249869565,-0.11227797447524747,0.062165213097661855,-0.009041426861397058,-0.11227797447524747,0.29973259207183256,-0.11227797447524747,-0.11227797447524747
2024-12-09,0.007476225661021228,-0.07142857142857142,0.1746385346799705,-0.07142857142857142,-0.07142857142857142,-0.07142857142857142,-0.07142857142857142,0.3178852396590082,-0.07142857142857142,-0.07142857142857142
2024-12-10,-0.07142857142857144,-0.07142857142857144,0.1513745481398358,-0.07142857142857144,0.09981212250811276,-0.07142857142857144,-0.07142857142857144,0.2488133293520514,-0.07142857142857144,-0.07142857142857144
2024-12-11,-0.09877598330674661,0.08340303734159732,0.13092817433646284,-0.09877598330674661,0.07118823284765764,-0.006120083466266868,-0.09877598330674661,0.21448055547428221,-0.09877598330674661,-0.09877598330674661
2024-12-12,0.01996480070561017,-0.08333333333333333,-0.08333333333333333,-0.08333333333333333,-0.08333333333333333,0.07116698463891571,-0.08333333333333333,0.36574060608112147,0.04312760857435258,-0.08333333333333333
2024-12-13,-0.012924753368767734,0.08911300932638996,0.16507133083229492,-0.08117920777187206,-0.08117920777187206,-0.08117920777187206,-0.08117920777187206,0.24581565984131518,-0.08117920777187206,-0.08117920777187206
2024-12-16,-0.011555563840763129,-0.09768888723184739,0.19972543622392155,-0.09768888723184739,-0.09768888723184739,0.0008807376782571049,-0.09768888723184739,0.2951225638075839,0.004271262290237398,-0.09768888723184739
2024-12-17,0.0233736650032555,-0.1,-0.1,-0.1,-0.1,0.07069217914120057,0.2893118649514501,-0.1,0.043569177838377965,0.07305311306571591
2024-12-18,0.0313609957241496,-0.10000000000000002,-0.10000000000000002,0.0832818614524603,-0.10000000000000002,-0.10000000000000002,0.25999117726488324,-0.10000000000000002,0.041632153967144196,0.0837338115913625
2024-12-19,-0.011825315413965918,0.1180587772140331,0.178267473169003,0.03413970678416024,-0.12084729919637541,-0.12084729919637541,0.16953404283280368,-0.12084729919637541,-0.004785487800532508,-0.12084729919637541
2024-12-20,0.004364951729451843,0.10176834931107628,0.1492268970593422,0.045079979277969265,-0.09999999999999999,-0.09999999999999999,0.19955982262216038,-0.09999999999999999,-0.09999999999999999,-0.09999999999999999
2024-12-23,-0.08333333333333333,-0.08333333333333333,-0.08333333333333333,0.02201686062907739,0.09526773222712583,-0.08333333333333333,0.11887926197867096,0.2638361451651258,-0.08333333333333333,-0.08333333333333333
2024-12-24,0.017586170099497034,-0.08333333333333336,-0.08333333333333336,0.06361340241784028,-0.08333333333333336,-0.08333333333333336,-0.08333333333333336,0.35913624027068924,-0.08333333333333336,0.059664187211973405
2024-12-26,0.011984235302283383,-0.12499999999999999,0.1921491328701326,0.0608021412620375,0.1781359656676038,-0.12499999999999999,-0.12499999999999999,-0.12499999999999999,0.007862955592299959,0.049065569305642674
2024-12-27,-0.03210041199237055,0.07399047000611411,0.14723570623128526,-0.00026912681544742796,0.1266191934758206,-0.20009416277131872,0.15215463028678014,-0.20009416277131872,-0.05741912485412554,-0.010023010795419065
2024-12-30,-0.15549180990087094,0.07721064076660525,0.14423255302144722,0.0157678095555128,0.10963652385268668,-0.15549180990087094,0.14566131311744218,-0.15549180990087094,-0.03352457029738718,0.007491159686305809
2024-12-31,-0.21310742483971257,0.08501489278350957,0.17228436876781159,0.0005914617595811391,0.07254340021804163,-0.00572198864381605,0.16956587647105614,-0.21310742483971257,-0.061105995230653805,-0.006957166446105078
2025-01-02,-0.07142857142857144,-0.07142857142857144,-0.07142857142857144,-0.07142857142857144,0.060672997811184924,-0.07142857142857144,0.11660155732210094,0.32272544486671423,-0.07142857142857144,-0.07142857142857144
2025-01-03,-0.08333333333333333,-0.08333333333333333,0.07998443673934903,-0.08333333333333333,0.045866415909068675,-0.08333333333333333,0.10043673178761142,0.2737124155639708,-0.08333333333333333,-0.08333333333333333
2025-01-06,0.05786259079472076,-0.15827289884081372,0.21301674484466906,0.041671812721972866,0.1366105425081519,0.024927351254569328,-0.15827289884081372,-0.15827289884081372,-0.025181303477558793,0.02591095787591602
2025-01-07,0.08236563569156692,-0.12499999999999996,0.24164325696451133,0.06993258166969794,-0.12499999999999996,0.05093454418438518,-0.12499999999999996,-0.12499999999999996,0.004546394510999713,0.05057758697883898
2025-01-08,-0.08333333333333333,-0.08333333333333333,0.08860845049198217,-0.08333333333333333,0.07153514705682425,-0.08333333333333333,-0.08333333333333333,0.32766486298394515,-0.08333333333333333,0.012191539467248626
2025-01-10,-0.07142857142857144,-0.07142857142857144,-0.07142857142857144,0.03891067463971451,0.09414423845978577,-0.07142857142857144,-0.07142857142857144,0.3669450869004997,-0.07142857142857144,-0.07142857142857144
2025-01-13,-0.08081650300733115,-0.08081650300733115,-0.08081650300733115,0.02504012780291314,-0.08081650300733115,-0.08081650300733115,0.16790757323090671,0.3070522989661801,-0.015100981956013093,-0.08081650300733115
2025-01-14,-0.11723486393897413,-0.11723486393897413,0.04651614305585438,0.02530917242302648,0.06576439279163313,-0.004721068317590216,-0.11723486393897413,0.3624102917294859,-0.026339475926513322,-0.11723486393897413
2025-01-15,-0.12044963587515921,-0.12044963587515921,-0.12044963587515921,0.03593498160506328,0.08177274761805652,0.006376293562901934,-0.12044963587515921,0.3727775846115241,-0.018201456499363233,0.0031383926024543033
2025-01-16,-0.12123849540281831,0.04195738317927245,0.055926038879834127,0.040556460431596206,-0.12123849540281831,-0.12123849540281831,-0.12123849540281831,0.3566788056443113,-0.015046018388726809,0.004881311864985905
2025-01-17,-0.12500000000000003,0.054164480758235704,0.0651482269456168,0.05766266541863033,-0.12500000000000003,-0.12500000000000003,0.29034692947538937,-0.12500000000000003,0.002682441398393967,0.0299952560037338
2025-01-21,-0.07142857142857141,0.09333139486843937,-0.07142857142857141,-0.07142857142857141,-0.07142857142857141,0.07845074848909689,0.3282178566424638,-0.07142857142857141,-0.07142857142857141,-0.07142857142857141
2025-01-22,0.062329874676039246,0.038726457036445054,-0.1576724326425288,0.01629912947111199,0.04834521053355541,0.02515827980450216,0.30914104847834617,-0.1576724326425288,-0.02698270207241355,-0.1576724326425288
2025-01-23,-0.1,-0.1,0.07939964749964958,-0.1,0.1639495536556885,0.12401143762513024,-0.1,-0.1,0.06614096712410587,0.06649839409542582
2025-01-24,0.11450270582003522,0.08564419050566456,-0.125,0.0659791723372489,0.1316185845410069,-0.125,-0.125,-0.125,0.03590298828835879,0.06635235850768573
2025-01-27,0.058779542446670545,0.033012750262985585,-0.09999999999999999,-0.09999999999999999,0.06514067987254447,0.039623317289191023,0.3034437101286084,-0.09999999999999999,-0.09999999999999999,-0.09999999999999999
2025-01-28,0.0669261358369089,0.020463498963109773,-0.013630289590502838,-0.12159242760237426,0.05739000089598741,0.03081510259254282,0.3244052617114512,-0.12159242760237426,-0.12159242760237426,-0.12159242760237426
2025-01-29,0.11272468857301747,-0.14814729829267592,0.004895220521858289,-0.012310767939945646,0.09279583584800716,-0.14814729829267592,-0.14814729829267592,0.2895842550571171,-0.022612743021662014,-0.020634594160364603
2025-01-30,-0.08333333333333331,0.18366229663448694,0.14082860544525788,-0.08333333333333331,-0.08333333333333331,-0.08333333333333331,-0.08333333333333331,-0.08333333333333331,0.08787829808105813,0.08763079983919712
2025-01-31,-0.1644624228806131,0.08779955117097579,0.048999078632253744,0.024562534328526713,0.15561222210759892,0.1830266137606449,-0.1644624228806131,-0.1644624228806131,-0.0018618179805794672,-0.004750913377581163
2025-02-03,-0.1,0.04700773335484932,0.02369441839721248,-0.1,0.08167379990967151,-0.1,0.34356520722046535,-0.1,-0.1,0.004058841117801315
2025-02-04,0.13427068486278013,-0.08301547853682584,-0.08301547853682584,-0.08301547853682584,-0.08301547853682584,-0.08301547853682584,0.34539750484756787,-0.08301547853682584,-0.0019071287790450983,0.020331810289652082
2025-02-05,0.12931084103145887,-0.08333333333333333,-0.08333333333333333,0.01584818369707113,-0.08333333333333333,-0.08333333333333333,0.3377141462232116,-0.08333333333333333,-0.08333333333333333,0.01712682904825831
2025-02-06,-0.08333333333333334,-0.08333333333333334,-0.08333333333333334,0.030097322970944685,0.08583657129216438,-0.08333333333333334,0.382168565291321,-0.08333333333333334,0.0018975404455699933,-0.08333333333333334
2025-02-07,-0.09577281670088439,0.053848475623479455,-0.09577281670088439,-0.09577281670088439,0.0695766601589166,-0.09577281670088439,0.3539913012874689,-0.09577281670088439,-0.021135916495577996,0.022583562930135023
2025-02-10,0.11348086953933591,0.017359525658555728,-0.13480692114577877,-0.008172542717160286,0.03679725642852308,-0.13480692114577877,0.33236234837358525,-0.13480692114577877,-0.07134379967460364,-0.016062894170899695
2025-02-11,0.2564525693293903,-0.09792515500099665,-0.09792515500099665,0.06909890034499679,0.12086310734933649,-0.09792515500099665,-0.09792515500099665,-0.09792515500099665,-0.010374224995016786,0.05358542297627642
2025-02-12,0.11601506732811595,-0.08313348614475215,-0.08313348614475215,-0.08313348614475215,-0.08313348614475215,-0.08313348614475215,0.268511148364059,0.11547378430782503,-0.08313348614475215,-0.0011990831314871498
2025-02-13,0.10454670000676186,-0.08333333333333334,-0.08333333333333334,-0.08333333333333334,0.027532235405652257,-0.08333333333333334,0.2563775531788725,0.1115435114087134,-0.08333333333333334,-0.08333333333333334
2025-02-14,0.12057630132346665,-0.09123631382016059,-0.09123631382016059,-0.004509363245438755,-0.09123631382016059,0.07377205432766723,0.3056516443488661,-0.09123631382016059,-0.0393090676537583,-0.09123631382016059
2025-02-18,0.14336697971342235,-0.13580844563393324,0.06678850949870038,-0.028546784050898527,-0.13580844563393324,0.09814870181850383,-0.13580844563393324,0.1862595833707281,-0.06402787904730169,0.005436225598645339
2025-02-19,0.07677902489638988,-0.1,0.02873378220939712,-0.1,-0.1,0.04303436817292328,0.24943691572982535,0.10201590899146437,-0.1,-0.1
2025-02-20,0.16389169230158537,-0.10000000000000002,0.09918099255081386,-0.10000000000000002,0.1251254471319033,0.11173820317309248,-0.10000000000000002,-0.10000000000000002,6.366484260503501e-05,-0.10000000000000002
2025-02-21,0.14119665952987318,-0.11950294897024014,0.08584516509431159,0.06373781410891718,-0.11950294897024014,0.1000238298236528,-0.11950294897024014,-0.11950294897024014,-0.021988204119039283,0.10919653144324536
2025-02-24,0.15606226876325802,0.10270480215123884,-0.0986237081205743,-0.0986237081205743,-0.0986237081205743,0.11768083461227469,-0.0986237081205743,-0.0986237081205743,-0.00688145939712852,0.12355209447322846
2025-02-25,-0.14906137809983305,0.029239171265512696,-0.14906137809983305,0.04765913348666628,0.0630823547286253,0.04319094780422987,0.22986840316936824,-0.14906137809983305,-0.052815865700501,0.08695998954559754
2025-02-26,-0.09999999999999999,-0.09999999999999999,-0.09999999999999999,0.11273506512201527,0.1253829732437142,0.09969966465705822,-0.09999999999999999,-0.09999999999999999,0.006774383851285396,0.1554079131259269
2025-02-27,0.0,0.0,0.0,0.0,0.0,0.0,0.0,0.0,0.0,0.0
