date,AAPL,MSFT,GOOGL,AMZN,META,NVDA,TSLA,JPM,V,WMT
2022-03-01,0.01848698308795265,-0.12500000000000003,-0.12500000000000003,0.024352511950205546,0.09168122324635279,0.027329204003348317,0.19205815641598203,0.1460919212961586,-0.12500000000000003,-0.12500000000000003
2022-03-02,0.1078015409987522,-0.09999999999999999,0.12295090769783365,0.1162961508241026,-0.09999999999999999,-0.09999999999999999,-0.09999999999999999,-0.09999999999999999,0.12713747525969954,0.025813925219611986
2022-03-03,-0.09899577643696808,0.10281963544512872,0.0675337663283049,-0.09899577643696808,0.1353944955390172,-0.09899577643696808,-0.09899577643696808,0.19425210268754922,-0.09899577643696808,-0.005021117815159686
2022-03-04,0.060994063186669625,-0.12218071944333508,0.07434806402202986,0.0684819687181046,-0.12218071944333508,0.07228199927179367,-0.12218071944333508,0.2238939048014023,-0.12218071944333508,-0.011277122226659596
2022-03-07,-0.09999999999999999,-0.09999999999999999,0.03799321007111079,-0.09999999999999999,0.09422539389900851,-0.09999999999999999,0.18419973081273483,0.14299722148384947,0.04058444373329637,-0.09999999999999999
2022-03-08,-0.16666666666666666,-0.16666666666666666,0.014367366823388081,0.008963767030109888,0.08813867082503145,0.012464195040651244,0.2061764866979373,0.15212269339987639,0.017766820183005728,-0.16666666666666666
2022-03-09,-0.06250000000000001,0.3639329502725657,-0.06250000000000001,-0.06250000000000001,-0.06250000000000001,-0.06250000000000001,-0.06250000000000001,-0.06250000000000001,-0.06250000000000001,0.13606704972743433
2022-03-10,-0.09999999999999999,0.15329666845631912,0.10900969845970275,-0.09999999999999999,-0.09999999999999999,0.10681242453966555,-0.09999999999999999,-0.09999999999999999,0.11293447828106458,0.01794673026324801
2022-03-11,-0.08333333333333334,-0.08333333333333334,-0.08333333333333334,0.12078490900634967,0.21280223117464026,-0.08333333333333334,-0.08333333333333334,-0.08333333333333334,0.13101584506321876,0.035397014755791344
2022-03-14,-0.08333333333333334,0.08437441233999676,-0.08333333333333334,-0.08333333333333334,-0.08333333333333334,0.05359719049929359,0.20167399489043317,0.16035440227027636,-0.08333333333333334,-0.08333333333333334
2022-03-15,-0.09999999999999998,0.06354792625332399,-0.09999999999999998,0.030924688356642874,0.08994606288057048,-0.09999999999999998,0.17793801240874974,0.13764331010071287,-0.09999999999999998,-0.09999999999999998
2022-03-16,-0.07142857142857142,0.12619040385019878,-0.07142857142857142,-0.07142857142857142,0.15808792055404874,-0.07142857142857142,-0.07142857142857142,0.21572167559575253,-0.07142857142857142,-0.07142857142857142
2022-03-17,-0.08333333333333334,-0.08333333333333334,-0.08333333333333334,-0.08333333333333334,0.10443142305471385,-0.08333333333333334,0.19141288882826912,0.1515809236490038,0.05257476446801327,-0.08333333333333334
2022-03-18,0.033830797073518576,0.0740121546301066,0.04358747072835574,-0.1,-0.1,-0.1,0.1957212206894178,0.15284835687860124,-0.1,-0.1
2022-03-21,0.03498063089622968,0.08301321437280161,0.04664370726490752,0.04152039490637737,0.11658845668300076,-0.12500000000000003,-0.12500000000000003,0.1772535958766831,-0.12500000000000003,-0.12500000000000003
2022-03-22,0.07502109605484804,0.12256542880226935,0.08656561736924852,-0.08333333333333333,-0.08333333333333333,-0.08333333333333333,-0.08333333333333333,0.2158478577736341,-0.08333333333333333,-0.08333333333333333
2022-03-23,-0.07142857142857142,-0.07142857142857142,0.08847351626151015,-0.07142857142857142,0.15363355989568392,-0.07142857142857142,0.257892923842806,-0.07142857142857142,-0.07142857142857142,-0.07142857142857142
2022-03-24,0.06462596869100243,0.12086304161483805,-0.12268109986384106,0.07228279576387342,0.160173301725146,-0.12268109986384106,-0.12268109986384106,-0.12268109986384106,0.08205489220514019,-0.009275600544635713
2022-03-25,-0.08333333333333334,0.08437441233999676,-0.08333333333333334,-0.08333333333333334,-0.08333333333333334,0.05359719049929359,0.20167399489043317,0.16035440227027636,-0.08333333333333334,-0.08333333333333334
2022-03-28,0.04546619405584065,-0.09999999999999999,-0.09999999999999999,-0.09999999999999999,0.11967005083443924,0.05443038157921435,0.22143154950803837,-0.09999999999999999,0.05900182402246747,-0.09999999999999999
2022-03-29,0.059909566376937375,-0.1229889650703979,0.07571460197521812,0.06537319262008984,-0.1229889650703979,0.0713921289326892,-0.1229889650703979,0.22761051009506547,-0.1229889650703979,-0.008044139718408396
2022-03-30,-0.08333333333333333,-0.08333333333333333,-0.08333333333333333,-0.08333333333333333,-0.08333333333333333,-0.08333333333333333,0.24008393769074424,0.17772977822288927,0.07909406516237552,0.003092218923990905
2022-03-31,-0.09865252928123586,-0.09865252928123586,0.08028574601812424,-0.09865252928123586,0.1468097496610816,-0.09865252928123586,-0.09865252928123586,0.19810616199132758,0.07479834232946656,-0.0067373535938208655
2022-04-01,0.03467171064397768,0.05256063016250151,-0.1,-0.1,0.08267307501566187,-0.1,0.18500668808711854,0.14508789609074038,-0.1,-0.1
2022-04-04,0.07771630786477735,-0.15253676304834682,0.0823048007401619,0.06620961521459255,0.15761839709206582,0.06504637462974075,-0.15253676304834682,-0.15253676304834682,0.051104504458661555,-0.04238971085495959
2022-04-05,0.22382779776403372,-0.07142857142857144,-0.07142857142857144,0.1889433570224228,-0.07142857142857144,-0.07142857142857144,-0.07142857142857144,-0.07142857142857144,-0.07142857142857144,0.0872288452135435
2022-04-06,0.09314627236267842,-0.08333333333333334,-0.08333333333333334,-0.08333333333333334,-0.08333333333333334,0.09785197860057473,-0.08333333333333334,0.2978107145859069,-0.08333333333333334,0.011191034450839932
2022-04-07,-0.08333333333333334,-0.08333333333333334,-0.08333333333333334,0.11549262362914045,0.22040321245291025,-0.08333333333333334,-0.08333333333333334,-0.08333333333333334,0.13329144928534306,0.030812714632606243
2022-04-08,0.06790110677597012,0.12704901304350974,-0.12406241058017035,0.059444450784155806,0.16882016302113978,-0.12406241058017035,-0.12406241058017035,-0.12406241058017035,0.07678526637522452,-0.003750357679318641
2022-04-11,0.0839891052171282,0.1282056495778658,-0.07142857142857144,-0.07142857142857144,-0.07142857142857144,-0.07142857142857144,-0.07142857142857144,0.287805245205006,-0.07142857142857144,-0.07142857142857144
2022-04-12,-0.005470645995625324,0.03972564132419604,0.011441519899440105,-0.15179193102319516,-0.15179193102319516,0.02038507360139535,0.22957758910625756,0.19887017606871094,-0.15179193102319516,-0.03915356093478903
2022-04-13,-0.07142857142857144,-0.07142857142857144,-0.07142857142857144,0.16006439521739088,-0.07142857142857144,-0.07142857142857144,-0.07142857142857144,-0.07142857142857144,0.20735085259158648,0.1325847521910227
2022-04-14,-0.07142857142857142,-0.07142857142857142,-0.07142857142857142,0.044073007558323975,-0.07142857142857142,-0.07142857142857142,0.230269411891667,0.22565758055000903,-0.07142857142857142,-0.07142857142857142
2022-04-18,-0.08333333333333333,0.09950713071672183,-0.08333333333333333,0.05247985567801899,0.10348911436127674,-0.08333333333333333,-0.08333333333333333,0.24452389924398252,-0.08333333333333333,-0.08333333333333333
2022-04-19,0.08944595729458488,-0.12500000000000003,0.10153722568359445,0.06950102019445795,-0.12500000000000003,0.12399371190440332,-0.12500000000000003,-0.12500000000000003,0.08000623070031218,0.03551585422264723
2022-04-20,0.07298670473418463,-0.09999999999999999,-0.09999999999999999,0.05277996033243959,-0.09999999999999999,-0.09999999999999999,-0.09999999999999999,0.29052467705767365,0.061369854251433514,0.022338803624268638
2022-04-21,-0.08333333333333334,-0.08333333333333334,-0.08333333333333334,-0.08333333333333334,0.1674477262828954,0.07984290540908687,-0.08333333333333334,0.2272210534322522,-0.08333333333333334,0.025488314875765486
2022-04-22,-0.09999999999999999,0.08537343409883934,0.05944328050076926,-0.09999999999999999,0.13610452378099083,0.06151896030485051,0.15755980131455,-0.09999999999999999,-0.09999999999999999,-0.09999999999999999
2022-04-25,0.049486945107846535,-0.163070336362617,0.08638348396695351,0.026192752577059396,0.1913331449825236,0.08116938709103881,-0.163070336362617,-0.163070336362617,0.06543428627457823,-0.010788990912149007
2022-04-26,-0.07142857142857141,-0.07142857142857141,-0.07142857142857141,-0.07142857142857141,-0.07142857142857141,0.1203641475691263,-0.07142857142857141,0.2605918882787576,0.11904396415211613,-0.07142857142857141
2022-04-27,-0.07142857142857141,0.09240030369931822,-0.07142857142857141,-0.07142857142857141,0.246252978742027,-0.07142857142857141,0.16134671755865468,-0.07142857142857141,-0.07142857142857141,-0.07142857142857141
2022-04-28,-0.003183027788382196,-0.1895595766034955,0.023848147008000135,-0.04462924670670544,0.2546746614145255,0.031558325667385985,-0.1895595766034955,0.1612227275839384,0.028696138326149898,-0.07306857229792148
2022-04-29,-0.1,-0.1,0.034567122875058504,-0.1,0.1803016550110532,0.03990742095736035,0.12376977180252313,0.12145402935400473,-0.1,-0.1
2022-05-02,-0.0007355215832249686,-0.14240182603244414,0.025810416274782193,-0.0198322066988475,0.21103812775904665,-0.14240182603244414,0.13949472251960576,0.12365673344656551,-0.14240182603244414,-0.05222679362059498
2022-05-03,0.023630271028746434,-0.09999999999999998,0.04632017442833197,-0.09999999999999998,0.1875695227996482,-0.09999999999999998,0.12641700735313743,0.11606302439013595,-0.09999999999999998,-0.09999999999999998
2022-05-04,-0.1,-0.1,0.14549453171536086,0.07597064339016595,-0.1,0.13793622418738402,-0.1,-0.1,0.13067921439670954,0.00991938631037973
2022-05-05,0.04673047919719549,-0.12500000000000003,0.06339585645361656,0.010081115796151638,-0.12500000000000003,0.05717260096899683,0.16195808286465826,0.16066186471938115,-0.12500000000000003,-0.12500000000000003
2022-05-06,0.06411207685555055,-0.11850134780753682,0.07776947178528837,0.017799292229447216,0.26459063626245233,0.07572852286726156,-0.11850134780753682,-0.11850134780753682,-0.11850134780753682,-0.025994608769852826
2022-05-09,0.05125833272357238,-0.09999999999999999,0.06201357592741794,-0.09999999999999999,-0.09999999999999999,0.057062558967042154,0.16674111735737984,0.16292441502458777,-0.09999999999999999,-0.09999999999999999
2022-05-10,-0.08333333333333333,-0.08333333333333333,0.1778876279087804,0.10330665778833331,-0.08333333333333333,-0.08333333333333333,-0.08333333333333333,-0.08333333333333333,0.18065302925696752,0.038152685045918754
2022-05-11,-0.09491442663121366,0.15761864562516803,0.07391886253556465,0.021674437964695946,0.2467880538745715,-0.09491442663121366,-0.09491442663121366,-0.09491442663121366,-0.09491442663121366,-0.025427866843931734
2022-05-12,-0.08333333333333333,0.1002399934358422,-0.08333333333333333,-0.08333333333333333,0.14982444754625307,-0.08333333333333333,0.13017428737353137,0.11976127164437338,-0.08333333333333333,-0.08333333333333333
2022-05-13,0.07766780137451135,-0.1152734578224376,-0.1152734578224376,0.008835098234040242,0.26253573443479056,0.07125694514319186,-0.1152734578224376,-0.1152734578224376,0.07970442081346613,-0.03890616871024953
2022-05-16,0.007420257981500235,0.12273955488019751,-0.0010747159853057727,-0.06650013205924224,-0.21486174036247593,-0.0027016712305001655,0.1848528172912079,0.17283098318820705,0.012156386658887266,-0.21486174036247593
2022-05-17,-0.08333333333333333,-0.08333333333333333,0.14070456876096005,0.06835537360946739,-0.08333333333333333,0.14327455588071344,-0.08333333333333333,-0.08333333333333333,0.1476655017488591,-0.08333333333333333
2022-05-18,-0.09999999999999999,0.09905797778195533,-0.09999999999999999,-0.09999999999999999,0.1265829154295875,0.026263292617817128,0.12856121621910724,0.11953459795153275,-0.09999999999999999,-0.09999999999999999
2022-05-19,0.050996788495624265,0.14929988871504934,-0.15652751156859715,-0.030417465294208662,0.18941511070772243,0.03480264257359591,-0.15652751156859715,-0.15652751156859715,0.03607275728398898,0.039412812224019024
2022-05-20,0.12299258842614964,-0.1,-0.1,0.06223482642171146,-0.1,0.0983781404286122,-0.1,-0.1,0.10748685553263355,0.10890758919089319
2022-05-23,0.12329990252772188,-0.1,-0.1,0.060301559099823404,-0.1,0.09505416643776209,-0.1,-0.1,0.10470095862589521,0.1166434133087974
2022-05-24,-0.07142857142857142,0.14951977849874462,-0.07142857142857142,-0.07142857142857142,-0.07142857142857142,-0.07142857142857142,0.18349741522607463,0.16698280627518075,-0.07142857142857142,-0.07142857142857142
2022-05-25,-0.08333333333333333,0.11898030775549373,-0.08333333333333333,-0.08333333333333333,0.08261627761356106,-0.08333333333333333,0.145579425709358,0.15282398892158713,-0.08333333333333333,-0.08333333333333333
2022-05-26,0.05605501354999059,0.07747977091436611,0.03289096265129719,-0.1,-0.1,-0.1,0.15423354140967005,0.17934071147467592,-0.1,-0.1
2022-05-27,-0.07142857142857142,0.24092395186929258,0.15063239130831468,0.10844365682239265,-0.07142857142857142,-0.07142857142857142,-0.07142857142857142,-0.07142857142857142,-0.07142857142857142,-0.07142857142857142
2022-05-31,0.11867812161479838,0.1608172168732321,0.08451231954301858,-0.09999999999999999,-0.09999999999999999,0.06671951899501023,-0.09999999999999999,-0.09999999999999999,0.0692728229739408,-0.09999999999999999
2022-06-01,-0.08333333333333333,-0.08333333333333333,0.04397656746830714,-0.08333333333333333,0.09230718856554758,-0.08333333333333333,0.17283405304271252,0.1908821909234328,-0.08333333333333333,-0.08333333333333333
2022-06-02,-0.12500000000000006,0.15232414367323152,0.07146692143066972,0.03829541658065413,-0.12500000000000006,0.046778820964802896,-0.12500000000000006,-0.12500000000000006,0.05340469165205059,0.13773000569859112
2022-06-03,-0.08333333333333333,0.10802137751099972,0.0544731249326333,-0.08333333333333333,0.10490954576805882,-0.08333333333333333,-0.08333333333333333,0.2325959517883081,-0.08333333333333333,-0.08333333333333333
2022-06-06,0.09635507845262672,-0.09999999999999999,-0.09999999999999999,-0.09999999999999999,0.12698567971596858,0.036207464697877716,0.21353475239056346,-0.09999999999999999,0.02691702474296361,-0.09999999999999999
2022-06-07,0.0799947462060915,-0.09999999999999998,0.05088910363016604,-0.09999999999999998,0.10988579276725283,-0.09999999999999998,-0.09999999999999998,0.24094420015134208,0.018286157245147622,-0.09999999999999998
2022-06-08,-0.1,-0.1,0.06596541864868041,0.03826612290442562,-0.1,0.027551438205066534,-0.1,0.2458855277298625,-0.1,0.122331492511965
2022-06-09,-0.08333333333333334,-0.08333333333333334,0.07813415632700778,-0.08333333333333334,-0.08333333333333334,-0.08333333333333334,-0.08333333333333334,0.24209518867931923,0.055035838847547265,0.12473481614612578
2022-06-10,0.09966099876462338,-0.12499999999999997,0.08527508165239611,0.06809940617411418,-0.12499999999999997,0.053480478010190236,-0.12499999999999997,-0.12499999999999997,0.055822148343032556,0.1376618870556436
2022-06-13,0.05589841922672545,-0.12499999999999999,0.04338337630690457,-0.12499999999999999,-0.12499999999999999,0.01928641753444641,0.15992019136004584,0.20117621989157916,0.020335375680298664,-0.12499999999999999
2022-06-14,-0.09999999999999999,0.0901643487669711,-0.09999999999999999,-0.09999999999999999,0.0981666828251084,0.0198106106231032,0.12720829880037376,0.16465005898444346,-0.09999999999999999,-0.09999999999999999
2022-06-15,-0.1,-0.1,0.14120908188460604,0.11151721621000975,-0.1,0.0967071030125228,-0.1,-0.1,0.10672221336059211,0.043844385532269305
2022-06-16,0.012329439188226585,0.06698591025409933,0.014290115727005906,-0.16102058747532505,0.09467620636959802,-0.01693823757402497,0.1243963262324021,0.18732200222866793,-0.16102058747532505,-0.16102058747532505
2022-06-17,0.05972566386781137,-0.0997551206091146,0.06337229364933107,-0.0997551206091146,-0.0997551206091146,-0.0997551206091146,0.1568639874357473,0.2200380550471101,-0.0997551206091146,-0.0012243969544269726
2022-06-21,0.04824194594982497,0.11094502851071282,0.06095150443654956,-0.12499999999999999,-0.12499999999999999,0.018683198793825625,-0.12499999999999999,0.2459374807630352,0.015240841546051945,-0.12499999999999999
2022-06-22,0.08291361190419225,0.1533712927596947,-0.125,-0.125,0.164014648714887,0.05126439236769178,-0.125,-0.125,0.039934266619394296,0.008501787634140003
2022-06-23,-0.09999999999999999,-0.09999999999999999,0.046108850236330386,-0.09999999999999999,0.1154300919083039,-0.09999999999999999,0.1333861468682417,0.18063115054733278,0.024443760439791174,-0.09999999999999999
2022-06-24,0.07459475440516151,-0.09999999999999998,-0.09999999999999998,0.02790315877378323,0.15840138881012186,-0.09999999999999998,-0.09999999999999998,0.23279193849425095,-0.09999999999999998,0.006308759516682441
2022-06-27,0.11077850322002891,-0.12500000000000003,0.13231397656591354,0.05043921497621115,-0.12500000000000003,0.09590535128454301,-0.12500000000000003,-0.12500000000000003,0.09007735030407107,0.020485603649232277
2022-06-28,0.07247540859206514,0.1347359998730454,-0.1,-0.1,0.1744667284031789,0.06200010617594251,-0.1,-0.1,0.05632175695576806,-0.1
2022-06-29,-0.0993191574417794,-0.0993191574417794,-0.0993191574417794,-0.0993191574417794,0.16667579531454135,0.05914920575830137,-0.0993191574417794,0.22096076689788532,0.053214232029272036,-0.0034042127911029377
2022-06-30,0.05745791055880932,0.13199162093492042,-0.1536067133023982,-0.0016697453579780004,-0.1536067133023982,0.04471646461793513,-0.1536067133023982,0.23465175797093168,0.031182245917403477,-0.037510114734827356
2022-07-01,-0.09999999999999999,0.09398856376837494,0.05152122749199854,-0.09999999999999999,0.11325157130724252,-0.09999999999999999,0.10943555211929071,0.13180308531309323,-0.09999999999999999,-0.09999999999999999
2022-07-05,0.03272504115966523,0.11095118232276548,0.05354198624071472,-0.15109330218453193,0.13792068333443086,0.028884095041505235,0.13597701190091846,-0.15109330218453193,-0.15109330218453193,-0.046720093446404216
2022-07-06,0.05789180833951885,-0.09999999999999999,0.08188811879078603,0.024082251267183906,-0.09999999999999999,-0.09999999999999999,0.1568152038050795,0.1793226177974318,-0.09999999999999999,-0.09999999999999999
2022-07-07,0.08914261157285688,-0.08333333333333334,0.11542026145943898,-0.08333333333333334,-0.08333333333333334,-0.08333333333333334,-0.08333333333333334,0.22361763512991678,0.07181949183778735,-0.08333333333333334
2022-07-08,0.13526739334765436,-0.1,-0.1,0.09033463581322729,-0.1,0.13402909733068324,-0.1,-0.1,0.10950206530372303,0.030866808204712142
2022-07-11,0.01811107134978246,-0.14428882241238147,-0.14428882241238147,-0.02161013935704917,0.12738652961277847,-0.14428882241238147,0.1482836739579403,0.2034050538449988,0.0028136712344999718,-0.04552339340580639
2022-07-12,-0.09613903811140005,0.0911663636438533,-0.09613903811140005,-0.09613903811140005,0.11159950837035024,-0.09613903811140005,0.12284790744597388,0.17438622053982256,-0.09613903811140005,-0.019304809442999882
2022-07-13,0.015441104315964366,0.10020515761509323,-0.1516192037193743,-0.1516192037193743,-0.1516192037193743,0.025148179202621735,0.14576141019525798,0.21344414867106268,-0.002769086385816283,-0.04237330245606088
2022-07-14,-0.08333333333333333,0.11652891113810979,-0.08333333333333333,0.05862497366453184,0.16454989507331283,-0.08333333333333333,0.16029622012404554,-0.08333333333333333,-0.08333333333333333,-0.08333333333333333
2022-07-15,-0.09859297548815252,0.08705941687617756,-0.09859297548815252,-0.09859297548815252,0.1330906531843752,-0.09859297548815252,0.12665150383684107,0.1531984261026062,-0.09859297548815252,-0.007035122559237387
2022-07-18,-0.08333333333333333,0.09937875503031826,0.10480939138279183,-0.08333333333333333,0.14958885199357622,-0.08333333333333333,0.14622300159331372,-0.08333333333333333,-0.08333333333333333,-0.08333333333333333
2022-07-19,-0.07142857142857142,0.13598264807923902,-0.07142857142857142,-0.07142857142857142,0.1797404685697508,-0.07142857142857142,0.18427688335101025,-0.07142857142857142,-0.07142857142857142,-0.07142857142857142
2022-07-20,-0.055555555555555566,-0.055555555555555566,-0.055555555555555566,-0.055555555555555566,-0.055555555555555566,-0.055555555555555566,-0.055555555555555566,0.5000000000000001,-0.055555555555555566,-0.055555555555555566
2022-07-21,0.02609445354429827,0.1356949292956481,-0.14510683952943657,0.05181653142666836,-0.14510683952943657,0.0429542826444257,-0.14510683952943657,0.21981554177495785,0.02362426131400169,-0.06467948141169025
2022-07-22,-0.09933024566430658,-0.09933024566430658,0.21870669301959922,0.11869689308705501,-0.09933024566430658,0.1011262950274777,-0.09933024566430658,-0.09933024566430658,0.061470118865868076,-0.0033487716784671223
2022-07-25,0.039949685734854676,-0.12500000000000003,0.13783396500230743,0.0566203637729388,-0.12500000000000003,0.04831716083646613,0.2107791622072942,-0.12500000000000003,0.006499662446138686,-0.12500000000000003
2022-07-26,-0.125,0.059370627348198285,0.0805561939094403,-0.125,0.12003114406898709,0.02057237297797559,0.10846025134954417,0.11100941034585463,-0.125,-0.125
2022-07-27,-0.12500000000000003,0.07620693193323971,0.10006319842235091,-0.12500000000000003,-0.12500000000000003,0.03861305588303504,0.12360087723381494,0.12947381395643967,-0.12500000000000003,0.03204212257111958
2022-07-28,0.0589034210944929,0.21420344757602286,-0.07142857142857144,-0.07142857142857144,-0.07142857142857144,-0.07142857142857144,-0.07142857142857144,0.22689313132948422,-0.07142857142857144,-0.07142857142857144
2022-07-29,-0.09999999999999999,0.11120039335797877,-0.09999999999999999,-0.09999999999999999,0.13862252092120336,-0.09999999999999999,0.09222148395541353,0.12304405828120475,-0.09999999999999999,0.034911543484199586
2022-08-01,-0.1,-0.1,0.09028554467119428,-0.1,0.1373082842594768,-0.1,0.09936944036065488,0.13260173134229222,-0.1,0.04043499936638171
2022-08-02,0.02260841095704363,0.14008784936147328,0.10706076694979952,-0.09999999999999998,0.16859066389594962,0.06165230883573389,-0.09999999999999998,-0.09999999999999998,-0.09999999999999998,-0.09999999999999998
2022-08-03,-0.11820219334505237,0.11711727129407434,-0.11820219334505237,-0.11820219334505237,0.1441647455950114,0.03976619930015224,0.08328546988472951,0.11566631392603254,-0.02719122661979039,-0.11820219334505237
2022-08-04,0.048796347789557826,-0.12500000000000003,0.1608373976183364,0.05953272207951214,-0.12500000000000003,0.10685683263553052,-0.12500000000000003,-0.12500000000000003,0.009972634471360842,0.11400406540570235
2022-08-05,0.02004700717385139,-0.09999999999999999,0.09750998114647537,-0.09999999999999999,0.16664030213071712,-0.09999999999999999,-0.09999999999999999,0.14479700009819382,-0.09999999999999999,0.07100570945076229
2022-08-08,0.05701863800281437,-0.09999999999999999,0.1556647076796581,0.07217785659498203,-0.09999999999999999,0.09175105493005412,-0.09999999999999999,-0.09999999999999999,-0.09999999999999999,0.1233877427924914
2022-08-09,-0.08333333333333333,0.1098493247683556,-0.08333333333333333,-0.08333333333333333,0.14499547671655683,-0.08333333333333333,0.12276919491031833,0.12238600360476933,-0.08333333333333333,-0.08333333333333333
2022-08-10,0.05545773594265488,-0.09999999999999998,-0.09999999999999998,0.053698923210502125,0.24770257825695818,-0.09999999999999998,-0.09999999999999998,-0.09999999999999998,0.02918686908505729,0.1139538935048275
2022-08-11,-0.07142857142857142,-0.07142857142857142,0.12267148944467515,-0.07142857142857142,-0.07142857142857142,-0.07142857142857142,0.1852309076296984,0.19209760292562647,-0.07142857142857142,-0.07142857142857142
2022-08-12,-0.07142857142857144,-0.07142857142857144,-0.07142857142857144,-0.07142857142857144,-0.07142857142857144,-0.07142857142857144,0.22348243692905934,0.23319027777914247,0.043327285291798204,-0.07142857142857144
2022-08-15,-0.07142857142857144,0.25473511413006505,-0.07142857142857144,0.05847907975807294,-0.07142857142857144,-0.07142857142857144,-0.07142857142857144,-0.07142857142857144,-0.07142857142857144,0.1867858061118621
2022-08-16,0.0371255887716655,-0.09999999999999999,-0.09999999999999999,0.01797805251825167,-0.09999999999999999,0.08184006309870102,-0.09999999999999999,0.23316615902760565,-0.09999999999999999,0.1298901365837762
2022-08-17,-0.08333333333333333,0.17805328978323773,0.11896393498001272,-0.08333333333333333,-0.08333333333333333,-0.08333333333333333,0.18828907976271092,-0.08333333333333333,0.014693695474038574,-0.08333333333333333
2022-08-18,0.048299695973345436,-0.09999999999999999,-0.09999999999999999,-0.09999999999999999,-0.09999999999999999,0.09104029552030937,-0.09999999999999999,0.20195833917094716,0.014485895199239502,0.1442157741361585
2022-08-19,0.04046985114540294,-0.125,0.10237987814849546,0.02485207209727686,-0.125,-0.125,-0.125,0.19503840278624482,0.0022978908819117363,0.13496190494066818
2022-08-22,-0.07142857142857144,0.1582396529601727,-0.07142857142857144,-0.07142857142857144,-0.07142857142857144,-0.07142857142857144,0.18486028657591977,0.1569000604639075,-0.07142857142857144,-0.07142857142857144
2022-08-23,-0.0625,-0.0625,-0.0625,-0.0625,0.3103025266349375,-0.0625,-0.0625,-0.0625,-0.0625,0.18969747336506254
2022-08-24,-0.09999999999999999,0.15471341927083154,0.032963940245889146,0.030452615049944082,0.11040057901136982,-0.09999999999999999,0.17146944642196543,-0.09999999999999999,-0.09999999999999999,-0.09999999999999999
2022-08-25,0.03585290197934646,-0.16666666666666669,-0.16666666666666669,0.044309226679823614,0.16039751015152906,0.025373885761351408,-0.16666666666666669,0.1552890135102344,0.018538565880390885,0.06023889603732409
2022-08-26,-0.10000000000000002,0.14422473646884895,0.10832847012994762,0.0839810224022736,-0.10000000000000002,-0.10000000000000002,-0.10000000000000002,-0.10000000000000002,0.06281136141513383,0.10065440958379594
2022-08-29,-0.12499999999999997,0.1393292463257375,0.10032729998290155,0.06957279297403646,-0.12499999999999997,0.05725945207635777,-0.12499999999999997,-0.12499999999999997,0.04102053741524415,0.09249067122572262
2022-08-30,-0.06249999999999999,-0.06249999999999999,-0.06249999999999999,-0.06249999999999999,0.3022126351186863,-0.06249999999999999,-0.06249999999999999,-0.06249999999999999,-0.06249999999999999,0.19778736488131374
2022-08-31,-0.00571494486113747,0.07533412544165476,0.05482952455943294,0.02172987947045334,0.1640267734959671,-0.23180339297980765,-0.23180339297980765,0.16902095967862873,-0.03067826917924705,0.015058737353863247
2022-09-01,0.08874176368480464,0.15196375458026157,-0.1,0.09083535242922361,-0.1,-0.1,-0.1,-0.1,0.06161165951314109,0.10684746979256918
2022-09-02,-0.07142857142857142,-0.07142857142857142,-0.07142857142857142,0.13950367883594184,-0.07142857142857142,-0.07142857142857142,-0.07142857142857142,0.25033364616257375,0.11016267500148443,-0.07142857142857142
2022-09-06,-0.08333333333333334,0.13164279390254405,0.12085716587131531,-0.08333333333333334,-0.08333333333333334,-0.08333333333333334,-0.08333333333333334,0.15582602655083552,-0.08333333333333334,0.09167401367530506
2022-09-07,-0.08333333333333333,-0.08333333333333333,-0.08333333333333333,0.04904706127769009,0.11072911060676044,-0.08333333333333333,0.22954711630417782,0.11067671181137158,-0.08333333333333333,-0.08333333333333333
2022-09-08,-0.1,0.06934046704284764,-0.1,-0.1,0.106369326936024,0.02502481836700863,0.20879983843875247,0.09046554921536726,-0.1,-0.1
2022-09-09,0.1339773301301519,0.1822953235717053,-0.07142857142857144,-0.07142857142857144,-0.07142857142857144,-0.07142857142857144,-0.07142857142857144,0.18372734629814272,-0.07142857142857144,-0.07142857142857144
2022-09-12,-0.1,-0.1,-0.1,0.08694774872708678,-0.1,0.10647461277593857,-0.1,0.14226147931437427,0.06410478127193266,0.10021137791066773
2022-09-13,0.10626560080333528,0.14919071205338763,0.1202163566296353,-0.08333333333333331,-0.08333333333333331,-0.08333333333333331,-0.08333333333333331,0.12432733051364189,-0.08333333333333331,-0.08333333333333331
2022-09-14,-0.07142857142857141,-0.07142857142857141,-0.07142857142857141,0.15385258257643766,-0.07142857142857141,-0.07142857142857141,-0.07142857142857141,0.23798245471120935,-0.07142857142857141,0.10816496271235292
2022-09-15,-0.1,-0.1,0.0927894911174464,-0.1,-0.1,0.061467899769038985,0.23481329272590876,0.09670158490480854,-0.1,0.014227731482797297
2022-09-16,0.07678563285254754,-0.08333333333333331,-0.08333333333333331,-0.08333333333333331,0.14265405096337758,-0.08333333333333331,0.19869163640933274,0.08186867977474224,-0.08333333333333331,-0.08333333333333331
2022-09-19,0.14791238940213172,-0.1,-0.1,-0.1,-0.1,0.1037783696960279,-0.1,0.14688824967750647,0.05978239054836688,0.04163860067596698
2022-09-20,-0.07142857142857144,-0.07142857142857144,-0.07142857142857144,-0.07142857142857144,-0.07142857142857144,0.1172207697495447,0.3222368026698134,-0.07142857142857144,-0.07142857142857144,0.0605424275806418
2022-09-21,0.07757164723354501,0.11714526993690048,0.07750999379022361,0.011899428906713635,0.18879152317271755,0.02708213695989957,-0.21667386796561933,-0.21667386796561933,-0.019005113917076582,-0.04764715015168496
2022-09-22,0.06296153330794244,-0.1613061668332269,0.05352656242217252,0.008353490715271571,0.13828524387082414,0.023062697230785207,0.2138104724530041,-0.1613061668332269,-0.016081499500319254,-0.1613061668332269
2022-09-23,0.09721049565409107,0.12544801893296775,0.0685656209300768,-0.12499999999999999,-0.12499999999999999,0.052754980728105846,-0.12499999999999999,0.15037695122671085,-0.12499999999999999,0.005643932528047704
2022-09-26,0.11421902736816494,-0.07142857142857144,-0.07142857142857144,-0.07142857142857144,-0.07142857142857144,-0.07142857142857144,0.22183283762007808,0.16394813501175698,-0.07142857142857144,-0.07142857142857144
2022-09-27,-0.08333333333333336,0.10504876257863252,0.06398463006950454,-0.08333333333333336,0.15858200406570852,-0.08333333333333336,0.17238460328615451,-0.08333333333333336,-0.08333333333333336,-0.08333333333333336
2022-09-28,-0.12499999999999999,0.17195306963365004,0.1106861588995737,0.07498117765096446,-0.12499999999999999,0.08238554940540226,-0.12499999999999999,-0.12499999999999999,0.036181728192260884,0.023812316218148735
2022-09-29,-0.08333333333333333,-0.08333333333333333,-0.08333333333333333,-0.08333333333333333,0.15980721581412305,-0.08333333333333333,0.15855914302468177,0.15743851328271177,0.024195127878483408,-0.08333333333333333
2022-09-30,0.07139001383625902,0.08823368926396048,0.016402126083477606,-0.02063966936833906,0.15896462157561975,-0.006465155764272155,0.16500954924068298,-0.29839473913275116,-0.07863453047257028,-0.09586590526206744
2022-10-03,-0.08333333333333334,0.1413377216352161,-0.08333333333333334,0.08964990428384322,-0.08333333333333334,0.08535840305816945,0.18365397102277123,-0.08333333333333334,-0.08333333333333334,-0.08333333333333334
2022-10-04,0.0967408275731636,0.11221319782117822,0.061937461705549327,-0.12500000000000003,-0.12500000000000003,0.05391156656493654,0.1625610901296889,-0.12500000000000003,0.01263585620548337,-0.12500000000000003
2022-10-05,0.08546783600046617,0.098456551205337,0.05628426544345746,-0.10000000000000002,0.12169320982120742,-0.10000000000000002,0.13809813752953193,-0.10000000000000002,-0.10000000000000002,-0.10000000000000002
2022-10-06,0.16926180638343913,-0.10000000000000002,0.12060577086046896,0.1174175799105327,-0.10000000000000002,-0.10000000000000002,-0.10000000000000002,-0.10000000000000002,0.05199540893490424,0.04071943391065488
2022-10-07,0.08788090863492605,0.11167805805801895,-0.1,-0.1,0.12631501946794246,-0.1,-0.1,0.16864309668535557,-0.1,0.005482917153756913
2022-10-10,0.09679502676044852,0.11657635313928914,0.0634301906427493,-0.09999999999999999,-0.09999999999999999,-0.09999999999999999,0.18798399598495857,-0.09999999999999999,-0.09999999999999999,0.03521443347255446
2022-10-11,-0.1,0.10103985849425082,0.052934562552342995,0.08528876506739759,-0.1,0.07456802852595183,-0.1,0.18616878536005682,-0.1,-0.1
2022-10-12,0.09106587354982569,-0.09999999999999998,-0.09999999999999998,0.11272389174972855,-0.09999999999999998,0.08330769036358941,0.17764379922820603,-0.09999999999999998,0.03525874510865035,-0.09999999999999998
2022-10-13,-0.12500000000000003,-0.12500000000000003,0.06461111879448463,0.13683993296665628,0.12561594279735488,0.10331072784891372,-0.12500000000000003,-0.12500000000000003,0.03917646030077691,0.030445817291813403
2022-10-14,-0.10000000000000002,0.081155933175083,-0.10000000000000002,0.06690042324455367,0.072574216231666,-0.10000000000000002,0.13023252244819225,0.14913690490050505,-0.10000000000000002,-0.10000000000000002
2022-10-17,-0.08333333333333334,0.1943376219182188,-0.08333333333333334,0.17124804359669216,-0.08333333333333334,-0.08333333333333334,-0.08333333333333334,-0.08333333333333334,0.07097278927913915,0.06344154520594984
2022-10-18,0.059647371518916616,-0.1,-0.1,-0.1,0.09030129292350411,-0.1,0.15902251040440119,0.1829732208068461,-0.1,0.008055604346331978
2022-10-19,0.04692011360485812,0.11407823111565858,0.007717303920801262,0.08720765460353452,-0.21139649309680045,0.05535412326675379,0.1887225734883937,-0.21139649309680045,-0.0387972333956128,-0.03840978041078624
2022-10-20,0.060133504142168934,0.09652136531727036,-0.1,0.09070315326632145,-0.1,0.06357292950558832,-0.1,0.18906904776865097,-0.1,-0.1
2022-10-21,0.10185663533195168,-0.09999999999999998,0.06381778750794187,-0.09999999999999998,-0.09999999999999998,0.10737838685846719,0.19944603873631322,-0.09999999999999998,-0.09999999999999998,0.02750115156532599
2022-10-24,-0.07142857142857141,-0.07142857142857141,-0.07142857142857141,-0.07142857142857141,0.11994093051549136,-0.07142857142857141,0.16709939594160528,0.2129596735429034,-0.07142857142857141,-0.07142857142857141
2022-10-25,0.09199458861357726,-0.09999999999999998,-0.09999999999999998,0.11170050323515039,-0.09999999999999998,-0.09999999999999998,-0.09999999999999998,0.24520165401162,0.03552345767595586,0.015579796463696475
2022-10-26,0.008909612801676438,-0.1971645102129766,0.059680929374007805,0.0413895471214618,-0.1971645102129766,0.0767368390264111,0.13073256930387017,0.1825505023725729,-0.04087777644305737,-0.06479320313098921
2022-10-27,0.08928075482078446,-0.09999999999999999,0.10944592006954014,-0.09999999999999999,-0.09999999999999999,0.11946438721143976,0.16246050510791513,-0.09999999999999999,0.01934843279032062,-0.09999999999999999
2022-10-28,0.06825536004747926,0.11893121237603921,-0.14932868992796886,0.056343408969250934,-0.14932868992796886,0.09886816307467705,-0.14932868992796886,0.1576018555325536,-0.00973249593195341,-0.042281434284140045
2022-10-31,-0.11323021888401331,-0.11323021888401331,-0.11323021888401331,0.029152575557732204,0.26058502503205316,-0.11323021888401331,0.1017337352785344,0.10852866413168039,-0.01226266154247572,-0.03481646292147096
2022-11-01,-0.08333333333333334,-0.08333333333333334,-0.08333333333333334,0.13222015987838837,-0.08333333333333334,-0.08333333333333334,0.24806130486114908,-0.08333333333333334,0.08505729002422407,0.03466124523623846
2022-11-02,-0.08333333333333333,-0.08333333333333333,-0.08333333333333333,0.08900448641767696,-0.08333333333333333,-0.08333333333333333,0.19247424827281875,0.20619834453427377,-0.08333333333333333,0.012322920775230508
2022-11-03,-0.125,0.07019329065414882,0.06598544530762182,0.0041284515592015635,0.2430326860507852,0.05035375909225869,0.06630636733598386,-0.125,-0.125,-0.125
2022-11-04,-0.08333333333333334,-0.08333333333333334,0.10295967856548073,-0.08333333333333334,0.2835116926911364,0.0872084116725363,-0.08333333333333334,-0.08333333333333334,0.026320217070846575,-0.08333333333333334
2022-11-07,0.09982865204891915,-0.11489491737477148,0.1376766146181152,-0.11489491737477148,-0.11489491737477148,0.11403030214735867,0.11996051443906462,-0.11489491737477148,0.028503916746542398,-0.040420330500914
2022-11-08,-0.09402317156486392,-0.09402317156486392,0.09951068405406624,0.02454816810365946,0.2930440135490292,0.08289713429324505,-0.09402317156486392,-0.09402317156486392,-0.09402317156486392,-0.029884142175680462
2022-11-09,0.050587050457995414,0.09625187761548328,-0.1,-0.1,0.20729812121790242,0.05030749335834306,0.0955554573502759,-0.1,-0.1,-0.1
2022-11-10,0.06951585505037691,0.12634039115384638,0.08852933880085881,-0.09999999999999999,-0.09999999999999999,-0.09999999999999999,0.107652470707961,0.10796194428695695,-0.09999999999999999,-0.09999999999999999
2022-11-11,0.06134781304860665,-0.11934296668262429,0.0791983772074158,-0.022628133269502956,0.25403141751067626,-0.11934296668262429,0.1001767330459455,-0.11934296668262429,0.005245659187355821,-0.11934296668262429
2022-11-14,-0.08333333333333334,-0.08333333333333334,0.10375646414343281,-0.08333333333333334,0.26483962803012334,-0.08333333333333334,0.1201852481111344,-0.08333333333333334,-0.08333333333333334,0.011218659715309555
2022-11-15,0.13277175621757248,-0.125,0.1609473342098134,0.003022270585683623,-0.125,0.13208152939822154,-0.125,-0.125,0.052006210612820944,0.019170898975888084
2022-11-16,0.132887070890819,-0.12499999999999999,0.16069246283575506,0.003151123872116718,-0.12499999999999999,0.1317474958786216,-0.12499999999999999,-0.12499999999999999,0.05181287926719655,0.019708967255491035
2022-11-17,0.08527145399988229,-0.11514756809809175,-0.11514756809809175,-0.03721903363916984,0.30653337347207144,0.08449222075021433,-0.11514756809809175,-0.11514756809809175,0.02370295177783195,-0.0021906939684632003
2022-11-18,-0.08333333333333336,-0.08333333333333336,-0.08333333333333336,0.017459748467604466,-0.08333333333333336,0.16841577002769756,0.2557705299589825,-0.08333333333333336,-0.08333333333333336,0.058353951545715474
2022-11-21,-0.06250000000000001,-0.06250000000000001,-0.06250000000000001,-0.06250000000000001,-0.06250000000000001,-0.06250000000000001,0.3427999487650323,-0.06250000000000001,0.15720005123496777,-0.06250000000000001
2022-11-22,-0.0625,-0.0625,-0.0625,-0.0625,-0.0625,-0.0625,0.2589594508436142,0.24104054915638568,-0.0625,-0.0625
2022-11-23,-0.09999999999999999,-0.09999999999999999,-0.09999999999999999,0.010068935344711377,-0.09999999999999999,0.12204494497654302,-0.09999999999999999,0.23632584939888518,0.0798844736020523,0.05167579667780818
2022-11-25,-0.08333333333333334,0.18296582250406304,-0.08333333333333334,-0.08333333333333334,-0.08333333333333334,-0.08333333333333334,-0.08333333333333334,0.20287112999835288,0.06805617861956854,0.0461068688780156
2022-11-28,-0.08333333333333334,-0.08333333333333334,-0.08333333333333334,0.04462537959497616,0.22678036457076461,0.14853824851952915,-0.08333333333333334,-0.08333333333333334,-0.08333333333333334,0.08005600731473003
2022-11-29,-0.1,-0.1,0.05920682248794642,-0.1,0.10299996257649374,0.05314641707495009,0.14570250010704966,0.13894429775356,-0.1,-0.1
2022-11-30,0.10663178406109838,-0.08333333333333333,-0.08333333333333333,-0.08333333333333333,0.14689040646998575,-0.08333333333333333,0.2116806216644027,-0.08333333333333333,-0.08333333333333333,0.034797187804513074
2022-12-01,-0.10000000000000003,-0.10000000000000003,-0.10000000000000003,-0.10000000000000003,0.14322819446925006,0.08272053240408113,-0.10000000000000003,0.20477963297765775,0.04149201334582074,0.02777962680319032
2022-12-02,0.06276406750782777,-0.16293328123132572,0.04526855644656648,-0.16293328123132572,0.12510460073834576,0.051251181185904,0.20778415002238393,-0.16293328123132572,0.007827444098972125,-0.011200156306022818
2022-12-05,-0.1247876338203195,-0.1247876338203195,0.09075321135489416,-0.0008494647187218943,-0.1247876338203195,0.09141714841902845,-0.1247876338203195,0.23612721166537085,0.05186208742614588,0.029840341134560786
2022-12-06,-0.15042621200000533,0.12078813643356154,-0.15042621200000533,-0.03852313947087084,0.13058645826053794,0.04513585680324175,0.19416364836594832,-0.15042621200000533,0.009325900136710428,-0.010198224529113124
2022-12-07,-0.0625,0.21012248625737254,-0.0625,-0.0625,-0.0625,-0.0625,0.2898775137426275,-0.0625,-0.0625,-0.0625
2022-12-08,0.07204077218120539,-0.08333333333333334,-0.08333333333333334,-0.08333333333333334,0.15706809925910153,-0.08333333333333334,-0.08333333333333334,0.23423340105867044,0.03665772750102261,-0.08333333333333334
2022-12-09,0.055006937889196895,0.06601338972449775,-0.16071506907710942,-0.017854792768671864,-0.16071506907710942,0.06461734531030067,0.23293935897829043,-0.16071506907710942,0.021666728270036066,0.0597562398276781
2022-12-12,-0.1,0.05977093400760881,0.06625637091742162,-0.1,0.14727789560470303,0.05108112420757406,0.1756136752626925,-0.1,-0.1,-0.1
2022-12-13,-0.12181233377083595,-0.12181233377083595,0.10394765220542254,0.01636325529157236,0.22890220535835445,0.09507329382578687,-0.12181233377083595,-0.12181233377083595,0.05571359331886366,-0.012750664916656265
2022-12-14,-0.08333333333333333,-0.08333333333333333,-0.08333333333333333,0.05669355769798674,-0.08333333333333333,-0.08333333333333333,-0.08333333333333333,0.3351535783231319,0.09109575597422652,0.01705710800465478
2022-12-15,-0.09999999999999999,0.09646545845615326,0.11057978926880861,0.02846177678329472,0.20490977634015947,-0.09999999999999999,-0.09999999999999999,-0.09999999999999999,0.05958319915158395,-0.09999999999999999
2022-12-16,-0.08333333333333334,-0.08333333333333334,-0.08333333333333334,0.05394669265803042,-0.08333333333333334,-0.08333333333333334,-0.08333333333333334,0.339939770812114,0.0904224376328152,0.015691098897040387
2022-12-19,0.06099167230408034,0.06959628193826771,0.0779879523626694,-0.031551928358592704,0.21769476518284836,0.07040244489670358,-0.1962843025988341,-0.1962843025988341,0.0033268833154306583,-0.07587946644373915
2022-12-20,0.07726932415922631,0.08150379120467471,-0.08333333333333331,-0.08333333333333331,0.169555758024327,-0.08333333333333331,0.17167112661177208,-0.08333333333333331,-0.08333333333333331,-0.08333333333333331
2022-12-21,0.0847435242748278,-0.14992020537707357,0.08549704581937641,-0.00901393755962997,0.22095156744826178,0.09017452021165606,-0.14992020537707357,-0.14992020537707357,0.018633342245877996,-0.041225446309149295
2022-12-22,-0.1,0.11617509124769004,0.10572241662584944,0.020680918246453375,0.2154289869962882,-0.1,-0.1,-0.1,0.04199258688371887,-0.1
2022-12-23,0.07993812292213102,-0.14908918607503469,0.09659633207211085,-0.011752149973741344,0.21921550770020257,0.0871503042879098,-0.14908918607503469,-0.14908918607503469,0.017099733017645877,-0.04098029180115447
2022-12-27,-0.08333333333333333,-0.08333333333333333,-0.08333333333333333,0.004356625264836601,-0.08333333333333333,-0.08333333333333333,0.20863539188744523,0.259705087054391,0.02730289579332717,-0.08333333333333333
2022-12-28,-0.07142857142857144,-0.07142857142857144,-0.07142857142857144,-0.07142857142857144,0.11827949688901745,-0.07142857142857144,0.1542523910032492,0.22746811210773327,-0.07142857142857144,-0.07142857142857144
2022-12-29,0.10257060575426995,-0.07142857142857142,-0.07142857142857142,0.033033411474502554,-0.07142857142857142,-0.07142857142857142,-0.07142857142857142,0.3643959827712276,-0.07142857142857142,-0.07142857142857142
2022-12-30,-0.1571315770418708,0.13339298153841275,0.0776356928170056,-0.012080843255951853,0.22736217088592675,0.0608098438372871,-0.1571315770418708,-0.1571315770418708,0.0007993109213677057,-0.01652442561843564
2023-01-03,0.027392287019839354,-0.10808408412108783,-0.10808408412108783,-0.04673240472074675,0.09175434275096167,-0.10808408412108783,0.13071514294625405,0.250138227282945,-0.02093125879490192,-0.10808408412108783
2023-01-04,0.15869764912931483,-0.09999999999999999,-0.09999999999999999,0.019882508511583043,0.22555816746334184,-0.09999999999999999,-0.09999999999999999,-0.09999999999999999,0.05857507296508846,0.037286601930671875
2023-01-05,0.10851082823750938,0.11460860127207323,-0.08333333333333334,-0.08333333333333334,-0.08333333333333334,-0.08333333333333334,0.2391502481885056,-0.08333333333333334,0.03773032230191176,-0.08333333333333334
2023-01-06,-0.07142857142857142,0.06705653708310372,-0.07142857142857142,-0.07142857142857142,-0.07142857142857142,-0.07142857142857142,0.14970694151690575,0.2832365213999905,-0.07142857142857142,-0.07142857142857142
2023-01-09,-0.08333333333333333,0.11173617482598087,-0.08333333333333333,-0.08333333333333333,0.1336845291718423,-0.08333333333333333,0.22036041786297106,-0.08333333333333333,0.034218878139205766,-0.08333333333333333
2023-01-10,0.05262311021612705,0.08189648452927467,0.03756997032520946,-0.1,-0.1,0.03746893816083093,-0.1,0.29044149676855785,-0.1,-0.1
2023-01-11,-0.07142857142857141,-0.07142857142857141,-0.07142857142857141,-0.07142857142857141,0.147608659702449,0.10553386472485596,0.24685747557269502,-0.07142857142857141,-0.07142857142857141,-0.07142857142857141
2023-01-12,0.09208676846957389,0.13129301380611416,0.06751255032444448,-0.007063799192794195,-0.09858724016144116,-0.09858724016144116,0.20910766739986744,-0.09858724016144116,-0.09858724016144116,-0.09858724016144116
2023-01-13,0.05013342828712038,-0.07142857142857144,-0.07142857142857144,-0.07142857142857144,-0.07142857142857144,-0.07142857142857144,0.15216423458432465,0.2977023371285551,-0.07142857142857144,-0.07142857142857144
2023-01-17,0.13718010436228648,0.21083775251431489,0.10404365839033507,-0.08333333333333334,-0.08333333333333334,-0.08333333333333334,-0.08333333333333334,-0.08333333333333334,0.04793848473306353,-0.08333333333333334
2023-01-18,0.15815007479404355,-0.0833333333333333,0.12416693330839983,-0.0833333333333333,0.1596574892411381,-0.0833333333333333,-0.0833333333333333,-0.0833333333333333,0.05802550265641858,-0.0833333333333333
2023-01-19,-0.09999999999999996,0.0593062770459877,0.022391246011141477,-0.09999999999999996,-0.09999999999999996,0.02553615178251105,0.13988934613280504,0.25287697902755474,-0.09999999999999996,-0.09999999999999996
2023-01-20,-0.07142857142857142,-0.07142857142857142,-0.07142857142857142,-0.07142857142857142,0.0425185936406506,-0.07142857142857142,0.1754951207076037,0.28198628565174577,-0.07142857142857142,-0.07142857142857142
2023-01-23,0.02183320050174346,-0.11318415198009545,-0.11318415198009545,-0.02209148645418253,0.019326797106439846,-0.11318415198009545,0.16238512353046122,0.29645487886135535,-0.11318415198009545,-0.025171905625435677
2023-01-24,-0.09401920725703333,0.0679953068597082,-0.09401920725703333,-0.011071552813792495,-0.09401920725703333,-0.09401920725703333,0.1551984403501353,0.2768062527901565,-0.018832410901040743,-0.09401920725703333
2023-01-25,-0.07142857142857141,-0.07142857142857141,-0.07142857142857141,-0.07142857142857141,0.0799791532712206,0.08899083613536944,-0.07142857142857141,0.33103001059341,-0.07142857142857141,-0.07142857142857141
2023-01-26,-0.09763728758617093,0.06094611555476896,-0.09763728758617093,-0.09763728758617093,0.03451655446042309,-0.09763728758617093,0.11821708447640152,0.28632024550840635,-0.011813562069145354,-0.09763728758617093
2023-01-27,0.0645565879409767,0.1621214619506971,0.12871362073690923,0.012743404828028191,-0.1655228169182502,0.11873415314568217,-0.1655228169182502,-0.1655228169182502,0.013130771397706697,-0.0034315492452493177
2023-01-30,-0.1,0.04863239231299883,0.0339354521744668,-0.1,-0.1,0.03123364819700739,0.12315922893459358,0.26303927838093333,-0.1,-0.1
2023-01-31,-0.07142857142857142,-0.07142857142857142,-0.07142857142857142,-0.07142857142857142,0.06656688908120735,-0.07142857142857142,0.1808155717655747,0.2526175391532179,-0.07142857142857142,-0.07142857142857142
2023-02-01,-0.07142857142857142,0.1093520619393592,0.0998685239180909,-0.07142857142857142,0.2907794141425499,-0.07142857142857142,-0.07142857142857142,-0.07142857142857142,-0.07142857142857142,-0.07142857142857142
2023-02-02,-0.006386696197312825,-0.10842291899229291,-0.10842291899229291,-0.014102086113886853,0.28438980293579047,-0.10842291899229291,-0.10842291899229291,0.21561019706420942,-0.02459840604166184,-0.021221135677966785
2023-02-03,-0.08939892282567212,-0.08939892282567212,-0.08939892282567212,-0.018812434100850095,0.22002089745412243,-0.08939892282567212,0.11527393490727358,0.16470516763860416,-0.03419295177078928,-0.08939892282567212
2023-02-06,-0.08333333333333331,-0.08333333333333331,0.08382314219426087,-0.08333333333333331,0.24015506692402863,0.04450780032475409,0.13151399055695642,-0.08333333333333331,-0.08333333333333331,-0.08333333333333331
2023-02-07,-0.10961618521556357,-0.10961618521556357,-0.10961618521556357,-0.006269251822165171,-0.10961618521556357,0.0668941078542379,0.1864830552012512,0.24662283694451084,-0.030104336917335155,-0.025161670398245354
2023-02-08,0.03219735807077065,-0.09512598251740338,-0.09512598251740338,-0.09512598251740338,-0.09512598251740338,-0.09512598251740338,0.2037430515276554,0.2640595904015739,-0.014722935750933655,-0.00964715166204951
2023-02-09,0.015631519225091407,0.1884484419653852,0.21923832581031003,-0.007056877320302891,-0.14111172968777377,0.07668171299921336,-0.14111172968777377,-0.14111172968777377,-0.039417689856946284,-0.030190243759429507
2023-02-10,-0.013491127370466751,0.08913759116004392,-0.1116557962509193,-0.1116557962509193,0.2501817581535209,0.02762097807448208,0.1330596726119531,-0.1116557962509193,-0.1116557962509193,-0.03988568762585603
2023-02-13,-0.0625,-0.0625,-0.0625,-0.0625,-0.0625,-0.0625,0.22265135995399252,0.2773486400460075,-0.0625,-0.0625
2023-02-14,0.012619535109544944,0.12142697265632124,0.14859660725477436,-0.09442643946332732,-0.09442643946332732,-0.09442643946332732,-0.09442643946332732,0.21735688497935943,-0.09442643946332732,-0.027867802683363464
2023-02-15,0.10047942288999104,-0.09999999999999998,0.3425128982045618,0.011393178526810304,-0.09999999999999998,-0.09999999999999998,-0.09999999999999998,-0.09999999999999998,0.022695386327056526,0.022919114051580376
2023-02-16,-0.07709909888440351,-0.07709909888440351,-0.07709909888440351,-0.022074618145281392,0.2796824369947286,-0.07709909888440351,-0.07709909888440351,0.2203175630052714,-0.07709909888440351,-0.015330788548297489
2023-02-17,-0.09343013932778702,-0.09343013932778702,-0.09343013932778702,-0.01214013635198235,0.4020857869318169,0.09791421306818301,-0.09343013932778702,-0.09343013932778702,-0.009508390149513485,-0.01120077685956916
2023-02-21,0.022099994089363625,0.11405644735119501,-0.08333333333333331,-0.08333333333333331,-0.08333333333333331,-0.08333333333333331,0.14000306852587896,0.22384049003356246,-0.08333333333333331,-0.08333333333333331
2023-02-22,-0.05555555555555556,-0.05555555555555556,-0.05555555555555556,-0.05555555555555556,-0.05555555555555556,-0.05555555555555556,0.4999999999999999,-0.05555555555555556,-0.05555555555555556,-0.05555555555555556
2023-02-23,-0.08333333333333333,-0.08333333333333333,-0.08333333333333333,0.008235991411474075,0.45774610013427675,-0.08333333333333333,-0.08333333333333333,-0.08333333333333333,0.010239120590139093,0.02377878786411011
2023-02-24,-0.07142857142857144,-0.07142857142857144,-0.07142857142857144,0.0014547707112047997,-0.07142857142857144,-0.07142857142857144,0.27580740016721816,0.222737829121577,-0.07142857142857144,-0.07142857142857144
2023-02-27,-0.08200397169789507,0.14906691472987485,-0.08200397169789507,-0.007976169812629578,0.347758524506756,-0.08200397169789507,-0.08200397169789507,-0.08200397169789507,-0.08200397169789507,0.0031745607633692254
2023-02-28,-0.07762946457320934,-0.07762946457320934,0.1554084916841396,-0.004598875015455203,0.34459150831586044,-0.07762946457320934,-0.07762946457320934,-0.07762946457320934,-0.02962433754528883,-0.07762946457320934
2023-03-01,-0.013723828534502032,-0.12003337011319752,0.08265377567541617,-0.12003337011319752,0.24520947420396,0.016111790763266978,0.15602495935735683,-0.12003337011319752,-0.07831614176355722,-0.04785991936234817
2023-03-02,0.04859353292341259,0.11387280899426304,-0.08333333333333333,-0.08333333333333333,0.11398747079810141,-0.08333333333333333,-0.08333333333333333,0.22354618728422299,-0.08333333333333333,-0.08333333333333333
2023-03-03,0.10839824245557957,-0.08333333333333333,0.23485384854593472,-0.08333333333333333,-0.08333333333333333,0.13177846377022745,-0.08333333333333333,-0.08333333333333333,0.024969445228258263,-0.08333333333333333
2023-03-06,-0.11870227747705596,0.02257181752790614,0.10722569929110395,-0.11870227747705596,0.08984745931102592,0.03559667351757362,0.24475835035239027,-0.11870227747705596,-0.11870227747705596,-0.02519089009177619
2023-03-07,0.026464235009161563,0.03759063477840151,0.0960374391726317,-0.1,0.09327224880903726,-0.1,0.24663544223076803,-0.1,-0.1,-0.1
2023-03-08,0.06888138759426127,0.08993830693643724,0.09957334946243014,-0.1614320213214738,0.1671895860640121,0.06682839734501718,-0.1614320213214738,-0.1614320213214738,-0.015703936035578615,0.007588972597842125
2023-03-09,-0.07142857142857142,-0.07142857142857142,-0.07142857142857142,0.11719881637754422,-0.07142857142857142,-0.07142857142857142,-0.07142857142857142,0.34050107274056074,-0.07142857142857142,0.042300110881894976
2023-03-10,0.03610168795913587,0.051674128297996884,0.026711602492321705,-0.12500000000000003,0.08016909352973614,0.04014283422485745,-0.12500000000000003,0.265200653495952,-0.12500000000000003,-0.12500000000000003
2023-03-13,-0.07142857142857142,-0.07142857142857142,-0.07142857142857142,-0.07142857142857142,0.09460695319575758,-0.07142857142857142,0.21022054332428589,0.19517250347995654,-0.07142857142857142,-0.07142857142857142
2023-03-14,0.01185170862343064,0.04048289029194379,0.03294926796162715,-0.1512300885233385,0.11481381074360111,0.020706665964769565,0.2791956564146276,-0.1512300885233385,-0.1512300885233385,-0.04630973442998457
2023-03-15,-0.09999999999999999,0.05993137581881594,0.05335956172032797,-0.09999999999999999,0.10400265875209044,0.04824260437746268,0.23446379933130293,-0.09999999999999999,-0.09999999999999999,-0.09999999999999999
2023-03-16,0.043696136158445247,-0.11921246236023912,0.08051135505174319,-0.11921246236023912,-0.11921246236023912,0.06473512792141072,0.3110573808684009,-0.11921246236023912,-0.0029977925812375928,-0.020152357977805985
2023-03-17,-0.0017567331011009652,-0.13303696606471305,-0.13303696606471305,0.06342416061989775,0.09486158803370418,-0.13303696606471305,0.20089999110634965,0.14081426024004828,-0.04173243101196114,-0.05739993769279887
2023-03-20,-0.08333333333333334,0.07855498880265185,0.07495113586274306,0.12399691801115688,-0.08333333333333334,-0.08333333333333334,-0.08333333333333334,0.22249695732344826,-0.08333333333333334,-0.08333333333333334
2023-03-21,0.02829179934874055,-0.1146605950374032,-0.1146605950374032,-0.1146605950374032,0.154696843343488,0.05504933626406434,0.26196202104370714,-0.1146605950374032,-0.0024274483147246183,-0.038930171535662625
2023-03-22,-0.08333333333333334,-0.08333333333333334,0.09674674819077068,-0.08333333333333334,0.17732963884575703,0.08222080390939204,0.14370280905408025,-0.08333333333333334,-0.08333333333333334,-0.08333333333333334
2023-03-23,0.06400674833698854,-0.09813854479776088,0.11599658441843533,-0.09813854479776088,0.22402478695359188,0.09597188029098432,-0.09813854479776088,-0.09813854479776088,-0.09813854479776088,-0.009307276011195556
2023-03-24,-0.09689979109792873,0.08777694300821305,-0.09689979109792873,0.1571033714463297,-0.09689979109792873,-0.09689979109792873,-0.09689979109792873,0.23611430995708327,0.019005375588373948,-0.015501044510356414
2023-03-27,0.05866764507975491,-0.0984894823318211,-0.0984894823318211,0.18302327295733317,-0.0984894823318211,0.09093106885974843,0.16737801310316358,-0.0984894823318211,-0.0984894823318211,-0.007552588340894322
2023-03-28,0.005157406267647818,0.051085082762813275,-0.12500000000000003,-0.12500000000000003,0.1297694270927962,0.031687451211979245,0.09075970673963914,0.19154092592512437,-0.12500000000000003,-0.12500000000000003
2023-03-29,0.001390492478669161,0.054482061823642326,-0.14507916745677663,-0.14507916745677663,0.14088612353078867,0.028506763872604726,0.09337332607689659,0.18136123221739847,-0.14507916745677663,-0.06476249762967018
2023-03-30,-0.06250000000000001,-0.06250000000000001,0.17800031697374577,-0.06250000000000001,-0.06250000000000001,-0.06250000000000001,-0.06250000000000001,0.32199968302625426,-0.06250000000000001,-0.06250000000000001
2023-03-31,-0.0047364058199005285,-0.1451517891133328,0.09696512674756648,0.14951888378693803,0.14169726113688338,-0.1451517891133328,0.1118187283286122,-0.1451517891133328,-0.009419269558130263,-0.05038895728197081
2023-04-03,0.025092555513106303,0.10112824823488495,0.12360937006666334,-0.1,0.16964458857577772,0.08052523760956772,-0.1,-0.1,-0.1,-0.1
2023-04-04,-0.1,-0.1,0.1517471170032786,0.20471156533623283,-0.1,0.10631796491358989,-0.1,-0.1,0.03601258697770427,0.0012107657691944015
2023-04-05,-0.07142857142857144,-0.07142857142857144,0.16587587443650453,-0.07142857142857144,0.20985456518082765,0.12426956038266788,-0.07142857142857144,-0.07142857142857144,-0.07142857142857144,-0.07142857142857144
2023-04-06,-0.1,0.14079331581948504,-0.1,0.1699129742103327,-0.1,-0.1,0.15568101467915696,-0.1,0.03132276835706312,0.002289926933962255
2023-04-10,-0.09673139740026766,-0.09673139740026766,-0.09673139740026766,0.10699457069200735,0.148952076526801,-0.09673139740026766,-0.09673139740026766,0.24204077552815403,0.0020125772530374224,-0.01634301299866175
2023-04-11,0.01018165230086163,-0.14994177103249173,0.14460382212186382,0.1273137090138463,0.1256048472909255,0.0922959692725027,-0.14994177103249173,-0.14994177103249173,-0.019209239162344335,-0.030965447740180462
2023-04-12,0.006789290100351229,0.08978703779419547,0.08091879061242871,-0.125,0.07132944594575423,0.04502821180730705,-0.125,0.20614722373996341,-0.125,-0.125
2023-04-13,-0.07142857142857142,-0.07142857142857142,0.16278264891826902,0.2160644675746907,-0.07142857142857142,-0.07142857142857142,0.12115288350704036,-0.07142857142857142,-0.07142857142857142,-0.07142857142857142
2023-04-14,-0.11715145792733313,0.08771182700835797,-0.11715145792733313,0.10087985905859916,-0.11715145792733313,0.041371518497069104,0.04482080146196587,0.22521599397400802,-0.11715145792733313,-0.03139416829066739
2023-04-17,0.09676660258031185,-0.08333333333333333,-0.08333333333333333,0.21850161890840067,-0.08333333333333333,-0.08333333333333333,0.15200108843865287,-0.08333333333333333,-0.08333333333333333,0.03273069007263467
2023-04-18,0.07877233344112677,0.17179998943900682,-0.1,-0.1,-0.1,0.09912109142156424,0.13567609959406285,-0.1,-0.1,0.014630486104239301
2023-04-19,0.0158238113836926,0.12029771649379964,0.1227609275982442,0.13731926345412465,0.05908809049894642,0.04471019057119251,-0.19748412652443903,-0.19748412652443903,-0.04020428478312153,-0.06482746216800037
2023-04-20,-0.07142857142857144,0.1530150070595649,-0.07142857142857144,-0.07142857142857144,-0.07142857142857144,-0.07142857142857144,-0.07142857142857144,0.33048103289139846,-0.07142857142857144,0.016503960049036686
2023-04-21,0.0527484349236849,-0.12101761301177193,0.12704303489952126,0.1385862504182151,0.07386997593269445,-0.12101761301177193,0.10775230382588419,-0.12101761301177193,-0.12101761301177193,-0.01592954795291229
2023-04-24,0.07769818713689251,-0.08333333333333333,-0.08333333333333333,-0.08333333333333333,-0.08333333333333333,-0.08333333333333333,-0.08333333333333333,0.36821515937792193,0.04191586234350687,0.012170791141678728
2023-04-25,-0.08333333333333333,0.15161610994763994,-0.08333333333333333,-0.08333333333333333,0.07475874307762802,0.1531940189729733,0.1204311280017588,-0.08333333333333333,-0.08333333333333333,-0.08333333333333333
2023-04-26,-0.08333333333333334,0.08620744377255146,0.05511745262066654,-0.08333333333333334,0.17168966467321634,-0.08333333333333334,-0.08333333333333334,0.18698543893356567,-0.08333333333333334,-0.08333333333333334
2023-04-27,-0.022678918376828075,-0.14136416634499435,-0.14136416634499435,0.03807650473917924,0.1731865343629149,0.06313812347715092,0.02711054399227954,0.19848829342847543,-0.053228582588188765,-0.14136416634499435
2023-04-28,-0.08099085558786201,-0.08099085558786201,-0.08099085558786201,0.11729340612328948,0.2599680116189451,-0.08099085558786201,0.12273858225776543,-0.08099085558786201,-0.08099085558786201,-0.014054866472828003
2023-05-01,0.026442018817440228,0.1541953835101575,-0.09378307444407849,-0.09378307444407849,-0.09378307444407849,0.11858738462553507,-0.09378307444407849,0.2007752130468671,-0.09378307444407849,-0.03108462777960757
2023-05-02,-0.10973775286246802,0.13923732658929738,0.06552657806018447,-0.10973775286246802,-0.10973775286246802,0.10570898352881501,-0.10973775286246802,0.18952711182170312,-0.010841418425993428,-0.050207570124134515
2023-05-03,-0.09149576471004922,0.15488223907377985,-0.09149576471004922,-0.09149576471004922,-0.09149576471004922,0.12693119677788609,-0.09149576471004922,0.2085592477313934,0.009627316416940656,-0.042521176449753936
2023-05-04,0.07957811908549828,-0.08333333333333333,-0.08333333333333333,-0.08333333333333333,-0.08333333333333333,-0.08333333333333333,0.13926289049672388,0.2477259518316864,0.033433038586091535,-0.08333333333333333
2023-05-05,-0.07897356183790066,-0.07897356183790066,0.08632715301691438,-0.07897356183790066,-0.07897356183790066,-0.07897356183790066,0.14940343488732025,0.26426941209576527,-0.07897356183790066,-0.02615862897259593
2023-05-08,-0.09181875382858193,0.1523804545817331,0.06837548503897593,-0.09181875382858193,0.25415336780568804,-0.09181875382858193,-0.09181875382858193,-0.09181875382858193,0.02509069257360303,-0.04090623085709036
2023-05-09,0.05681201449928763,0.14204519535177804,0.08013301730612918,-0.1,-0.1,0.10762075552792193,0.11338901731488314,-0.1,-0.1,-0.1
2023-05-10,-0.08333333333333334,0.09083686585367197,0.06778796982662619,-0.08333333333333334,0.1774695050929234,-0.08333333333333334,-0.08333333333333334,0.16390565922677833,-0.08333333333333334,-0.08333333333333334
2023-05-11,0.097959349688471,-0.09369215070638884,0.17035084713281928,-0.09369215070638884,-0.09369215070638884,0.18186102728092052,-0.09369215070638884,-0.09369215070638884,0.04982877589778924,-0.03153924646805581
2023-05-12,-0.09999999999999999,0.12436310981083958,-0.09999999999999999,0.027339413754928363,0.22944652810581878,-0.09999999999999999,0.11518215472678944,-0.09999999999999999,0.0036687936016238623,-0.09999999999999999
2023-05-15,-0.08333333333333333,0.14886914663216486,0.09963576021539461,-0.08333333333333333,-0.08333333333333333,0.11888843796298137,0.1326066551894591,-0.08333333333333333,-0.08333333333333333,-0.08333333333333333
2023-05-16,-0.08333333333333333,0.12174400138742628,-0.08333333333333333,0.04769749025172763,-0.08333333333333333,-0.08333333333333333,0.11662396728303866,0.21393454107780746,-0.08333333333333333,-0.08333333333333333
2023-05-17,-0.07142857142857144,0.13682408204956673,-0.07142857142857144,-0.07142857142857144,0.2267195871053037,-0.07142857142857144,0.1364563308451296,-0.07142857142857144,-0.07142857142857144,-0.07142857142857144
2023-05-18,0.04331005152302376,-0.12499999999999997,0.09685647486390632,0.05599744730525642,-0.12499999999999997,0.11874292760790334,-0.12499999999999997,0.1777030703720397,0.00739002832787054,-0.12499999999999997
2023-05-19,-0.08333333333333334,-0.08333333333333334,0.07379322374982113,-0.08333333333333334,0.20192446507222747,0.0832420709342059,-0.08333333333333334,0.14104024024374553,-0.08333333333333334,-0.08333333333333334
2023-05-22,-0.08168652171560123,0.1516285289656023,-0.08168652171560123,0.07440490898677278,0.27396656204762493,-0.08168652171560123,-0.08168652171560123,-0.08168652171560123,-0.08168652171560123,-0.009880869706392664
2023-05-23,0.07837048763649483,0.15040960476664433,-0.07142857142857142,-0.07142857142857142,0.27121990759686077,-0.07142857142857142,-0.07142857142857142,-0.07142857142857142,-0.07142857142857142,-0.07142857142857142
2023-05-24,-0.0625,-0.0625,-0.0625,-0.0625,-0.0625,0.047407218851401214,0.4525927811485988,-0.0625,-0.0625,-0.0625
2023-05-25,-0.08333333333333333,0.052994988705974154,-0.08333333333333333,-0.08333333333333333,0.014807618814335163,-0.08333333333333333,0.3382489083248968,0.09394848415479388,-0.08333333333333333,-0.08333333333333333
2023-05-26,0.015690249761313075,0.038017059448070295,-0.08333333333333333,-0.08333333333333333,-0.08333333333333333,-0.08333333333333333,0.3456142287638753,0.10067846202674122,-0.08333333333333333,-0.08333333333333333
2023-05-30,0.06453250226694618,-0.11929683468556804,0.12202478128355224,-0.11929683468556804,0.055232113343899436,-0.11929683468556804,-0.11929683468556804,0.21911028321400572,0.03910031989159633,-0.02281266125772783
2023-05-31,-0.07142857142857142,-0.07142857142857142,-0.07142857142857142,-0.07142857142857142,0.0389564347872817,-0.07142857142857142,0.42595984228020645,-0.07142857142857142,0.03508372293251188,-0.07142857142857142
2023-06-01,-0.09991552421681099,0.12754442683670975,-0.09991552421681099,0.06586139455604623,-0.09991552421681099,-0.09991552421681099,-0.09991552421681099,0.23121651779437194,0.07537766081287203,-0.00042237891594502144
2023-06-02,-0.09892628113396415,0.11759082418319419,0.12020694550218652,-0.09892628113396415,-0.09892628113396415,0.06952543644733254,-0.09892628113396415,0.19267679386728673,-0.09892628113396415,-0.005368594330179176
2023-06-05,-0.08333333333333331,0.12228042738553895,0.12296143465787915,-0.08333333333333331,-0.08333333333333331,-0.08333333333333331,-0.08333333333333331,0.19510292496965814,0.05965521298692378,-0.08333333333333331
2023-06-06,0.03776596904858162,-0.09999999999999998,-0.09999999999999998,0.09635494990417112,-0.09999999999999998,-0.09999999999999998,-0.09999999999999998,0.25480054426758886,0.09499093940953254,0.016087597370125793
2023-06-07,-0.023978027391097344,0.05912184093286736,-0.08910521369188013,-0.08910521369188013,-0.08910521369188013,-0.08910521369188013,0.36407679988890457,0.07680135917822813,-0.08910521369188013,-0.03049590414950193
2023-06-08,-0.07012003410689599,-0.07012003410689599,-0.07012003410689599,-0.07012003410689599,-0.07012003410689599,-0.07012003410689599,0.39443063274612417,0.1055693672538759,-0.07012003410689599,-0.009159761251728004
2023-06-09,-0.040208684360047195,0.0474507750388605,-0.11494782890998818,-0.11494782890998818,0.007159013919862291,0.007603160647340299,0.38248147132676713,0.055305579067169826,-0.11494782890998818,-0.11494782890998818
2023-06-12,-0.0625,-0.0625,-0.0625,-0.0625,-0.0625,-0.0625,0.40947978939714,0.09052021060286003,-0.0625,-0.0625
2023-06-13,-0.08012554245539154,-0.08012554245539154,-0.08012554245539154,-0.08012554245539154,0.03815345988699643,0.04231335264464951,0.419533187468354,-0.08012554245539154,-0.08012554245539154,-0.01924674526765071
2023-06-14,0.02492019673923156,-0.125,0.10927886333285028,0.02498916599698832,0.12455415135202115,0.13834368597406763,-0.125,-0.125,0.07791393660484114,-0.125
2023-06-15,-0.09559041731148961,-0.09559041731148961,-0.09559041731148961,-0.02204791344255203,0.027997073313987732,-0.09559041731148961,0.3958993871642686,0.06843085817837317,0.007672681343370529,-0.09559041731148961
2023-06-16,-0.07142857142857142,-0.07142857142857142,-0.07142857142857142,-0.07142857142857142,0.03939697640323694,-0.07142857142857142,0.37269057289890284,0.08791245069786015,-0.07142857142857142,-0.07142857142857142
2023-06-20,0.03280550808264635,0.19562660150725314,-0.12500000000000003,0.029093095039674985,0.14302854198203488,-0.12500000000000003,-0.12500000000000003,-0.12500000000000003,0.09747750131478178,0.001968752073608884
2023-06-21,-0.0005967955123606146,0.1368705433868174,0.06887072481473903,-0.09988064089752789,-0.09988064089752789,0.09806203721617884,-0.09988064089752789,0.19619669458226477,-0.09988064089752789,-0.09988064089752789
2023-06-22,0.000519417431928828,0.21821149726521366,0.10390074470870342,0.01698694400192807,0.1222076040864477,-0.15853893122000304,-0.15853893122000304,-0.15853893122000304,0.038173792505778445,-0.024383206339990738
2023-06-23,0.028711765029661853,0.22172533956616472,-0.12278803029029474,0.03751861740982537,-0.12278803029029474,0.14605841187349233,-0.12278803029029474,-0.12278803029029474,0.06598586612085573,-0.008847878838820957
2023-06-26,-0.012111052329170974,-0.09757778953416582,-0.09757778953416582,-0.09757778953416582,0.06669260212221705,0.05104504239581045,0.1823469576161076,0.199915397865865,-0.09757778953416582,-0.09757778953416582
2023-06-27,0.014231416122473153,-0.09760989508633708,0.09637596667642073,-0.09760989508633708,-0.09760989508633708,0.09928832746628574,-0.09760989508633708,0.2901042897348204,-0.09760989508633708,-0.011950524568314662
2023-06-28,-0.07142857142857142,-0.07142857142857142,-0.07142857142857142,0.08101899935072529,-0.07142857142857142,-0.07142857142857142,-0.07142857142857142,0.33335564544323154,0.08562535520604327,-0.07142857142857142
2023-06-29,0.022441617624396667,0.1350469244876898,-0.09999999999999998,-0.09999999999999998,0.12156884819522863,-0.09999999999999998,0.21772939643827402,-0.09999999999999998,-0.09999999999999998,0.0032132132544108612
2023-06-30,-0.06250000000000001,-0.06250000000000001,-0.06250000000000001,0.0920300091037152,-0.06250000000000001,-0.06250000000000001,-0.06250000000000001,0.40796999089628483,-0.06250000000000001,-0.06250000000000001
2023-07-03,-0.08333333333333333,-0.08333333333333333,0.08348820581935198,-0.08333333333333333,0.11180680425323475,-0.08333333333333333,-0.08333333333333333,0.27314213200255055,0.031562857924862714,-0.08333333333333333
2023-07-05,0.04148066403944683,-0.09999999999999999,-0.09999999999999999,-0.09999999999999999,-0.09999999999999999,0.12964711565278683,0.2531844569571356,-0.09999999999999999,0.0566012931111792,0.01908647023945159
2023-07-06,-0.07142857142857142,0.1522416937527378,-0.07142857142857142,0.08879787222513129,-0.07142857142857142,-0.07142857142857142,0.258960434022131,-0.07142857142857142,-0.07142857142857142,-0.07142857142857142
2023-07-07,-0.08333333333333334,-0.08333333333333334,-0.08333333333333334,0.10911984796117427,0.21254192080869172,-0.08333333333333334,-0.08333333333333334,-0.08333333333333334,0.09354801340611808,0.0847902178240159
2023-07-10,-0.08333333333333334,0.1545713606677973,-0.08333333333333334,0.09268593510314205,0.17860693043144318,-0.08333333333333334,-0.08333333333333334,-0.08333333333333334,0.0741357737976175,-0.08333333333333334
2023-07-11,-0.08333333333333334,0.09198262811116337,0.0878122745506763,-0.08333333333333334,0.12977582444465138,-0.08333333333333334,0.19042927289350894,-0.08333333333333334,-0.08333333333333334,-0.08333333333333334
2023-07-12,-0.08333333333333334,0.06350082567657553,0.08515257285551305,-0.08333333333333334,-0.08333333333333334,-0.08333333333333334,0.1376411529628474,0.21370544850506396,-0.08333333333333334,-0.08333333333333334
2023-07-13,-0.12194400903786831,0.06824918178839864,0.09753897296083912,0.01418457008634597,-0.12194400903786831,0.0569801499458755,-0.12194400903786831,0.26304712521854073,-0.12194400903786831,-0.012223963848526713
2023-07-14,0.02225537548615996,-0.08333333333333334,-0.08333333333333334,0.04889972805038629,-0.08333333333333334,-0.08333333333333334,0.15813492780523117,0.27070996865822267,-0.08333333333333334,-0.08333333333333334
2023-07-17,-0.07142857142857144,-0.07142857142857144,-0.07142857142857144,-0.07142857142857144,-0.07142857142857144,0.08363729919158734,0.15772954401188247,0.2586331567965303,-0.07142857142857144,-0.07142857142857144
2023-07-18,0.0485183246355907,0.14982299882701572,-0.09999999999999999,0.0849338214884583,0.17366851434827388,-0.09999999999999999,-0.09999999999999999,-0.09999999999999999,0.04305634070066139,-0.09999999999999999
2023-07-19,0.03932087050326166,-0.125,0.18217542355538924,0.07507667947518024,-0.125,0.14037790964180305,-0.125,-0.125,0.03432408296902729,0.02872503385533844
2023-07-20,0.052133839248984716,0.1602899092520818,0.18627142978293668,-0.09999999999999996,-0.09999999999999996,-0.09999999999999996,-0.09999999999999996,-0.09999999999999996,0.054353870738378635,0.046950950977618235
2023-07-21,-0.07142857142857141,-0.07142857142857141,0.12641470078288938,0.0507776158156598,-0.07142857142857141,-0.07142857142857141,-0.07142857142857141,0.3228076834014508,-0.07142857142857141,-0.07142857142857141
2023-07-24,0.011991842354893398,-0.09999999999999998,0.09819799055723,-0.09999999999999998,0.1411343946803391,0.07985538926675309,0.16882038314078446,-0.09999999999999998,-0.09999999999999998,-0.09999999999999998
2023-07-25,0.02685533954849636,-0.1,0.19946706633550665,0.06655767569113813,0.17505418920612828,-0.1,-0.1,-0.1,-0.1,0.03206572921873064
2023-07-26,-0.08333333333333331,0.08376762001576635,0.13545490458892162,-0.08333333333333331,0.14142887802977977,-0.08333333333333331,0.13934859736553232,-0.08333333333333331,-0.08333333333333331,-0.08333333333333331
2023-07-27,-0.10000000000000002,0.05086403414385745,0.08439689526676648,-0.10000000000000002,0.09883756310338424,0.0640565627916335,-0.10000000000000002,0.20184494469435824,-0.10000000000000002,-0.10000000000000002
2023-07-28,-0.02109515437088927,0.08289847288782731,0.13180319978899274,-0.00031564592387110807,-0.11303325003696854,-0.11303325003696854,-0.11303325003696854,0.28529832732317983,-0.026456199557365504,-0.11303325003696854
2023-07-31,0.029619195205131857,-0.08333333333333333,-0.08333333333333333,-0.08333333333333333,0.25744108571179747,0.18405809095942285,-0.08333333333333333,-0.08333333333333333,0.028881628123647834,-0.08333333333333333
2023-08-01,0.12059363108054758,-0.08333333333333333,-0.08333333333333333,0.16238064605881636,-0.08333333333333333,-0.08333333333333333,-0.08333333333333333,-0.08333333333333333,0.10572311845009545,0.11130260441054067
2023-08-02,-0.09766587570033036,0.09762276127938938,-0.09766587570033036,0.007313295069214949,-0.09766587570033036,-0.09766587570033036,0.1551406071415336,0.23992333650986208,-0.011670621498348304,-0.09766587570033036
2023-08-03,-0.08327026442856755,0.20245922060773197,-0.08327026442856755,-0.08327026442856755,-0.08327026442856755,0.1252080457546142,0.1723327336376539,-0.08327026442856755,-0.00037841342859458205,-0.08327026442856755
2023-08-04,-0.10616356033110426,0.145265430261605,0.1019202536712669,-0.10616356033110426,0.12926758387091203,-0.10616356033110426,0.12354673219621606,-0.10616356033110426,-0.02993507781123194,-0.04541068086435098
2023-08-07,0.07011590489702416,-0.09510484689255332,0.1494084550867055,0.015059808355043048,-0.09510484689255332,-0.09510484689255332,-0.09510484689255332,0.26541583166122734,-0.09510484689255332,-0.02447576553723341
2023-08-08,0.04773204566323267,0.2028120458527198,0.1427491630306294,-0.00281076313176561,-0.13470302814694574,0.10670674545341811,-0.13470302814694574,-0.13470302814694574,-0.03734667034787137,-0.05573348207952569
2023-08-09,-0.08209318867385487,0.17165704467155304,-0.08209318867385487,-0.08209318867385487,-0.08209318867385487,0.0990058610916105,-0.08209318867385487,0.22933709423683643,-0.007440867956870692,-0.08209318867385487
2023-08-10,0.08128409217494734,0.24180847866051355,0.1489034889820969,0.02800394018244223,-0.1145682468450483,-0.1145682468450483,-0.1145682468450483,-0.1145682468450483,-0.009754369389584544,-0.03197264323022211
2023-08-11,-0.08333333333333333,0.13813080117834176,0.08067601986979463,-0.08333333333333333,0.11775486543252031,-0.08333333333333333,0.16343831351934335,-0.08333333333333333,-0.08333333333333333,-0.08333333333333333
2023-08-14,0.05761431904494319,-0.11358002221728417,0.12731752403167543,-0.11358002221728417,-0.11358002221728417,0.07645415656211618,0.23861400036126512,-0.11358002221728417,-0.013562783280662488,-0.03211712785020091
2023-08-15,0.04648503252055241,-0.14038972421856655,0.12481258542306717,0.006257549986506443,-0.14038972421856655,0.07021745467613635,0.2522273773937376,-0.14038972421856655,-0.029167845729073775,-0.0496629816152266
2023-08-16,-0.11826923953272736,0.16564393250326265,0.08915780381585407,-0.0009629025929918884,-0.11826923953272736,0.04935994132413169,0.1958383223567516,-0.11826923953272736,-0.025960139276098484,-0.11826923953272736
2023-08-17,0.08547215287383407,-0.12446453655287319,-0.12446453655287319,0.03152000453465565,-0.12446453655287319,0.09862716015505454,0.28438068243645576,-0.12446453655287319,-0.000773551852614985,-0.0013683019358924123
2023-08-18,-0.07142857142857144,-0.07142857142857144,-0.07142857142857144,-0.07142857142857144,0.12381494685408537,-0.07142857142857144,0.21063080872237488,0.16555424442353972,-0.07142857142857144,-0.07142857142857144
2023-08-21,0.02866000994273028,0.1563709482617735,0.08466955920310533,-0.13751493140357274,-0.13751493140357274,0.034764353655978034,-0.13751493140357274,0.19553512893641306,-0.044398604484811005,-0.043056601304470775
2023-08-22,0.06149321443808454,-0.08333333333333333,0.054418971941152826,-0.08333333333333333,0.13994130948441078,-0.08333333333333333,0.2441465041363519,-0.08333333333333333,-0.08333333333333333,-0.08333333333333333
2023-08-23,-0.08333333333333333,-0.08333333333333333,-0.08333333333333333,0.05048982767357349,-0.08333333333333333,-0.08333333333333333,0.3925857685744459,-0.08333333333333333,0.02562688642656522,0.03129751732541549
2023-08-24,0.07966099168977504,0.17807822492989595,-0.09865554924966591,-0.09865554924966591,-0.09865554924966591,0.029572147721989267,-0.09865554924966591,0.2126886356583397,-0.00672225375167053,-0.09865554924966591
2023-08-25,0.0785043522179402,-0.08333333333333331,0.0584263784935598,-0.08333333333333331,0.09918991466582525,-0.08333333333333331,0.2638793546226748,-0.08333333333333331,-0.08333333333333331,-0.08333333333333331
2023-08-28,-0.08333333333333333,-0.08333333333333333,0.04011684942643941,-0.08333333333333333,0.07103107016278827,-0.08333333333333333,0.2051330386268455,0.18371904178392684,-0.08333333333333333,-0.08333333333333333
2023-08-29,0.11489892154584,-0.08333333333333333,0.07583735260158306,-0.08333333333333333,-0.08333333333333333,-0.08333333333333333,0.29512590790847604,-0.08333333333333333,-0.08333333333333333,0.014137817944100954
2023-08-30,-0.08333333333333333,0.15549497750541663,-0.08333333333333333,-0.08333333333333333,0.10140791678445317,-0.08333333333333333,-0.08333333333333333,0.23813788094157992,-0.08333333333333333,0.004959224768550153
2023-08-31,0.08342865007588554,0.1016747514964565,0.09763758490613336,0.012668592431924044,0.17672980205556033,0.027860619034040114,-0.16075358297621864,-0.16075358297621864,-0.017739251071344116,-0.16075358297621864
2023-09-01,-0.07142857142857142,-0.07142857142857142,-0.07142857142857142,-0.07142857142857142,0.12947250409889186,0.047673699479298545,-0.07142857142857142,0.3228537964218096,-0.07142857142857142,-0.07142857142857142
2023-09-05,-0.12499999999999999,-0.12499999999999999,0.11929966392200592,0.05059615468524331,0.2084454322388273,0.06625215064474989,-0.12499999999999999,-0.12499999999999999,0.018314349771371873,0.03709224873780177
2023-09-06,-0.11810383810917699,0.052603082276626675,0.03901130909815565,-0.11810383810917699,0.094109941460868,-0.11810383810917699,-0.11810383810917699,0.3142756671643497,-0.022498461266410665,-0.005086186296881302
2023-09-07,0.1801221201668865,0.11936431225826659,0.09879701293751317,0.026565230749715937,-0.16484643023050563,0.05143411107874198,-0.16484643023050563,-0.16484643023050563,-0.0054607093084831785,0.02371721280887569
2023-09-08,-0.07142857142857142,0.07833521862804983,-0.07142857142857142,-0.07142857142857142,0.1023149778389974,-0.07142857142857142,-0.07142857142857142,0.31934980353295284,-0.07142857142857142,-0.07142857142857142
2023-09-11,-0.08333333333333331,-0.08333333333333331,-0.08333333333333331,0.07050594455195358,-0.08333333333333331,-0.08333333333333331,0.3444877445982763,-0.08333333333333331,0.030412399700166626,0.054593911149603484
2023-09-12,-0.12163576638671644,0.0318135216231894,-0.0016305111983256778,-0.12163576638671644,0.056156231075964125,-0.01182642325480851,0.14140007508323496,0.27063017221761154,-0.12163576638671644,-0.12163576638671644
2023-09-13,0.07062607632777197,-0.12108734747610336,0.01699271562763963,-0.015650610095586576,0.08075745978022833,0.007177877322917631,-0.12108734747610336,0.3244458709414424,-0.12108734747610336,-0.12108734747610336
2023-09-14,0.09352551266877118,-0.11479279654688879,0.038914707769705785,-0.0016261847758011444,-0.11479279654688879,-0.11479279654688879,-0.11479279654688879,0.36755977956152314,-0.006427409921817782,-0.03277521911482602
2023-09-15,0.10261876306410547,-0.12371104305953239,0.024188293796270844,-0.0037340958273777945,0.11960103533031204,-0.12371104305953239,0.2535919078093116,-0.12371104305953239,-0.0014217319344924967,-0.12371104305953239
2023-09-18,0.07602902687682984,-0.13849782985670406,0.002406897233491937,-0.02497362715729782,0.08524234862977932,0.01495172642190307,-0.13849782985670406,0.32137000083799583,-0.13849782985670406,-0.05953288327259002
2023-09-19,-0.08333333333333333,-0.08333333333333333,-0.08333333333333333,0.02293818437840546,-0.08333333333333333,-0.08333333333333333,-0.08333333333333333,0.42814149140978697,0.04677329301865689,0.002147031193150595
2023-09-20,0.17065242778524128,-0.1,-0.1,0.024386482281090385,0.1861253698294984,0.10902713303719405,-0.1,-0.1,-0.1,0.009808587066975813
2023-09-21,0.08624442629455885,0.12774497308809338,0.04872901907238194,-0.11662467965524577,0.09873861583897758,-0.11662467965524577,0.13854296570598826,-0.11662467965524577,-0.11662467965524577,-0.033501281379016916
2023-09-22,0.048671409019769026,0.08346545881805831,0.0233749889300074,-0.1,-0.1,-0.1,0.08952330217672395,0.2549648410554413,-0.1,-0.1
2023-09-25,-0.09404719571627691,-0.09404719571627691,-0.09404719571627691,-0.004759668514000219,0.08234881862595783,-0.09404719571627691,0.11158669254482026,0.3060644888292219,-0.09404719571627691,-0.02500435290461523
2023-09-26,-0.08333333333333334,-0.08333333333333334,0.12864245259579332,0.05678382959787747,-0.08333333333333334,0.11888593651998818,0.19568778128634107,-0.08333333333333334,-0.08333333333333334,-0.08333333333333334
2023-09-27,-0.09991649933104801,-0.09991649933104801,0.04454428614011377,-0.00041750334475995274,0.08165582748853274,-0.09991649933104801,0.0903892495045717,0.2834106368667817,-0.09991649933104801,-0.09991649933104801
2023-09-28,0.04757968947974731,0.10792822241550701,-0.1,-0.1,-0.1,0.023846749677945023,0.07404999960971773,0.24659533881708287,-0.1,-0.1
2023-09-29,0.06295394166413373,0.14070326928238663,0.05556716343665538,-0.12499999999999999,0.09016572765727206,0.03970096128542292,0.11090893667412935,-0.12499999999999999,-0.12499999999999999,-0.12499999999999999
2023-10-02,0.16807725277263888,-0.1,0.16312785273718616,0.066008845051747,-0.1,-0.1,-0.1,-0.1,0.08016941705294016,0.022616632385487813
2023-10-03,-0.07142857142857144,0.1576078554411659,0.0816580310290715,-0.07142857142857144,-0.07142857142857144,-0.07142857142857144,-0.07142857142857144,0.26073411352976267,-0.07142857142857144,-0.07142857142857144
2023-10-04,0.07896445457418447,-0.1,-0.1,0.041135260038694284,-0.1,0.12218776633172143,0.1927858677871175,-0.1,0.06492665126828234,-0.1
2023-10-05,0.008831901569475284,0.15688388284977278,0.059248646127053474,-0.023170654283676654,0.1098769952414514,0.05271554173098515,0.11244303248126189,-0.1589431152387745,-0.1589431152387745,-0.1589431152387745
2023-10-06,0.04813271432194798,0.15425085695776947,0.09205748452349893,-0.09999999999999999,0.12107332453729155,0.0844856196594921,-0.09999999999999999,-0.09999999999999999,-0.09999999999999999,-0.09999999999999999
2023-10-09,-0.1195407477525889,0.12988735767796217,-0.1195407477525889,-0.1195407477525889,0.08823057214673986,-0.1195407477525889,0.11408800613697656,0.15471895801722482,0.013075106021096511,-0.021837008989644465
2023-10-10,-0.10000000000000002,0.13108081082818127,0.07862352929780732,-0.10000000000000002,0.10017207115917932,0.06407577891460593,0.12604780980022615,-0.10000000000000002,-0.10000000000000002,-0.10000000000000002
2023-10-11,0.058819871353388106,0.1946288318309395,-0.1,-0.1,-0.1,-0.1,0.18723036320934341,-0.1,0.039778187999685,0.019542745606644003
2023-10-12,0.08273333777707861,-0.12499999999999999,0.17069985733121382,0.03951712218438902,-0.12499999999999999,0.12158682548818933,-0.12499999999999999,-0.12499999999999999,0.054759835373635525,0.03070302184549378
2023-10-13,-0.09999999999999999,0.13639762709291967,0.08603983258261476,-0.09999999999999999,0.09525324630085194,0.05785509012554642,0.12445420389806715,-0.09999999999999999,-0.09999999999999999,-0.09999999999999999
2023-10-16,-0.15606884421646797,-0.15606884421646797,0.10692680854613272,-0.011738418184000843,0.11977624423549278,0.0668855915024511,-0.15606884421646797,0.2064113557159235,-0.0034596073696868367,-0.016595441796908396
2023-10-17,0.0642214057098145,-0.12499999999999997,0.15951135816242643,0.052352561217767636,-0.12499999999999997,0.11768511432366947,-0.12499999999999997,-0.12499999999999997,0.06608460881603224,0.040144951770289865
2023-10-18,0.004589341573570345,0.15290158714340016,0.06953499147106104,-0.004247479846710017,-0.15880484332146172,0.05448433286965323,0.21848974694231532,-0.15880484332146172,-0.15880484332146172,-0.019337990188904787
2023-10-19,0.039253095740348805,-0.1666666666666667,0.11868981667884944,0.02761957563021556,0.19062941328761335,0.09505997246067573,-0.1666666666666667,-0.1666666666666667,0.020374017287048823,0.008374108915248245
2023-10-20,-0.09999999999999999,0.1288109525575545,-0.09999999999999999,-0.09999999999999999,0.11633911922856091,0.05654167938665514,0.18713726745829215,-0.09999999999999999,-0.09999999999999999,0.01117098136893724
2023-10-23,-0.11867181964917682,0.07356032134373401,0.03385714390326209,-0.11867181964917682,-0.11867181964917682,-0.11867181964917682,0.15263740007112134,0.23994513468188253,-0.01707374038544704,-0.008238981017845717
2023-10-24,0.007542709037006954,-0.125,-0.125,0.020382620753358702,-0.125,0.08204597028302497,-0.125,0.35492111494714124,0.013317739800498014,0.0217898451789701
2023-10-25,-0.07142857142857142,0.3092615437595917,-0.07142857142857142,0.08962010390343912,-0.07142857142857142,-0.07142857142857142,-0.07142857142857142,-0.07142857142857142,-0.07142857142857142,0.10111835233696918
2023-10-26,0.013422384790848103,0.16159956152743027,-0.08333333333333331,-0.08333333333333331,0.12311843300844275,-0.08333333333333331,-0.08333333333333331,0.20185962067327887,-0.08333333333333331,-0.08333333333333331
2023-10-27,-0.05692236095723333,0.14783415561843632,0.12355593107054313,-0.03909463192131473,0.08436763454025838,0.019048085652926983,0.1251941931178353,-0.17847971342964652,-0.04702358026215879,-0.17847971342964652
2023-10-30,-0.07142857142857144,-0.07142857142857144,-0.07142857142857144,0.08437971415749887,-0.07142857142857144,-0.07142857142857144,-0.07142857142857144,0.3461315386959491,0.0694887471465521,-0.07142857142857144
2023-10-31,-0.09999999999999999,0.11949018628029733,-0.09999999999999999,-0.09999999999999999,0.08989490392601726,0.029175802503959673,0.11936769090752371,0.14207141638220214,-0.09999999999999999,-0.09999999999999999
2023-11-01,0.021470031645270452,-0.10000000000000002,-0.10000000000000002,0.03116268255280187,-0.10000000000000002,-0.10000000000000002,0.17954311439405193,0.2466925702424079,0.02113160116546788,-0.10000000000000002
2023-11-02,-0.09999999999999999,-0.09999999999999999,0.14707276172857517,0.022100801716036865,0.11269434414542781,0.04691642597224371,0.1712156664377163,-0.09999999999999999,-0.09999999999999999,-0.09999999999999999
2023-11-03,-0.001877918233845274,0.1508633432473207,0.14074344102423295,0.007574097076760566,-0.12453052044153867,0.03336517450567305,0.1674539441460127,-0.12453052044153867,-0.12453052044153867,-0.12453052044153867
2023-11-06,0.011067405839729798,0.14354287975690486,-0.1,-0.1,0.09847690277150027,0.0378611045919514,-0.1,0.20905170703991366,-0.1,-0.1
2023-11-07,0.00799825597378917,-0.12499999999999997,0.15132870764149206,0.013570958168340154,0.10884943216733671,0.03981896863920358,0.17843367740983823,-0.12499999999999997,-0.12499999999999997,-0.12499999999999997
2023-11-08,0.03051422305512173,-0.1184072994160973,-0.1184072994160973,0.037041378042503195,0.14224858221742895,0.06773417528742995,0.22246164139751612,-0.1184072994160973,-0.1184072994160973,-0.026370802335610722
2023-11-09,-0.009164535823534057,0.11184494811119448,-0.12270886604411647,-0.12270886604411647,0.06123490863941117,0.013315929656791466,0.11928225052794371,0.19432196306465915,-0.12270886604411647,-0.12270886604411647
2023-11-10,-0.07142857142857142,-0.07142857142857142,-0.07142857142857142,-0.07142857142857142,-0.07142857142857142,-0.07142857142857142,0.19688538630858515,0.2962417467201534,-0.07142857142857142,0.006872866971261403
2023-11-13,-0.08333333333333333,0.11334228376524795,-0.08333333333333333,-0.08333333333333333,0.07085894220363013,-0.08333333333333333,0.10063750987476944,0.21516126415635245,-0.08333333333333333,-0.08333333333333333
2023-11-14,0.01920802430808796,-0.11772809606853675,0.15314386960232365,0.02270085340174474,-0.11772809606853675,-0.11772809606853675,-0.11772809606853675,0.29951584843749873,0.005431404250344901,-0.029087615725853118
2023-11-15,-0.025524992960241695,0.15626658181326672,0.15065318984622605,-0.01927020152543644,0.07106769273838753,0.011141968498884339,0.11087056710323531,-0.20072072133722607,-0.05376336283986976,-0.20072072133722607
2023-11-16,0.00932206312607461,0.15319729374995503,-0.1234998364838905,0.015286420340254181,0.09078865077110264,-0.1234998364838905,-0.1234998364838905,0.2314055720126135,-0.006000654064437954,-0.1234998364838905
2023-11-17,0.06284471680324742,-0.08333333333333333,-0.08333333333333333,-0.08333333333333333,0.15147392862008618,0.11058776675856531,0.1750935878181011,-0.08333333333333333,-0.08333333333333333,-0.08333333333333333
2023-11-20,-0.08333333333333333,-0.08333333333333333,0.1575800950160698,-0.08333333333333333,-0.08333333333333333,-0.08333333333333333,-0.08333333333333333,0.2241381504891443,0.013492455503878084,0.1047892989909078
2023-11-21,0.02774932745830419,0.19123193006576508,0.03406070045694937,0.03380596782775315,0.11036751899741082,0.09805470865073637,-0.16666666666666669,-0.16666666666666669,0.004729846543081048,-0.16666666666666669
2023-11-22,-0.11778613732616877,0.11420613424016715,-0.11778613732616877,0.01665503860308528,-0.11778613732616877,0.01864601909058879,-0.11778613732616877,0.24161144321871192,-0.028855450695324934,0.10888136484744695
2023-11-24,-0.1,0.056319823776876374,-0.1,-0.1,-0.1,0.02428304790850049,0.08636977955100801,0.22668565079539219,-0.1,0.1063416979682231
2023-11-27,-0.08333333333333334,-0.08333333333333334,-0.08333333333333334,-0.08333333333333334,0.05832540973164121,0.046179392208185156,-0.08333333333333334,0.25355511666955993,-0.08333333333333334,0.14194008139061381
2023-11-28,0.07812224780082823,0.14531002066117307,-0.09999999999999999,0.0254261336216729,-0.09999999999999999,-0.09999999999999999,0.22442113192248933,-0.09999999999999999,0.026720465993836585,-0.09999999999999999
2023-11-29,0.04988758390132497,0.10584214569224397,-0.12500000000000003,0.00454639454903848,-0.12500000000000003,0.08803339804246708,-0.12500000000000003,-0.12500000000000003,0.00012676838450945886,0.25156370943041606
2023-11-30,0.06970856434573716,0.14437525184494618,-0.09999999999999999,0.02527770789879217,-0.09999999999999999,-0.09999999999999999,0.24932185148061695,-0.09999999999999999,0.01131662442990756,-0.09999999999999999
2023-12-01,0.09540419591604775,-0.08333333333333334,-0.08333333333333334,0.041526957764894255,-0.08333333333333334,-0.08333333333333334,-0.08333333333333334,-0.08333333333333334,0.0398747728970057,0.32319407342205214
2023-12-04,0.016110681750053788,0.06321840680891397,0.05066667557829962,-0.10000000000000002,-0.10000000000000002,-0.10000000000000002,0.11918340413163822,0.2508208317310945,-0.10000000000000002,-0.10000000000000002
2023-12-05,0.03426338947818488,-0.09778792460222681,0.07639851641158177,-0.09778792460222681,0.08439157658002984,-0.09778792460222681,-0.09778792460222681,0.3049465175302035,-0.011060376988865946,-0.09778792460222681
2023-12-06,-0.08333333333333333,0.09170194723511792,0.139970856020072,-0.08333333333333333,0.10361795764470921,-0.08333333333333333,0.16470923910010082,-0.08333333333333333,-0.08333333333333333,-0.08333333333333333
2023-12-07,0.0076678028382184725,-0.1190388732214438,-0.1190388732214438,-0.02384450711422492,0.08319751908884192,0.049317866671795725,0.14520351204270063,0.21461329935844325,-0.1190388732214438,-0.1190388732214438
2023-12-08,-0.08333333333333333,-0.08333333333333333,-0.08333333333333333,0.045765803589384126,-0.08333333333333333,0.13835621115010632,-0.08333333333333333,-0.08333333333333333,0.00807899286749889,0.30779899239301073
2023-12-11,-0.1137414752734723,0.09058386008976536,-0.1137414752734723,-0.011750520065085555,0.14429548255885735,0.06746719309782483,0.1976534642535524,-0.1137414752734723,-0.033283578841025285,-0.1137414752734723
2023-12-12,0.004367415787581311,0.04653415141142477,-0.11383897585755534,-0.11383897585755534,-0.11383897585755534,-0.11383897585755534,0.14019980444321498,0.14721228944559742,-0.044644096569778746,0.1616863389121815
2023-12-13,0.04868776418464934,-0.08333333333333333,-0.08333333333333333,0.011216880510569585,-0.08333333333333333,-0.08333333333333333,0.19632729860953566,0.24376805669524532,-0.08333333333333333,-0.08333333333333333
