date,AAPL,MSFT,GOOGL,AMZN,META,NVDA,TSLA,JPM,V,WMT
2023-12-14,-0.0992541824740629,0.09466366899305234,-0.0992541824740629,-0.0037290876296856754,-0.0992541824740629,0.012738030231008383,0.19355865335405897,0.19903964742188027,-0.0992541824740629,-0.0992541824740629
2023-12-15,-0.1,0.10524925810729513,0.06000415658199646,-0.1,0.11618653955148513,-0.1,0.20992307754712808,-0.1,-0.1,0.008636968212095144
2023-12-18,-0.0981733380787803,-0.0981733380787803,0.0819410048570086,0.01564135093629823,0.1451846930791364,-0.0981733380787803,-0.0981733380787803,0.2572329511275568,-0.009133309606098506,-0.0981733380787803
2023-12-19,0.08373112786039866,0.1567356668124811,0.07797263901600769,-0.024555969665992564,0.1757753721809155,0.005785194130197187,-0.20056385239560887,-0.20056385239560887,-0.06286855994012247,-0.011447765602667033
2023-12-20,-0.08333333333333333,-0.08333333333333333,0.04975882419405923,-0.08333333333333333,0.09649157616858409,-0.08333333333333333,0.1744620386083847,0.17928756102897198,-0.08333333333333333,-0.08333333333333333
2023-12-21,-0.07142857142857144,-0.07142857142857144,0.223755637959908,-0.07142857142857144,-0.07142857142857144,0.14725365526313125,-0.07142857142857144,-0.07142857142857144,-0.07142857142857144,0.12899070677696073
2023-12-22,-0.08333333333333334,-0.08333333333333334,-0.08333333333333334,0.006020981038050603,0.10772364014752099,-0.08333333333333334,0.19056422444650592,0.19569115436792253,-0.08333333333333334,-0.08333333333333334
2023-12-26,-0.08333333333333333,-0.08333333333333333,-0.08333333333333333,0.03027185975108033,0.15957675461388376,-0.08333333333333333,-0.08333333333333333,0.27141876815816873,-0.08333333333333333,0.038732617476867216
2023-12-27,0.03700114502306311,0.09247847910288028,0.032625175884694005,-0.0452879779854178,0.10694706024410525,-0.02223123515198254,0.23094813974525732,-0.1790392248398256,-0.07440233718294863,-0.1790392248398256
2023-12-28,-0.12199902718446999,-0.12199902718446999,0.10050428927465775,0.0186013567430184,-0.12199902718446999,0.04283878981926588,0.3089829802492958,-0.12199902718446999,-0.012003891262119998,0.02907258391376212
2023-12-29,-0.08333333333333333,-0.08333333333333333,-0.08333333333333333,0.05603230870650375,-0.08333333333333333,-0.08333333333333333,-0.08333333333333333,0.35186027927386804,0.025695833663702282,0.06641157835592593
2024-01-02,0.11450522286956992,-0.1579957467728882,0.10898562561055831,0.010710428289880948,0.2027310009144784,0.0397928853459184,-0.1579957467728882,-0.1579957467728882,-0.02601275968133541,0.02327483696959395
2024-01-03,-0.09547806791000515,-0.09547806791000515,-0.09547806791000515,-0.0010247469406206636,0.10648157742532521,-0.09547806791000515,0.19404946212266702,0.1994689604520078,-0.02158491350935352,-0.09547806791000515
2024-01-04,-0.08333333333333334,0.12212979821444389,-0.08333333333333334,0.01787903561379537,0.1330784765037848,-0.08333333333333334,0.22691268966797593,-0.08333333333333334,-0.08333333333333334,-0.08333333333333334
2024-01-05,0.0789746765703814,0.12065399648162468,0.07568707415283542,-0.08333333333333333,-0.08333333333333333,-0.08333333333333333,0.2246842527951585,-0.08333333333333333,-0.08333333333333333,-0.08333333333333333
2024-01-08,-0.11921612482859824,0.13009930345738957,0.07514026502458802,-0.11921612482859824,-0.11921612482859824,0.024769517875344486,0.25724616072071704,-0.11921612482859824,-0.02313550068560709,0.012744752921960957
2024-01-09,-0.09999999999999998,0.11412870095972738,-0.09999999999999998,-0.09999999999999998,0.12553914837996138,0.023664463290575723,0.2233308933955588,-0.09999999999999998,-0.09999999999999998,0.013336793974176727
2024-01-10,-0.1,0.12746084803836735,0.07731942849108435,-0.1,-0.1,0.03136409816250779,0.2434622209873159,-0.1,-0.1,0.020393404320724475
2024-01-11,0.11451017306624124,-0.12300787519290608,0.10969916644906437,-0.12300787519290608,0.19140976955159036,0.049389198954553334,-0.12300787519290608,-0.12300787519290608,-0.007968499228375588,0.034991691978550746
2024-01-12,-0.09706419429527251,-0.09706419429527251,-0.09706419429527251,-0.09706419429527251,-0.09706419429527251,0.02639754576634289,0.22573666257251068,0.23177898505668793,-0.014679028523637411,0.016086806604458333
2024-01-16,0.13854393059059128,-0.1,-0.1,-0.1,0.215954815284449,0.06730712171148945,-0.1,-0.1,0.01519939534307232,0.06299473707039789
2024-01-17,0.09017502041383321,0.07077006329525498,0.0379586799534537,-0.12333989225993769,0.09638621878093244,-0.12333989225993769,0.20471001755652563,-0.12333989225993769,-0.12333989225993769,-0.006640430960249263
2024-01-18,0.10611046442551562,-0.1,0.06074481892615393,0.004836042504840432,0.10722122090173206,-0.1,0.22108745324175796,-0.1,-0.1,-0.1
2024-01-19,0.16750968867246305,-0.09808392108120381,-0.09808392108120381,0.02525581857423835,-0.09808392108120381,-0.09808392108120381,0.275499045026217,-0.09808392108120381,-0.00958039459398092,0.031735447727081624
2024-01-22,0.14101540140831764,0.1075130264692607,0.07766915131776327,-0.10000000000000002,0.13747033403106504,0.03633208677359338,-0.10000000000000002,-0.10000000000000002,-0.10000000000000002,-0.10000000000000002
2024-01-23,-0.1239247626869282,0.08727730932574138,0.058889798253847124,-0.004300949252287324,0.11898912100723681,0.016447805369156646,0.21839596604401793,-0.1239247626869282,-0.1239247626869282,-0.1239247626869282
2024-01-24,0.09545688196326815,0.05282388327635407,0.032092807178885394,-0.056506358148527315,0.09373856062237716,-0.041732244190311595,0.22588786695911528,-0.22565681249466543,-0.13027455606543942,-0.04583002910105635
2024-01-25,-0.10000000000000002,0.06753136089321933,0.04949688097578245,-0.10000000000000002,0.09059518827023262,-0.10000000000000002,-0.10000000000000002,0.2853925992721545,-0.10000000000000002,0.006983970588611036
2024-01-26,-0.08333333333333333,-0.08333333333333333,-0.08333333333333333,-0.08333333333333333,0.07949166891032326,-0.08333333333333333,0.14926381695180618,0.2702580403478581,0.0009864737900124655,-0.08333333333333333
2024-01-29,-0.1,-0.1,-0.1,0.013030180437869963,-0.1,-0.1,0.168372979057328,0.3129959174448106,0.0018935467846087342,0.003707376275382685
2024-01-30,0.04069520772293837,0.04728117682401252,-0.13953412992492492,-0.021057478407553884,-0.13953412992492492,-0.13953412992492492,0.1272537485775864,0.28476986687546274,-0.025304557804814633,-0.035035574012856764
2024-01-31,-0.09999999999999999,0.13688723605216108,-0.09999999999999999,-0.09999999999999999,-0.09999999999999999,0.07379587564720641,0.20907362743317762,-0.09999999999999999,0.04101459818420977,0.03922866268324519
2024-02-01,-0.07142857142857142,0.09857749425373467,-0.07142857142857142,-0.07142857142857142,0.3049764226959325,-0.07142857142857142,0.09644608305033277,-0.07142857142857142,-0.07142857142857142,-0.07142857142857142
2024-02-02,0.08972251049412326,-0.08333333333333334,0.18349184906835073,0.029221561830988337,-0.08333333333333334,-0.08333333333333334,0.19756407860653769,-0.08333333333333334,-0.08333333333333334,-0.08333333333333334
2024-02-05,0.045705200576087866,-0.11962234271565762,0.1476035811885273,-0.003817280976514943,-0.11962234271565762,-0.11962234271565762,-0.11962234271565762,0.3066912182353849,-0.0036830034729252174,-0.014010344687929267
2024-02-06,-0.08333333333333331,-0.08333333333333331,-0.08333333333333331,-0.08333333333333331,0.2714035070703588,0.003994602045348538,0.06683617102805542,0.15776571985623722,-0.08333333333333331,-0.08333333333333331
2024-02-07,-0.09258047344262003,-0.09258047344262003,0.06159709465342244,-0.09258047344262003,0.2765749325272443,-0.004530413141321518,-0.09258047344262003,0.16182797281933334,-0.09258047344262003,-0.03256721964557823
2024-02-08,-0.1,0.09880957518785993,0.08861992413600514,-0.1,-0.1,0.007951607966144391,0.096887503489071,0.2077313892209195,-0.1,-0.1
2024-02-09,-0.09423247389096027,-0.09423247389096027,-0.09423247389096027,-0.01218453326999713,0.38270917354688955,-0.09423247389096027,0.11682791697363702,-0.09423247389096027,0.0004629094794734489,-0.016653097275201395
2024-02-12,0.11174603138662408,-0.1,-0.1,0.04041894497108562,-0.1,-0.1,0.2534799643998006,-0.1,0.059073098030492634,0.03528196121199709
2024-02-13,-0.08333333333333333,0.06516368057301747,-0.08333333333333333,-0.08333333333333333,0.23710033749186762,-0.08333333333333333,0.05562514082446643,0.14211084111064853,-0.08333333333333333,-0.08333333333333333
2024-02-14,-0.0812274276159715,-0.0812274276159715,-0.0812274276159715,-0.007611717476516849,0.29312003768587,-0.0812274276159715,-0.0812274276159715,0.20687996231412994,-0.005023716827654177,-0.0812274276159715
2024-02-15,-0.11105720261234919,0.11464536379564538,-0.11105720261234919,-0.019946992347154135,-0.11105720261234919,0.02402660306744336,0.09989707430722818,0.26143095882968315,-0.11105720261234919,-0.035824197203449086
2024-02-16,-0.023188488517025176,-0.11123640422801359,0.10066974674523135,-0.02098185839179019,0.3766434425832289,0.022686810671539808,-0.11123640422801359,-0.11123640422801359,-0.11123640422801359,-0.010884036179130231
2024-02-20,-0.023362951693215724,0.12155245213754659,0.10577379896808095,-0.02230788751152909,-0.11231950126906333,-0.11231950126906333,-0.11231950126906333,0.2726737488943724,-0.005051155719001965,-0.11231950126906333
2024-02-21,-0.07142857142857144,0.07434738003941013,-0.07142857142857144,-0.07142857142857144,0.2298819088028443,-0.07142857142857144,0.19577071115774555,-0.07142857142857144,-0.07142857142857144,-0.07142857142857144
2024-02-22,-0.13391887212391795,0.1076532181027023,0.07394743157631392,-0.04751514726118884,-0.13391887212391795,0.009671444365977031,0.30872790595500677,-0.13391887212391795,-0.014577782125614275,-0.03615045424144312
2024-02-23,-0.08333333333333334,-0.08333333333333334,-0.08333333333333334,-0.08333333333333334,-0.08333333333333334,-0.08333333333333334,0.3121395811828953,0.16319198956291134,0.015580399133273089,0.009088030120920245
2024-02-26,-0.008054884455854654,-0.0819908525906909,0.0904492461405711,-0.0819908525906909,0.2960068020025759,-0.0819908525906909,-0.0819908525906909,0.11354395185685297,-0.0819908525906909,-0.0819908525906909
2024-02-27,-0.09999999999999999,-0.09999999999999999,-0.09999999999999999,0.011658260590889402,-0.09999999999999999,0.10675139949440098,-0.09999999999999999,0.28245571204768144,0.04671849031101583,0.05241613755601241
2024-02-28,-0.10645273509380015,0.0552952031629192,0.006055486569352168,-0.05723881972786477,0.23878592929135378,-0.01695023989693469,0.1998633809763748,-0.10645273509380015,-0.10645273509380015,-0.10645273509380015
2024-02-29,-0.07142857142857144,0.06777549716953638,-0.07142857142857144,-0.07142857142857144,0.23235625672465657,-0.07142857142857144,0.19986824610580703,-0.07142857142857144,-0.07142857142857144,-0.07142857142857144
2024-03-01,-0.13693918209235098,0.03319640309185115,-0.13693918209235098,-0.05352564373835225,0.0908020067048398,0.0007764159396808363,0.37522517426362817,-0.13693918209235098,-0.0249405628948257,-0.010716247089769204
2024-03-04,-0.09659745632114997,-0.09659745632114997,0.08875825269802828,-0.017012718394250177,-0.09659745632114997,-0.09659745632114997,0.37910596766355475,-0.09659745632114997,0.008709075319296941,0.023426704319120074
2024-03-05,-0.09645183181068964,-0.09645183181068964,-0.09645183181068964,-0.017740840946551734,0.09937868628671111,-0.09645183181068964,0.370437540943249,-0.09645183181068964,0.007520284783876623,0.022663487986163303
2024-03-06,-0.1,0.04511197776658823,0.06376569537121099,-0.1,0.06690058477988071,0.021367586466320036,0.3028541556160001,-0.1,-0.1,-0.1
2024-03-07,0.06199320922268205,-0.12499999999999997,0.1960649491029877,0.012621148231643592,-0.12499999999999997,0.11265583591179187,-0.12499999999999997,-0.12499999999999997,0.04154478172952221,0.07512007580137262
2024-03-08,0.030216317722419218,-0.12131152310046052,0.12225403422698129,-0.01475390759815794,-0.12131152310046052,-0.12131152310046052,-0.12131152310046052,0.3064410053543375,0.007288568571512669,0.03380007412474944
2024-03-11,-0.08333333333333334,0.04629248338939922,-0.08333333333333334,-0.08333333333333334,0.10405339155160266,0.031606612788603196,0.31804751227039496,-0.08333333333333334,-0.08333333333333334,-0.08333333333333334
2024-03-12,-0.12442732429719536,0.12709805601249022,0.17441780976578738,-0.0022907028112184743,-0.12442732429719536,0.09526060409409907,-0.12442732429719536,-0.12442732429719536,0.03775220013957286,0.06547132998805053
2024-03-13,0.057179993274898366,0.10747089625356257,0.1665391419634263,-0.12500000000000003,-0.12500000000000003,0.09390602183871771,-0.12500000000000003,-0.12500000000000003,0.024848837983133566,0.050055108686261396
2024-03-14,0.006798967103813646,-0.09483814904951128,-0.09483814904951128,-0.025809254752443552,-0.09483814904951128,-0.09483814904951128,0.3417323008214495,0.14654563666751338,-0.09483814904951128,0.0049230954072234405
2024-03-15,-0.07142857142857144,-0.07142857142857144,0.1266778881112528,-0.07142857142857144,0.13549177927975237,-0.07142857142857144,-0.07142857142857144,0.23783033260899486,-0.07142857142857144,-0.07142857142857144
2024-03-18,0.016164125984197746,0.04993139704850188,-0.11317771453976792,-0.02925871029222655,-0.11317771453976792,0.04197695669391767,0.39192752027338273,-0.11317771453976792,-0.01803043154870172,-0.11317771453976792
2024-03-19,0.05825110928648208,-0.08333333333333334,-0.08333333333333334,0.007872089434741707,0.15729522952045083,-0.08333333333333334,-0.08333333333333334,0.2765815717583254,-0.08333333333333334,-0.08333333333333334
2024-03-20,-0.13679864324852584,0.04525284753755606,-0.13679864324852584,-0.02332048871322585,0.13526072572798822,0.05352981842072746,0.26595660831372836,-0.13679864324852584,-0.04001338425186993,-0.026270197289326655
2024-03-21,0.05434708801006215,0.033838604568470904,0.11235990529263006,-0.09999999999999998,0.0991344515414442,-0.09999999999999998,0.20031995058739271,-0.09999999999999998,-0.09999999999999998,-0.09999999999999998
2024-03-22,-0.07142857142857142,0.058448808952744465,-0.07142857142857142,-0.07142857142857142,-0.07142857142857142,-0.07142857142857142,0.21955094543898743,0.22200024560826806,-0.07142857142857142,-0.07142857142857142
2024-03-25,-0.1,-0.1,0.1368136902419199,0.02478100383627485,-0.1,-0.1,-0.1,0.31267194543441107,0.023601798892909767,0.002131561594484353
2024-03-26,0.10520712919725876,0.07046546445358955,-0.09967305267421118,0.028680773510648676,-0.09967305267421118,-0.09967305267421118,-0.09967305267421118,0.2956466328385031,-0.09967305267421118,-0.0016347366289440584
2024-03-27,-0.12330832231983105,0.04297032124920888,0.09960325736400859,0.008991130890583336,-0.12330832231983105,0.06000685970943271,0.2884284307867665,-0.12330832231983105,-0.006766710720675951,-0.12330832231983105
2024-03-28,-0.08333333333333333,0.08000340675041916,0.1457316386766972,-0.08333333333333333,0.1745918564345835,0.09967309813830014,-0.08333333333333333,-0.08333333333333333,-0.08333333333333333,-0.08333333333333333
2024-04-01,0.09566630432467399,0.047154255955251495,0.1028674438565111,0.008611289513486513,0.17077778473117938,0.07492292161889756,-0.16082924791819433,-0.16082924791819433,-0.01751225624541701,-0.16082924791819433
2024-04-02,0.07195037249669389,0.042659059706620164,-0.09732887858996893,-0.09732887858996893,0.14363002553235965,-0.09732887858996893,-0.09732887858996893,0.24176054226432625,-0.09732887858996893,-0.013355607050155352
2024-04-03,0.06281808820658229,-0.11697128676743407,-0.11697128676743407,0.016157384286461966,0.1382098085627579,0.04042979964878638,-0.11697128676743407,0.24238491929541137,-0.11697128676743407,-0.032114852930263706
2024-04-04,-0.12264272734554894,0.036935381156383736,0.08596913216634984,-0.12264272734554894,0.12188885348549819,0.029064774215825106,0.22614185897594316,-0.12264272734554894,-0.009429090617804312,-0.12264272734554894
2024-04-05,-0.07142857142857142,-0.07142857142857142,0.13753906422488113,0.05316011097239969,-0.07142857142857142,-0.07142857142857142,-0.07142857142857142,0.30930082480271914,-0.07142857142857142,-0.07142857142857142
2024-04-08,0.06028913874772948,0.03454145148500455,0.09779488471502083,-0.10000000000000002,-0.10000000000000002,0.04093928486124454,-0.10000000000000002,0.2664352401910007,-0.10000000000000002,-0.10000000000000002
2024-04-09,-0.08333333333333333,0.09157411861260022,-0.08333333333333333,-0.08333333333333333,0.1603742761246105,-0.08333333333333333,0.22662546188562308,-0.08333333333333333,-0.08333333333333333,0.021426143377166237
2024-04-10,0.07439691401825173,0.01537269853803916,0.07812093194791311,-0.1,-0.1,-0.1,0.12052591816099874,0.21158353733479726,-0.1,-0.1
2024-04-11,0.16907015091363578,0.08084109095648381,0.1751215429127671,-0.12334113235066205,-0.12334113235066205,0.05011435428888086,-0.12334113235066205,-0.12334113235066205,0.02485286092823253,-0.00663547059735174
2024-04-12,-0.12295612145688938,0.06053818378460725,0.1789321715715173,0.18205112479879296,-0.12295612145688938,0.047222705783088174,-0.12295612145688938,-0.12295612145688938,0.03125581406199427,-0.00817551417244244
2024-04-15,-0.15386272490344752,0.03412553412492888,0.10094061553542523,-0.15386272490344752,0.11107250275210862,0.019973403283882172,0.23388794430365523,-0.15386272490344752,-0.0008323032239795786,-0.037579522065677794
2024-04-16,0.1697301333538271,-0.12165189847323878,0.11402530179324774,0.1624267988812718,-0.12165189847323878,0.036312116903684674,-0.12165189847323878,-0.12165189847323878,0.01750564906796883,-0.013392406107044851
2024-04-17,-0.09999999999999999,-0.09999999999999999,0.08270147412252637,0.11900509174965147,0.09307952386218842,-0.09999999999999999,0.1998985049449306,-0.09999999999999999,0.005315405320703147,-0.09999999999999999
2024-04-18,0.06962191815127754,-0.14057589773622467,0.06215887067409067,0.11000974264695429,-0.14057589773622467,-0.0018441005786934087,-0.14057589773622467,0.2582094685276776,-0.027637022776468772,-0.048791183436163725
2024-04-19,-0.11074993408379784,0.045858500640778455,0.058042500471384734,0.1111684329214482,-0.11074993408379784,-0.11074993408379784,0.2849305659663885,-0.11074993408379784,-0.02797166417379345,-0.029028599491015345
2024-04-22,-0.09910817137707101,-0.09910817137707101,-0.09910817137707101,0.06617624382379045,0.0684411499892464,-0.004459143114645031,0.20409544318138562,0.16128716300557755,-0.09910817137707101,-0.09910817137707101
2024-04-23,0.09715234147164153,-0.07142857142857142,-0.07142857142857142,-0.07142857142857142,-0.07142857142857142,-0.07142857142857142,-0.07142857142857142,0.381155054379538,-0.07142857142857142,0.02169260414882034
2024-04-24,0.015093038785723501,-0.10476352899437229,-0.10476352899437229,0.04518036436515155,-0.10476352899437229,-0.10476352899437229,0.1907922035859087,0.24893439326321623,-0.04671132855548281,-0.034234555467028055
2024-04-25,-0.07142857142857142,0.06947707343490107,0.16657311687650647,-0.07142857142857142,-0.07142857142857142,-0.07142857142857142,0.26394980968859244,-0.07142857142857142,-0.07142857142857142,-0.07142857142857142
2024-04-26,0.07290063965653339,-0.0625,-0.0625,-0.0625,-0.0625,-0.0625,-0.0625,0.42709936034346674,-0.0625,-0.0625
2024-04-29,0.00896667367975296,-0.12762089531896903,0.1212117388451506,0.028589975054494447,0.1337477020627879,-0.12762089531896903,0.207483910357814,-0.12762089531896903,-0.061268446983118466,-0.0558688670599744
2024-04-30,-0.1,0.06849166304161063,0.15967713084710033,0.06297138039623812,0.17357831479209726,0.035281510922953646,-0.1,-0.1,-0.1,-0.1
2024-05-01,0.04450837158427382,0.07250890520877215,0.14110459330604871,-0.09626899964453509,-0.09626899964453509,-0.09626899964453509,0.2418781299009053,-0.09626899964453509,-0.09626899964453509,-0.01865500177732469
2024-05-02,0.08301218877714517,-0.08333333333333334,-0.08333333333333334,-0.08333333333333334,0.14882496979666626,0.037614528693575934,0.23054831273261256,-0.08333333333333334,-0.08333333333333334,-0.08333333333333334
2024-05-03,-0.09129645707230288,-0.09129645707230288,-0.09129645707230288,-0.09129645707230288,0.09675738242829855,0.00675232576333421,0.15817127425642133,0.23831901755194582,-0.04351771463848557,-0.09129645707230288
2024-05-06,0.09187185395102125,0.07037739787930758,0.15437791830301287,-0.1119099762554345,0.18337282986665837,-0.1119099762554345,-0.1119099762554345,-0.1119099762554345,-0.030834696452359655,-0.02152539852590237
2024-05-07,0.11870500744881364,-0.09751319633052054,-0.09751319633052054,0.09204651643792681,0.2209931795193642,0.06825529659389538,-0.09751319633052054,-0.09751319633052054,-0.012434018347397283,-0.09751319633052054
2024-05-08,0.04893677992171039,0.04756137197213914,0.15391316930086424,0.04452249622205472,0.19197794067896215,0.013088241904269158,-0.17590423480313916,-0.17590423480313916,-0.07744960901912647,-0.07074192137459538
2024-05-09,-0.10886620444854504,-0.10886620444854504,-0.10886620444854504,-0.013604762696757715,0.18710486559274003,0.04253323155535041,0.2703619028519095,-0.10886620444854504,-0.02737209642661186,-0.023558323082450334
2024-05-10,0.028408176813862495,-0.08333333333333333,0.08178767100061823,-0.08333333333333333,-0.08333333333333333,-0.08333333333333333,0.15251984968527935,0.2372843025002399,-0.08333333333333333,-0.08333333333333333
2024-05-13,-0.07954631528369825,-0.07954631528369825,-0.07954631528369825,-0.022722108297810423,0.10596659924729249,-0.07954631528369825,0.15505061492126704,0.23898278583144045,-0.07954631528369825,-0.07954631528369825
2024-05-14,0.029573811161194088,-0.11338948105213752,0.11128397457672293,-0.11338948105213752,0.14282815971456692,0.014853550770145092,0.20146050377737093,-0.11338948105213752,-0.046442075791449974,-0.11338948105213752
2024-05-15,-0.07142857142857142,-0.07142857142857142,0.1284782332499516,-0.07142857142857142,-0.07142857142857142,-0.07142857142857142,-0.07142857142857142,0.3097633686567894,-0.07142857142857142,0.06175839809325898
2024-05-16,-0.09366098025399111,0.03793545879231812,0.11324901740519767,-0.03169509873004444,-0.09366098025399111,-0.09366098025399111,-0.09366098025399111,0.30251922578263046,-0.09366098025399111,0.04629629801985373
2024-05-17,0.0766399398910831,-0.08333333333333333,0.1751764819730784,-0.08333333333333333,-0.08333333333333333,0.057625596561580006,0.19055798157425846,-0.08333333333333333,-0.08333333333333333,-0.08333333333333333
2024-05-20,-0.07142857142857145,-0.07142857142857145,-0.07142857142857145,0.04563757810333888,-0.07142857142857145,-0.07142857142857145,-0.07142857142857145,0.37426147962979095,-0.07142857142857145,0.08010094226687015
2024-05-21,-0.11697941192086105,0.053986053639305746,-0.11697941192086105,-0.11697941192086105,0.18566403646784566,0.03402455946781125,0.1572219500032149,-0.11697941192086105,-0.032082352316555755,0.06910340042182249
2024-05-22,-0.05555555555555555,-0.05555555555555555,-0.05555555555555555,-0.05555555555555555,-0.05555555555555555,-0.05555555555555555,0.5000000000000001,-0.05555555555555555,-0.05555555555555555,-0.05555555555555555
2024-05-23,0.04507368997947167,-0.1,-0.1,0.016934757880802755,0.024685352404204403,-0.1,0.1389311245259517,0.2743750752095695,-0.1,-0.1
2024-05-24,-0.07142857142857144,0.10297806990777486,0.06184830617270243,-0.07142857142857144,-0.07142857142857144,-0.07142857142857144,0.3351736239195227,-0.07142857142857144,-0.07142857142857144,-0.07142857142857144
2024-05-28,0.09283761015637122,0.03277518820388545,-0.1,-0.1,-0.1,0.0034909663200411167,0.26901784418243535,-0.1,-0.1,0.10187839113726684
2024-05-29,0.09577386683841752,-0.09968402698941434,-0.09968402698941434,0.07483461048285059,-0.09968402698941434,-0.09968402698941434,-0.09968402698941434,0.22428689641079758,-0.0015798650529282123,0.10510462626793436
2024-05-30,0.13936757784410922,-0.1,0.054610677167441266,0.12480558836604824,-0.1,-0.1,-0.1,-0.1,0.024011607258030185,0.15720454936437112
2024-05-31,0.03601354951665017,0.027964600752932275,-0.08333333333333333,-0.08333333333333333,0.10221081971389705,-0.08333333333333333,0.3338110300165204,-0.08333333333333333,-0.08333333333333333,-0.08333333333333333
2024-06-03,-0.12049232996681555,-0.007604140355834257,0.023396973016956483,-0.12049232996681555,-0.12049232996681555,0.02990704267291555,0.32672089359335166,-0.12049232996681555,-0.010426539776903426,0.11997509071677634
2024-06-04,-0.07142857142857142,-0.07142857142857142,-0.07142857142857142,-0.07142857142857142,0.11449979610644462,0.06473144846560408,0.3207687554279513,-0.07142857142857142,-0.07142857142857142,-0.07142857142857142
2024-06-05,-0.08333333333333334,0.07587388036203152,0.06427916247019097,-0.08333333333333334,-0.08333333333333334,-0.08333333333333334,-0.08333333333333334,0.32107824606685975,0.03876871110091776,-0.08333333333333334
2024-06-06,0.1359675452085026,-0.07142857142857142,-0.07142857142857142,0.26435224320222145,-0.07142857142857142,-0.07142857142857142,-0.07142857142857142,-0.07142857142857142,0.09968021158927594,-0.07142857142857142
2024-06-07,-0.12480588339685046,0.006285114254960583,-0.0007764664125982087,-0.12480588339685046,0.07857502954503376,0.0210173918667205,0.286960799654584,-0.12480588339685046,-0.12480588339685046,0.10716166467870103
2024-06-10,0.20115327620180284,-0.08333333333333336,0.06418594314590179,-0.08333333333333336,0.1447145813122329,0.08994619934006252,-0.08333333333333336,-0.08333333333333336,-0.08333333333333336,-0.08333333333333336
2024-06-11,0.09824874351023365,-0.08333333333333331,-0.08333333333333331,-0.08333333333333331,-0.08333333333333331,0.02878561034701207,0.21954256400225053,0.15342308214050374,-0.08333333333333331,-0.08333333333333331
2024-06-12,0.07395194729564616,-0.1,-0.1,0.04560729899896517,-0.1,-0.1,0.19064986348275992,0.1302617092397654,-0.1,0.05952918098286325
2024-06-13,-0.1243016550010567,-0.1243016550010567,0.010580400278678468,0.09305503193959512,0.06270461425833321,0.028100680223386784,0.3055592733000063,-0.1243016550010567,-0.1243016550010567,-0.002793379995773268
2024-06-14,0.16404633273767133,-0.07142857142857144,-0.07142857142857144,-0.07142857142857144,-0.07142857142857144,0.06591382281136896,-0.07142857142857144,0.27003984445095974,-0.07142857142857144,-0.07142857142857144
2024-06-17,-0.08333333333333333,-0.08333333333333333,-0.08333333333333333,0.08897795080975239,-0.08333333333333333,-0.08333333333333333,0.3480654940853642,-0.08333333333333333,0.028270432468326414,0.0346861226365571
2024-06-18,-0.16666666666666669,0.07688730089784017,0.059742075193530135,0.09763671939682504,0.14405185906328646,0.08716098215462698,-0.16666666666666669,-0.16666666666666669,0.019645098758892417,0.014875964534998691
2024-06-20,-0.09999999999999998,0.0750202102846515,0.06586959902949424,-0.09999999999999998,-0.09999999999999998,0.0758731858411473,-0.09999999999999998,0.25804825369372614,-0.09999999999999998,0.025188751150980834
2024-06-21,0.18019261536968184,-0.20101498658035274,-0.011504515353980338,0.03065871973799878,0.06951884731318604,0.011987599193680181,-0.20101498658035274,0.2076422183854529,-0.0430158019273719,-0.043449709557942376
2024-06-24,-0.08333333333333334,-0.08333333333333334,0.030724408106879295,-0.08333333333333334,0.056866380331175755,-0.08333333333333334,0.2835753962433376,0.12883381531860735,-0.08333333333333334,-0.08333333333333334
2024-06-25,0.16468562330994477,0.09454206433694218,-0.08333333333333333,-0.08333333333333333,-0.08333333333333333,-0.08333333333333333,-0.08333333333333333,0.20095903350171324,-0.08333333333333333,0.0398132788513998
2024-06-26,0.15065061279046923,0.06984245943656349,0.012165797771632826,0.013616985193999152,0.048702545743233135,0.009011540049564075,-0.16666666666666669,0.19601005901453797,-0.16666666666666669,-0.16666666666666669
2024-06-27,-0.08333333333333333,-0.08333333333333333,-0.08333333333333333,0.04383360319045663,-0.08333333333333333,-0.08333333333333333,0.2681123745591166,0.16230673861758968,-0.08333333333333333,0.025747283632837098
2024-06-28,0.16565872838676163,0.09506320000013692,-0.08333333333333333,-0.08333333333333333,-0.08333333333333333,0.021845759340971896,-0.08333333333333333,0.21743231227212953,-0.08333333333333333,-0.08333333333333333
2024-07-01,-0.055555555555555546,-0.055555555555555546,-0.055555555555555546,-0.055555555555555546,-0.055555555555555546,-0.055555555555555546,-0.055555555555555546,0.4999999999999999,-0.055555555555555546,-0.055555555555555546
2024-07-02,-0.0625,-0.0625,-0.0625,-0.0625,-0.0625,-0.0625,0.24282069173998774,0.2571793082600123,-0.0625,-0.0625
2024-07-03,0.1253766315244642,-0.09999999999999999,0.025681707507533725,-0.09999999999999999,0.08072165333133008,-0.09999999999999999,-0.09999999999999999,0.25230367764617834,-0.09999999999999999,0.015916329990493586
2024-07-05,0.09781947522679392,-0.08333333333333333,-0.08333333333333333,0.017435231228090257,-0.08333333333333333,-0.08333333333333333,0.18032462684747871,0.20442066669763712,-0.08333333333333333,-0.08333333333333333
2024-07-08,-0.07142857142857144,-0.07142857142857144,-0.07142857142857144,0.03727332437801052,-0.07142857142857144,-0.07142857142857144,0.22030650943258406,0.24242016618940546,-0.07142857142857144,-0.07142857142857144
2024-07-09,0.12387744168435658,-0.09999999999999998,0.029798212358481402,-0.09999999999999998,0.09341024006457696,0.006021126832064065,0.24689297906052093,-0.09999999999999998,-0.09999999999999998,-0.09999999999999998
2024-07-10,0.13227914985046788,0.14476159493614688,0.09898234532546346,0.016594026482311473,-0.16666666666666666,0.05185951795916117,-0.16666666666666666,-0.16666666666666666,0.03353523050249673,0.021988134943952433
2024-07-11,0.04270356234793247,-0.08333333333333333,-0.08333333333333333,-0.08333333333333333,-0.08333333333333333,-0.08333333333333333,0.20279501757243126,0.24896598505998496,0.0055354350196513665,-0.08333333333333333
2024-07-12,0.07028551782461354,-0.09999999999999999,0.05153801451767027,0.017236099875248375,-0.09999999999999999,-0.09999999999999999,-0.09999999999999999,0.3401532095717189,0.02078715821074881,-0.09999999999999999
2024-07-15,0.060130587580054795,0.0747849621358812,-0.12493731629432363,0.008816713944274999,-0.12493731629432363,-0.12493731629432363,-0.12493731629432363,0.34724706622324,0.009020670116548925,-0.000250734822705527
2024-07-16,-0.1,-0.1,0.1488690099195648,0.08877130900195594,-0.1,0.09220021541702277,-0.1,-0.1,0.09162759327305564,0.07853187238840076
2024-07-17,-0.08271032727925061,-0.08271032727925061,-0.08271032727925061,-0.08271032727925061,0.10953914387142924,-0.08271032727925061,0.18465372363742658,0.20580713249114416,-0.08271032727925061,-0.0037380363244963184
2024-07-18,0.07024029872332185,0.10077672568810121,0.05900207873645261,0.04239710430652854,0.22044281030653787,0.007140982239057938,-0.16453270304272097,-0.16453270304272097,-0.16453270304272097,-0.006401890871837015
2024-07-19,-0.08333333333333334,-0.08333333333333334,0.02330205172710997,-0.08333333333333334,0.10003600799823659,-0.08333333333333334,0.1738604798179386,0.20280146045671485,-0.08333333333333334,-0.08333333333333334
2024-07-22,0.066616675935762,0.09839078739341983,0.06344913877545404,0.03392900760015357,0.225958419062837,0.011655971232373651,-0.16327100583980045,-0.16327100583980045,-0.16327100583980045,-0.010186982480598569
2024-07-23,0.12181130500929553,0.14642507575481425,-0.125,0.06833629365795688,-0.125,0.07776215553144059,-0.125,-0.125,0.08393240276157275,0.001732767284919893
2024-07-24,0.0446087352767172,0.0403935831921209,-0.11691211472743393,0.012471752747153758,-0.11691211472743393,-0.11691211472743393,-0.11691211472743393,0.3791441527057605,0.023381776078247634,-0.03235154109026429
2024-07-25,-0.09999999999999998,0.07740129948970582,-0.09999999999999998,0.05437737825252314,0.22776694097395794,0.07508926630297434,-0.09999999999999998,-0.09999999999999998,0.06536511498083884,-0.09999999999999998
2024-07-26,-0.07142857142857144,-0.07142857142857144,0.08681165697465931,-0.07142857142857144,-0.07142857142857144,-0.07142857142857144,-0.07142857142857144,0.36485866901823294,0.04832967400710778,-0.07142857142857144
2024-07-29,0.03454440846334274,0.0227704024563429,0.10541634987972325,0.017986758576338035,0.2647708136090398,0.02643093886625707,-0.2158692105720858,-0.2158692105720858,0.02808032814895621,-0.06826157885582847
2024-07-30,-0.08333333333333333,0.008914266270825632,-0.08333333333333333,-0.08333333333333333,0.08987399986573802,-0.08333333333333333,0.2001881082983495,0.2010236255650869,-0.08333333333333333,-0.08333333333333333
2024-07-31,-0.09999999999999998,-0.09999999999999998,0.1141419138003345,-0.09999999999999998,0.25699434471092375,0.06132592823066252,-0.09999999999999998,-0.09999999999999998,0.05888709300969187,0.008650720248387353
2024-08-01,-0.0010883480343274008,-0.14241207866360908,0.03321997744026541,-0.14241207866360908,0.13406952911869263,-0.00721107882564704,0.332710493441042,-0.14241207866360908,-0.0060213829486365925,-0.058442954200561725
2024-08-02,-0.08333333333333333,-0.08333333333333333,-0.08333333333333333,0.13046923021047416,0.25329268402792315,0.09383426672079173,-0.08333333333333333,-0.08333333333333333,-0.08333333333333333,0.022403819040810888
2024-08-05,-0.07142857142857142,-0.07142857142857142,-0.07142857142857142,0.06552242533545607,0.14453962670536688,-0.07142857142857142,0.28993794795917693,-0.07142857142857142,-0.07142857142857142,-0.07142857142857142
2024-08-06,0.03604174397600618,0.13294797510993914,0.06150305462429885,0.05694180570600156,0.1848989743169019,0.005498758891589414,-0.1666666666666666,-0.1666666666666666,0.022167687375263055,-0.1666666666666666
2024-08-07,-0.07142857142857144,-0.07142857142857144,-0.07142857142857144,-0.07142857142857144,0.09757690788688397,-0.07142857142857144,0.21829134617173337,0.18413174594138265,-0.07142857142857144,-0.07142857142857144
2024-08-08,0.07087738397550956,-0.09999999999999999,0.09797418154104896,0.09127624306685844,0.19281045354224846,0.04706173787433465,-0.09999999999999999,-0.09999999999999999,-0.09999999999999999,-0.09999999999999999
2024-08-09,0.08083085599392012,-0.07142857142857142,-0.07142857142857142,-0.07142857142857142,-0.07142857142857142,-0.07142857142857142,0.404521390046022,-0.07142857142857142,-0.07142857142857142,0.01464775396005793
2024-08-12,-0.07142857142857144,-0.07142857142857144,-0.07142857142857144,-0.07142857142857144,0.09088355895426502,-0.07142857142857144,0.22837700027732802,0.18073944076840692,-0.07142857142857144,-0.07142857142857144
2024-08-13,0.01137916047863691,0.10394829351931169,-0.1464433874195656,0.024063036166162996,-0.1464433874195656,0.003023878945592938,0.35697001180827176,-0.1464433874195656,0.0006156190820238107,-0.06066983774130312
2024-08-14,-0.08333333333333333,0.07495983551500404,-0.08333333333333333,-0.08333333333333333,-0.08333333333333333,-0.08333333333333333,0.21722755443968342,0.1920900849605512,-0.08333333333333333,0.015722525084761255
2024-08-15,-0.006590695024099822,-0.1223177203721807,0.02316321288221042,-0.004138423487177396,-0.1223177203721807,-0.1223177203721807,0.25364880292548403,0.22062059950651708,-0.1223177203721807,0.002567384685788474
2024-08-16,-0.07142857142857142,-0.07142857142857142,0.050070885080947966,-0.07142857142857142,-0.07142857142857142,-0.07142857142857142,0.24135797748333757,0.20857113743571448,-0.07142857142857142,-0.07142857142857142
2024-08-19,0.054348739378492626,0.17999856916651105,0.1013494459348245,-0.12500000000000003,-0.12500000000000003,0.04942229858473553,-0.12500000000000003,-0.12500000000000003,0.04584682551365938,0.06903412142177677
2024-08-20,-0.09999999999999998,0.07392437693605908,-0.09999999999999998,-0.09999999999999998,0.04198542821496595,-0.09999999999999998,0.22511144947131154,0.14496561296463903,-0.09999999999999998,0.014013132413024381
2024-08-21,0.06291586686641251,-0.12499999999999999,0.08074090097497857,0.08607708546730622,0.14631145560260744,-0.12499999999999999,-0.12499999999999999,-0.12499999999999999,0.028533282869624775,0.09542140821907044
2024-08-22,-0.06249999999999999,-0.06249999999999999,-0.06249999999999999,-0.06249999999999999,-0.06249999999999999,-0.06249999999999999,0.2853824588622962,0.21461754113770373,-0.06249999999999999,-0.06249999999999999
2024-08-23,0.09765990815749197,-0.10000000000000002,0.11257144547166166,0.11462837097854377,-0.10000000000000002,-0.10000000000000002,-0.10000000000000002,-0.10000000000000002,0.047145414093302127,0.1279948612990005
2024-08-26,0.030060626198621054,-0.12299253097664373,-0.12299253097664373,0.03726745637918418,-0.12299253097664373,0.006794874372927473,0.3740899410931816,-0.12299253097664373,-0.008029876093425068,0.05178710195608569
2024-08-27,0.07571504815964453,-0.12499999999999999,-0.12499999999999999,0.0843319109084108,0.16302287980653637,0.045928923410319684,-0.12499999999999999,-0.12499999999999999,0.02682887249320279,0.10417236522188585
2024-08-28,-0.007070017868768204,0.15580004737699338,-0.20511640149400442,-0.009444594081388338,0.04912322908873034,-0.03137270453417856,-0.20511640149400442,0.2716316220791796,-0.041879880527655775,0.023445101455096762
2024-08-29,-0.07142857142857142,0.0730444165646687,-0.07142857142857142,-0.07142857142857142,-0.07142857142857142,-0.07142857142857142,0.2347949771812902,0.19216060625404108,-0.07142857142857142,-0.07142857142857142
2024-08-30,-0.14119956900578112,0.07044542164429383,-0.14119956900578112,-0.021219152521067326,0.0835983563754021,-0.010614335224920833,-0.14119956900578112,0.2899502609495731,-0.044567805236668465,0.05600596103073106
2024-09-03,-0.08333333333333333,-0.08333333333333333,-0.08333333333333333,-0.08333333333333333,0.09269867893588728,-0.08333333333333333,-0.08333333333333333,0.3125015532403248,0.002546582816824574,0.09225318500696338
2024-09-04,-0.07142857142857142,0.06552918025419481,-0.07142857142857142,-0.07142857142857142,-0.07142857142857142,-0.07142857142857142,0.2464450218127102,0.18802579793309496,-0.07142857142857142,-0.07142857142857142
2024-09-05,0.09828860797974077,-0.09999999999999999,-0.09999999999999999,0.08652228700818894,-0.09999999999999999,0.09562148176413039,-0.09999999999999999,-0.09999999999999999,0.035873406801639536,0.18369421644630024
2024-09-06,-0.09224858851929159,0.06401975832746912,-0.09224858851929159,-0.010387046979984995,-0.09224858851929159,-0.09224858851929159,0.22415747617411597,0.21182276549841494,-0.028370010423557055,-0.09224858851929159
2024-09-09,-0.0979216712644021,0.061283679609457554,-0.0979216712644021,-0.0979216712644021,-0.0979216712644021,-0.010391643677989386,0.20952418657775587,0.2104330423757634,-0.0979216712644021,0.01875909143702315
2024-09-10,-0.07142857142857144,0.13118921365763803,-0.07142857142857144,-0.07142857142857144,-0.07142857142857144,0.04100807253893519,0.3278027138034269,-0.07142857142857144,-0.07142857142857144,-0.07142857142857144
2024-09-11,-0.08333333333333333,0.10465763196765965,0.06611395992109177,-0.08333333333333333,0.04276705019653014,-0.08333333333333333,0.2864613579147184,-0.08333333333333333,-0.08333333333333333,-0.08333333333333333
2024-09-12,-0.08333333333333331,-0.08333333333333331,0.25639558380354344,-0.08333333333333331,-0.08333333333333331,0.14519623700303305,-0.08333333333333331,-0.08333333333333331,0.06502505217755747,0.03338312701586618
2024-09-13,-0.12019534752052038,-0.12019534752052038,0.1655873775595162,0.15216227920919484,0.10210833113272295,0.07176148119120741,-0.12019534752052038,-0.12019534752052038,0.008380530907358455,-0.01921860991791859
2024-09-16,-0.03098210561496853,0.0887015083046902,0.047113760815501296,0.046903860729561694,0.004845211340663042,-0.0208279677821379,-0.18490482469657454,0.3124356588095838,-0.07838027720974446,-0.18490482469657454
2024-09-17,0.1114228282275605,-0.08333333333333333,0.1887490370513444,-0.08333333333333333,0.1382044643560634,-0.08333333333333333,-0.08333333333333333,-0.08333333333333333,-0.08333333333333333,0.061623670365031684
2024-09-18,0.027838203365211988,-0.08333333333333333,-0.08333333333333333,-0.08333333333333333,0.035555299517521774,-0.08333333333333333,0.22511171885056042,0.21149477826670582,-0.08333333333333333,-0.08333333333333333
2024-09-19,-0.09999999999999998,0.14382759204770187,0.11585733796814433,0.11602457422854219,0.10018020882688539,-0.09999999999999998,-0.09999999999999998,-0.09999999999999998,-0.09999999999999998,0.0241102869287262
2024-09-20,-0.08333333333333333,0.12731022184427054,-0.08333333333333333,-0.08333333333333333,-0.08333333333333333,-0.08333333333333333,-0.08333333333333333,0.3254732751586789,0.018367198191272416,0.02884930480577813
2024-09-23,-0.006716425771770115,0.03501675871792339,0.014896076272960721,0.013983718361144957,-0.14799152798626464,-0.14799152798626464,0.23572856978642862,0.2003748768615422,-0.14799152798626464,-0.04930899026943614
2024-09-24,-0.0983291655115808,-0.0983291655115808,-0.0983291655115808,-0.0983291655115808,0.032408541067655956,0.005953508995116457,0.2504717602471197,0.2111661896901079,-0.0983291655115808,-0.008354172442095863
2024-09-25,0.042729084367167734,-0.09999999999999999,0.06329438313853707,-0.09999999999999999,0.04535473598793945,-0.09999999999999999,0.2877353901000138,-0.09999999999999999,0.06088640640634196,-0.09999999999999999
2024-09-26,0.04348957148431118,-0.09999999999999998,0.06879680807160295,0.06813211436492676,-0.09999999999999998,-0.09999999999999998,-0.09999999999999998,0.2565500087167402,0.0630314973624189,-0.09999999999999998
2024-09-27,0.1327467918151078,-0.08333333333333333,0.15607005227384568,-0.08333333333333333,0.13025070208551176,-0.08333333333333333,-0.08333333333333333,-0.08333333333333333,-0.08333333333333333,0.08093245382553471
2024-09-30,-0.10000000000000002,0.1379678815272336,0.09341437634478766,-0.10000000000000002,0.09022272186406145,-0.10000000000000002,-0.10000000000000002,-0.10000000000000002,0.12061168388475016,0.05778333637916709
2024-10-01,0.06105594658134266,0.07833998566228283,-0.1,0.07256171247657975,-0.1,-0.1,0.2179578146171468,-0.1,0.070084540662648,-0.1
2024-10-02,-0.125,-0.125,0.05322092012767251,-0.125,0.05611606991169466,0.03106646180948966,0.26008135591815706,-0.125,0.0757187580725877,0.023796434160398356
2024-10-03,-0.1,0.043292864480808574,-0.1,0.0751045074126177,0.014385072434200202,-0.1,0.18108442038653105,0.18613313528584255,-0.1,-0.1
2024-10-04,-0.08333333333333333,-0.08333333333333333,-0.08333333333333333,0.11224136490541374,-0.08333333333333333,0.0567462497949657,0.23776295926522029,-0.08333333333333333,0.0932494260344003,-0.08333333333333333
2024-10-07,0.07442073426006787,-0.08333333333333333,-0.08333333333333333,-0.08333333333333333,0.041713320608698236,-0.08333333333333333,0.19107518074794463,0.1927907643832893,-0.08333333333333333,-0.08333333333333333
2024-10-08,0.13284970366702176,0.08968677971336216,-0.12500000000000003,0.05916779104040038,-0.12500000000000003,0.036547361918713314,-0.12500000000000003,-0.12500000000000003,0.11389568537655752,0.06785267828394487
2024-10-09,-0.08333333333333333,0.09822063214962365,0.056629456965181506,-0.08333333333333333,-0.08333333333333333,-0.08333333333333333,0.22374119770118686,-0.08333333333333333,0.12140871318400803,-0.08333333333333333
2024-10-10,-0.224203598914104,0.05307627099002165,-0.02593434622427259,0.07385199984433283,0.03445103367163256,-0.025658455947519542,0.23683571296872666,-0.224203598914104,0.08103652176404952,0.020748460761236594
2024-10-11,0.11179127946167092,-0.09999999999999999,0.0374365672830931,-0.09999999999999999,-0.09999999999999999,0.0372078329451622,0.20631406774495334,-0.09999999999999999,0.10725025256512045,-0.09999999999999999
2024-10-14,0.06467547918142659,0.035693298882482904,-0.014818484712280857,0.050850433821073404,-0.15574091718815614,-0.017958763723250764,-0.15574091718815614,0.3442512277041083,-0.15574091718815614,0.004529560410908667
2024-10-15,-0.08333333333333333,-0.08333333333333333,-0.08333333333333333,0.04731959742727554,-0.08333333333333333,-0.08333333333333333,0.14606069017965356,0.23919174757638717,0.06742796481668374,-0.08333333333333333
2024-10-16,0.057901378601931,0.05487743529694701,-0.12324355588145118,0.0723054047315428,-0.12324355588145118,-0.007025776474195274,0.21036685910889824,-0.12324355588145118,0.10454892226068094,-0.12324355588145118
2024-10-17,0.10062392654179511,0.0939149601342238,-0.08333333333333333,-0.08333333333333333,-0.08333333333333333,-0.08333333333333333,0.24075895796301564,-0.08333333333333333,-0.08333333333333333,0.06470215536096537
2024-10-18,0.1138192937499391,-0.08333333333333333,0.0599998843522784,-0.08333333333333333,-0.08333333333333333,0.042825775075142146,0.28335504682264034,-0.08333333333333333,-0.08333333333333333,-0.08333333333333333
2024-10-21,-0.09999999999999999,-0.09999999999999999,0.07393415631768056,0.1610018304155015,0.09865199482969515,0.07283907268057492,-0.09999999999999999,-0.09999999999999999,-0.09999999999999999,0.09357294575654783
2024-10-22,-0.08333333333333334,-0.08333333333333334,-0.08333333333333334,0.18339177717156405,-0.08333333333333334,0.09386776108736147,-0.08333333333333334,-0.08333333333333334,0.10051586764719136,0.12222459409388314
2024-10-23,-0.055555555555555566,-0.055555555555555566,-0.055555555555555566,-0.055555555555555566,-0.055555555555555566,-0.055555555555555566,-0.055555555555555566,0.5000000000000001,-0.055555555555555566,-0.055555555555555566
2024-10-24,-0.112507694555759,0.004913317323446636,-0.021011775019652693,-0.112507694555759,0.004573148414149548,-0.02895744675731125,0.09567147463143343,0.39484205963097035,-0.112507694555759,-0.112507694555759
2024-10-25,0.09376336424571032,0.09414586514282436,0.03608061270665203,0.1262820019957522,0.09607771444617631,-0.16666666666666669,-0.16666666666666669,-0.16666666666666669,0.02506111899140079,0.028589322471483943
2024-10-28,-0.1,0.09502986253618813,0.059008238443900705,-0.1,0.11050403039988627,0.021721226808750025,0.21373664181127486,-0.1,-0.1,-0.1
2024-10-29,-0.08333333333333334,0.13335429006227717,0.11492194709658377,0.14808040304646772,-0.08333333333333334,-0.08333333333333334,-0.08333333333333334,-0.08333333333333334,0.1036433597946713,-0.08333333333333334
2024-10-30,0.10240430238891192,-0.1,0.11373932837747322,0.1330468154757326,-0.1,-0.1,-0.1,-0.1,0.0876065483499594,0.06320300540792288
2024-10-31,-0.07142857142857141,0.1612949375853787,-0.07142857142857141,-0.07142857142857141,-0.07142857142857141,0.12075636422656867,0.21794869818805257,-0.07142857142857141,-0.07142857142857141,-0.07142857142857141
2024-11-01,0.0659120458495157,-0.09999999999999999,-0.09999999999999999,-0.09999999999999999,-0.09999999999999999,0.1238476087302561,0.2393704923205716,-0.09999999999999999,0.05306443520884254,0.01780541789081416
2024-11-04,-0.09455232064453374,0.04831573447754336,-0.09455232064453374,-0.09455232064453374,0.027307816494174072,-0.09455232064453374,0.0841252931400775,0.34025115588820504,-0.09455232064453374,-0.02723839677733136
2024-11-05,-0.07142857142857144,-0.07142857142857144,-0.07142857142857144,0.11592011929421918,-0.07142857142857144,-0.07142857142857144,-0.07142857142857144,0.35784971239004465,0.026230168315736244,-0.07142857142857144
2024-11-06,-0.046292510318426114,0.02564474679689557,-0.019470390300697124,-0.1434459494438715,0.004503118667650982,-0.0038992510492621593,0.0663911137897236,0.4034610207457298,-0.1434459494438715,-0.1434459494438715
2024-11-07,-0.07136640383622941,-0.07136640383622941,-0.07136640383622941,-0.07136640383622941,-0.07136640383622941,-0.07136640383622941,-0.07136640383622941,0.44678690670958915,0.053213093290410934,-0.00043517314639403027
2024-11-08,-0.08333333333333333,-0.08333333333333333,0.02026896550620103,0.11353453669034384,-0.08333333333333333,-0.08333333333333333,-0.08333333333333333,0.3485106370116187,0.017685860791836528,-0.08333333333333333
2024-11-11,-0.14872165406681503,0.08343723718034732,0.02652890158363759,0.18428411233919445,0.0520111213280746,0.04584858171839499,0.10789004585035095,-0.14872165406681503,-0.14872165406681503,-0.053835037799554966
2024-11-12,-0.03163878773359974,0.037191445664657784,-0.1049270151067941,0.0959948522898412,-0.1049270151067941,0.012089048630719412,-0.1049270151067941,0.35472465341478143,-0.1049270151067941,-0.04865315183922401
2024-11-13,0.001159171983186129,-0.125,-0.125,0.2049539190876625,0.0709564130758643,0.06728424635566059,0.12438280897908034,-0.125,0.031263440518546175,-0.125
2024-11-14,-0.07966312511379356,-0.07966312511379356,-0.07966312511379356,0.11362603445813199,-0.07966312511379356,-0.07966312511379356,-0.07966312511379356,0.3748275013764091,0.011546464165458932,-0.022021249317238714
2024-11-15,0.0029994048940075236,-0.08333333333333333,0.04605848696763156,-0.08333333333333333,-0.08333333333333333,-0.08333333333333333,-0.08333333333333333,0.4343699198685748,0.0165721882697861,-0.08333333333333333
2024-11-18,-0.09451796155650222,0.061444871066017884,0.019517685230242908,-0.09451796155650222,-0.09451796155650222,-0.09451796155650222,0.06514130463645737,0.35389613906728173,-0.09451796155650222,-0.027410192217488846
2024-11-19,0.12252906135775717,-0.07142857142857144,-0.07142857142857144,-0.07142857142857144,0.26650715792409985,-0.07142857142857144,-0.07142857142857144,-0.07142857142857144,-0.07142857142857144,0.1109637807181429
2024-11-20,-0.021856701473903225,-0.1505103899486905,-0.1505103899486905,0.2099977962360214,0.07289993027877589,0.06427204751351454,0.13710189100665235,-0.1505103899486905,0.015728334965035857,-0.026612128680025257
2024-11-21,-0.01106848885795991,-0.09593009180452897,-0.09593009180452897,0.13920611818313494,-0.09593009180452897,0.045452340202304924,-0.09593009180452897,0.31534154161456013,-0.09593009180452897,-0.009281052119395266
2024-11-22,-0.030906821436508566,0.12411553516203598,0.08970734626235823,0.18272682423301287,0.05513178395784333,0.048318510384749616,-0.15632316148515407,-0.15632316148515407,-0.00012369410802919696,-0.15632316148515407
2024-11-25,-0.08333333333333334,0.2062532171966552,-0.08333333333333334,-0.08333333333333334,0.12014750068294708,0.12740348368635634,-0.08333333333333334,-0.08333333333333334,-0.08333333333333334,0.04619579843404137
2024-11-26,0.026213223953468312,-0.1,0.1412391121459744,0.2529795998468272,-0.1,-0.1,-0.1,-0.1,0.04682298427749476,0.032745079776235336
2024-11-27,-0.010253699026702414,0.09569800565012421,-0.0816243834955496,-0.0816243834955496,-0.0816243834955496,-0.0816243834955496,0.10214034716427944,0.3021616471855964,-0.0816243834955496,-0.0816243834955496
2024-11-29,-0.09999999999999999,0.06542983100504653,0.06534827862621727,-0.09999999999999999,0.03956264289177859,0.001824757460519381,-0.09999999999999999,0.3278344900164383,-0.09999999999999999,-0.09999999999999999
2024-12-02,0.008990940655341168,0.13998304960310382,-0.1,-0.1,0.1189304608898849,-0.1,0.19756622557600623,-0.1,-0.1,0.0345293232756639
2024-12-03,-0.09933542112083685,0.05458965909967213,0.05610642696110896,-0.09933542112083685,-0.09933542112083685,-0.0033228943958159216,0.09343624803633548,0.2958676659028835,-0.09933542112083685,-0.09933542112083685
2024-12-04,-0.1,0.09223500591155005,-0.1,0.03940076909194798,-0.1,0.024290471672560144,-0.1,0.33153141999761304,-0.1,0.01254233332632873
2024-12-05,-0.07142857142857141,0.10339789933785852,-0.07142857142857141,-0.07142857142857141,0.08385239063927931,-0.07142857142857141,-0.07142857142857141,0.31274971002286217,-0.07142857142857141,-0.07142857142857141
2024-12-06,-0.011352226444668642,0.09784776602025423,0.07896011272524071,-0.09772955471106626,-0.09772955471106626,0.020177517797409977,-0.09772955471106626,0.30301460345709497,-0.09772955471106626,-0.09772955471106626
2024-12-09,-0.0829557469020103,-0.0829557469020103,0.13560556353585415,-0.0829557469020103,0.09439200667885345,-0.0829557469020103,-0.0829557469020103,0.2700024297852924,-0.0022655185879381303,-0.0829557469020103
2024-12-10,-0.1,0.0636264996894895,0.10705341149992997,-0.1,0.050130103988454425,-0.1,0.10769484563554119,0.17149513918658482,-0.1,-0.1
2024-12-11,0.021777329653459084,0.1985373528701726,-0.10000000000000002,-0.10000000000000002,0.17804893916583983,0.0770891793294481,-0.10000000000000002,-0.10000000000000002,0.024547198981080376,-0.10000000000000002
2024-12-12,0.028278560997691122,-0.08333333333333334,-0.08333333333333334,-0.08333333333333334,-0.08333333333333334,-0.08333333333333334,-0.08333333333333334,0.34827568814638304,0.03342215237246499,0.09002359848346081
2024-12-13,-0.07142857142857142,0.08696702608843983,0.17791596325334333,-0.07142857142857142,-0.07142857142857142,-0.07142857142857142,-0.07142857142857142,0.23511701065821694,-0.07142857142857142,-0.07142857142857142
2024-12-16,-0.004698918369052115,-0.0990602163261896,-0.0990602163261896,-0.0990602163261896,-0.0990602163261896,0.039233355174554986,-0.0990602163261896,0.36127040942535876,0.022415638981568398,0.07708059641851787
2024-12-17,0.03756397851340831,-0.09999999999999998,-0.09999999999999998,0.08361677215810519,-0.09999999999999998,-0.09999999999999998,0.2354171398372814,-0.09999999999999998,0.061307532396309476,0.08209457709489568
2024-12-18,0.020023621808356793,0.17546101750859058,-0.09999999999999999,0.06389952805313236,-0.09999999999999999,-0.09999999999999999,0.19880702968221764,-0.09999999999999999,0.041808802947702596,-0.09999999999999999
2024-12-19,-0.007253233194249059,0.11558763566782904,0.17628208274498144,0.03124442768205403,-0.12318669170143774,-0.12318669170143774,0.1694461775489581,-0.12318669170143774,0.007439676356177281,-0.12318669170143774
2024-12-20,-0.08333333333333333,-0.08333333333333333,0.09965832213259929,-0.08333333333333333,0.06909081260773453,-0.08333333333333333,0.10658980353682537,0.2246610617228408,-0.08333333333333333,-0.08333333333333333
2024-12-23,-0.0625,-0.0625,-0.0625,-0.0625,-0.0625,-0.0625,-0.0625,0.40801327675291066,-0.0625,0.0919867232470894
2024-12-24,-0.016088865141754293,-0.1613037116194152,0.20804879448934638,0.03456236651630515,-0.1613037116194152,0.03528773068982413,0.18609626179165473,-0.1613037116194152,0.0031916796260573308,0.03281316688681219
2024-12-26,-0.009793391559522134,0.11378410635622764,0.19931509370520686,0.02697205274206359,0.13163178804535805,-0.16187467848696252,-0.16187467848696252,-0.16187467848696252,-0.004582572979590433,0.028296959151143927
2024-12-27,-0.125,0.1052955257708352,0.1744358258555693,0.03133408967020721,-0.125,-0.125,0.14664368566884878,-0.125,0.008472598182318838,0.03381827485222072
2024-12-30,0.02174353252268914,0.15458118061602594,-0.16666666666666669,0.045615417463233845,0.15242954875206782,0.052690880628788746,-0.16666666666666669,-0.16666666666666669,0.018436170960640007,0.054503269056554525
2024-12-31,-0.125,0.08721218915622993,0.15558999623179556,0.016182871071724586,0.07481950263202476,-0.125,0.14653801377626638,-0.125,-0.125,0.019657427131958737
2025-01-02,-0.0625,-0.0625,-0.0625,-0.0625,-0.0625,-0.0625,0.14215137336552197,0.35784862663447803,-0.0625,-0.0625
2025-01-03,-0.08333333333333334,0.08907624175082811,0.14636914649289362,-0.08333333333333334,0.10533748901191972,-0.08333333333333334,0.15921712274435845,-0.08333333333333334,-0.08333333333333334,-0.08333333333333334
2025-01-06,0.06356788592102164,-0.125,0.23539902248761652,0.05959759272368881,-0.125,0.06137262107602209,-0.125,-0.125,0.024131643212114924,0.055931234579536124
2025-01-07,0.026849944520748244,-0.10000000000000002,-0.10000000000000002,-0.10000000000000002,-0.10000000000000002,0.031555516774945426,-0.10000000000000002,0.4146721034136883,0.003056789198099586,0.02386564609251845
2025-01-08,-0.08333333333333334,-0.08333333333333334,0.0920340568828011,-0.08333333333333334,0.07587252698641617,-0.08333333333333334,-0.08333333333333334,0.31608026496488945,-0.08333333333333334,0.016013151165893146
2025-01-10,-0.08333333333333334,0.07944985556524305,-0.08333333333333334,0.042090698521506195,-0.08333333333333334,-0.08333333333333334,-0.08333333333333334,0.36618551066952004,0.012273935243730728,-0.08333333333333334
2025-01-13,0.10054452327462403,0.1583572880705917,-0.1,0.10145533147514761,-0.1,0.08524682624812542,-0.1,-0.1,0.05439603093151127,-0.1
2025-01-14,-0.08333333333333333,-0.08333333333333333,0.043469266012589304,-0.08333333333333333,0.0681926575743684,-0.08333333333333333,0.12009808609430692,0.26823999031873536,-0.08333333333333333,-0.08333333333333333
2025-01-15,-0.12500000000000003,0.11438531616057744,-0.12500000000000003,0.06542029109489216,0.1726341640634447,0.06438672539924861,-0.12500000000000003,-0.12500000000000003,0.03562392716416618,0.04754957611767092
2025-01-16,-0.09999999999999998,0.044957386073673236,0.031188994604300017,0.011450781891993484,-0.09999999999999998,-0.09999999999999998,0.13409023920356575,0.2783125982264674,-0.09999999999999998,-0.09999999999999998
2025-01-17,-0.12499999999999999,0.08348169740328856,0.06727414303348792,0.020846513653681314,-0.12499999999999999,-0.12499999999999999,0.2791161333124836,-0.12499999999999999,0.009126323876954136,0.0401551887201045
2025-01-21,-0.08333333333333331,0.07703739650302167,-0.08333333333333331,-0.08333333333333331,0.11932078354477743,0.06809302148966832,0.23554879846253257,-0.08333333333333331,-0.08333333333333331,-0.08333333333333331
2025-01-22,-0.08333333333333333,-0.08333333333333333,-0.08333333333333333,0.08529485909694907,0.23410431684062494,-0.08333333333333333,-0.08333333333333333,-0.08333333333333333,0.07190522767437357,0.10869559638805244
2025-01-23,-0.08333333333333333,-0.08333333333333333,0.12909863673988642,-0.08333333333333333,0.2179054760374653,-0.08333333333333333,-0.08333333333333333,-0.08333333333333333,0.06720882687801152,0.08578706034463676
2025-01-24,0.14145170115354327,0.10218348278413858,-0.12499999999999999,0.02953091820154964,0.16570850670380546,-0.12499999999999999,-0.12499999999999999,-0.12499999999999999,0.020732803861591723,0.040392587295371436
2025-01-27,0.06748813163723398,-0.08333333333333333,-0.08333333333333333,-0.08333333333333333,0.06250243870294177,0.04312313930309764,0.32688629035672656,-0.08333333333333333,-0.08333333333333333,-0.08333333333333333
2025-01-28,0.16223845062433123,0.07261613686591732,0.11052388127252201,-0.0026239877782559466,0.14898175659101884,-0.16237818700012516,-0.16237818700012516,-0.16237818700012516,-0.010241451221368512,0.005639774646210576
2025-01-29,-0.11993201847738395,-0.11993201847738395,0.015117387229450751,-0.049134344773658946,0.0215089826493921,-0.11993201847738395,0.2986558952287756,0.16471773489238156,-0.045975589717335744,-0.04509401007685347
2025-01-30,-0.1,0.03161616746365557,0.06303966100206418,-0.1,0.06706616839586392,0.100171915880986,-0.1,0.23810608725743032,-0.1,-0.1
2025-01-31,-0.12500000000000003,0.09018042912865706,-0.12500000000000003,0.019250362329991364,0.14200964510012945,0.2020352021423692,-0.12500000000000003,-0.12500000000000003,0.02161905695574984,0.02490530434310289
2025-02-03,0.05232891547328956,0.003915882463324226,0.03517664373044649,-0.10000000000000002,-0.10000000000000002,-0.10000000000000002,0.288077496206733,0.12050106212620673,-0.10000000000000002,-0.10000000000000002
2025-02-04,0.060676765409994844,-0.12674606285292592,-0.12674606285292592,-0.04539170853239525,0.013521328383778983,0.06434650507297178,0.3614554011332544,-0.12674606285292592,-0.04057483872963453,-0.033795264179192534
2025-02-05,-0.08333333333333336,0.045274156864584955,-0.08333333333333336,0.006755537273137098,0.04730625480348977,-0.08333333333333336,0.4006640510587882,-0.08333333333333336,-0.08333333333333336,-0.08333333333333336
2025-02-06,-0.09668772996262766,-0.09668772996262766,-0.09668772996262766,-0.006419355364980053,0.025762301702932554,0.09391392257407816,0.38032377572298925,-0.09668772996262766,-0.01014199482188159,-0.09668772996262766
2025-02-07,-0.109382258015877,0.02852381836720954,0.0957693766201752,-0.109382258015877,-0.109382258015877,0.059582755949556886,0.31612404906305835,-0.109382258015877,-0.04341105768216357,-0.019059910254328294
2025-02-10,0.16267813568820597,0.10909159333904514,-0.12169851228992994,0.016452363632084094,0.05075583670227838,0.1610220706383863,-0.12169851228992994,-0.12169851228992994,-0.013205950840280254,-0.12169851228992994
2025-02-11,0.1557097870078836,-0.09941027133812579,-0.09941027133812579,-0.09941027133812579,0.023682538041346072,-0.09941027133812579,-0.09941027133812579,0.3028463178086338,-0.002948643309371082,0.01776135714213655
2025-02-12,0.07456624773487529,-0.07142857142857144,-0.07142857142857144,-0.07142857142857144,-0.07142857142857144,-0.07142857142857144,0.286408981931094,0.13902477033403068,-0.07142857142857144,-0.07142857142857144
2025-02-13,0.10093329165027777,-0.069943359873403,-0.069943359873403,-0.069943359873403,-0.010396480886179024,-0.069943359873403,0.39906670834972224,-0.069943359873403,-0.069943359873403,-0.069943359873403
2025-02-14,0.07107735230765512,-0.09168314173525752,-0.09168314173525752,-0.01459510708362264,-0.09168314173525752,0.07735236567483257,0.3515702820175122,-0.09168314173525752,-0.026989184240089774,-0.09168314173525752
2025-02-18,-0.08333333333333334,-0.08333333333333334,0.1537351490773554,-0.08333333333333334,-0.08333333333333334,0.11544447097998341,-0.08333333333333334,0.2090096564358396,-0.08333333333333334,0.021810723506821658
2025-02-19,0.03607882347981923,-0.11458022156827793,0.0952113326456639,-0.11458022156827793,-0.0030287533256231503,0.03860532070815969,0.33010452316635713,-0.11458022156827793,-0.03865036040126522,-0.11458022156827793
2025-02-20,0.14424836352488157,-0.1,-0.1,0.09549214404616094,0.0858050320284685,0.15274254739426357,-0.1,-0.1,0.021711913006225467,-0.1
2025-02-21,0.08140926734583967,-0.12017635300289163,0.16577853225399355,0.04456406789656065,-0.12017635300289163,0.09053300476176582,-0.12017635300289163,-0.12017635300289163,-0.019294587988433348,0.1177151277418404
2025-02-24,0.13165150032611972,0.13314092792993873,-0.08333333333333331,-0.08333333333333331,-0.08333333333333331,-0.08333333333333331,-0.08333333333333331,-0.08333333333333331,0.02805403999934076,0.2071535317446008
2025-02-25,-0.09999999999999999,0.07840672613202058,-0.09999999999999999,0.06117740859382288,0.05837277153817524,0.0793242106977568,0.22271888303822437,-0.09999999999999999,-0.09999999999999999,-0.09999999999999999
2025-02-26,0.10371310381227959,-0.1,-0.1,0.08656084604425354,-0.1,0.11016790200209102,-0.1,-0.1,0.014729594496033886,0.184828553645342
2025-02-27,0.0,0.0,0.0,0.0,0.0,0.0,0.0,0.0,0.0,0.0
