date,AAPL,MSFT,GOOGL,AMZN,META,NVDA,TSLA,JPM,V,WMT
2023-12-14,-0.07265292019186077,-0.023408543564494497,-0.05244551348649585,-0.07265292019186077,-0.07265292019186077,-0.0608813419897058,0.4454519011762544,0.054548098823745776,-0.07265292019186077,-0.07265292019186077
2023-12-15,-0.06764720690997476,-0.013693968693173252,-0.04550752107399924,-0.06764720690997476,-0.05085899842843253,-0.06764720690997476,0.5,-0.06764720690997476,-0.06764720690997476,-0.05170347725452118
2023-12-18,0.054972900084291385,-0.08295698899490848,0.000793548152946125,-0.06576490567118386,-0.01945014935427369,-0.08295698899490848,-0.08295698899490848,0.4442335517627625,-0.08295698899490848,-0.08295698899490848
2023-12-19,-0.0852391720720601,-0.0852391720720601,0.2376034078222088,-0.01896692209007082,0.15956775870998766,0.10282883346780367,-0.0852391720720601,-0.0852391720720601,-0.05483721754962869,-0.0852391720720601
2023-12-20,-0.07311192142415679,-0.023797490481019343,-0.05287576796338128,-0.07311192142415679,-0.057767134434815445,-0.07311192142415679,0.44572994813594435,0.0542700518640556,-0.07311192142415679,-0.07311192142415679
2023-12-21,-0.0854814429604455,-0.0854814429604455,0.24302456611106898,-0.01804661958335874,-0.0854814429604455,0.10588572414054094,-0.0854814429604455,-0.0854814429604455,-0.05454616561441375,0.15108970974839
2023-12-22,-0.06510928854643803,-0.06510928854643803,-0.06510928854643803,-0.06105815002179614,-0.05014455159152825,-0.06510928854643803,0.44088223186721937,0.05911776813278066,-0.06325085565448546,-0.06510928854643803
2023-12-26,-0.06667410823268743,-0.06667410823268743,-0.06667410823268743,-0.06260285192178691,-0.05163505701336925,-0.06667410823268743,0.4418301451310869,0.05816985486891307,-0.06667410823268743,-0.05239154990140671
2023-12-27,-0.025630631363169034,-0.061711505796861695,-0.061711505796861695,-0.05721425430338221,-0.061711505796861695,-0.04894916380576107,0.5,-0.061711505796861695,-0.05964842154337916,-0.061711505796861695
2023-12-28,-0.059439748180147016,-0.059439748180147016,-0.059439748180147016,-0.05496068514324917,-0.059439748180147016,-0.046729021559794894,0.5,-0.059439748180147016,-0.05738500776032003,-0.04372654463590077
2023-12-29,-0.07381489229254264,-0.07381489229254264,0.014965096962554878,-0.0555903766687391,-0.07381489229254264,-0.07381489229254264,-0.07381489229254264,0.48503490303744506,-0.06545451679089916,-0.009880645077648537
2024-01-02,-0.0854814429604455,-0.0854814429604455,0.24302456611106898,-0.01804661958335874,-0.0854814429604455,0.10588572414054094,-0.0854814429604455,-0.0854814429604455,-0.05454616561441375,0.15108970974839
2024-01-03,-0.05953288452514669,-0.05953288452514669,-0.05953288452514669,-0.05505307580730352,-0.042984657733331225,-0.04682004180449322,0.5,-0.05953288452514669,-0.05747780202913858,-0.05953288452514669
2024-01-04,-0.06409860299593069,-0.010482649398838155,-0.06409860299593069,-0.05958223959832819,-0.047415344739814014,-0.06409860299593069,0.5000000000000001,-0.06409860299593069,-0.062026751283366224,-0.06409860299593069
2024-01-05,-0.04188423987197478,-0.02578117421334003,-0.05507012603718087,-0.07545289197550087,-0.07545289197550087,-0.07545289197550087,0.447148026560853,0.052851973439147035,-0.07545289197550087,-0.07545289197550087
2024-01-08,-0.06720580682362211,-0.013294522418480368,-0.04508333671445869,-0.06720580682362211,-0.06720580682362211,-0.054318631803498704,0.5000000000000001,-0.06720580682362211,-0.06720580682362211,-0.05127447494545172
2024-01-09,-0.06659984912813734,-0.012746159263223783,-0.06659984912813734,-0.06659984912813734,-0.04984261633110867,-0.05372644174364559,0.5000000000000001,-0.06659984912813734,-0.06659984912813734,-0.050685537021335235
2024-01-10,-0.06494161055096491,-0.011245531504681987,-0.06494161055096491,-0.06494161055096491,-0.06494161055096491,-0.052105879104399136,0.5000000000000001,-0.06494161055096491,-0.06286666259487611,-0.049073874041218234
2024-01-11,0.2498206476831773,-0.09999999999999999,0.11240985071809687,-0.09999999999999999,0.06106736490335341,0.023736766676364374,-0.09999999999999999,-0.09999999999999999,-0.09999999999999999,0.052965370019008105
2024-01-12,-0.06595509594113058,-0.06595509594113058,-0.06595509594113058,-0.06595509594113058,-0.06595509594113058,-0.05442787927119073,0.4413945925277809,0.05860540747221917,-0.06409167469643917,-0.05170496632671712
2024-01-16,-0.08778483768467558,-0.08778483768467558,-0.08778483768467558,-0.009248726848291406,0.20284790378158168,0.10598252216508594,-0.08778483768467558,-0.08778483768467558,-0.051827084728330634,0.19116957405333235
2024-01-17,-0.02584029277360985,-0.03305672306534933,-0.050660999889497786,-0.06722032286602193,-0.054340369941433465,-0.06722032286602193,0.5000000000000001,-0.06722032286602193,-0.06722032286602193,-0.06722032286602193
2024-01-18,-0.02505620644073689,-0.03450648325970593,-0.05057562553411039,-0.06699033833487046,-0.05490999309109449,-0.06699033833487046,0.5,-0.06699033833487046,-0.06699033833487046,-0.06699033833487046
2024-01-19,-0.015307035478238367,-0.062394140418785375,-0.062394140418785375,-0.05806498758278227,-0.062394140418785375,-0.062394140418785375,0.5,-0.062394140418785375,-0.060737015794959284,-0.05392025905009325
2024-01-22,-0.02853163441488804,-0.040976850585932575,-0.05940442470587381,-0.07421741805866112,-0.07421741805866112,-0.07421741805866112,0.46936966207460223,0.03063033792539784,-0.07421741805866112,-0.07421741805866112
2024-01-23,-0.06392180966398277,-0.029069930550131077,-0.048322858397540025,-0.06392180966398277,-0.05045349435933807,-0.05254466837307696,0.4999999999999999,-0.06392180966398277,-0.06392180966398277,-0.06392180966398277
2024-01-24,-0.06363130350635327,-0.028668323014450152,-0.046704470207342724,-0.06363130350635327,-0.06363130350635327,-0.05229102850144798,0.4999999999999999,-0.06363130350635327,-0.06363130350635327,-0.054179660744992794
2024-01-25,-0.07518068045480159,0.015096233088169247,-0.03265035111281682,-0.07518068045480159,-0.04064864480587367,-0.07518068045480159,-0.07518068045480159,0.4849037669118306,-0.07518068045480159,-0.05079760180730153
2024-01-26,-0.06853539801521492,-0.04010249893835589,-0.06853539801521492,-0.06853539801521492,-0.05781829059723781,-0.05940222038833174,0.3840158785780276,0.11598412142197244,-0.06853539801521492,-0.06853539801521492
2024-01-29,-0.06427644544729015,-0.06427644544729015,-0.06427644544729015,-0.06009886650837697,-0.06427644544729015,-0.06427644544729015,0.3808403668862259,0.11915963311377407,-0.061546126917383336,-0.05697277933778892
2024-01-30,-0.09529053647059743,-0.09529053647059743,-0.09529053647059743,0.009255987795816063,0.17461497097039477,0.24014201520144343,-0.09529053647059743,-0.09529053647059743,-0.023547317647012737,0.07598702603234578
2024-01-31,-0.03418000257909416,-0.038188715608158216,-0.07409483972087755,-0.07409483972087755,-0.07409483972087755,-0.05715708320835982,0.37803475754854204,0.12196524245145784,-0.07409483972087755,-0.07409483972087755
2024-02-01,-0.08077376434085676,0.009551095316580405,-0.03633594164548518,-0.08077376434085676,0.005101459889665258,-0.05979523665023111,0.4853474447937544,-0.08077376434085676,-0.08077376434085676,-0.08077376434085676
2024-02-02,-0.02130922961255288,-0.06617168688153004,-0.024291215589293893,-0.06106973486865971,-0.06617168688153004,-0.06617168688153004,0.5,-0.06617168688153004,-0.062471385521843316,-0.06617168688153004
2024-02-05,0.02092131834509461,-0.07637050005991397,0.021174854089006517,-0.06431833775893282,-0.07637050005991397,-0.07637050005991397,-0.07637050005991397,0.4579038275658988,-0.07637050005991397,-0.053829161941497373
2024-02-06,-0.08289611443975367,-0.01165240649541739,-0.08289611443975367,-0.08289611443975367,-0.008010615860861553,-0.06585640544495273,0.39320074244340375,0.10679925755659622,-0.08289611443975367,-0.08289611443975367
2024-02-07,-0.08000605641338558,-0.08000605641338558,0.003945034251532969,-0.08000605641338558,0.10455140353571495,-0.03864798801388858,-0.08000605641338558,0.391503562212752,-0.08000605641338558,-0.061321729919183623
2024-02-08,-0.07750144694715944,-0.007467800696368722,-0.0440432562642181,-0.07750144694715944,-0.07750144694715944,-0.060981708303616,0.38987147932064686,0.11012852067935322,-0.07750144694715944,-0.07750144694715944
2024-02-09,-0.0645913222802856,-0.0645913222802856,-0.0645913222802856,-0.06007515103866053,0.020791176621495624,-0.0645913222802856,0.4792088233785045,-0.0645913222802856,-0.06098809065053972,-0.05598014690937184
2024-02-12,-0.0733411004029855,-0.0733411004029855,0.1318843562018884,-0.05095706426564076,0.3681156437981115,-0.0733411004029855,-0.0733411004029855,-0.0733411004029855,-0.05471015345630853,-0.027627280263123236
2024-02-13,-0.08316795724870468,-0.010249106745432725,-0.08316795724870468,-0.08316795724870468,-0.00894376046062003,-0.06496734655042394,0.39254354464536423,0.1074564553546358,-0.08316795724870468,-0.08316795724870468
2024-02-14,-0.06670232336266185,-0.06670232336266185,-0.06670232336266185,-0.05760648487173388,0.10481957020217104,-0.06670232336266185,-0.06670232336266185,0.395180429797829,-0.059417524608413104,-0.049464373706543774
2024-02-15,-0.07505093753296287,0.4464722108816601,-0.07505093753296287,-0.048944046781911145,-0.07505093753296287,0.05352778911833989,-0.07505093753296287,-0.07505093753296287,-0.05264858187013381,-0.02315268368314084
2024-02-16,-0.08305005894312768,-0.08305005894312768,0.12170411816546854,-0.06155861627847149,0.3556236786798452,0.02267220315468639,-0.08305005894312768,-0.08305005894312768,-0.08305005894312768,-0.023191089005890096
2024-02-20,-0.022139101561603043,0.09558828212049074,0.0022706559096710302,-0.07268388777335884,-0.08103540213300763,-0.08103540213300763,-0.08103540213300763,0.4021410619698382,-0.08103540213300763,-0.08103540213300763
2024-02-21,-0.06102305732931303,-0.04033881971103676,-0.07162204342504155,-0.07162204342504155,-0.040527905834442324,-0.07162204342504155,0.48716745356097524,0.012832546439024746,-0.07162204342504155,-0.07162204342504155
2024-02-22,-0.06003356299579992,-0.028660196154538777,-0.06003356299579992,-0.058673324255849674,-0.06003356299579992,-0.06003356299579992,0.5,-0.06003356299579992,-0.058559813758316905,-0.05393885085229506
2024-02-23,-0.06264577574052455,-0.06264577574052455,-0.06264577574052455,-0.061280750208803504,-0.06264577574052455,-0.06264577574052455,0.4999999999999999,-0.010112791622102331,-0.06129495296547141,-0.05408262650100009
2024-02-26,0.0017731363714766485,-0.08513620663982507,0.03375999822300148,-0.07431896680087467,0.16404316638037064,-0.08513620663982507,-0.08513620663982507,0.30042369902515126,-0.08513620663982507,-0.08513620663982507
2024-02-27,-0.07506578231574534,-0.07506578231574534,-0.07506578231574534,-0.061310836217926074,-0.07506578231574534,0.010195466577169262,-0.07506578231574534,0.4693594429980957,-0.06336025220334718,0.020445090424735024
2024-02-28,-0.06419380316859,-0.03322275508054994,-0.05525329856268926,-0.06419380316859,-0.0327341697189247,-0.05782076079488617,0.5000000000000001,-0.06419380316859,-0.06419380316859,-0.06419380316859
2024-02-29,-0.06836454081677724,-0.03765020117366908,-0.06836454081677724,-0.06836454081677724,-0.03680900846831209,-0.06286346613464601,0.5,-0.020854620139486565,-0.06836454081677724,-0.06836454081677724
2024-03-01,-0.05724228056323814,-0.05724228056323814,-0.05724228056323814,-0.05618578117948121,-0.05724228056323814,-0.05246614590600888,0.4999999999999999,-0.05724228056323814,-0.05632733403323043,-0.0488093360650888
2024-03-04,-0.05747393840108093,-0.05747393840108093,-0.05747393840108093,-0.05640110536174839,-0.05066090909630685,-0.05747393840108093,0.5000000000000001,-0.05747393840108093,-0.056554113469485606,-0.04901418006705452
2024-03-05,-0.05745604995389756,-0.05745604995389756,-0.05745604995389756,-0.05637219773213093,-0.05091340142359301,-0.05745604995389756,0.4999999999999999,-0.05745604995389756,-0.05652614342056527,-0.04890800765422291
2024-03-06,-0.06508688945712077,-0.0514387150246016,-0.055126132872158166,-0.06508688945712077,-0.06508688945712077,-0.059910541213657596,0.5000000000000002,-0.008090163603978908,-0.06508688945712077,-0.06508688945712077
2024-03-07,0.24400292164058016,-0.07789976785139774,0.14408929072713797,-0.0526329317640612,-0.07789976785139774,-0.07789976785139774,-0.07789976785139774,-0.07789976785139774,-0.05786822897895011,0.11190778763228193
2024-03-08,0.05816318338868222,-0.08383451863641411,0.010487139438775932,-0.08383451863641411,-0.08383451863641411,-0.08383451863641411,-0.08383451863641411,0.43134967717254186,-0.07553932093768957,-0.005288085880239664
2024-03-11,-0.059092894702027804,-0.04779781029100852,-0.050047898063772925,-0.059092894702027804,-0.05215221409457853,-0.054537604040501,0.5,-0.059092894702027804,-0.059092894702027804,-0.059092894702027804
2024-03-12,-0.07922067168431364,0.24430898536804485,0.205032278986949,-0.05040302222726412,-0.07922067168431364,0.05065873564500614,-0.07922067168431364,-0.07922067168431364,-0.05349361935116764,-0.07922067168431364
2024-03-13,0.23214225490703272,0.1360865945022836,0.12165009355442008,-0.08636552974550568,-0.08636552974550568,0.010121057036263576,-0.08636552974550568,-0.08636552974550568,-0.06817235127247165,-0.08636552974550568
2024-03-14,0.07848595463416355,-0.0743557886571297,-0.0743557886571297,-0.0629037902226905,-0.0743557886571297,-0.0743557886571297,-0.0743557886571297,0.41511131165768306,-0.06531726649166093,0.006402733708153408
2024-03-15,-0.05058343243960736,-0.06525645745686004,-0.052557482522783805,-0.06525645745686004,-0.05870563323316318,-0.06525645745686004,0.49999999999999983,-0.011871164520145385,-0.06525645745686004,-0.06525645745686004
2024-03-18,-0.04354747506308076,-0.048705025104608536,-0.05918366933874924,-0.057887937676839675,-0.05918366933874924,-0.053941215461724784,0.4999999999999999,-0.05918366933874924,-0.05918366933874924,-0.05918366933874924
2024-03-19,-0.0496631976921703,-0.05544343508360361,-0.05284310399567874,-0.06628537248977298,-0.06628537248977298,-0.06628537248977298,0.4999999999999999,-0.010623400779682341,-0.06628537248977298,-0.06628537248977298
2024-03-20,-0.059098973560434954,-0.059098973560434954,-0.059098973560434954,-0.05673389995375118,-0.04816133762846144,-0.05041358920538026,0.4999999999999999,-0.059098973560434954,-0.059098973560434954,-0.049196305410232344
2024-03-21,-0.03307306858755154,-0.049999612954735435,-0.04170609928865988,-0.06435206671375762,-0.05346088560026495,-0.06435206671375762,0.5000000000000001,-0.06435206671375762,-0.06435206671375762,-0.06435206671375762
2024-03-22,-0.06486646981061417,-0.05098907796189331,-0.06486646981061417,-0.06486646981061417,-0.06486646981061417,-0.06486646981061417,0.4803419465996619,0.019658053400338174,-0.06339309110323958,-0.06128548188179618
2024-03-25,-0.06820966946445554,-0.06820966946445554,0.05460223518203983,-0.052564284667456454,-0.06820966946445554,-0.06820966946445554,-0.06820966946445554,0.4453977648179602,-0.05945094327205986,-0.04693642473820594
2024-03-26,0.0980608884958747,0.00020384200918408882,-0.07638332296549571,-0.06148579477399192,-0.07638332296549571,-0.07638332296549571,-0.07638332296549571,0.4017352694949412,-0.07638332296549571,-0.05659759039852956
2024-03-27,-0.059661904346393194,-0.0464698177910207,-0.040004862782672346,-0.05699627987263412,-0.059661904346393194,-0.059661904346393194,0.5,-0.059661904346393194,-0.058219517821706764,-0.059661904346393194
2024-03-28,-0.06138040430859862,-0.04817460892270294,-0.041216241773101035,-0.06138040430859862,-0.05094929661069003,-0.05275783115051298,0.5000000000000002,-0.06138040430859862,-0.06138040430859862,-0.06138040430859862
2024-04-01,-0.08560511592027377,0.22382723543463193,-0.08560511592027377,-0.020645288386650737,0.15840857486773322,0.1177641896976347,-0.08560511592027377,-0.08560511592027377,-0.051329132011980444,-0.08560511592027377
2024-04-02,0.07956961214263751,-0.0035848378601409,-0.08353909304724674,-0.08353909304724674,-0.01605700890087917,-0.08353909304724674,-0.08353909304724674,0.4204303878573624,-0.08353909304724674,-0.0626626880027462
2024-04-03,-0.06924957679750034,-0.06924957679750034,-0.06924957679750034,-0.04820039608767037,0.007086565206672738,-0.06924957679750034,-0.06924957679750034,0.4929134347933271,-0.05819759953166986,-0.04735412039315812
2024-04-04,-0.06185202321750183,-0.046389524640135495,-0.04145506499724501,-0.06185202321750183,-0.04943929163772148,-0.05345600263738898,0.5,-0.06185202321750183,-0.06185202321750183,-0.06185202321750183
2024-04-05,-0.07493677690397846,0.00556351118488511,0.032975716274065384,-0.05891332404797842,-0.07493677690397846,-0.07493677690397846,-0.07493677690397846,0.46146077254104945,-0.06640279143212918,-0.07493677690397846
2024-04-08,0.04363950305428612,-0.016308542040788656,0.015944345685330652,-0.0877215426336272,-0.0877215426336272,-0.0450837447910754,-0.0877215426336272,0.44041615126038314,-0.0877215426336272,-0.0877215426336272
2024-04-09,-0.061107820710587825,-0.036745198120567965,-0.061107820710587825,-0.061107820710587825,-0.04381882049518447,-0.061107820710587825,0.5,-0.061107820710587825,-0.05821766876545572,-0.05567920906585273
2024-04-10,-0.030084730065933308,-0.053694764960534117,-0.04406535617542282,-0.07443102975962194,-0.07443102975962194,-0.07443102975962194,0.4238332602369007,0.07616673976309936,-0.07443102975962194,-0.07443102975962194
2024-04-11,0.3936601710593656,-0.08207496499576528,-0.08207496499576528,-0.08207496499576528,0.07026137000177787,0.036078458938856396,-0.08207496499576528,-0.08207496499576528,-0.05731417064569126,-0.03231100437548241
2024-04-12,-0.09435733690029204,-0.09435733690029204,-0.09435733690029204,0.11011706005213583,0.25504320343746134,0.11859533281188935,-0.09435733690029204,-0.09435733690029204,-0.028213315498539802,0.01624440369851348
2024-04-15,-0.059130799189236506,-0.059130799189236506,-0.059130799189236506,-0.059130799189236506,-0.0451382413973135,-0.04887144131020746,0.5,-0.059130799189236506,-0.05612929427057563,-0.05420702707572092
2024-04-16,-0.09153909011147758,-0.09153909011147758,0.2654482444992175,0.07686136471990665,0.15769039078087588,-0.09153909011147758,-0.09153909011147758,-0.09153909011147758,-0.03802815347283963,-0.004276395969772435
2024-04-17,-0.06057919367867616,-0.06057919367867616,-0.041087699086081314,-0.051407000607622266,-0.0468617194584883,-0.06057919367867616,0.5,-0.06057919367867616,-0.05774761245442732,-0.06057919367867616
2024-04-18,-0.09249071516509251,-0.09249071516509251,0.2961363685318223,0.09731263410346808,-0.09249071516509251,0.10429739074916822,-0.09249071516509251,-0.09249071516509251,-0.03754642417453738,0.0022536066155415596
2024-04-19,-0.03137555143986596,-0.04628117800828464,-0.0509442084518465,-0.05664067951008896,-0.0629516765179828,-0.0629516765179828,0.4999999999999999,-0.0629516765179828,-0.0629516765179828,-0.0629516765179828
2024-04-22,-0.06706196795215,-0.051394217407634654,-0.05594230508862886,-0.06706196795215,-0.057353637742986525,-0.06706196795215,0.47586060928428014,0.024139390715719855,-0.06706196795215,-0.06706196795215
2024-04-23,0.037577136415495045,-0.07242323383224548,-0.03080340825001945,-0.07242323383224548,-0.07242323383224548,-0.048909571457521055,-0.07242323383224548,0.4624228635845049,-0.07242323383224548,-0.05817085113123206
2024-04-24,-0.04182837336594582,-0.06669110704280197,-0.06669110704280197,-0.061476513112014804,-0.06669110704280197,-0.06669110704280197,0.4274554586453586,0.07254454135464129,-0.06669110704280197,-0.06323957830802959
2024-04-25,-0.06658837712331657,-0.046620748232764395,-0.025139485918646166,-0.06658837712331657,-0.03716473669269985,-0.05813314353930658,0.4999999999999999,-0.06658837712331657,-0.06658837712331657,-0.06658837712331657
2024-04-26,-0.04450912569681966,-0.051027621505190336,-0.06791978866196571,-0.06791978866196571,-0.06791978866196571,-0.06791978866196571,0.40934894359312884,0.09065105640687111,-0.06791978866196571,-0.06486430948816135
2024-04-29,-0.08364189379726161,-0.08364189379726161,-0.08364189379726161,0.011326343826981475,0.41249446202955414,0.0761791941434644,-0.08364189379726161,-0.08364189379726161,-0.05701921881105702,-0.024771312202634958
2024-04-30,-0.08804029355780771,0.11991602164783759,0.24807966927795264,-0.04612774943273428,0.13200430907420974,-0.0136707827782272,-0.08804029355780771,-0.08804029355780771,-0.08804029355780771,-0.08804029355780771
2024-05-01,-0.03841605592470726,-0.03424424553919179,-0.023873351879194416,-0.0678787320376151,-0.0678787320376151,-0.0678787320376151,0.5000000000000001,-0.0678787320376151,-0.0678787320376151,-0.06407268646883109
2024-05-02,-0.031916811368825494,-0.044523470433540775,-0.07197309496359158,-0.07197309496359158,-0.07197309496359158,-0.06369424337967584,0.4016926114924921,0.098307388507508,-0.07197309496359158,-0.07197309496359158
2024-05-03,-0.0699400165635489,-0.04261342261776389,-0.0699400165635489,-0.0699400165635489,-0.0461470295364458,-0.06153946502804581,0.40433830626787093,0.09566169373212906,-0.0699400165635489,-0.0699400165635489
2024-05-06,0.21856340857920864,-0.07610053122371942,0.18585160947259327,-0.07610053122371942,0.09558498194819806,-0.07610053122371942,-0.07610053122371942,-0.07610053122371942,-0.0664751509264988,-0.05302219295490414
2024-05-07,0.3326632139901231,-0.07999867560384216,-0.07999867560384216,-0.033203265014576135,0.16174832253987564,0.005588463470001277,-0.07999867560384216,-0.07999867560384216,-0.06680335696621306,-0.07999867560384216
2024-05-08,0.1754012607331078,0.09553971624404387,0.15683700823372124,-0.0572620180206008,0.07222201478912713,-0.08854759639587981,-0.08854759639587981,-0.08854759639587981,-0.08854759639587981,-0.08854759639587981
2024-05-09,-0.06042342103542054,-0.06042342103542054,-0.06042342103542054,-0.05732287307663395,-0.031429781192542215,-0.0503793528045837,0.5000000000000001,-0.06042342103542054,-0.05875088774913742,-0.06042342103542054
2024-05-10,-0.03396379955397279,-0.07233516515305638,-0.034691406442396176,-0.06966896823834914,-0.07233516515305638,-0.07233516515305638,0.40145881249483995,0.0985411875051601,-0.07233516515305638,-0.07233516515305638
2024-05-13,-0.03762589249025288,-0.0750783790399463,-0.037063299399658516,-0.0750783790399463,-0.049918912910357084,-0.0750783790399463,0.403255282860337,0.0967447171396629,-0.0750783790399463,-0.0750783790399463
2024-05-14,-0.022166952475250114,-0.0670476080161251,-0.020991390135306782,-0.0670476080161251,-0.0670476080161251,-0.05682201935306539,0.5,-0.0670476080161251,-0.06478159795575228,-0.0670476080161251
2024-05-15,0.03305499343038134,-0.0764831110322746,0.03640618681292596,-0.06968375975724683,-0.0764831110322746,-0.0764831110322746,-0.0764831110322746,0.4305388197566928,-0.0764831110322746,-0.047900685081380165
2024-05-16,-0.07677566487731534,0.010601567461673683,0.040478708253084555,-0.07054909120728577,-0.07677566487731534,-0.07677566487731534,-0.07677566487731534,0.44891972428524174,-0.07677566487731534,-0.04557258440613766
2024-05-17,-0.005602695377223084,-0.07278989172206256,-0.0031275470962402437,-0.07278989172206256,-0.07278989172206256,-0.05802237415334322,0.4999999999999999,-0.07278989172206256,-0.06929792476288059,-0.07278989172206256
2024-05-20,-0.02041339581284146,-0.0712124198479692,-0.0712124198479692,-0.06627425816316776,-0.0712124198479692,-0.0712124198479692,0.335537145691005,0.1644628543089949,-0.0712124198479692,-0.05725024678414463
2024-05-21,-0.08719296960942423,0.24715160165712868,-0.08719296960942423,-0.08719296960942423,0.21112352353689437,0.007912692957693193,-0.08719296960942423,-0.08719296960942423,-0.0640351519528789,0.03381218184828386
2024-05-22,-0.05930677441738282,-0.05930677441738282,-0.05930677441738282,-0.05394871094150913,-0.0486001538822544,-0.05930677441738282,0.5000000000000001,-0.05930677441738282,-0.056474445859789155,-0.04444281722953322
2024-05-23,-0.02506764108314756,-0.07194287792578737,-0.052333737810344255,-0.07194287792578737,-0.06288423147757145,-0.07194287792578737,0.3951397105447178,0.10486028945528238,-0.07194287792578737,-0.07194287792578737
2024-05-24,-0.06271487446044001,-0.02587734488301848,-0.05087605692529547,-0.06271487446044001,-0.055471470233213895,-0.05420075565627216,0.4999999999999999,-0.06271487446044001,-0.06271487446044001,-0.06271487446044001
2024-05-28,-0.015132783700822126,-0.03359126918637071,-0.0674562555662064,-0.0674562555662064,-0.0674562555662064,-0.06117433527902553,0.4999999999999999,-0.0674562555662064,-0.0674562555662064,-0.05282033400274962
2024-05-29,0.18469631375984058,-0.07687314749209635,-0.07687314749209635,-0.04924068866028352,-0.07687314749209635,-0.07687314749209635,-0.07687314749209635,0.31530368624015936,-0.06281201445959844,-0.0035815594196362305
2024-05-30,0.4405189806917496,-0.09058711422363251,0.0004759344345244645,-0.03360362202726775,-0.09058711422363251,-0.013460806854569794,-0.09058711422363251,-0.09058711422363251,-0.09058711422363251,0.05900508487372596
2024-05-31,-0.041589430267164405,-0.04814004991665973,-0.05268011372172543,-0.06069069839752565,-0.05413691410682223,-0.06069069839752565,0.5,-0.06069069839752565,-0.06069069839752565,-0.06069069839752565
2024-06-03,-0.059883924987032905,-0.048069447588511074,-0.0518803234891366,-0.059883924987032905,-0.059883924987032905,-0.05391171422697045,0.5,-0.059883924987032905,-0.059883924987032905,-0.04671888976021738
2024-06-04,-0.045844295454974204,-0.047606050425189214,-0.05978298889234025,-0.05978298889234025,-0.05400602930231722,-0.05362868035581801,0.5,-0.05978298889234025,-0.05978298889234025,-0.05978298889234025
2024-06-05,-0.07909575303463752,0.033823786742124495,-0.01947063241599161,-0.07909575303463752,-0.07909575303463752,-0.027572851962472427,-0.07909575303463752,0.46617621325787545,-0.05747775044834838,-0.07909575303463752
2024-06-06,0.31511025143163574,-0.09521216561880112,-0.09521216561880112,0.044814798286568036,0.06452167441910193,0.07555327586269436,-0.09521216561880112,-0.09521216561880112,-0.023939171905994414,-0.09521216561880112
2024-06-07,-0.05987816644163365,-0.046497727413106336,-0.05987816644163365,-0.05987816644163365,-0.053999764335959675,-0.05369807809974413,0.5000000000000001,-0.05987816644163365,-0.05987816644163365,-0.04641359794302168
2024-06-10,0.4571087787247258,0.042891221275274255,-0.012298816504195915,-0.08610867622819063,-0.031579883084856375,-0.02557791926999462,-0.08610867622819063,-0.08610867622819063,-0.08610867622819063,-0.08610867622819063
2024-06-11,-0.00480445796263682,-0.07181596838026494,-0.06413783778977937,-0.07181596838026494,-0.07181596838026494,-0.06516961160335005,0.4999999999999999,-0.006808250742909066,-0.07181596838026494,-0.07181596838026494
2024-06-12,-0.005429213499041901,-0.0726047792560831,-0.0726047792560831,-0.06716144484159106,-0.0726047792560831,-0.0726047792560831,0.5,-0.005390954002593698,-0.0726047792560831,-0.05899449137635795
2024-06-13,-0.058435466859640794,-0.058435466859640794,-0.0504389761268896,-0.058435466859640794,-0.053291985917241345,-0.052264062708078096,0.5000000000000001,-0.058435466859640794,-0.058435466859640794,-0.05182764094958706
2024-06-14,0.22566144171700572,-0.023276744191560485,-0.07524907303547593,-0.07524907303547593,-0.07524907303547593,-0.047117946306774204,-0.07524907303547593,0.2743385582829943,-0.07524907303547593,-0.05335994432428553
2024-06-17,-0.05740319793058501,-0.05740319793058501,-0.05740319793058501,-0.053186807933907856,-0.05740319793058501,-0.051132261294343576,0.4999999999999999,-0.05740319793058501,-0.055744484305414684,-0.05292045681340887
2024-06-18,-0.09223237751946776,0.30069381066316164,0.1534487680674074,0.007767794783897125,-0.09223237751946776,-0.09223237751946776,-0.09223237751946776,-0.09223237751946776,-0.03883811240266121,0.03808962648553389
2024-06-20,-0.08260088149196301,0.03408886714580771,-0.011311003406041336,-0.08260088149196301,-0.08260088149196301,-0.029029271248094346,-0.08260088149196301,0.46591113285419233,-0.08260088149196301,-0.046655317886049257
2024-06-21,0.4999999999999999,-0.06993315977796014,-0.06993315977796014,-0.03890282772626259,-0.025663227756505733,-0.06993315977796014,-0.06993315977796014,-0.06993315977796014,-0.055164196450282456,-0.03060394917714857
2024-06-24,-0.006240114865487043,-0.0698316784732838,-0.06191658258096245,-0.0698316784732838,-0.06488353373417474,-0.0698316784732838,0.49999999999999983,-0.017801376452956694,-0.0698316784732838,-0.0698316784732838
2024-06-25,-0.004468192122302668,-0.05128595144222491,-0.07272575702459315,-0.07272575702459315,-0.07272575702459315,-0.07272575702459315,0.49999999999999983,-0.013364706884371462,-0.07272575702459315,-0.06725236442813522
2024-06-26,0.25460620082185337,0.03486128310635098,-0.039192867319653976,-0.08104967363040935,-0.055558764528299186,-0.08104967363040935,-0.08104967363040935,0.2105325160717957,-0.08104967363040935,-0.08104967363040935
2024-06-27,-0.07427424336465939,-0.07427424336465939,-0.07427424336465939,-0.03886074846455331,-0.07427424336465939,-0.029534188348874106,-0.07427424336465939,0.4999999999999999,-0.039953295573630844,-0.020280550789644775
2024-06-28,-0.002329509765066184,-0.04587374374545516,-0.0762514254161812,-0.0762514254161812,-0.0762514254161812,-0.06961317229426606,0.5000000000000001,-0.0009264471143067239,-0.0762514254161812,-0.0762514254161812
2024-07-01,0.1559064196968287,0.01847303929331281,-0.05067752800120061,-0.06371109593067263,-0.07712227521362534,-0.07712227521362534,-0.07712227521362534,0.3256205410098585,-0.07712227521362534,-0.07712227521362534
2024-07-02,-0.0037417397578952097,-0.07285526105172449,-0.0650034843904008,-0.07285526105172449,-0.07285526105172449,-0.06697847059308162,0.4248486034552088,0.07515139654479128,-0.07285526105172449,-0.07285526105172449
2024-07-03,0.12856424972002736,0.009347015923033662,-0.05354863606355703,-0.07697487650693521,-0.06157698140176693,-0.07697487650693521,-0.07697487650693521,0.3620887343569391,-0.07697487650693521,-0.07697487650693521
2024-07-05,-0.001260113665215753,-0.072686643728947,-0.072686643728947,-0.06863991779790306,-0.072686643728947,-0.06666674989214628,0.41891516346878366,0.0810848365312165,-0.072686643728947,-0.072686643728947
2024-07-08,-0.0014233586163789247,-0.07255543909015724,-0.07255543909015724,-0.06854635794588279,-0.07255543909015724,-0.07255543909015724,0.4185668155193502,0.08143318448064965,-0.07255543909015724,-0.06725308798695206
2024-07-09,-0.003388948830923723,-0.07298809221928143,-0.06510070193819123,-0.07298809221928143,-0.07298809221928143,-0.06656988813447795,0.4210558731379244,0.07894412686207558,-0.07298809221928143,-0.07298809221928143
2024-07-10,-0.1,-0.1,-0.1,0.03630083743876907,0.1654163271391303,0.17857137492734723,-0.1,-0.1,0.042256290316503235,0.0774551701782502
2024-07-11,-0.034462500589407516,-0.06799066439648116,-0.06799066439648116,-0.06799066439648116,-0.06799066439648116,-0.06123310668910862,0.3966950285486456,0.10330497145135444,-0.0643510707390781,-0.06799066439648116
2024-07-12,0.035204886253501835,-0.0684356063584393,-0.04517750637627286,-0.055663667432740004,-0.0684356063584393,-0.0684356063584393,-0.0684356063584393,0.4647951137464983,-0.05698079439879062,-0.0684356063584393
2024-07-15,0.028156364135624015,0.014069962274676044,-0.07538327361427956,-0.0620622773444161,-0.07538327361427956,-0.07538327361427956,-0.07538327361427956,0.4577736735896999,-0.07538327361427956,-0.061021354584186165
2024-07-16,-0.1,-0.1,0.1895614114136117,0.053789161742584024,-0.1,0.1533823225201411,-0.1,-0.1,0.03735439395095935,0.06591271037270374
2024-07-17,-0.06490977157612039,-0.06490977157612039,-0.06490977157612039,-0.06490977157612039,-0.05387151900242237,-0.06490977157612039,0.39558092334212336,0.10441907665787663,-0.06121625014672423,-0.06036337297025141
2024-07-18,0.3812992989298637,-0.09376187706229201,0.035998498667418104,-0.010047787281517033,0.08270220240271826,-0.09376187706229201,-0.09376187706229201,-0.09376187706229201,-0.09376187706229201,-0.02114282740702294
2024-07-19,-0.06586212466972403,-0.06586212466972403,-0.057579657794829334,-0.06586212466972403,-0.054500695293604615,-0.05860902356294587,0.3901504286919945,0.10984957130800553,-0.06586212466972403,-0.06586212466972403
2024-07-22,0.23397972472003287,0.22764675389336753,-0.08911896224699832,-0.08911896224699832,0.03837352138659964,-0.007911943569313807,-0.08911896224699832,-0.08911896224699832,-0.08911896224699832,-0.04649324519569462
2024-07-23,-0.10000000000000002,-0.10000000000000002,-0.10000000000000002,0.05581192577307903,0.2668280409586425,0.15011748934681168,-0.10000000000000002,-0.10000000000000002,0.025864198935087377,0.0013783449863792997
2024-07-24,-0.06640594328109058,0.004501715404914929,-0.06640594328109058,-0.053390355373598555,-0.06640594328109058,-0.06640594328109058,-0.06640594328109058,0.4954982845950851,-0.055884738100035476,-0.058695190120913204
2024-07-25,-0.06855377276367199,-0.011213833535626005,-0.06855377276367199,-0.06855377276367199,-0.04017337920271333,-0.04580882508395045,0.5000000000000001,-0.06855377276367199,-0.060035098359350385,-0.06855377276367199
2024-07-26,-0.071614779785879,-0.012786383709960079,-0.021628248008824517,-0.071614779785879,-0.071614779785879,-0.04533950008478557,-0.071614779785879,0.5000000000000001,-0.062171969267034936,-0.071614779785879
2024-07-29,0.242706345633905,-0.08806870108963467,0.17421623290015728,-0.021177023158400827,0.0830774214659377,-0.08806870108963467,-0.08806870108963467,-0.08806870108963467,-0.038479471393425904,-0.08806870108963467
2024-07-30,-0.04846449645786622,-0.05115076469234864,-0.06853752934568831,-0.06853752934568831,-0.05769709212134359,-0.06853752934568831,0.3960247046854462,0.1039752953145538,-0.06853752934568831,-0.06853752934568831
2024-07-31,-0.09078123235933948,-0.09078123235933948,0.24774357804792368,-0.09078123235933948,0.18435356751057466,0.06790285444150168,-0.09078123235933948,-0.09078123235933948,-0.02916022833705989,-0.016933609866242826
2024-08-01,0.28264466771557806,-0.08964210073200177,0.2099991597614708,0.007356172522951143,-0.08964210073200177,-0.08964210073200177,-0.08964210073200177,-0.08964210073200177,-0.03499062079788785,-0.016798875542103325
2024-08-02,-0.09787874771376184,-0.09787874771376184,-0.09787874771376184,0.05276107263615034,0.27772812602328145,0.15491105527893947,-0.09787874771376184,-0.09787874771376184,-0.010606261431190795,0.014599746061628643
2024-08-05,-0.07149953860280579,-0.022969571842587078,-0.07149953860280579,-0.07149953860280579,-0.05752949423232505,-0.062003240911059,0.43667776558947774,0.06332223441052229,-0.07149953860280579,-0.07149953860280579
2024-08-06,0.17467758588508114,0.2892676527867978,0.03605476132812114,-0.04367194085304892,-0.0879507683136963,-0.016574217578469667,-0.0879507683136963,-0.0879507683136963,-0.0879507683136963,-0.0879507683136963
2024-08-07,-0.04090069549969993,-0.02584597727834818,-0.07460433674939883,-0.07460433674939883,-0.06023164347495773,-0.07460433674939883,0.4529040676052775,0.0470959323947225,-0.07460433674939883,-0.07460433674939883
2024-08-08,0.04187749986960072,0.10201767963214776,-0.024350011024895587,-0.0884321526245487,-0.03348922585236081,-0.0884321526245487,-0.0884321526245487,0.3561048204982515,-0.0884321526245487,-0.0884321526245487
2024-08-09,-0.0267631435843178,-0.06162477989496582,-0.06162477989496582,-0.056105980783534966,-0.06162477989496582,-0.051809182298097924,0.4999999999999999,-0.06162477989496582,-0.06162477989496582,-0.05719779385922019
2024-08-12,-0.0410474306483231,-0.02527545635127552,-0.07384703669885635,-0.07384703669885635,-0.07384703669885635,-0.06444192950611964,0.462258788009421,0.03774121199057898,-0.07384703669885635,-0.07384703669885635
2024-08-13,-0.0271083731425822,-0.061578696452486294,-0.061578696452486294,-0.056359894745405655,-0.061578696452486294,-0.05156354253779517,0.5,-0.061578696452486294,-0.061578696452486294,-0.05707470731178546
2024-08-14,-0.04154108368263116,-0.024320265267124042,-0.07393242986484502,-0.07393242986484502,-0.07393242986484502,-0.07393242986484502,0.4593155497778509,0.04068445022214907,-0.07393242986484502,-0.06447650172601975
2024-08-15,-0.037510512284435485,-0.06979544042313196,-0.05322581712488327,-0.06979544042313196,-0.06979544042313196,-0.06979544042313196,0.45760438371066975,0.04239561628933034,-0.06979544042313196,-0.06028646847502156
2024-08-16,-0.07202249638157318,-0.02219538944976463,-0.05516679177707784,-0.07202249638157318,-0.07202249638157318,-0.06252533686529158,0.46107841349494705,0.03892158650505288,-0.07202249638157318,-0.07202249638157318
2024-08-19,0.16332420934781086,0.2965491091878304,0.040126681464358806,-0.09291627003054061,-0.09291627003054061,-0.0178449664259232,-0.09291627003054061,-0.09291627003054061,-0.09291627003054061,-0.017573683421373876
2024-08-20,-0.07184207952503886,-0.01976048656471735,-0.07184207952503886,-0.07184207952503886,-0.05929926888747507,-0.07184207952503886,0.48831841410086246,0.011681585899137481,-0.07184207952503886,-0.06172984692261318
2024-08-21,-0.09334753619259933,-0.09334753619259933,0.1686956500451178,0.016004110764803316,0.18441477827368877,-0.09334753619259933,-0.09334753619259933,-0.09334753619259933,-0.03326231903700336,0.13088546091639014
2024-08-22,-0.040965006735785944,-0.023292760500914653,-0.06294699622119018,-0.07455904730842185,-0.07455904730842185,-0.07455904730842185,0.488009024536699,0.01199097546330098,-0.07455904730842185,-0.07455904730842185
2024-08-23,0.38230394516575406,-0.08572632422481394,0.06717549059948631,-0.0194035488621446,-0.08572632422481394,-0.08572632422481394,-0.08572632422481394,-0.08572632422481394,-0.05196483001378571,0.05052056423475968
2024-08-26,-0.027001992681745024,-0.061274664095086064,-0.061274664095086064,-0.0564868040722903,-0.061274664095086064,-0.061274664095086064,0.5,-0.061274664095086064,-0.05879941316480715,-0.05133846960572719
2024-08-27,-0.0935152415705207,-0.0935152415705207,-0.0935152415705207,0.02381345934327687,0.21003613547693326,0.11592971416351276,-0.0935152415705207,-0.0935152415705207,-0.03242379214739657,0.15022069101627714
2024-08-28,0.0835143083113164,0.16759965683303124,-0.07898323059931163,-0.07898323059931163,-0.07898323059931163,-0.03827017555074816,-0.07898323059931163,0.2488860348556524,-0.06681367145269371,-0.07898323059931163
2024-08-29,-0.07176804820525348,-0.021912565252302976,-0.05761749881629243,-0.07176804820525348,-0.07176804820525348,-0.061629694905137165,0.4838692836268501,0.01613071637314985,-0.07176804820525348,-0.07176804820525348
2024-08-30,-0.09390468809281717,-0.09390468809281717,-0.09390468809281717,-0.0009686282495372947,0.17981494769289974,0.09986682524009269,-0.09390468809281717,-0.09390468809281717,-0.029507931286376847,0.22031822706700754
2024-09-03,-0.07692322886974425,-0.07692322886974425,-0.07692322886974425,-0.07692322886974425,-0.021246606469862067,-0.03341050627647923,-0.07692322886974425,0.49734870904480566,-0.06072674290493743,0.002651290955194423
2024-09-04,-0.04956039096863005,-0.04817658879866957,-0.056909523914512934,-0.06907069926363751,-0.06907069926363751,-0.06907069926363751,0.4782456404101176,0.021754359589882356,-0.06907069926363751,-0.06907069926363751
2024-09-05,0.27475930070977983,-0.08478949729782244,-0.08478949729782244,-0.02874163982589688,-0.08478949729782244,0.05592817602545699,-0.08478949729782244,-0.08478949729782244,-0.047310873684990956,0.1693125232647632
2024-09-06,-0.06658632107004187,-0.04275563094331134,-0.06658632107004187,-0.06658632107004187,-0.06658632107004187,-0.05980606231821085,0.4434015611368987,0.056598438863101244,-0.06450670138826853,-0.06658632107004187
2024-09-09,-0.0680727168683813,-0.04335933000253493,-0.0680727168683813,-0.0680727168683813,-0.0680727168683813,-0.060728162503820585,0.4413333732170297,0.05866662678297016,-0.0680727168683813,-0.055548923151738004
2024-09-10,-0.052849408216659524,-0.04386459264511898,-0.05589203130224471,-0.06947879356719536,-0.06947879356719536,-0.06947879356719536,0.44448479461159485,0.055515205388405105,-0.06947879356719536,-0.06947879356719536
2024-09-11,-0.06818860238886863,-0.04245961450198807,-0.05375665290949965,-0.06818860238886863,-0.0628407206441692,-0.06818860238886863,0.4459487451535631,0.05405125484643695,-0.06818860238886863,-0.06818860238886863
2024-09-12,-0.07090821489735566,-0.07090821489735566,0.0016645908960562716,-0.07090821489735566,-0.07090821489735566,-0.0336633141023465,-0.07090821489735566,0.49833540910394375,-0.06252037097496857,-0.04927524043590665
2024-09-13,-0.09107551697233954,-0.09107551697233954,0.3011093377187938,0.052467930796859484,0.036073272085028335,0.11034945939931842,-0.09107551697233954,-0.09107551697233954,-0.0446224151383024,-0.09107551697233954
2024-09-16,-0.0015703220192778474,0.02933292286433357,-0.018368301085212625,-0.08605491852206193,-0.08605491852206193,-0.0497867842851999,-0.08605491852206193,0.4706670771356663,-0.08605491852206193,-0.08605491852206193
2024-09-17,0.28737332217844025,-0.08937872351086079,0.18952920692044356,-0.08937872351086079,0.005206046192490449,-0.08937872351086079,-0.08937872351086079,-0.08937872351086079,-0.05310638244569602,0.017891424708625786
2024-09-18,-0.04251631549506878,-0.04462777731281068,-0.06978409373323696,-0.06978409373323696,-0.0639354385259357,-0.06978409373323696,0.4416673004983865,0.05833269950161349,-0.06978409373323696,-0.06978409373323696
2024-09-19,-0.10000000000000002,0.32673618476560595,0.15974414090955052,0.0006295423542829818,0.0024583795524166243,-0.10000000000000002,-0.10000000000000002,-0.10000000000000002,-0.10000000000000002,0.010431752418143937
2024-09-20,-0.06733402613084948,-0.040664132766035456,-0.06733402613084948,-0.06733402613084948,-0.06733402613084948,-0.06733402613084948,0.43441609961005617,0.06558390038994386,-0.06358367173103763,-0.05908206484867956
2024-09-23,-0.03440935597645899,-0.06994141965408954,-0.05424327111012261,-0.06994141965408954,-0.06994141965408954,-0.06994141965408954,0.43901562327418375,0.06098437672581623,-0.06994141965408954,-0.06164027464297072
2024-09-24,-0.0652809289388232,-0.0652809289388232,-0.0652809289388232,-0.0652809289388232,-0.059720356674051886,-0.05673871010161342,0.4376863753197517,0.06231362468024841,-0.0652809289388232,-0.057136288530218626
2024-09-25,-0.02390721661811952,-0.0631982726680427,-0.04585786369514462,-0.0631982726680427,-0.056960768735056067,-0.0631982726680427,0.5,-0.0631982726680427,-0.05728278761146633,-0.0631982726680427
2024-09-26,0.06303857999182354,-0.07584602418125228,-0.013752595645896855,-0.052449006847515654,-0.07584602418125228,-0.07584602418125228,-0.07584602418125228,0.4369614200081765,-0.05456827660032611,-0.07584602418125228
2024-09-27,-0.03050605030137413,-0.07103351599632927,-0.053259262052121156,-0.07103351599632927,-0.07103351599632927,-0.07103351599632927,0.4255044596151844,0.07449554038481572,-0.07103351599632927,-0.06106710766485836
2024-09-30,-0.1,-0.1,0.2519184967556419,0.04944901443398635,0.03521312411845469,-0.1,-0.1,-0.1,0.03782941423546186,0.12558995045645527
2024-10-01,-0.006525197922509158,-0.025803289923306234,-0.0695959181745439,-0.059445158341183996,-0.0695959181745439,-0.0695959181745439,0.5,-0.0695959181745439,-0.06024676294028122,-0.0695959181745439
2024-10-02,-0.06188829334468321,-0.06188829334468321,-0.03860038701331234,-0.06188829334468321,-0.0525623937050303,-0.06188829334468321,0.5,-0.06188829334468321,-0.05278330349690194,-0.046612449061339316
2024-10-03,-0.06889891514846737,-0.03511958820263039,-0.06889891514846737,-0.0591199267965316,-0.061265909258501214,-0.06889891514846737,0.4174903783185891,0.08250962168141093,-0.06889891514846737,-0.06889891514846737
2024-10-04,-0.06130818629768394,-0.06130818629768394,-0.06130818629768394,-0.04963306346364773,-0.05009574791880333,-0.06130818629768394,0.5,-0.06130818629768394,-0.05097864782952518,-0.04275160929960414
2024-10-07,-0.014631971425217846,-0.03891157908834536,-0.0767069407286611,-0.0767069407286611,-0.0767069407286611,-0.06292174584313125,0.42020477453444466,0.07979522546555542,-0.0767069407286611,-0.0767069407286611
2024-10-08,0.3358977381339657,0.15341005530635432,-0.08953166327075342,-0.04799751482863409,-0.08953166327075342,-0.004344168817598783,-0.08953166327075342,-0.08953166327075342,-0.08953166327075342,0.010692206559679902
2024-10-09,-0.06584416622267841,-0.01702171410943131,-0.0427629349970621,-0.05735370506858147,-0.06584416622267841,-0.06584416622267841,0.5,-0.06584416622267841,-0.0536408147115331,-0.06584416622267841
2024-10-10,-0.09857483914519732,0.3273300140617013,0.08058504231330621,-0.007125804274013364,0.014046234862747491,-0.09857483914519732,-0.09857483914519732,-0.09857483914519732,-0.09857483914519732,0.07803870876224495
2024-10-11,-0.006870352093929559,-0.074702122654042,-0.05823262922986723,-0.074702122654042,-0.074702122654042,-0.06138640540599322,0.3602779772253037,0.1397220227746963,-0.074702122654042,-0.074702122654042
2024-10-14,0.08238833424103605,-0.07375673182727524,-0.036265841557379205,-0.055046538041212414,-0.07375673182727524,-0.07375673182727524,-0.07375673182727524,0.4176116657589639,-0.07375673182727524,-0.0399039612650322
2024-10-15,-0.06634958922285275,-0.06634958922285275,-0.05168961404012374,-0.059158048601261504,-0.06634958922285275,-0.06634958922285275,0.37418873574851585,0.12581126425148415,-0.05740439124435106,-0.06634958922285275
2024-10-16,-0.0024295746831108963,-0.025269506199199702,-0.07119290361940346,-0.07119290361940346,-0.07119290361940346,-0.05742062727555581,0.5000000000000001,-0.07119290361940346,-0.058915773745116314,-0.07119290361940346
2024-10-17,-0.00047502433018088567,-0.025376772939956087,-0.05301524486106853,-0.07255334318975072,-0.07255334318975072,-0.05836624192004083,0.5000000000000001,-0.07255334318975072,-0.07255334318975072,-0.07255334318975072
2024-10-18,-0.018215836120069922,-0.030211908311036144,-0.051807681628557645,-0.06886590903995174,-0.06886590903995174,-0.05543502874057753,0.5,-0.06886590903995174,-0.06886590903995174,-0.06886590903995174
2024-10-21,-0.1,0.31370009356336354,0.08392042799710173,-0.1,0.015863237622733208,0.056604957130332714,-0.1,-0.1,-0.1,0.029911283686468816
2024-10-22,-0.09837419023150519,-0.09837419023150519,0.19009059768635964,0.06458974990508386,-0.09837419023150519,0.14170118567529214,-0.09837419023150519,-0.09837419023150519,-0.008129048842474125,0.10361846673326439
2024-10-23,-0.06757118545944342,-0.04110276313807462,-0.06757118545944342,-0.06122061136850083,-0.059820698196207486,-0.06757118545944342,0.29836228565141354,0.2016377143485866,-0.06757118545944342,-0.06757118545944342
2024-10-24,-0.037076352997069156,-0.045526394868842655,-0.059473736288146686,-0.07158470316918829,-0.07158470316918829,-0.07158470316918829,0.2838422005544558,0.21615779944554422,-0.07158470316918829,-0.07158470316918829
2024-10-25,0.2721915330681,0.1907178428198628,0.037090624112037104,-0.020781942581156888,-0.006193160104048093,-0.094604979462959,-0.094604979462959,-0.094604979462959,-0.094604979462959,-0.094604979462959
2024-10-28,-0.06652010767769852,-0.021764493037969835,-0.04241852986990721,-0.06652010767769852,-0.05141231995628976,-0.051804118747340526,0.5,-0.06652010767769852,-0.06652010767769852,-0.06652010767769852
2024-10-29,-0.09299407426242567,0.2800509719366308,0.19669810777948118,-0.0026383979863188077,-0.09299407426242567,0.023250920283887998,-0.09299407426242567,-0.09299407426242567,-0.03239123070155292,-0.09299407426242567
2024-10-30,0.33304200305464965,-0.09394934527043565,-0.09394934527043565,0.0017241904340675514,0.1587553366305515,-0.09394934527043565,-0.09394934527043565,-0.09394934527043565,-0.03025327364782173,0.006478469880731163
2024-10-31,-0.0741825457584441,0.03036144040416169,-0.03178797626848511,-0.0741825457584441,-0.0741825457584441,-0.033392220263494796,0.46963855959583833,-0.0741825457584441,-0.0741825457584441,-0.06390707467579973
2024-11-01,-0.0630185803971125,-0.0630185803971125,-0.0630185803971125,-0.05371622703112284,-0.0630185803971125,-0.020645636534010192,0.5,-0.0630185803971125,-0.05640038468801484,-0.05414484976128965
2024-11-04,-0.04787971532864882,-0.0029390933987516934,-0.07790459278637356,-0.07790459278637356,-0.05965822734073165,-0.07790459278637356,0.2638241318917247,0.2361758681082753,-0.07790459278637356,-0.07790459278637356
2024-11-05,-0.07644053259025485,-0.004808621036341387,-0.04706492208629818,-0.06592379392608619,-0.07644053259025485,-0.07644053259025485,0.25319542099275183,0.2468045790072482,-0.07644053259025485,-0.07644053259025485
2024-11-06,-0.04745813875764,-0.0070407959085222694,-0.04840153618877057,-0.07941990582901343,-0.07941990582901343,-0.07941990582901343,0.2531085490701378,0.2468914509298622,-0.07941990582901343,-0.07941990582901343
2024-11-07,-0.010926154750114034,-0.0673492614141836,-0.0673492614141836,-0.03643317829302493,-0.0673492614141836,-0.0673492614141836,-0.0673492614141836,0.5000000000000001,-0.05864925946874944,-0.0572451004171937
2024-11-08,-0.0674810980052433,-0.0674810980052433,-0.021265557315763736,-0.04192188662289171,-0.03911723830928851,-0.0674810980052433,-0.0674810980052433,0.5000000000000001,-0.06028982772583955,-0.0674810980052433
2024-11-11,-0.0772810884713917,0.053761085728772216,-0.020518089618218244,-0.0772810884713917,-0.0772810884713917,-0.02613686898931574,0.44623891427122786,-0.0772810884713917,-0.0772810884713917,-0.06693959903550749
2024-11-12,-0.035251548023741,0.018926544758264364,-0.07246839395512801,-0.07246839395512801,-0.07246839395512801,-0.03696204722218869,-0.07246839395512801,0.48107345524173567,-0.07246839395512801,-0.06544443497843036
2024-11-13,-0.00527838563451707,-0.07599013541752861,-0.07599013541752861,-0.03670119134850349,-0.07599013541752861,-0.011922689544373795,0.5,-0.07599013541752861,-0.06614705638496259,-0.07599013541752861
2024-11-14,-0.06209920201980457,-0.06209920201980457,-0.06209920201980457,-0.040664556685601615,-0.03747609083731289,-0.06209920201980457,-0.06209920201980457,0.49999999999999983,-0.056769709904246145,-0.05459363247381646
2024-11-15,-0.029018305702132107,-0.06953772701532229,-0.02717453134034254,-0.06953772701532229,-0.06953772701532229,-0.031750842943041355,-0.06953772701532229,0.4999999999999999,-0.06436768493787243,-0.06953772701532229
2024-11-18,-0.07604987427462653,-0.007360187421510341,-0.04633188589820366,-0.07604987427462653,-0.07604987427462653,-0.07604987427462653,0.17990293226275345,0.3200970677372464,-0.07604987427462653,-0.06605855530715327
2024-11-19,0.2421446860206975,-0.09096139080373111,-0.09096139080373111,0.09768792554791991,0.1247132165010302,-0.09096139080373111,-0.09096139080373111,-0.09096139080373111,-0.04519304598134453,0.03545417193035234
2024-11-20,-0.06754948483523392,-0.06754948483523392,-0.06754948483523392,-0.03214161637889246,-0.027502324993220504,-0.06754948483523392,0.4999999999999999,-0.06754948483523392,-0.05903226072748984,-0.04357637372422765
2024-11-21,-0.02585107766116891,-0.07007856921508732,-0.07007856921508732,-0.04488812262288604,-0.07007856921508732,-0.026857146176841422,-0.07007856921508732,0.5,-0.07007856921508732,-0.05201080746366698
2024-11-22,0.05525955624353291,0.29573384991089413,0.0989907442035505,-0.09964039279153314,-0.0017980360423343084,0.05001584964202253,-0.09964039279153314,-0.09964039279153314,-0.09964039279153314,-0.09964039279153314
2024-11-25,-0.027791260034652945,0.04319812252279263,-0.07711344106866148,-0.07711344106866148,-0.07711344106866148,-0.030707306857047915,0.4568018774772073,-0.07711344106866148,-0.07711344106866148,-0.055934227764991754
2024-11-26,0.18844282161064477,-0.08809600571516409,0.21662388219934262,0.06189240357804927,-0.08809600571516409,-0.08809600571516409,-0.08809600571516409,-0.08809600571516409,-0.059519971424179606,0.03304089261196344
2024-11-27,-0.04994722485905228,-0.006449960707837528,-0.07600280806421449,-0.07600280806421449,-0.07600280806421449,-0.07600280806421449,0.2303083345660329,0.2696916654339671,-0.07600280806421449,-0.06358877411203774
2024-11-29,-0.04973364083022003,-0.029505616810496266,-0.07278617269440896,-0.07278617269440896,-0.07278617269440896,-0.05682987888723881,0.22729072186129368,0.2727092781387063,-0.07278617269440896,-0.07278617269440896
2024-12-02,-0.030390171183061893,0.004215393774287114,-0.07368784479298253,-0.07368784479298253,-0.051015577565697294,-0.07368784479298253,0.49578460622571285,-0.07368784479298253,-0.07368784479298253,-0.05015502728632822
2024-12-03,-0.07304554997354662,-0.03200198611506333,-0.04569427458570136,-0.07304554997354662,-0.07304554997354662,-0.0570759894315022,0.22835718035055033,0.2716428196494497,-0.07304554997354662,-0.07304554997354662
2024-12-04,-0.07111711447925227,-0.0026554951093250424,-0.07111711447925227,-0.04833885098573718,-0.07111711447925227,-0.04362651644939297,-0.07111711447925227,0.5,-0.07111711447925227,-0.04979356505928345
2024-12-05,-0.0722720761356854,-0.0023750458981446044,-0.029919920022007367,-0.0722720761356854,-0.05548745173695042,-0.0722720761356854,-0.0722720761356854,0.5,-0.0722720761356854,-0.05085720166447064
2024-12-06,-0.031449886479775785,-0.06807118383187927,-0.02412978910620225,-0.06807118383187927,-0.06807118383187927,-0.04018212832307943,-0.06807118383187927,0.5,-0.06388227693154619,-0.06807118383187927
2024-12-09,-0.028886726030784154,-0.07591118300814992,-0.00017516116645410683,-0.07591118300814992,-0.04979731095605216,-0.07591118300814992,-0.07591118300814992,0.4999999999999999,-0.07591118300814992,-0.04158488680596
2024-12-10,-0.07968194202158939,-0.022813765331425095,-0.013980466783859058,-0.07968194202158939,-0.06479605777676894,-0.07968194202158939,0.3445045829944417,0.15549541700555836,-0.07968194202158939,-0.07968194202158939
2024-12-11,0.23705901562824364,-0.08683577820763379,-0.08683577820763379,-0.01966962563606432,0.09100348791477146,0.17193749645698495,-0.08683577820763379,-0.08683577820763379,-0.04615148332576672,-0.08683577820763379
2024-12-12,0.002080993423281802,-0.07272046197281468,-0.07272046197281468,-0.056486942530244694,-0.07272046197281468,-0.07272046197281468,-0.07272046197281468,0.49791900657671817,-0.06300591370478136,-0.0169048339009006
2024-12-13,-0.03317644901102045,0.01944670422348606,0.08034592427875267,-0.08364291737009594,-0.08364291737009594,-0.04860896413849976,-0.08364291737009594,0.4002073714977613,-0.08364291737009594,-0.08364291737009594
2024-12-16,-0.012746037340027013,-0.0747956009507899,-0.0747956009507899,-0.0747956009507899,-0.0747956009507899,-0.03030131133422918,-0.0747956009507899,0.5000000000000001,-0.06467213121816298,-0.018302515353631473
2024-12-17,-0.09605028723475008,-0.09605028723475008,-0.09605028723475008,0.000123721715461941,0.11972311955579898,0.21868726193208876,-0.09605028723475008,-0.09605028723475008,-0.019748563826249652,0.1614658967966503
2024-12-18,-0.024735895535576334,0.008924935960559927,-0.07067335182022919,-0.060146288510649765,-0.07067335182022919,-0.07067335182022919,0.49107506403944007,-0.07067335182022919,-0.06175105685262793,-0.07067335182022919
2024-12-19,-0.03070324087555611,-0.007437723519308125,0.023970060666508485,-0.06794373368905822,-0.07878306038321552,-0.07878306038321552,0.47602993933349164,-0.07878306038321552,-0.07878306038321552,-0.07878306038321552
2024-12-20,-0.04526476206667445,-0.07833030776564241,-0.009500397499944586,-0.07833030776564241,-0.053583301605168804,-0.07833030776564241,0.2959377085342417,0.20406229146575827,-0.07833030776564241,-0.07833030776564241
2024-12-23,-0.04154000655129396,-0.02621851385193565,-0.07651300566376114,-0.07651300566376114,-0.07651300566376114,-0.07651300566376114,0.2764384884732589,0.22356151152674106,-0.07651300566376114,-0.0496764512779647
2024-12-24,0.23772130226561797,-0.09139730323636976,-0.09139730323636976,-0.012111819838911533,-0.09139730323636976,0.10479770548500432,-0.09139730323636976,-0.09139730323636976,-0.030901663979239612,0.1574809922493777
2024-12-26,-0.09373238556077963,-0.09373238556077963,-0.09373238556077963,-0.004638565588710196,0.19431727038570437,0.12090289706223654,-0.09373238556077963,-0.09373238556077963,-0.02669950660739168,0.18477983255205913
2024-12-27,-0.06762332690894327,-0.06762332690894327,-0.06762332690894327,-0.054216759530417505,-0.02418357574070904,-0.06762332690894327,0.5,-0.06762332690894327,-0.057511206740513694,-0.025971823443643363
2024-12-30,-0.09370736444543235,-0.09370736444543235,-0.09370736444543235,-0.005307519327846222,0.19535821254702546,0.12003689444189715,-0.09370736444543235,-0.09370736444543235,-0.026155658444992066,0.18460489301107744
2024-12-31,-0.07760137496603822,-0.007133705999967854,0.03354280909649382,-0.06554768496430048,-0.039311734205540544,-0.07760137496603822,0.4664571909035061,-0.07760137496603822,-0.07760137496603822,-0.07760137496603822
2025-01-02,-0.07783005902104898,-0.03699866831172221,-0.01295968962486364,-0.07783005902104898,-0.07783005902104898,-0.06089134695816924,0.2563594504074408,0.24364054959255907,-0.07783005902104898,-0.07783005902104898
2025-01-03,-0.023587005818208502,-0.017984281305858253,0.02022997609854676,-0.08259604170087724,-0.045448504371546905,-0.08259604170087724,0.47977002390145324,-0.08259604170087724,-0.08259604170087724,-0.08259604170087724
2025-01-06,-0.08458641222353672,-0.08458641222353672,0.38864545062160083,-0.031025511501049815,-0.08458641222353672,0.03752836850301569,-0.08458641222353672,-0.08458641222353672,-0.04604242738126665,0.07382618087538341
2025-01-07,-0.005595416598273969,-0.07143991318157748,-0.07143991318157748,-0.07143991318157748,-0.07143991318157748,-0.04166945748431136,-0.07143991318157748,0.5,-0.06210449516342601,-0.033431064846101324
2025-01-08,-0.06694173461355912,-0.06694173461355912,-0.06694173461355912,-0.05366374128610438,-0.02524100337782746,-0.06694173461355912,-0.06694173461355912,0.5,-0.057536773869088315,-0.028849808399184138
2025-01-10,-0.06917954688523116,-0.0013265641205371737,-0.06917954688523116,-0.05443355801792827,-0.06917954688523116,-0.038982302094989305,-0.06917954688523116,0.5,-0.05935984134038944,-0.06917954688523116
2025-01-13,-0.09137398432486774,0.28852922525364766,-0.09137398432486774,-0.007957512352034513,-0.09137398432486774,0.07730406551229632,-0.09137398432486774,-0.09137398432486774,-0.035172566023626846,0.134166709234056
2025-01-14,-0.03879135448320555,-0.04256395633748757,-0.043233662627238566,-0.07508220531041367,-0.07508220531041367,-0.07508220531041367,0.30154886716218754,0.1984511328378125,-0.07508220531041367,-0.07508220531041367
2025-01-15,-0.09475600748443631,-0.09475600748443631,-0.09475600748443631,0.009337242547552813,0.20935026212233468,0.11596361068806277,-0.09475600748443631,-0.09475600748443631,-0.02621996257781827,0.16534888464204986
2025-01-16,-0.031384605611888286,-0.04023648654035397,-0.07272818960372635,-0.06473795982912596,-0.07272818960372635,-0.07272818960372635,0.3114376199317537,0.18856238006824638,-0.07272818960372635,-0.07272818960372635
2025-01-17,-0.06729983584283539,-0.029171158568016123,-0.03661344774555953,-0.05712619095558548,-0.06729983584283539,-0.06729983584283539,0.5,-0.06729983584283539,-0.06729983584283539,-0.04059002351666197
2025-01-21,-0.0039027609718687434,-0.035269860913404796,-0.07377959560408237,-0.07377959560408237,-0.04388735153448162,-0.048042048559832976,0.5,-0.07377959560408237,-0.07377959560408237,-0.07377959560408237
2025-01-22,-0.06709980201917681,-0.028592699407286447,-0.06709980201917681,-0.0573402029212083,-0.037650273315907895,-0.06709980201917681,0.5,-0.06709980201917681,-0.06709980201917681,-0.04091781425971337
2025-01-23,-0.09235953711007988,-0.09235953711007988,0.18913936039810134,0.03707092049342793,0.1506474213796583,-0.09235953711007988,-0.09235953711007988,-0.09235953711007988,-0.038202314449600545,0.12314229772881245
2025-01-24,0.3379921574495924,0.1331901076681155,-0.08581160955812162,-0.08581160955812162,0.028817734882292004,-0.08581160955812162,-0.08581160955812162,-0.08581160955812162,-0.0623912897024093,-0.008550662506982687
2025-01-27,-0.02908865442053327,-0.0624697825907107,-0.051707278169549425,-0.0624697825907107,-0.05511884926854939,-0.05173630518781439,0.5,-0.0624697825907107,-0.0624697825907107,-0.0624697825907107
2025-01-28,0.4037418720659403,-0.08294675378407841,0.07277704400013824,-0.08294675378407841,0.02348108393392149,-0.08294675378407841,-0.08294675378407841,-0.08294675378407841,-0.0639288617984221,-0.021337369281185774
2025-01-29,-0.06512491784311791,-0.06512491784311791,-0.05479434247945774,-0.06512491784311791,-0.05828457832095977,-0.06512491784311791,0.4816132190658102,0.018386780934189734,-0.06512491784311791,-0.061296489983992924
2025-01-30,-0.08786648897195042,-0.005825021485829332,-0.014473853410410981,-0.08786648897195042,-0.040368680244007554,0.006756113870372379,-0.08786648897195042,0.49324388612962755,-0.08786648897195042,-0.08786648897195042
2025-01-31,-0.09114147215553209,0.3070190599045913,-0.09114147215553209,0.010631374593750286,0.13945477866792316,-0.09114147215553209,-0.09114147215553209,-0.09114147215553209,-0.04429263922233956,0.042894786833735356
2025-02-03,-0.030782993090028785,-0.05749798594265681,-0.05792370169496551,-0.06969352221311642,-0.06969352221311642,-0.06969352221311642,0.5,-0.005327708206766849,-0.06969352221311642,-0.06969352221311642
2025-02-04,-0.05799356316154197,-0.05799356316154197,-0.05799356316154197,-0.055103415727983385,-0.05799356316154197,-0.04451928673221804,0.5000000000000001,-0.05799356316154197,-0.056617670548029915,-0.05379181118405882
2025-02-05,-0.023674476603280478,-0.05018015591530226,-0.06217488515480007,-0.059201504448608396,-0.05606943725880852,-0.06217488515480007,0.5,-0.06217488515480007,-0.06217488515480007,-0.06217488515480007
2025-02-06,-0.057187867807272814,-0.057187867807272814,-0.057187867807272814,-0.054210664006146915,-0.051349199168468564,-0.057187867807272814,0.4999999999999999,-0.057187867807272814,-0.055792885051846264,-0.052707912737174185
2025-02-07,-0.06254022517171667,-0.04138715554692093,-0.03916845052010906,-0.06254022517171667,-0.06254022517171667,-0.04878035771759806,0.4999999999999999,-0.06254022517171667,-0.06254022517171667,-0.05796291035678859
2025-02-10,0.40527844494015003,-0.0775651627684837,-0.0775651627684837,-0.040556747151050856,-0.009076504741636826,0.09472155505985003,-0.0775651627684837,-0.0775651627684837,-0.06254093426489388,-0.0775651627684837
2025-02-11,0.15337637491724923,-0.07085680695876743,-0.07085680695876743,-0.05389335072598914,-0.042871520119618665,-0.07085680695876743,-0.07085680695876743,0.34662362508275085,-0.07085680695876743,-0.048951094360555024
2025-02-12,-0.031239193616889305,-0.07089359559849163,-0.04731995652498759,-0.07089359559849163,-0.07089359559849163,-0.07089359559849163,0.49987440930827526,0.00012559069172463834,-0.07089359559849163,-0.06697287186566495
2025-02-13,-0.022996258171578982,-0.06059670900761155,-0.06059670900761155,-0.05792535461778494,-0.056650463270655475,-0.06059670900761155,0.5,-0.06059670900761155,-0.05944437890192281,-0.06059670900761155
2025-02-14,-0.02394333620759557,-0.06161463195207632,-0.06161463195207632,-0.05943689429543771,-0.06161463195207632,-0.048091702487868176,0.5,-0.06161463195207632,-0.06045490724871706,-0.06161463195207632
2025-02-18,0.12356845336932845,-0.08683858406980116,0.053495360952902145,-0.08683858406980116,-0.08683858406980116,-0.003891051106335251,-0.08683858406980116,0.32293618567776944,-0.08683858406980116,-0.061916028544658885
2025-02-19,-0.028675001502920783,-0.06346325310791548,-0.040273626493940624,-0.06346325310791548,-0.06346325310791548,-0.051545384269576465,0.5,-0.06346325310791548,-0.06218972219398465,-0.06346325310791548
2025-02-20,0.39833067305431596,-0.07911990621631623,-0.07911990621631623,-0.04280286505391563,0.01413866466037715,0.08753066228530686,-0.07911990621631623,-0.07911990621631623,-0.06159760386450323,-0.07911990621631623
2025-02-21,0.2850195531757113,-0.07746214228908428,0.16467607907284826,-0.04856976674025237,-0.07746214228908428,0.050304367751440406,-0.07746214228908428,-0.07746214228908428,-0.06411952181432627,-0.07746214228908428
2025-02-24,0.2767997664246921,0.1456959876180609,-0.0776904839038195,-0.047157062146115515,-0.0776904839038195,-0.0776904839038195,-0.0776904839038195,-0.0776904839038195,-0.06439051833478705,0.07750424595724686
2025-02-25,-0.0660777305482726,-0.01743253318666663,-0.0660777305482726,-0.059341511886345344,-0.05026975128720706,-0.04256755089841799,0.5,-0.0660777305482726,-0.0660777305482726,-0.0660777305482726
2025-02-26,-0.08572088351216892,-0.08572088351216892,-0.08572088351216892,-0.017424719593168526,0.08127154702003064,0.15377724127556724,-0.08572088351216892,-0.08572088351216892,-0.05397086284598688,0.26495121170440206
2025-02-27,0.0,0.0,0.0,0.0,0.0,0.0,0.0,0.0,0.0,0.0
