date,AAPL,MSFT,GOOGL,AMZN,META,NVDA,TSLA,JPM,V,WMT
2022-03-01,-0.019214885499243654,-0.07386125573220483,-0.07386125573220483,-0.06312875112844987,-0.04732166316427034,-0.07386125573220483,0.5000000000000001,-0.001028421547012011,-0.07386125573220483,-0.07386125573220483
2022-03-02,0.40636887351827533,-0.09110832368917787,0.08703531563221618,0.006595810849508533,-0.09110832368917787,-0.09110832368917787,-0.09110832368917787,-0.09110832368917787,-0.04127496617945834,-0.003183415374652367
2022-03-03,-0.08515944982251422,-0.08515944982251422,0.03913422094044751,-0.08515944982251422,0.08341230348243402,-0.08515944982251422,-0.08515944982251422,0.37745347557711845,-0.050389918028278635,-0.023812832859150222
2022-03-04,-0.09670556107777085,-0.09670556107777085,0.19011163550754767,0.06060135187141014,-0.09670556107777085,0.20443054089843793,-0.09670556107777085,-0.09670556107777085,-0.016472194611145772,0.04485647172260423
2022-03-07,-0.06885826274977022,-0.06885826274977022,-0.049561376316764265,-0.06885826274977022,-0.04268709925149484,-0.06885826274977022,0.4970365116575374,0.0029634883424625295,-0.06346021068288984,-0.06885826274977022
2022-03-08,-0.022806673654948987,-0.026400088394529453,-0.07783107269801699,-0.07783107269801699,-0.07783107269801699,-0.057143473796793576,0.5000000000000001,-0.004494400663642939,-0.07783107269801699,-0.07783107269801699
2022-03-09,-0.09203346687085025,0.39504589370691184,0.09457327950216941,0.010312318378112362,-0.09203346687085025,-0.09203346687085025,-0.09203346687085025,-0.09203346687085025,-0.03983266564574884,6.850841280635227e-05
2022-03-10,-0.09670556107777085,-0.09670556107777085,0.19011163550754767,0.06060135187141014,-0.09670556107777085,0.20443054089843793,-0.09670556107777085,-0.09670556107777085,-0.016472194611145772,0.04485647172260423
2022-03-11,-0.09524506281153851,-0.09524506281153851,-0.09524506281153851,0.04488098259489471,0.2512619540073972,0.17300132450817543,-0.09524506281153851,-0.09524506281153851,-0.023774685942307368,0.030855738889532712
2022-03-14,-0.022806673654948987,-0.026400088394529453,-0.07783107269801699,-0.07783107269801699,-0.07783107269801699,-0.057143473796793576,0.5000000000000001,-0.004494400663642939,-0.07783107269801699,-0.07783107269801699
2022-03-15,-0.02343852544772123,-0.027036283103449847,-0.0785294256793424,-0.0785294256793424,-0.051773942376151995,-0.0785294256793424,0.5000000000000001,-0.005104120675964864,-0.0785294256793424,-0.0785294256793424
2022-03-16,-0.02343852544772123,-0.027036283103449847,-0.0785294256793424,-0.0785294256793424,-0.051773942376151995,-0.0785294256793424,0.5000000000000001,-0.005104120675964864,-0.0785294256793424,-0.0785294256793424
2022-03-17,-0.02343852544772123,-0.027036283103449847,-0.0785294256793424,-0.0785294256793424,-0.051773942376151995,-0.0785294256793424,0.5000000000000001,-0.005104120675964864,-0.0785294256793424,-0.0785294256793424
2022-03-18,-0.02270383822519841,-0.02629654614451885,-0.05801737821159034,-0.07771741403664467,-0.07771741403664467,-0.07771741403664467,0.5,-0.004395167235468984,-0.07771741403664467,-0.07771741403664467
2022-03-21,0.13963267877264765,0.1241475039209945,-0.012574612663266729,-0.09748507746734664,0.017673689975115363,-0.09748507746734664,-0.09748507746734664,0.2185461273312424,-0.09748507746734664,-0.09748507746734664
2022-03-22,0.20303587064382037,-0.07919812571824315,-0.07919812571824315,-0.02376758838559242,-0.07919812571824315,-0.07919812571824315,-0.07919812571824315,0.29696412935617966,-0.050926141150792754,-0.029315641872399094
2022-03-23,-0.020134070285301026,-0.07487718295291543,-0.05527399837856158,-0.07487718295291543,-0.048290606389725974,-0.07487718295291543,0.5,-0.0019154101818342393,-0.07487718295291543,-0.07487718295291543
2022-03-24,0.22772155819779102,0.20708527261520318,-0.08827291918769307,-0.026211849644683503,0.06519316918700586,-0.08827291918769307,-0.08827291918769307,-0.08827291918769307,-0.08827291918769307,-0.032423554416851186
2022-03-25,-0.022806673654948987,-0.026400088394529453,-0.07783107269801699,-0.07783107269801699,-0.07783107269801699,-0.057143473796793576,0.5000000000000001,-0.004494400663642939,-0.07783107269801699,-0.07783107269801699
2022-03-28,-0.02023589696281719,-0.07498972669281662,-0.07498972669281662,-0.07498972669281662,-0.04839794527397048,-0.054403854107938084,0.4999999999999999,-0.002013670191190959,-0.07498972669281662,-0.07498972669281662
2022-03-29,-0.09715303280739884,-0.09715303280739884,0.19556364175820648,0.04779121929360296,-0.09715303280739884,0.20745617372961503,-0.09715303280739884,-0.09715303280739884,-0.014234835963005833,0.04918896521857551
2022-03-30,-0.0971816752023905,-0.0971816752023905,0.19874193760998948,0.04927992250766079,-0.0971816752023905,0.2083160115326895,-0.0971816752023905,-0.0971816752023905,-0.01409162398804747,0.043662128349660136
2022-03-31,-0.08454219776067212,-0.08454219776067212,0.04462474424756945,-0.08454219776067212,0.08774716064439565,-0.08454219776067212,-0.08454219776067212,0.36762809510803485,-0.04929828249086937,-0.02799072870577009
2022-04-01,-0.020873832965439498,-0.029725385237991474,-0.07744167146964545,-0.07744167146964545,-0.053770348329897015,-0.07744167146964545,0.5000000000000001,-0.008422076118444765,-0.07744167146964545,-0.07744167146964545
2022-04-04,-0.09379007719550812,-0.09379007719550812,-0.09379007719550812,0.033168321459588285,0.26973421013677695,0.19709746840363482,-0.09379007719550812,-0.09379007719550812,-0.02774813230575776,-0.003301481716701513
2022-04-05,-0.09541910754916727,-0.09541910754916727,0.2156766348879333,0.0443363738007486,-0.09541910754916727,0.20795334351434633,-0.09541910754916727,-0.09541910754916727,-0.022904462254163677,0.03203364779697172
2022-04-06,0.17003132900555068,-0.0804038630271155,-0.0804038630271155,-0.044994418484555355,-0.0804038630271155,-0.003177655807319214,-0.0804038630271155,0.32996867099444926,-0.0804038630271155,-0.04980861057254786
2022-04-07,-0.09407719066299708,-0.09407719066299708,-0.09407719066299708,0.021912278777822154,0.30200602009700106,0.16745062897124866,-0.09407719066299708,-0.09407719066299708,-0.02961404668501461,0.008631072153928186
2022-04-08,-0.0937578226938119,-0.0937578226938119,0.16661749988577854,0.01733307132647348,0.29461374040207944,-0.0937578226938119,-0.0937578226938119,-0.0937578226938119,-0.031210886530940486,0.021435688385668616
2022-04-11,0.11004643362425255,0.10356750346342225,-0.07802406867765752,-0.048198337663490826,-0.07802406867765752,-0.07802406867765752,-0.07802406867765752,0.2863860629123254,-0.061681318948221556,-0.07802406867765752
2022-04-12,-0.03594649137073249,-0.037807863188354975,-0.07231928123257549,-0.07231928123257549,-0.07231928123257549,-0.07231928123257549,0.49790264887174146,0.0020973511282585586,-0.07231928123257549,-0.06464923927803513
2022-04-13,-0.0933217664571797,-0.0933217664571797,-0.0933217664571797,0.001913130766696424,0.2594644694177775,0.1805159516786568,-0.0933217664571797,-0.0933217664571797,-0.033391167714101486,0.05810644813686926
2022-04-14,-0.06875485310948509,-0.037753557057316846,-0.0553868862351643,-0.06308529116009344,-0.06875485310948509,-0.06875485310948509,0.49283627010047376,0.007163729899526298,-0.06875485310948509,-0.06875485310948509
2022-04-18,-0.03363537465569406,-0.04016425353695313,-0.07355648919761193,-0.07355648919761193,-0.058417925819293295,-0.07355648919761193,0.49705364850426886,0.0029463514957312697,-0.07355648919761193,-0.07355648919761193
2022-04-19,0.3964716499120631,-0.08707598298690813,-0.08707598298690813,-0.013885580336515902,-0.08707598298690813,0.09001492873461976,-0.08707598298690813,-0.08707598298690813,-0.05073450472894342,0.01351342135331721
2022-04-20,0.15628995509753943,-0.0746140131774319,-0.0746140131774319,-0.04063407201462047,-0.0746140131774319,-0.0746140131774319,-0.0746140131774319,0.34371004490246054,-0.05763703812064683,-0.028658823977573147
2022-04-21,-0.0801772245450991,-0.0801772245450991,-0.0801772245450991,-0.0327767698894282,-0.0801772245450991,0.03454616717074875,-0.0801772245450991,0.46545383282925124,-0.05174907656687306,-0.014588030818203273
2022-04-22,-0.025740432267942863,-0.026178121680999006,-0.04673804552743616,-0.06986412164740133,-0.06986412164740133,-0.05202279228661548,0.5,-0.06986412164740133,-0.06986412164740133,-0.06986412164740133
2022-04-25,-0.09351630002065933,-0.09351630002065933,-0.09351630002065933,0.007698407505399158,0.2900585342070102,0.1668999582058217,-0.09351630002065933,-0.09351630002065933,-0.032418499896703264,0.03534310008176892
2022-04-26,0.13145870127218567,-0.08167061629056574,-0.08167061629056574,-0.08167061629056574,-0.08167061629056574,0.038251246314771885,-0.08167061629056574,0.33029005241304243,-0.053841481686014755,-0.03780543686115654
2022-04-27,-0.02940289281722761,-0.033460425809205885,-0.04275471289941115,-0.07887639369483106,0.008049312389332678,-0.07887639369483106,0.4919506876106673,-0.07887639369483106,-0.07887639369483106,-0.07887639369483106
2022-04-28,-0.08001892748797783,-0.08001892748797783,-0.08001892748797783,-0.03462393674762227,-0.08001892748797783,0.08629508419452504,-0.08001892748797783,0.4137049158054749,-0.038171984101899585,-0.027109441710589006
2022-04-29,-0.07890098382755675,-0.07890098382755675,-0.04452432860240026,-0.07890098382755675,0.0021173117496848803,-0.054897915217081664,0.4978826882503151,-0.006072837042734269,-0.07890098382755675,-0.07890098382755675
2022-05-02,-0.02288475958429979,-0.07368116123297905,-0.03907719202917972,-0.0665821019052047,-0.07368116123297905,-0.07368116123297905,0.4999999999999999,-0.003050140316420512,-0.07368116123297905,-0.07368116123297905
2022-05-03,-0.03341571419080191,0.012945990312552913,-0.08815106910105834,-0.08815106910105834,-0.007179440485801361,-0.08815106910105834,0.48705400968744705,-0.018649499818105063,-0.08815106910105834,-0.08815106910105834
2022-05-04,-0.09129031148745585,-0.09129031148745585,0.31493732741705405,-0.0034675588193116506,-0.09129031148745585,0.1850626725829459,-0.09129031148745585,-0.09129031148745585,-0.02485475686967267,-0.015226126873736482
2022-05-05,0.29843858028749193,-0.08330895676793545,0.13569553332027526,-0.03595318901048867,-0.08330895676793545,0.0658658863922328,-0.08330895676793545,-0.08330895676793545,-0.04750202714983418,-0.08330895676793545
2022-05-06,-0.0773596000488125,-0.0773596000488125,0.12437527386695499,-0.03472269817682364,0.375624726133045,-0.0773596000488125,-0.0773596000488125,-0.0773596000488125,-0.04225880559344355,-0.036220495985670245
2022-05-09,-0.01867253170059344,-0.07550236607487938,-0.04440399778640332,-0.07550236607487938,-0.07550236607487938,-0.05368550336348561,0.4999999999999999,-0.00572613677512073,-0.07550236607487938,-0.07550236607487938
2022-05-10,-0.09175778970777272,-0.09175778970777272,0.3039090522367624,-0.006883118816243801,-0.09175778970777272,0.19609094776323757,-0.09175778970777272,-0.09175778970777272,-0.022242233473931138,-0.012085699170961396
2022-05-11,-0.07080563564975234,0.29791279102123075,-0.07080563564975234,-0.045606431624308434,0.20208720897876922,-0.07080563564975234,-0.07080563564975234,-0.07080563564975234,-0.049436577926794026,-0.05092881220013592
2022-05-12,-0.02276433381765049,0.0056642512832507765,-0.055461379086109014,-0.08231040090899107,-0.08231040090899107,-0.08231040090899107,0.4943357487167492,-0.010222282551285064,-0.08231040090899107,-0.08231040090899107
2022-05-13,-0.07725224789260308,-0.07725224789260308,-0.07725224789260308,-0.034519000856519204,0.41297333418089116,0.08702666581910883,-0.07725224789260308,-0.07725224789260308,-0.037828999744684746,-0.041390759935780515
2022-05-16,-0.022421325373752073,0.005540036025236832,-0.08182539677488614,-0.08182539677488614,-0.08182539677488614,-0.06226075920489073,0.4944599639747633,-0.006190931546926767,-0.08182539677488614,-0.08182539677488614
2022-05-17,-0.08149179517825851,-0.08149179517825851,0.10778396796150437,-0.04469082883768148,0.3299740909544339,0.06224194108406173,-0.08149179517825851,-0.08149179517825851,-0.04785019527102607,-0.08149179517825851
2022-05-18,-0.0746938725529936,0.010981439196996406,-0.0746938725529936,-0.0746938725529936,-0.0746938725529936,-0.05531840701160072,0.48901856080300365,-0.001076734861108487,-0.07013549536232273,-0.0746938725529936
2022-05-19,0.12616324494473516,0.2222061405933948,-0.08596020724112685,-0.08596020724112685,0.10805505561937863,-0.08596020724112685,-0.08596020724112685,-0.08596020724112685,-0.07019896379436577,0.04357555884249144
2022-05-20,-0.012349340350436274,-0.0779951524585399,-0.0779951524585399,-0.0779951524585399,-0.0779951524585399,-0.05775130162131933,0.49870474717930263,0.0012952528206973716,-0.0779951524585399,-0.03992359573554502
2022-05-23,-0.0850629227023905,-0.0850629227023905,0.1454411911749152,-0.03206379342467981,-0.0850629227023905,0.09200415376792431,-0.0850629227023905,-0.0850629227023905,-0.04262159306336752,0.26255465505716047
2022-05-24,-0.08117467963056048,0.006887636917754809,-0.08117467963056048,-0.08117467963056048,-0.026367183407734054,-0.06420450360131305,0.4931123630822453,-0.003554914838150583,-0.08117467963056048,-0.08117467963056048
2022-05-25,-0.021784550876410794,0.004757229370127635,-0.08385844657884123,-0.08385844657884123,-0.05845134028042084,-0.08385844657884123,0.4952427706298723,-0.0004718759489621515,-0.08385844657884123,-0.08385844657884123
2022-05-26,-0.02101387324009894,-0.017261794788852834,-0.062385456896588753,-0.07986777501489188,-0.07986777501489188,-0.07986777501489188,0.49458260066361975,0.005417399336380171,-0.07986777501489188,-0.07986777501489188
2022-05-27,-0.07885046621958995,0.3240968112878377,0.028380474849342373,-0.04720259293230322,-0.07885046621958995,-0.07885046621958995,-0.07885046621958995,-0.07885046621958995,-0.05854507596974703,0.14752271386282
2022-05-31,0.2289811026090452,0.2637414757278457,0.007277421663109135,-0.08476459132821583,-0.08476459132821583,-0.008811324008677771,-0.08476459132821583,-0.08476459132821583,-0.06736571935024314,-0.08476459132821583
2022-06-01,-0.02383515861845112,-0.014182688160651314,-0.08023568506998492,-0.08023568506998492,-0.060803727870972844,-0.08023568506998492,0.49619334424811173,0.0038066557518882356,-0.08023568506998492,-0.08023568506998492
2022-06-02,-0.08383929174582695,-0.08383929174582695,0.09432860907732098,-0.03169228781131233,-0.08383929174582695,0.06789554418073089,-0.08383929174582695,-0.08383929174582695,-0.0491112534595529,0.33777584674194805
2022-06-03,-0.024618820687181468,-0.019325144836151283,-0.0630591776849334,-0.07859937135834678,-0.07859937135834678,-0.07859937135834678,0.49027319801098423,0.009726801989015925,-0.07859937135834678,-0.07859937135834678
2022-06-06,-0.017272352144015648,-0.07334597026146822,-0.07334597026146822,-0.07334597026146822,-0.05556309281249404,-0.06043470373614927,0.4822668530355685,0.017733146964431595,-0.07334597026146822,-0.07334597026146822
2022-06-07,-0.07743539233001581,-0.07743539233001581,0.015226326075025115,-0.05098098820764848,0.02708609829973373,-0.07743539233001581,-0.07743539233001581,0.45768757562524115,-0.06184205014227245,-0.07743539233001581
2022-06-08,-0.08302009974865444,-0.08302009974865444,0.09612085480452248,-0.03167530016304194,-0.08302009974865444,0.044479711076578596,-0.08302009974865444,-0.08302009974865444,-0.053224201093685856,0.35939943411889896
2022-06-09,-0.08305844897659394,-0.08305844897659394,0.08235730152104791,-0.02902989230191572,0.10104147059266794,-0.08305844897659394,-0.08305844897659394,-0.08305844897659394,-0.055677862815114644,0.3166012278862842
2022-06-10,-0.08404855357116933,-0.08404855357116933,-0.08404855357116933,-0.023954605235613873,0.11407669895201697,0.044799315926885415,-0.08404855357116933,-0.08404855357116933,-0.05580262690853953,0.3411239851210976
2022-06-13,-0.021139205971350942,-0.07313141687373584,-0.053987979296859785,-0.07313141687373584,-0.07313141687373584,-0.059215730363110036,0.47684572563554456,0.023154274364455354,-0.07313141687373584,-0.07313141687373584
2022-06-14,-0.026877007283921017,-0.01346698977853132,-0.059785045250547904,-0.07997419153739994,-0.07997419153739994,-0.07997419153739994,0.4796058716717847,0.020394128328215275,-0.07997419153739994,-0.07997419153739994
2022-06-15,-0.09108269098192283,-0.09108269098192283,0.2144930122149091,0.006012427191474976,-0.09108269098192283,0.11300586058156242,-0.09108269098192283,-0.09108269098192283,-0.04458654509038608,0.1664887000120535
2022-06-16,-0.02877070872697127,-0.015657892288480704,-0.058515449329340156,-0.07941118993104156,-0.07941118993104156,-0.07941118993104156,0.4700758476013471,0.029924152398652756,-0.07941118993104156,-0.07941118993104156
2022-06-17,-0.026109800572330085,-0.016450780687800887,-0.05730819175373377,-0.08002624539722701,-0.08002624539722701,-0.08002624539722701,0.46815621795175133,0.03184378204824865,-0.08002624539722701,-0.08002624539722701
2022-06-21,-0.08162095545089397,0.3962064222406412,0.08466156126638245,-0.03420961548851983,-0.08162095545089397,0.019132016492976463,-0.08162095545089397,-0.08162095545089397,-0.05768560725701041,-0.08162095545089397
2022-06-22,0.18651562529968146,0.27508303031884285,-0.09204104065573351,-0.09204104065573351,0.03840134438147565,-0.009978357112816815,-0.09204104065573351,-0.09204104065573351,-0.09204104065573351,-0.0298164396085158
2022-06-23,-0.03078816440945951,-0.016278274396336216,-0.07998032805087853,-0.07998032805087853,-0.05303192093981168,-0.07998032805087853,0.46790122232166964,0.03209877767833031,-0.07998032805087853,-0.07998032805087853
2022-06-24,0.3429052234454131,-0.08357898488713637,-0.08357898488713637,-0.026401927520017646,0.14867303372749224,-0.08357898488713637,-0.08357898488713637,-0.08357898488713637,-0.0557031480443004,0.008421742827094602
2022-06-27,-0.09180472670541111,-0.09180472670541111,0.2644918592151183,0.011372304771320464,-0.09180472670541111,0.15200393953843255,-0.09180472670541111,-0.09180472670541111,-0.04097636647294439,0.07213189647512872
2022-06-28,0.1774962730454266,0.2515647277340079,-0.0863198790945272,-0.0863198790945272,0.07047102612032943,0.000467973100236027,-0.0863198790945272,-0.0863198790945272,-0.06840060452736418,-0.0863198790945272
2022-06-29,-0.09106967611346527,-0.09106967611346527,-0.09106967611346527,0.0022246079731926237,0.3173503578797499,0.13606054840311665,-0.09106967611346527,-0.09106967611346527,-0.04465161943267358,0.04436448574394093
2022-06-30,0.088475836580009,0.12528100295882552,-0.08269600169738837,-0.05976001155823677,-0.08269600169738837,-0.026759979954821406,-0.08269600169738837,0.28624316046116544,-0.08269600169738837,-0.08269600169738837
2022-07-01,-0.07967847524760967,-0.004520160440707018,-0.05121642119727379,-0.07967847524760967,-0.04587104212397089,-0.07967847524760967,0.4596910959659984,0.0403089040340015,-0.07967847524760967,-0.07967847524760967
2022-07-05,-0.014292556621499102,0.0016441574912907733,-0.04655104667867438,-0.07663703618447781,-0.07663703618447781,-0.05597121577743744,0.4983558425087092,-0.07663703618447781,-0.07663703618447781,-0.07663703618447781
2022-07-06,-0.025255046950875205,-0.011714723692466778,-0.05354673703736021,-0.08189669846385958,-0.08189669846385958,-0.08189669846385958,0.4653564282931984,0.03464357170680158,-0.08189669846385958,-0.08189669846385958
2022-07-07,0.12742711527195247,-0.07874870733344894,0.0245842702172948,-0.07874870733344894,-0.07874870733344894,-0.07874870733344894,-0.07874870733344894,0.34798861451075264,-0.06492192433800721,-0.041334538994748135
2022-07-08,-0.09119124584183665,-0.09119124584183665,-0.09119124584183665,0.010021285583238755,0.3094624625322818,0.14306260603494472,-0.09119124584183665,-0.09119124584183665,-0.0440437707908168,0.03745364584953478
2022-07-11,0.3358128712104309,-0.08320824239517358,-0.08320824239517358,-0.027066693634470083,0.16418712878956906,-0.08320824239517358,-0.08320824239517358,-0.08320824239517358,-0.0548273023150034,-0.00206479207465865
2022-07-12,-0.07520765083592691,-0.014572576145372482,-0.07520765083592691,-0.07520765083592691,-0.0444145728446977,-0.07520765083592691,0.4521386999691922,0.04786130003080776,-0.07520765083592691,-0.06497459683029533
2022-07-13,-0.022518464217213454,-0.07195865517702031,-0.07195865517702031,-0.07195865517702031,-0.07195865517702031,-0.05593134023164011,0.4507824139139029,0.04921758608609703,-0.07195865517702031,-0.06175691966604489
2022-07-14,-0.018797857027152004,-0.011627507972471042,-0.07376850720815667,-0.061676491952630634,-0.03905560700696289,-0.07376850720815667,0.5,-0.07376850720815667,-0.07376850720815667,-0.07376850720815667
2022-07-15,-0.07546604256916888,-0.017385347756186113,-0.07546604256916888,-0.07546604256916888,-0.04166140229009643,-0.07546604256916888,0.46745703264863964,0.03254296735136029,-0.07546604256916888,-0.06362303710787313
2022-07-18,-0.03226984933755885,-0.025033800586384526,-0.04688959771842154,-0.079161350471527,-0.079161350471527,-0.079161350471527,0.4794381735644234,0.020561826435576486,-0.079161350471527,-0.079161350471527
2022-07-19,-0.039699642919727204,-0.023614961249814014,-0.07792128812970948,-0.07792128812970948,-0.04707895518191146,-0.07792128812970948,0.49799436673185316,0.002005633268146765,-0.07792128812970948,-0.07792128812970948
2022-07-20,-0.03774407472121747,-0.021861782646090754,-0.07421572392764539,-0.07421572392764539,-0.07421572392764539,-0.07421572392764539,0.4782282705017394,0.021771729498260468,-0.07421572392764539,-0.06931552299446483
2022-07-21,-0.07498809756034543,-0.07498809756034543,-0.07498809756034543,-0.014775555782952286,-0.07498809756034543,0.001475660590331688,-0.07498809756034543,0.4985243394096684,-0.0594362845731182,-0.05084767184220241
2022-07-22,-0.08496403855001387,-0.08496403855001387,0.3504643037713825,0.06400230302650599,-0.08496403855001387,0.08553339320211158,-0.08496403855001387,-0.08496403855001387,-0.051764161476179606,-0.02341564577375106
2022-07-25,0.2670114252919552,-0.08683209778472609,0.1958296174884599,0.009883907837835909,-0.08683209778472609,0.027275049381749045,-0.08683209778472609,-0.08683209778472609,-0.06583951107636948,-0.08683209778472609
2022-07-26,-0.07672447786291232,-0.02624918302089608,-0.03988905598241595,-0.07672447786291232,-0.07672447786291232,-0.07672447786291232,0.4874106022602742,0.012589397739725883,-0.07672447786291232,-0.0502393716821264
2022-07-27,-0.07504602008912904,-0.02398560118908148,-0.07504602008912904,-0.07504602008912904,-0.07504602008912904,-0.05317931754811625,0.4855560563392764,0.01444394366072363,-0.07504602008912904,-0.04760498081715703
2022-07-28,-0.04599793993965096,-0.006711089915592411,-0.042527537599307406,-0.08095268650908984,-0.08095268650908984,-0.08095268650908984,0.48593334707396296,0.014066652926037026,-0.08095268650908984,-0.08095268650908984
2022-07-29,-0.08101988167685446,-0.0013346819410812278,-0.08101988167685446,-0.08101988167685446,-0.04362925447218118,-0.08101988167685446,0.476684447564032,0.02331555243596793,-0.08101988167685446,-0.04993665520246528
2022-08-01,-0.0758085723245457,-0.0758085723245457,-0.035059666828444656,-0.0758085723245457,-0.04099147757576294,-0.0758085723245457,0.4724222580747746,0.027577741925225333,-0.0758085723245457,-0.04490599397306386
2022-08-02,-0.04052016608166836,-0.0011716063565316063,-0.08263074255075797,-0.08263074255075797,-0.045154514808010075,-0.08263074255075797,0.4775379815953753,0.022462018404624726,-0.08263074255075797,-0.08263074255075797
2022-08-03,-0.07730648784887492,0.005318666698264348,-0.07730648784887492,-0.07730648784887492,-0.03936515643167696,-0.07730648784887492,0.4679343978528006,0.026746935448935007,-0.07410240432394842,-0.07730648784887492
2022-08-04,0.2246624000054577,-0.08734973755402849,-0.08734973755402849,0.002255286392852125,-0.08734973755402849,0.10624766917660232,-0.08734973755402849,-0.08734973755402849,-0.06325131222985758,0.16683464442508783
2022-08-05,-0.08557500425785827,-0.08557500425785827,0.07578283165777518,-0.08557500425785827,0.06765581475939188,-0.08557500425785827,-0.08557500425785827,0.3033779464046358,-0.07212497871070858,0.05318340717819725
2022-08-08,0.2233188216309286,-0.08759088173166306,-0.08759088173166306,0.004497557297489439,-0.08759088173166306,0.10038622323801732,-0.08759088173166306,-0.08759088173166306,-0.062045591341684754,0.1717973978335646
2022-08-09,-0.04528475268087947,-0.013540649700913298,-0.078721551340581,-0.078721551340581,-0.0475668409153024,-0.078721551340581,0.4978748664059212,0.002125133594078765,-0.078721551340581,-0.078721551340581
2022-08-10,-0.08767956648656683,-0.08767956648656683,-0.08767956648656683,0.0013635657447023685,0.2128618132954046,0.10695292196310706,-0.08767956648656683,-0.08767956648656683,-0.06160216756716581,0.17882169899678585
2022-08-11,-0.04576218745711012,-0.014218358993819584,-0.04786681600093107,-0.07843052750962784,-0.07843052750962784,-0.07843052750962784,0.4954554301755273,0.004544569824472616,-0.07843052750962784,-0.07843052750962784
2022-08-12,-0.039742604595334234,-0.06878107490924394,-0.06878107490924394,-0.06878107490924394,-0.06878107490924394,-0.05008750494007616,0.4880303570036054,0.011969642996394579,-0.06626451591836974,-0.06878107490924394
2022-08-15,-0.0784907387604362,0.34507211469001714,-0.0784907387604362,-0.0454576023319374,-0.0784907387604362,0.049918904082609586,-0.0784907387604362,-0.0784907387604362,-0.06208870386588158,0.10500898122737322
2022-08-16,0.19599123524125972,-0.08218045504822506,-0.08218045504822506,-0.03213498566287285,-0.08218045504822506,0.11106085207919816,-0.08218045504822506,-0.08218045504822506,-0.05696273909600198,0.19294791267954214
2022-08-17,-0.07062774898890384,0.0011834659101050509,-0.03965798596876945,-0.07062774898890384,-0.03940016395351611,-0.07062774898890384,0.49881653408989485,-0.07062774898890384,-0.06780310513319517,-0.07062774898890384
2022-08-18,-0.08303720289183487,-0.08303720289183487,0.17499834119395258,-0.027873827918855787,-0.08303720289183487,0.11807409308618372,-0.08303720289183487,-0.08303720289183487,-0.056940157621969814,0.20692756571986368
2022-08-19,-0.08327667460318874,-0.08327667460318874,0.17441264133833692,-0.026691435942214476,-0.08327667460318874,0.12052320908820613,-0.08327667460318874,-0.08327667460318874,-0.056925191041841836,0.2050641495734569
2022-08-22,-0.0750738508716111,-0.00497744969486673,-0.04749211371051266,-0.0750738508716111,-0.0750738508716111,-0.0750738508716111,0.49946501675483274,0.0005349832451672465,-0.07216118223656504,-0.0750738508716111
2022-08-23,-0.03775773875138604,-0.07218177118643819,-0.07218177118643819,-0.07218177118643819,-0.046680753870452465,-0.07218177118643819,0.49635193796684374,0.0036480620331563103,-0.07218177118643819,-0.05465265144597065
2022-08-24,-0.036707818884075,-0.001298241201753317,-0.05905828347583664,-0.07033442127320254,-0.051263550072322375,-0.07033442127320254,0.5,-0.07033442127320254,-0.07033442127320254,-0.07033442127320254
2022-08-25,-0.0921269925348614,-0.0921269925348614,-0.0921269925348614,0.024711656726225512,0.2235764381244053,0.08018929457466846,-0.0921269925348614,-0.0921269925348614,-0.03936503732569306,0.17152261057470075
2022-08-26,-0.09353142506282872,-0.09353142506282872,0.14005116602031278,0.04076647489160841,-0.09353142506282872,0.10591331457298014,-0.09353142506282872,-0.09353142506282872,-0.03234287468585647,0.21326904451509865
2022-08-29,-0.09244902547587995,-0.09244902547587995,0.14119593176593268,0.03756415239488016,-0.09244902547587995,0.1060533605694816,-0.09244902547587995,-0.09244902547587995,-0.03775487262060026,0.21518655526970562
2022-08-30,-0.09158598250545118,-0.09158598250545118,-0.09158598250545118,0.028411110837300753,0.21069219352414928,0.06999791311684135,-0.09158598250545118,-0.09158598250545118,-0.04207008747274419,0.19089878252170855
2022-08-31,0.19462610646240605,0.18177140224882174,0.020133498918906825,-0.1,0.07506825169754242,-0.1,-0.1,-0.1,-0.1,0.028400740672322993
2022-09-01,-0.08771386834703633,0.3369645525798694,-0.08771386834703633,-0.006446058830837462,-0.08771386834703633,0.05444888290609926,-0.08771386834703633,-0.08771386834703633,-0.05498459943398089,0.10858656451403134
2022-09-02,-0.08122028745618233,-0.08122028745618233,0.03550088845052367,-0.03264933267430816,-0.08122028745618233,-0.08122028745618233,-0.08122028745618233,0.42521389226389716,-0.061249230044780056,0.03928521928557909
2022-09-06,-0.04356483956432549,-0.04451175576085763,-0.05599198960150825,-0.06559434455111528,-0.06559434455111528,-0.06559434455111528,0.5,-0.027959692317732213,-0.06559434455111528,-0.06559434455111528
2022-09-07,-0.06382474546440883,-0.04269634690129696,-0.06382474546440883,-0.05972652306624599,-0.05136825643027689,-0.06382474546440883,0.4999999999999999,-0.027085146280136023,-0.06382474546440883,-0.06382474546440883
2022-09-08,-0.042349000356767585,-0.044266570356305816,-0.06586359381748824,-0.06586359381748824,-0.052397169099182815,-0.06586359381748824,0.5000000000000001,-0.03166929110030262,-0.06586359381748824,-0.06586359381748824
2022-09-09,-0.037157744436509,-0.04257758579154591,-0.06544996379912928,-0.06544996379912928,-0.06544996379912928,-0.05815764746176965,0.5,-0.03485720331452905,-0.06544996379912928,-0.06544996379912928
2022-09-12,-0.08989903397729032,-0.08989903397729032,0.20376329664626533,0.01111298505520298,-0.08989903397729032,0.12528098544453484,-0.08989903397729032,-0.08989903397729032,-0.050504830113548324,0.15984273285399686
2022-09-13,0.22919349311483403,0.13315756583358995,-0.004548140504628165,-0.09327429022860555,-0.09327429022860555,-0.02908040835234408,-0.09327429022860555,0.1376489410515761,-0.09327429022860555,-0.09327429022860555
2022-09-14,-0.08374483789606425,-0.08374483789606425,0.09998103289605083,-0.021602732061379235,-0.08374483789606425,-0.08374483789606425,-0.08374483789606425,0.38454546144310975,-0.05967307845829942,0.0154735056608395
2022-09-15,-0.058171678661774154,-0.058171678661774154,-0.04648582573911278,-0.054189247543765126,-0.058171678661774154,-0.058171678661774154,0.5,-0.058171678661774154,-0.05662604116373474,-0.051840492244516645
2022-09-16,-0.020321703811478655,-0.03924813724377561,-0.06983615525367852,-0.06983615525367852,-0.05213984882393005,-0.06983615525367852,0.5,-0.039109533852423085,-0.06983615525367852,-0.06983615525367852
2022-09-19,0.33304656285393036,-0.07429558129943506,-0.07429558129943506,-0.04304671763380672,-0.07429558129943506,-0.07429558129943506,-0.07429558129943506,0.16695343714606956,-0.06183338460019973,-0.02364199126881834
2022-09-20,-0.05780642836163197,-0.05780642836163197,-0.05780642836163197,-0.053791992965040364,-0.05780642836163197,-0.04927872561805843,0.5,-0.05780642836163197,-0.0561827208950661,-0.0517144187136753
2022-09-21,-0.08783743800383692,-0.08783743800383692,0.15042944508459974,-0.005680343384908087,0.26057290450296045,0.08899765041243976,-0.08783743800383692,-0.08783743800383692,-0.05513246659590732,-0.08783743800383692
2022-09-22,-0.09060507961169192,-0.09060507961169192,0.2318710344845003,0.02079034959757848,-0.09060507961169192,0.15266492294983175,-0.09060507961169192,-0.09060507961169192,-0.04697460194154036,0.09467369296808952
2022-09-23,0.23709869679800788,0.10777584936246223,-0.08459998287604358,-0.08459998287604358,-0.08459998287604358,-0.030722758872887168,-0.08459998287604358,0.15512545383952991,-0.08459998287604358,-0.046277326746895005
2022-09-26,-0.00765522969336779,-0.06962380776781031,-0.06962380776781031,-0.06962380776781031,-0.06962380776781031,-0.059310127855311395,0.4999999999999999,-0.022564179729386496,-0.06962380776781031,-0.06235142388288264
2022-09-27,-0.06913885171431204,-0.030628413243381017,-0.05486159193203551,-0.06913885171431204,-0.04511183501918864,-0.06913885171431204,0.5,-0.023703901233834684,-0.06913885171431204,-0.06913885171431204
2022-09-28,-0.0920417720815137,-0.0920417720815137,0.24452555572633497,0.02998231594601495,-0.0920417720815137,0.15484515585428854,-0.0920417720815137,-0.0920417720815137,-0.039791139592431406,0.0706469724733616
2022-09-29,-0.09041391330245334,-0.09041391330245334,-0.09041391330245334,0.009255019464889554,0.33419130463823676,0.11591352032106458,-0.09041391330245334,-0.09041391330245334,-0.047930433487733376,0.040640155575808974
2022-09-30,0.016892170651942436,-0.028224608996618147,-0.054303632986977456,-0.07210381419039971,-0.07210381419039971,-0.056952687064405955,0.4831078293480576,-0.07210381419039971,-0.07210381419039971,-0.07210381419039971
2022-10-03,0.009741106095342754,-0.03358866501190569,-0.07867045448876409,-0.07867045448876409,-0.07867045448876409,-0.06268390107422409,0.4902588939046574,-0.010375161470049792,-0.07867045448876409,-0.07867045448876409
2022-10-04,0.018746767929476056,-0.06694690116305581,-0.049883393314699306,-0.06694690116305581,-0.06694690116305581,-0.05165178756071932,0.4812532320705239,-0.06694690116305581,-0.06373031330930219,-0.06694690116305581
2022-10-05,-0.09068923879862087,-0.09068923879862087,0.1421466231438859,-0.09068923879862087,0.23551752932617437,0.11888521905684439,-0.09068923879862087,-0.09068923879862087,-0.04655380600689572,0.0034506284730954225
2022-10-06,-0.0928329675483771,-0.0928329675483771,0.21479231502562626,0.04451051773384235,-0.0928329675483771,0.2028637983518454,-0.0928329675483771,-0.0928329675483771,-0.03583516225811449,0.03783336888868603
2022-10-07,0.2685901641752209,-0.07752713852014421,-0.07752713852014421,-0.07752713852014421,0.021623726622204964,-0.07752713852014421,-0.07752713852014421,0.20978610920257415,-0.06458034409741684,-0.047783963301862215
2022-10-10,-0.09317215802648746,-0.09317215802648746,0.1909373685089845,0.050141225899803556,-0.09317215802648746,0.2128357497230673,-0.09317215802648746,-0.09317215802648746,-0.03413920986756269,0.0460856558681447
2022-10-11,-0.09174178217502583,0.1393266511507157,0.004914697782095711,-0.04129108912487088,-0.09174178217502583,0.013195299240530412,-0.09174178217502583,0.34256335182665826,-0.09174178217502583,-0.09174178217502583
2022-10-12,-0.0007074902395363945,-0.07544987353188023,-0.07544987353188023,-0.07544987353188023,-0.05403260847320595,-0.05903689879779231,0.5,-0.008973634830064189,-0.07544987353188023,-0.07544987353188023
2022-10-13,-0.09218361729165207,-0.09218361729165207,0.15564667273661298,0.05884555456514418,0.2569668424880669,-0.09218361729165207,-0.09218361729165207,-0.09218361729165207,-0.03908191354173963,0.028540930210175924
2022-10-14,-0.015824503324387184,-0.03391019287623946,-0.07623517893817637,-0.06571264226969951,-0.07623517893817637,-0.07623517893817637,0.5,-0.0033767668387920486,-0.07623517893817637,-0.07623517893817637
2022-10-17,-0.009531386591222837,-0.02639949422239088,-0.06866932066149313,-0.05807054170617502,-0.06866932066149313,-0.06866932066149313,0.5,-0.06866932066149313,-0.06866932066149313,-0.06265197417274564
2022-10-18,-0.013701028049010428,-0.07253168313060615,-0.07253168313060615,-0.07253168313060615,-0.053828666775596216,-0.07253168313060615,0.49975319550670333,0.0002468044932966727,-0.06981188952236264,-0.07253168313060615
2022-10-19,-0.06297530967277219,-0.018840774102304423,-0.04935569031366681,-0.06297530967277219,-0.06297530967277219,-0.06297530967277219,0.5000000000000001,-0.06297530967277219,-0.060123685060274684,-0.05680330215989315
2022-10-20,-0.014382116604936313,-0.03311619477720827,-0.07735198346659111,-0.06574177128489993,-0.07735198346659111,-0.07735198346659111,0.4948954005539076,0.005104599446092348,-0.07735198346659111,-0.07735198346659111
2022-10-21,-0.0032453859084885946,-0.06661549008799895,-0.053027753798581455,-0.06661549008799895,-0.06661549008799895,-0.04996904760576866,0.5,-0.06661549008799895,-0.06661549008799895,-0.06068036224716655
2022-10-24,-0.01348671690280831,-0.07532925566381964,-0.06204025474439866,-0.07532925566381964,-0.047826750033694965,-0.07532925566381964,0.4902056985516332,0.009794301448366877,-0.07532925566381964,-0.07532925566381964
2022-10-25,0.19940086111906677,-0.07345684825881774,-0.07345684825881774,-0.02619778097454535,-0.07345684825881774,-0.07345684825881774,-0.07345684825881774,0.3005991388809332,-0.05763510801555135,-0.04888286971581458
2022-10-26,-0.06492904706321417,-0.06492904706321417,-0.06492904706321417,-0.054517161942785206,-0.06492904706321417,-0.06492904706321417,0.4828049879352622,0.017195012064737884,-0.061383471472024546,-0.059454131269119276
2022-10-27,-0.017417793780142115,-0.07642673296586808,-0.04745160270341424,-0.07642673296586808,0.03052884562360176,-0.05299693868710327,0.46947115437639825,-0.07642673296586808,-0.07642673296586808,-0.07642673296586808
2022-10-28,-0.07759726493248625,-0.07759726493248625,-0.07759726493248625,-0.011285129336393621,-0.07759726493248625,0.0760787904997178,-0.07759726493248625,0.4239212095002821,-0.05482066669479856,-0.04590787930637645
2022-10-31,-0.07329228434412871,-0.07329228434412871,-0.07329228434412871,-0.06359971568334603,0.03911344210852303,-0.07329228434412871,0.4607315882238842,0.00015496966759275872,-0.0699388625960105,-0.07329228434412871
2022-11-01,-0.08558241075689216,-0.08558241075689216,0.280055162421499,0.030985297139021727,-0.08558241075689216,0.18895954043947924,-0.08558241075689216,-0.08558241075689216,-0.04272710691709958,-0.02936083929843954
2022-11-02,-0.0647804540782284,-0.0647804540782284,-0.0647804540782284,-0.055068379415035104,-0.0647804540782284,-0.0647804540782284,0.48970548757018295,0.010294512429817082,-0.06093609471663097,-0.060093255477191826
2022-11-03,-0.08071319266915171,0.002625074973262045,-0.04221261473913684,-0.08071319266915171,0.04688799116564201,-0.05422142191510459,0.45048693386109595,-0.08071319266915171,-0.08071319266915171,-0.08071319266915171
2022-11-04,-0.007908624207724785,-0.08013573322091765,-0.03938102569967026,-0.08013573322091765,0.054935930071132774,-0.05203168398801661,0.4450640699288672,-0.08013573322091765,-0.08013573322091765,-0.08013573322091765
2022-11-07,0.005958138996079906,-0.07242108896823213,-0.028071179652508105,-0.07242108896823213,-0.07242108896823213,-0.041976088590609355,0.49404186100392,-0.07242108896823213,-0.06784728691572185,-0.07242108896823213
2022-11-08,-0.07212895268284487,-0.07212895268284487,-0.07212895268284487,-0.03165857652792191,0.4622409276460377,0.03775907235396234,-0.07212895268284487,-0.07212895268284487,-0.05429216123254741,-0.053404498825306436
2022-11-09,-0.025210247254067123,0.0005729901271588695,-0.0949579505491866,-0.0949579505491866,0.03384908568283462,-0.0949579505491866,0.46272895134511105,0.0028489728448955853,-0.0949579505491866,-0.0949579505491866
2022-11-10,-0.010968780256394675,0.02876868553255984,-0.04611253035013187,-0.0885837378786947,-0.0885837378786947,-0.0885837378786947,0.4527905692602444,0.01844074520719561,-0.0885837378786947,-0.0885837378786947
2022-11-11,-0.06953623901303702,-0.06953623901303702,0.07250699940312304,-0.04856693611993289,0.4274930005968769,-0.06953623901303702,-0.06953623901303702,-0.06953623901303702,-0.053322960809762586,-0.050428908005119434
2022-11-14,-0.008451383488527633,-0.08433630896244032,-0.08433630896244032,-0.08433630896244032,0.061588915235719674,-0.08433630896244032,0.42204957684233646,0.016361507921943942,-0.08433630896244032,-0.06986707169927076
2022-11-15,-0.08335843251835838,-0.08335843251835838,0.2855845238042191,-0.04135606656648398,-0.08335843251835838,0.16934485694638118,-0.08335843251835838,-0.08335843251835838,-0.041851770841724034,0.04507061924939973
2022-11-16,0.3911995536421027,-0.07980066227435456,-0.07980066227435456,-0.05037770983121087,-0.07980066227435456,0.09789840088970543,-0.07980066227435456,-0.07980066227435456,-0.050618978797016385,0.010902045468192081
2022-11-17,0.14794025777166483,-0.07077841102952433,-0.07077841102952433,-0.06074849230939747,0.35205974222833514,-0.07077841102952433,-0.07077841102952433,-0.07077841102952433,-0.05710308227910638,-0.02825637026387456
2022-11-18,-0.08198922425938662,-0.08198922425938662,0.2858919098068787,-0.05106139639601801,-0.08198922425938662,0.16716842426122233,-0.08198922425938662,-0.08198922425938662,-0.03899248230704869,0.04693966593189894
2022-11-21,-0.02140546652600446,0.01356284030390748,-0.09507290806257139,-0.09507290806257139,0.04550001420855195,-0.09507290806257139,0.44093714548754054,-0.0032299931611384576,-0.09507290806257139,-0.09507290806257139
2022-11-22,-0.011569209606089861,0.025455755301224417,-0.05088594292531184,-0.08750896949371967,-0.08750896949371967,-0.08750896949371967,0.45930523096219156,0.01523901373658398,-0.08750896949371967,-0.08750896949371967
2022-11-23,-0.07792172430609397,-0.07792172430609397,-0.07792172430609397,-0.05662284317232441,0.4363285831907213,0.053191674641029175,-0.07792172430609397,-0.07792172430609397,-0.05376853529720568,0.010479742168249453
2022-11-25,-0.07123674342831042,0.25049744909515426,-0.07123674342831042,-0.06001250101784337,-0.07123674342831042,-0.07123674342831042,-0.07123674342831042,0.2495025509048458,-0.05896052208697583,-0.024843259753628687
2022-11-28,-0.0785710087196209,-0.0785710087196209,-0.0785710087196209,-0.05459910348380158,0.4278300334390994,0.052690180258389785,-0.0785710087196209,-0.0785710087196209,-0.05254585291809405,0.019479786302510804
2022-11-29,-0.02898178499326593,0.011314943147576771,-0.09161243985329383,-0.09161243985329383,-0.012956015740264892,-0.09161243985329383,0.4666039610925981,0.022081095759825118,-0.09161243985329383,-0.09161243985329383
2022-11-30,-0.024229850452520338,-0.08477221125968729,-0.0569847859611861,-0.08477221125968729,-0.014691659970337964,-0.08477221125968729,0.4713865841879891,0.028613415812010858,-0.080401284198133,-0.06937578563876083
2022-12-01,-0.07963787296652429,-0.07963787296652429,-0.07963787296652429,-0.07963787296652429,0.16895425371620887,-0.013115128176560194,-0.07963787296652429,0.33104574628379113,-0.0648544267569487,-0.023841080233869667
2022-12-02,-0.0793530109128599,-0.0793530109128599,0.0607191360053513,-0.0532364218389877,0.4088923199429679,-0.0793530109128599,-0.0793530109128599,-0.0793530109128599,-0.0499985235967127,0.030388544051680903
2022-12-05,-0.08792117359293392,-0.08792117359293392,0.19727283570485854,-0.034848992169268914,-0.08792117359293392,0.16307516175937445,-0.08792117359293392,-0.08792117359293392,-0.02554513986606154,0.13965200253576693
2022-12-06,-0.06560362921560202,0.02405184161486664,-0.06560362921560202,-0.062012946481806594,-0.06560362921560202,-0.0485909966517607,0.47594815838513344,-0.06560362921560202,-0.06137791078842258,-0.06560362921560202
2022-12-07,-0.02325287193174043,0.014960383223690178,-0.08144831396928269,-0.08144831396928269,-0.006485684744783261,-0.06301987347706282,0.4850396167763098,-0.08144831396928269,-0.08144831396928269,-0.08144831396928269
2022-12-08,-0.07497722976544863,-0.07497722976544863,-0.07497722976544863,-0.058032377952571795,0.0770697961488226,-0.010724088118416563,-0.07497722976544863,0.42293020385117747,-0.05635738510176835,-0.07497722976544863
2022-12-09,-0.01625903648401085,-0.011111666887422262,-0.07366182343415002,-0.07366182343415002,-0.07366182343415002,-0.056790881968804975,0.5,-0.07366182343415002,-0.07366182343415002,-0.04752929748901165
2022-12-12,-0.07070180631787619,-0.010938498108644288,-0.050297998765937706,-0.07070180631787619,-0.029663503151944076,-0.05559096838409298,0.5,-0.07070180631787619,-0.07070180631787619,-0.07070180631787619
2022-12-13,-0.08760458630756558,-0.08760458630756558,-0.08760458630756558,-0.03401921048122094,0.3798354326873718,0.09174246816358166,-0.08760458630756558,-0.08760458630756558,-0.027957857980951198,0.028422099149046632
2022-12-14,-0.07183064925092916,-0.07183064925092916,-0.07183064925092916,-0.051795749408202904,-0.07183064925092916,0.0027035160404407887,-0.07183064925092916,0.4972964839595591,-0.05083847927218718,-0.03821252506496411
2022-12-15,-0.08755823724089228,-0.08755823724089228,0.1474232295905913,-0.032338234660382846,0.34328031030360895,-0.08755823724089228,-0.08755823724089228,-0.08755823724089228,-0.029870579135155766,0.009296460105799821
2022-12-16,-0.07108797404814593,-0.07108797404814593,0.01609829770329799,-0.052089296482713515,-0.07108797404814593,-0.07108797404814593,-0.07108797404814593,0.483901702296702,-0.05111314257306455,-0.04135769070349235
2022-12-19,-0.09027804553856425,0.27907813935647535,0.03131091446989155,-0.09027804553856425,0.15587135631404156,0.033739589859591565,-0.09027804553856425,-0.09027804553856425,-0.09027804553856425,-0.048609772307178785
2022-12-20,-0.005552811273101889,-0.002278320511074934,-0.08147698270815189,-0.08147698270815189,-0.029342235018323254,-0.05544171965674034,0.5,-0.08147698270815189,-0.08147698270815189,-0.08147698270815189
2022-12-21,-0.08362207298048742,-0.08362207298048742,0.13215719920621316,-0.03620304507932701,0.3678428007937869,-0.08362207298048742,-0.08362207298048742,-0.08362207298048742,-0.038758904919256695,-0.006927685098979107
2022-12-22,-0.08751352732913334,0.2871122591927055,0.03001567734912303,-0.06243236335433334,0.15033629920576905,0.03253576425240245,-0.08751352732913334,-0.08751352732913334,-0.08751352732913334,-0.08751352732913334
2022-12-23,-0.08316738572317597,-0.08316738572317597,-0.08316738572317597,-0.03651149882220613,0.3595935609332603,0.14040643906673964,-0.08316738572317597,-0.08316738572317597,-0.03922285182481898,-0.008428720737095052
2022-12-27,-0.06579432529167631,-0.06579432529167631,-0.06579432529167631,-0.055262873563808795,-0.06579432529167631,-0.012478921718246066,-0.06579432529167631,0.5,-0.05551685778095671,-0.047769720478606906
2022-12-28,-0.03148770403684117,-0.025646509316000463,-0.07948907690851838,-0.07948907690851838,-0.04542040210456652,-0.07948907690851838,0.3443959658608693,0.15560403413913082,-0.07948907690851838,-0.07948907690851838
2022-12-29,-0.025645628291600345,-0.07293329506539174,-0.07293329506539174,-0.06968091957382579,-0.040006976807615065,-0.07293329506539174,0.3393045654853903,0.16069543451460963,-0.07293329506539174,-0.07293329506539174
2022-12-30,-0.08105848977450199,0.3119546577974893,0.03382626545649926,-0.05755159532139794,0.15421907674601143,-0.08105848977450199,-0.08105848977450199,-0.08105848977450199,-0.08105848977450199,-0.037155955806092135
2023-01-03,-0.025390681404268353,-0.07245743619200933,-0.07245743619200933,-0.07245743619200933,-0.04216286508560433,-0.07245743619200933,0.31611956460122376,0.18388043539877613,-0.0701592725500807,-0.07245743619200933
2023-01-04,-0.08190904520460549,-0.08190904520460549,0.1578058286428539,-0.04064411255413682,0.3392942111008337,-0.08190904520460549,-0.08190904520460549,-0.08190904520460549,-0.04981066142283584,0.0028999602563122935
2023-01-05,-0.027493167438427852,-0.02855886279970043,-0.07829517879139486,-0.07829517879139486,-0.052472075804897565,-0.07829517879139486,0.3218634593324663,0.17813654066753373,-0.07829517879139486,-0.07829517879139486
2023-01-06,-0.027505522360036266,-0.028443958482012272,-0.07703982749129497,-0.07703982749129497,-0.07703982749129497,-0.05885138170147662,0.3080999516529399,0.19190004834706018,-0.07703982749129497,-0.07703982749129497
2023-01-09,-0.0054349139071153876,-0.00513110044114303,-0.07925521998770685,-0.07925521998770685,-0.041164872022070594,-0.05199301369113685,0.5000000000000001,-0.07925521998770685,-0.07925521998770685,-0.07925521998770685
2023-01-10,-0.02738662437462126,-0.021912102063848426,-0.0612747845556768,-0.0778852978011707,-0.0778852978011707,-0.0778852978011707,0.3046609036561967,0.19533909634380328,-0.0778852978011707,-0.0778852978011707
2023-01-11,-0.07490781328782613,-0.019623721349702344,-0.07490781328782613,-0.07490781328782613,-0.04965271992780874,-0.05618449228335824,0.3027871471898631,0.19721285281013698,-0.07490781328782613,-0.07490781328782613
2023-01-12,-0.0005773680980065469,0.00972346015217032,-0.05155523706518318,-0.07100940123886815,-0.07537159871958846,-0.07537159871958846,0.49027653984782965,-0.07537159871958846,-0.07537159871958846,-0.07537159871958846
2023-01-13,-0.02722449349361784,-0.07021759610665394,-0.07021759610665394,-0.07021759610665394,-0.07021759610665394,-0.05309454628268172,0.29515159559140325,0.2048484044085967,-0.0685929796904308,-0.07021759610665394
2023-01-17,0.32535261790962045,-0.07956205810161736,0.049220561217562034,-0.07956205810161736,0.1254268208728174,-0.07956205810161736,-0.07956205810161736,-0.07956205810161736,-0.06313732493544923,-0.039052384556464065
2023-01-18,0.3826213608816072,-0.08105436166824746,0.058570737040623565,-0.031268601834532034,0.058807902077769314,-0.08105436166824746,-0.08105436166824746,-0.08105436166824746,-0.0634595898242307,-0.08105436166824746
2023-01-19,-0.03686011170533747,-0.029705777010998406,-0.0591566498404412,-0.0748554922886446,-0.0748554922886446,-0.0748554922886446,0.3153947472318809,0.18460525276811915,-0.0748554922886446,-0.0748554922886446
2023-01-20,-0.03592558220469176,-0.06989274975672483,-0.05502776694261838,-0.06989274975672483,-0.05958290206906572,-0.06989274975672483,0.332854573773146,0.16714542622685405,-0.06989274975672483,-0.06989274975672483
2023-01-23,-0.034002559130693215,-0.06782843480584604,-0.06782843480584604,-0.06389036431351526,-0.06782843480584604,-0.06782843480584604,0.32977580015152147,0.17022419984847864,-0.06782843480584604,-0.06296490252656135
2023-01-24,-0.06829189568806113,-0.02732510047595356,-0.06829189568806113,-0.06431269179457959,-0.06829189568806113,-0.06829189568806113,0.32970500838649347,0.17029499161350656,-0.06690272928916115,-0.06829189568806113
2023-01-25,-0.07218544397090844,-0.02780577421734854,-0.07218544397090844,-0.07218544397090844,-0.059495635581712954,-0.05177137034639627,0.32118160351071673,0.17881839648928316,-0.07218544397090844,-0.07218544397090844
2023-01-26,-0.04101210966035995,-0.030858803518598887,-0.07336168494263433,-0.07336168494263433,-0.06132066210786946,-0.07336168494263433,0.30082055466796137,0.1991794453320385,-0.07336168494263433,-0.07336168494263433
2023-01-27,-0.0867047550178039,-0.0867047550178039,0.2460566550764467,-0.01412409843288404,-0.0867047550178039,0.25146939602316526,-0.0867047550178039,-0.0867047550178039,-0.052352126478096554,0.0024739489003880602
2023-01-30,-0.04489273561825876,-0.034255564512380876,-0.07306462654315433,-0.07306462654315433,-0.07306462654315433,-0.055528567153588594,0.3123936353338845,0.18760636466611547,-0.07306462654315433,-0.07306462654315433
2023-01-31,-0.07122936649694483,-0.032053573511633224,-0.07122936649694483,-0.07122936649694483,-0.058411045679222666,-0.0533885483244199,0.33801596792106553,0.16198403207893453,-0.07122936649694483,-0.07122936649694483
2023-02-01,-0.05451074883690614,-0.03247045927254482,-0.0801835125328593,-0.0801835125328593,-0.012101229226252449,-0.0801835125328593,0.34461711037501425,0.15538288962498575,-0.0801835125328593,-0.0801835125328593
2023-02-02,1.3815647935204538e-05,-0.06577481835273044,-0.06577481835273044,-0.05610612614028525,-0.06577481835273044,-0.06577481835273044,-0.06577481835273044,0.4999861843520649,-0.06149299723302051,-0.05352678486304213
2023-02-03,-0.06289967972178788,-0.06289967972178788,-0.06289967972178788,-0.05346220403418444,-0.06289967972178788,-0.02146021232543945,-0.06289967972178788,0.5000000000000001,-0.05905929000467803,-0.051519895026758654
2023-02-06,-0.04784867242168235,-0.0782082223173356,-0.05228130389613201,-0.0782082223173356,-0.008828912095507721,-0.0782082223173356,0.35250348491658656,0.1474965150834135,-0.0782082223173356,-0.0782082223173356
2023-02-07,-0.0636837206603349,-0.0636837206603349,-0.0636837206603349,-0.059975512518504075,-0.0636837206603349,-0.0636837206603349,0.3502421904019781,0.1497578095980219,-0.06220650691860506,-0.05939937726121635
2023-02-08,-0.06368657229380545,-0.06368657229380545,-0.06368657229380545,-0.05995207524840855,-0.06368657229380545,-0.06368657229380545,0.35015357730016083,0.1498464226998392,-0.06221890247444008,-0.05939616080812415
2023-02-09,0.3451460621070266,-0.0790511044447046,-0.0790511044447046,-0.0275589786188117,-0.0790511044447046,0.1548539378929735,-0.0790511044447046,-0.0790511044447046,-0.05856266671439975,-0.018622832443265586
2023-02-10,-0.041648311591848036,0.02138852810848375,-0.0799586179121486,-0.0799586179121486,0.005242000094776239,-0.05855859884740879,0.47336947179673994,-0.0799586179121486,-0.0799586179121486,-0.0799586179121486
2023-02-13,-0.07911097360012385,-1.414183223571205e-05,-0.04208247907363259,-0.07911097360012385,-0.07911097360012385,-0.06234851109351232,0.35877843278583604,0.14122156721416393,-0.07911097360012385,-0.07911097360012385
2023-02-14,-0.014996839431375275,0.09535889917744778,0.002264294604079991,-0.0823058051439704,-0.0823058051439704,-0.0823058051439704,-0.0823058051439704,0.4023768062184722,-0.0823058051439704,-0.07347413484877267
2023-02-15,0.13092365790107027,-0.0681778612194595,-0.0681778612194595,-0.05632242785486507,0.36907634209892975,-0.0681778612194595,-0.0681778612194595,-0.0681778612194595,-0.05910858295827798,-0.04367968308955949
2023-02-16,-0.06436742221893206,-0.06436742221893206,-0.06436742221893206,-0.060466006054193035,0.07960542440628683,-0.06436742221893206,-0.06436742221893206,0.42039457559371307,-0.061478157127683744,-0.056218725723462905
2023-02-17,-0.06853947351178036,-0.06853947351178036,-0.06853947351178036,-0.05524405559652888,0.44015625839685735,0.05984374160314253,-0.06853947351178036,-0.06853947351178036,-0.0580959481504711,-0.04396262869409817
2023-02-21,-0.04443793712938064,0.004670427870523595,-0.07616460457472642,-0.07616460457472642,-0.07616460457472642,-0.07616460457472642,0.3289194024504594,0.16641016967901703,-0.07473903999698729,-0.07616460457472642
2023-02-22,-0.04845392772886432,-0.07483906808187721,-0.07483906808187721,-0.07483906808187721,-0.01707429368582644,-0.06027643817592323,0.3726642643838398,0.12733573561616007,-0.07483906808187721,-0.07483906808187721
2023-02-23,-0.07251805545497891,-0.07251805545497891,-0.07251805545497891,-0.05807991278414123,0.46138301995819386,0.03861698004180623,-0.07251805545497891,-0.07251805545497891,-0.06143855687277972,-0.017891253068184534
2023-02-24,-0.05055062242995577,-0.00861225461617589,-0.047045012435785794,-0.0787584221036165,-0.0787584221036165,-0.0787584221036165,0.40874845411781413,0.09125154588218587,-0.0787584221036165,-0.0787584221036165
2023-02-27,-0.07653486744641874,0.2368550313164083,0.06522441633028729,-0.06895679510085992,0.1979205523533044,-0.07653486744641874,-0.07653486744641874,-0.07653486744641874,-0.07653486744641874,-0.04836886766704636
2023-02-28,-0.07630120001822067,-0.07630120001822067,0.38167575375232976,-0.05118030430242841,-0.07630120001822067,0.10377866661794645,-0.07630120001822067,-0.07630120001822067,-0.06731369560646815,0.014545579629723717
2023-03-01,-0.03865129909748652,-0.0740000736925585,-0.03332941900913577,-0.0740000736925585,0.00528483837741708,-0.05801891343058529,0.49471516162258306,-0.0740000736925585,-0.0740000736925585,-0.0740000736925585
2023-03-02,-0.04825736703964349,-0.006196205199229213,-0.07750665148782934,-0.07750665148782934,-0.058013170321980626,-0.07750665148782934,0.4180273447971101,0.08197265520288982,-0.07750665148782934,-0.07750665148782934
2023-03-03,0.1955937805018163,-0.08410283407478147,0.26788860520216934,-0.08410283407478147,-0.08410283407478147,0.03651761429601439,-0.08410283407478147,-0.08410283407478147,-0.07272859145028793,-0.006757238175804601
2023-03-06,-0.08606902406679995,0.24573216182111296,-0.08606902406679995,-0.08606902406679995,0.16377324933432205,0.07401797346598589,-0.08606902406679995,-0.08606902406679995,-0.06965487966600023,0.016476615378579185
2023-03-07,-0.04252952852396208,-0.04023801937500938,-0.031476070550378765,-0.06737280649300612,-0.04889234908561907,-0.06737280649300612,0.4999999999999999,-0.06737280649300612,-0.06737280649300612,-0.06737280649300612
2023-03-08,-0.08829023830109313,-0.08829023830109313,-0.08829023830109313,0.00746754632959445,0.2293790365016423,0.16550404166414018,-0.08829023830109313,-0.08829023830109313,-0.05854880849453437,0.097649375504623
2023-03-09,-0.06521547240128765,-0.06521547240128765,-0.06521547240128765,-0.046947860066075035,-0.026121355322452113,-0.06521547240128765,-0.06521547240128765,0.5,-0.06088289768188108,-0.03997052492315357
2023-03-10,-0.0010296451588110798,-0.00019497637150723494,-0.08249454087766746,-0.08249454087766746,-0.04299024878567387,-0.04331242529567051,-0.08249454087766746,0.5,-0.08249454087766746,-0.08249454087766746
2023-03-13,-0.048483327962006474,-0.04669196972605101,-0.06959593942877465,-0.06959593942877465,-0.056845005168069195,-0.06959593942877465,0.41291686671874045,0.0870831332812595,-0.06959593942877465,-0.06959593942877465
2023-03-14,-0.06398328350965722,-0.0356789965300498,-0.045621366610455835,-0.06398328350965722,-0.0478838804299781,-0.05089933888123009,0.5,-0.06398328350965722,-0.06398328350965722,-0.06398328350965722
2023-03-15,-0.07017270364929375,-0.04199692468667612,-0.05182952081976525,-0.07017270364929375,-0.07017270364929375,-0.05531003624708982,0.4285532828005468,0.0714467171994532,-0.07017270364929375,-0.07017270364929375
2023-03-16,-0.06083092072209789,-0.06083092072209789,-0.04002254134993116,-0.06083092072209789,-0.06083092072209789,-0.044418418352368254,0.5000000000000001,-0.06083092072209789,-0.05910019045613939,-0.05230424623107168
2023-03-17,-0.044634895339983736,-0.06923159746628611,-0.06923159746628611,-0.06923159746628611,-0.04816483249733405,-0.06923159746628611,0.43676300176876076,0.06323699823123925,-0.06923159746628611,-0.06104228483125178
2023-03-20,-0.04823073872701643,-0.04135808186433629,-0.05251427331415029,-0.07157938121889941,-0.07157938121889941,-0.07157938121889941,0.435711885526395,0.06428811447360512,-0.07157938121889941,-0.07157938121889941
2023-03-21,-0.061427410421392895,-0.061427410421392895,-0.061427410421392895,-0.061427410421392895,-0.03709441624064342,-0.040958987702434245,0.5000000000000001,-0.061427410421392895,-0.05923907530761357,-0.05557046864234437
2023-03-22,-0.07299405727889013,-0.07299405727889013,-0.045583864103899294,-0.07299405727889013,-0.04237652467628349,-0.047069324825366556,0.38257255401195744,0.11742744598804254,-0.07299405727889013,-0.07299405727889013
2023-03-23,0.1902989324953281,-0.08292577013337399,-0.08292577013337399,-0.08292577013337399,0.17770646768935672,0.13199459981531528,-0.08292577013337399,-0.08292577013337399,-0.05898584334152083,-0.02638530599160927
2023-03-24,-0.07421884438193962,0.049863152631046126,-0.07421884438193962,-0.009680205413939196,-0.07421884438193962,-0.07421884438193962,-0.07421884438193962,0.4501368473689538,-0.06591691752828002,-0.053308655148082695
2023-03-27,-0.08520469789831579,-0.08520469789831579,-0.08520469789831579,0.1250972879566485,0.21215800317056285,0.16274470887278866,-0.08520469789831579,-0.08520469789831579,-0.0578104844019658,-0.016166026106455244
2023-03-28,-0.04132012361282514,-0.030975377768119726,-0.07686554592122281,-0.07686554592122281,-0.04337676901294106,-0.07686554592122281,0.3814957497002482,0.1185042502997518,-0.07686554592122281,-0.07686554592122281
2023-03-29,-0.03981786354113014,-0.02887056442082912,-0.07668944979552211,-0.07668944979552211,-0.07668944979552211,-0.0478643230604302,0.3929952107561496,0.10700478924385048,-0.07668944979552211,-0.07668944979552211
2023-03-30,-0.04224130779009078,-0.03041193903679609,-0.043767481091786534,-0.0767158544162653,-0.0767158544162653,-0.0767158544162653,0.391537819871353,0.108462180128647,-0.0767158544162653,-0.0767158544162653
2023-03-31,-0.02518579150949476,-0.06618707980300921,-0.02567676191126425,-0.06618707980300921,-0.06618707980300921,-0.06618707980300921,0.5,-0.06618707980300921,-0.0620058681031796,-0.056196179461015294
2023-04-03,-0.0866207058732516,0.1897708417690969,0.10722194861435344,-0.0866207058732516,0.11646076128471006,0.08654644833183958,-0.0866207058732516,-0.0866207058732516,-0.06689647063374203,-0.0866207058732516
2023-04-04,-0.08570348000412802,-0.08570348000412802,0.19866809695538357,0.13190060346080673,-0.08570348000412802,0.16943129958380967,-0.08570348000412802,-0.08570348000412802,-0.05701027046480062,-0.014472329514559268
2023-04-05,-0.07759672188724885,-0.011451833944158715,-0.03319044193507293,-0.07759672188724885,-0.030409212762171435,-0.03696490192235271,0.5,-0.07759672188724885,-0.07759672188724885,-0.07759672188724885
2023-04-06,-0.06850428512045216,-0.00183023786737687,-0.06850428512045216,-0.034528090200699954,-0.06850428512045216,-0.06850428512045216,0.5,-0.06850428512045216,-0.06398966703055094,-0.05713057929911153
2023-04-10,-0.07453294182216354,-0.07453294182216354,-0.07453294182216354,-0.00984538867563055,0.022189217984885934,-0.07453294182216354,-0.07453294182216354,0.4778107820151141,-0.06581576535016881,-0.05167413686338294
2023-04-11,-0.08670552976427288,-0.08670552976427288,-0.08670552976427288,0.10683660210856354,0.20406631285902616,0.18909708503241024,-0.08670552976427288,-0.08670552976427288,-0.058894189960911565,-0.007578161217724017
2023-04-12,-0.0027298029391012485,0.053062138736021724,-0.0012475790905819811,-0.09676329283690707,-0.09676329283690707,-0.012206153785781361,-0.09676329283690707,0.44693786126397816,-0.09676329283690707,-0.09676329283690707
2023-04-13,-0.07872886992670086,0.003939478692673902,-0.029513540508733716,-0.04796493425028203,-0.02887717560748009,-0.07872886992670086,0.49606052130732614,-0.07872886992670086,-0.07872886992670086,-0.07872886992670086
2023-04-14,-0.07575680624626503,-0.018235835180344124,-0.07575680624626503,-0.057711804512623574,-0.07575680624626503,-0.04526832907570714,0.3328394861486357,0.16716051385136427,-0.07575680624626503,-0.07575680624626503
2023-04-17,-0.016583808716627495,-0.06565679989476657,-0.06565679989476657,-0.04144184622518102,-0.06565679989476657,-0.06565679989476657,0.5,-0.06565679989476657,-0.06051324951904375,-0.053177096065314955
2023-04-18,-0.025189328169245667,-0.0016730253471804422,-0.07322699801563169,-0.07322699801563169,-0.07322699801563169,-0.046002890428244465,0.5,-0.07322699801563169,-0.07322699801563169,-0.06099976597717091
2023-04-19,-0.08915690921440583,-0.08915690921440583,0.2732494627400905,0.08295611775166242,-0.08915690921440583,0.13571512423035673,-0.08915690921440583,-0.08915690921440583,-0.0542154539279709,0.008079295277890418
2023-04-20,-0.07499883214224873,-0.016283426978310707,-0.04296179846312568,-0.07499883214224873,-0.07499883214224873,-0.07499883214224873,0.3044923689842346,0.1955076310157654,-0.07499883214224873,-0.06576061384731988
2023-04-21,0.22582513905121723,-0.09676765599248742,0.1839122829893676,0.04026117031847786,0.05000140764093734,-0.09676765599248742,-0.09676765599248742,-0.09676765599248742,-0.09676765599248742,-0.016161720037562805
2023-04-24,0.3208019902639534,-0.09051621892570334,-0.09051621892570334,0.07202299683875371,0.10038039332321332,-0.09051621892570334,-0.09051621892570334,-0.09051621892570334,-0.04741890537148323,0.006794619574079543
2023-04-25,-0.03085677568342481,0.01861307621648601,-0.08002255832119876,-0.08002255832119876,-0.05740380272030361,-0.011626629990277831,0.481386923783514,-0.08002255832119876,-0.08002255832119876,-0.08002255832119876
2023-04-26,-0.08956806456747012,-0.007697038700869528,-0.08956806456747012,-0.08956806456747012,-0.010002939336872138,-0.03445969912490779,0.3021325127945096,0.19786748720549036,-0.08956806456747012,-0.08956806456747012
2023-04-27,-0.04739791679003089,-0.0833009730930516,-0.0833009730930516,-0.0833009730930516,-0.006195995846059059,-0.029901221898652103,0.30012680453465573,0.1998731954653441,-0.0833009730930516,-0.0833009730930516
2023-04-28,-0.06651010877596157,-0.06651010877596157,-0.06651010877596157,-0.04819462184484966,0.03400100401408475,-0.06651010877596157,0.4659989959859152,-0.06651010877596157,-0.06182889380642396,-0.05742594046891859
2023-05-01,0.04159824225349943,0.35240824687671934,-0.07631612846753995,-0.07631612846753995,-0.07631612846753995,0.10599351086978127,-0.07631612846753995,-0.07631612846753995,-0.06491400510737583,-0.05350535255492441
2023-05-02,-0.07310739458945738,0.15418015083304545,-0.005347899932035652,-0.07310739458945738,-0.07310739458945738,-0.07310739458945738,-0.07310739458945738,0.3458198491669545,-0.06707656670507639,-0.06203856041560116
2023-05-03,-0.07350507927810158,0.1489868578490604,-0.07350507927810158,-0.07350507927810158,-0.07350507927810158,0.021542741220704535,-0.07350507927810158,0.3294704009302351,-0.06757727547652025,-0.06489732813297192
2023-05-04,-0.030841807088152626,0.028241906343588554,-0.08630676438757842,-0.08630676438757842,-0.08630676438757842,-0.03762437097395529,0.33970536294153614,0.13205273071487533,-0.08630676438757842,-0.08630676438757842
2023-05-05,-0.07620198830463741,0.03432672561387888,-0.04672003092490798,-0.07620198830463741,-0.07620198830463741,-0.07620198830463741,0.3305684738540916,0.13510480053202953,-0.07620198830463741,-0.07227002755190493
2023-05-08,-0.07217623966337174,0.3239638981325982,-0.07217623966337174,-0.0207979486551939,0.17603610186740187,-0.07217623966337174,-0.07217623966337174,-0.07217623966337174,-0.06004083849510842,-0.058280014532839076
2023-05-09,-0.015014336324301693,0.061730555211389,-0.04030537044585747,-0.08424823752907434,-0.08424823752907434,-0.023439105584469096,0.4382694447886112,-0.08424823752907434,-0.08424823752907434,-0.08424823752907434
2023-05-10,-0.0845739868173916,0.12909080548616694,0.003571699311547666,-0.0845739868173916,0.052523758058170895,-0.0845739868173916,-0.0845739868173916,0.3148137371441145,-0.0845739868173916,-0.07713006591304201
2023-05-11,-0.07719095759599638,-0.07719095759599638,0.24494418444012994,-0.008024376055044026,-0.07719095759599638,0.25505581555987,-0.07719095759599638,-0.07719095759599638,-0.054207440339572484,-0.05181339562540155
2023-05-12,-0.08142883309317464,0.05754656442928932,-0.08142883309317464,-0.07032652342018667,0.006729120994873227,-0.02252931111394016,0.4357243145758376,-0.08142883309317464,-0.08142883309317464,-0.08142883309317464
2023-05-15,-0.08502232905623475,0.03179408478206997,-0.038937061643791605,-0.08502232905623475,-0.08502232905623475,-0.03595129307503472,0.3378691534712077,0.1303367617467224,-0.08502232905623475,-0.08502232905623475
2023-05-16,-0.0877954781606777,0.025290406371573367,-0.04378489443875397,-0.0877954781606777,-0.01723771475785749,-0.0877954781606777,0.3486342985232303,0.12607529510519636,-0.0877954781606777,-0.0877954781606777
2023-05-17,-0.03298217664399824,0.031306943777991404,-0.040444943843225445,-0.08531457590255524,-0.08531457590255524,-0.08531457590255524,0.3970484674675207,0.07164458875448783,-0.08531457590255524,-0.08531457590255524
2023-05-18,0.05950868478629874,-0.08490176735924708,0.04085033829809594,-0.08490176735924708,-0.08490176735924708,0.04878495533804684,-0.08490176735924708,0.3508560215775585,-0.07549116320376466,-0.08490176735924708
2023-05-19,-0.0847549128569562,-0.0847549128569562,0.028827629620824823,-0.0847549128569562,0.09601197207396563,0.03435720465387609,-0.0847549128569562,0.34080319365133344,-0.07622543571521916,-0.0847549128569562
2023-05-22,-0.07188985929772443,0.32096813252154643,-0.07188985929772443,-0.039414367795835625,0.17903186747845354,-0.07188985929772443,-0.07188985929772443,-0.07188985929772443,-0.06017046834986798,-0.04096586736567427
2023-05-23,0.08566102177424106,0.2693532197679791,-0.0794316038087646,-0.051067942021430945,0.1449857584577799,-0.0794316038087646,-0.0794316038087646,-0.0794316038087646,-0.0794316038087646,-0.051774038934746094
2023-05-24,-0.049596309776517314,-0.06287166178809259,-0.051772217980217604,-0.06287166178809259,-0.06287166178809259,-0.05860392192398585,0.5,-0.02566924137881632,-0.06287166178809259,-0.06287166178809259
2023-05-25,-0.06309584324409998,-0.04245185216177336,-0.06309584324409998,-0.06309584324409998,-0.05863744443019721,-0.05819023423785591,0.5,-0.025241252949673672,-0.06309584324409998,-0.06309584324409998
2023-05-26,-0.05040309785466889,-0.049001761008262035,-0.06367453111268444,-0.06367453111268444,-0.05940973281474758,-0.06367453111268444,0.5,-0.022812752758899376,-0.06367453111268444,-0.06367453111268444
2023-05-30,0.08649591477804906,-0.0732038637122194,-0.0732038637122194,-0.0732038637122194,-0.025738222554486708,-0.0732038637122194,-0.0732038637122194,0.4135040852219509,-0.0635461489376314,-0.04469630994678484
2023-05-31,-0.05033838363235115,-0.049092060135574184,-0.06314099358822937,-0.06314099358822937,-0.05913833718117885,-0.06314099358822937,0.5,-0.025726251109748785,-0.06314099358822937,-0.06314099358822937
2023-06-01,0.05480380221630567,0.07235441383523497,0.0257735135021117,-0.06755295948171165,-0.08648940810365768,-0.08648940810365768,-0.08648940810365768,0.34706827044634764,-0.08648940810365768,-0.08648940810365768
2023-06-02,-0.08398241392005555,0.08916996137423669,0.038323458464423255,-0.08398241392005555,-0.08398241392005555,-0.024802123362551932,-0.08398241392005555,0.3725065801613401,-0.08398241392005555,-0.05528580703717025
2023-06-05,-0.0767149814935716,0.09067007563060239,0.04194987249102886,-0.059190245048388074,-0.0767149814935716,-0.0767149814935716,-0.0767149814935716,0.3673800518783688,-0.057234847483753945,-0.0767149814935716
2023-06-06,0.03251532409100763,-0.07279747620737477,-0.07279747620737477,-0.05042121615811241,-0.07279747620737477,-0.07279747620737477,-0.07279747620737477,0.46748467590899245,-0.047753842673122875,-0.037837560131890886
2023-06-07,-0.055607598138512425,-0.04652709647615588,-0.0627946597793766,-0.0627946597793766,-0.0627946597793766,-0.0627946597793766,0.4999999999999999,-0.023610629345946824,-0.0627946597793766,-0.06028137714250189
2023-06-08,-0.05457861713916219,-0.06176531527432881,-0.06176531527432881,-0.06176531527432881,-0.06176531527432881,-0.05674084436003834,0.5000000000000001,-0.020620453732486183,-0.06176531527432881,-0.05923350839666912
2023-06-09,-0.05555077199654538,-0.04719706842524795,-0.06285418679015288,-0.06285418679015288,-0.058858811379598724,-0.06285418679015288,0.4999999999999999,-0.024122414247843556,-0.06285418679015288,-0.06285418679015288
2023-06-12,-0.06063883460388739,-0.06063883460388739,-0.06063883460388739,-0.05923935862009852,-0.06063883460388739,-0.05561366781425299,0.5,-0.023856844532392316,-0.06063883460388739,-0.058095956013819255
2023-06-13,-0.05041033742592078,-0.05761795298858919,-0.05761795298858919,-0.05761795298858919,-0.053711322337827834,-0.05262290884157875,0.4999999999999999,-0.05761795298858919,-0.05761795298858919,-0.05516566645172673
2023-06-14,0.09289383641336682,0.3052332167611116,0.051998112378330644,-0.1,0.008247767060919854,0.04162706738627108,-0.1,-0.1,-0.1,-0.1
2023-06-15,-0.06066142669332283,-0.06066142669332283,-0.06066142669332283,-0.05938348419402231,-0.0565719520787628,-0.06066142669332283,0.5000000000000001,-0.02182211357063249,-0.05891531668996823,-0.06066142669332283
2023-06-16,-0.05585274394091273,-0.04841176377736364,-0.06324384441708611,-0.06324384441708611,-0.05904447074577763,-0.06324384441708611,0.5,-0.020471799450515516,-0.06324384441708611,-0.06324384441708611
2023-06-20,0.323398015851869,-0.09524990127522025,-0.09524990127522025,-0.023750493623898736,0.14991782874420032,-0.09524990127522025,-0.09524990127522025,-0.09524990127522025,0.00808329296530312,0.018600862438627602
2023-06-21,-0.015682917533138423,0.06794600924474772,-0.03125994113337025,-0.08568417643447179,-0.08568417643447179,-0.0246362591611324,-0.08568417643447179,0.43205399075525225,-0.08568417643447179,-0.08568417643447179
2023-06-22,0.32302776920798276,-0.09621948578055878,-0.09621948578055878,-0.01890257109720604,0.1502031172327201,-0.09621948578055878,-0.09621948578055878,-0.09621948578055878,0.005656053569322142,0.021113059989975026
2023-06-23,0.28533428874243244,-0.0940474711628442,-0.0940474711628442,-0.026315328857577803,-0.0940474711628442,0.2121865194873467,-0.0940474711628442,-0.0940474711628442,-0.003447315328201177,0.0024791917702207756
2023-06-26,-0.05524163427802889,-0.04261522431637422,-0.06924445496540824,-0.06924445496540824,-0.055920866578555634,-0.06924445496540824,0.43894837663146086,0.06105162336853913,-0.06924445496540824,-0.06924445496540824
2023-06-27,-0.012990950641448592,-0.07516099218365957,-0.0233354775707899,-0.07516099218365957,-0.07516099218365957,-0.0288331691483658,-0.07516099218365957,0.5000000000000001,-0.07516099218365957,-0.059035441721097925
2023-06-28,-0.009068254873928382,-0.07046038623461293,-0.07046038623461293,-0.05806796000776847,-0.07046038623461293,-0.025056233882621556,-0.07046038623461293,0.5,-0.05550562006261695,-0.07046038623461293
2023-06-29,-0.05168726775573256,-0.031841701764103225,-0.07047684935906974,-0.07047684935906974,-0.07047684935906974,-0.07047684935906974,0.37551939950622376,0.12448060049377621,-0.07047684935906974,-0.0640867836848155
2023-06-30,-0.06589851271312945,-0.06589851271312945,-0.048799685642151015,-0.06205308020367008,-0.06589851271312945,-0.06589851271312945,0.36824390310182614,0.13175609689817386,-0.06589851271312945,-0.05965467058853175
2023-07-03,-0.07614434008379178,0.02891652288333175,-0.0290711863100558,-0.07614434008379178,-0.022329930979777965,-0.07614434008379178,-0.07614434008379178,0.47108347711666826,-0.06787718229120737,-0.07614434008379178
2023-07-05,0.27473217296279445,-0.09008505935770111,-0.09008505935770111,-0.017049453314382696,-0.09008505935770111,0.1933078264420989,-0.09008505935770111,-0.09008505935770111,-0.032525249897111745,0.03196000059510663
2023-07-06,-0.06406645374491615,-0.017241638664359047,-0.043589439327385786,-0.05885851871673589,-0.06406645374491615,-0.06406645374491615,0.5,-0.06406645374491615,-0.05997813456693857,-0.06406645374491615
2023-07-07,-0.08962940905574683,-0.08962940905574683,-0.08962940905574683,-0.016924608653254788,0.28012577638169284,0.18247182190516367,-0.08962940905574683,-0.08962940905574683,-0.03492834606801109,0.03740240171314352
2023-07-10,-0.06632626549847265,-0.02453031606175188,-0.04441547020158452,-0.060809466444480556,-0.038613419799819804,-0.06632626549847265,0.5,-0.06632626549847265,-0.06632626549847265,-0.06632626549847265
2023-07-11,-0.05271087578869187,-0.040679719917166283,-0.07158121271774617,-0.07158121271774617,-0.04870334070541096,-0.07158121271774617,0.36834950168662334,0.13165049831337675,-0.07158121271774617,-0.07158121271774617
2023-07-12,-0.07110016873010475,-0.0388306727194653,-0.050086607036549644,-0.07110016873010475,-0.07110016873010475,-0.05558187659346147,0.37789195271912834,0.12210804728087174,-0.07110016873010475,-0.07110016873010475
2023-07-13,-0.07732373248195985,0.01637139513694452,-0.01571266971521871,-0.0653631532603687,-0.07732373248195985,-0.032305514614613326,-0.07732373248195985,0.48362860486305537,-0.07732373248195985,-0.07732373248195985
2023-07-14,-0.049095472104594695,-0.06889575870711341,-0.06889575870711341,-0.06166445632674739,-0.044761278033090865,-0.06889575870711341,0.3604075295358993,0.13959247046410087,-0.06889575870711341,-0.06889575870711341
2023-07-17,-0.06825620791696116,-0.06825620791696116,-0.06825620791696116,-0.06111533245688211,-0.04442412926718994,-0.05317949869112216,0.36298609058410686,0.13701390941589328,-0.06825620791696116,-0.06825620791696116
2023-07-18,0.10270766308690722,0.2529124917486244,-0.08407680518351168,-0.015871039079772612,0.14437984516446836,-0.08407680518351168,-0.08407680518351168,-0.08407680518351168,-0.063744935002669,-0.08407680518351168
2023-07-19,0.22181211575822699,-0.08866730105120676,0.25671509274479887,0.016306967565409433,-0.08866730105120676,-0.08866730105120676,-0.08866730105120676,-0.08866730105120676,-0.0566634947439662,0.005165823931564697
2023-07-20,-0.08431622359483922,0.32425020862516357,0.17574979137483646,-0.0063545548397122495,-0.08431622359483922,-0.08431622359483922,-0.08431622359483922,-0.08431622359483922,-0.059417946693935575,-0.012646380492156047
2023-07-21,-0.0505961229299347,-0.06991071071725284,-0.04680978811272528,-0.06991071071725284,-0.06991071071725284,-0.05304053537107578,0.3651932917281102,0.13480670827188987,-0.06991071071725284,-0.06991071071725284
2023-07-24,-0.04114415753557662,-0.06693457175121927,-0.03907990125062904,-0.06693457175121927,-0.041169823408818564,-0.04393325904887948,0.5000000000000001,-0.06693457175121927,-0.06693457175121927,-0.06693457175121927
2023-07-25,0.11008371729262029,-0.09153112227078303,0.2805837999862829,-0.017226131621967327,0.10933248272109679,-0.09153112227078303,-0.09153112227078303,-0.09153112227078303,-0.09153112227078303,-0.025118257024117588
2023-07-26,-0.07183097420106666,-0.022135243510121028,-0.022218161281265518,-0.07183097420106666,-0.033613877449463626,-0.07183097420106666,0.5,-0.07183097420106666,-0.07183097420106666,-0.06287784675381668
2023-07-27,-0.07798175311636149,-0.03531481773659556,-0.03800002317231705,-0.07798175311636149,-0.036776393509280005,-0.07798175311636149,0.3718470285295959,0.12815297147040416,-0.07798175311636149,-0.07798175311636149
2023-07-28,-0.021364843400758605,0.03807134698690701,-0.07195258040693511,-0.052086497678916044,-0.07195258040693511,-0.07195258040693511,-0.07195258040693511,0.46192865301309305,-0.06678575688564979,-0.07195258040693511
2023-07-31,-0.07959810633701447,-0.07959810633701447,-0.07959810633701447,-0.010084335771882188,0.3062200634818315,0.19377993651816838,-0.07959810633701447,-0.07959810633701447,-0.06130693031630812,-0.030618202226737362
2023-08-01,0.1650561176421262,-0.08557960455579448,-0.08557960455579448,0.016859808760496676,-0.08557960455579448,0.3180840735973771,-0.08557960455579448,-0.08557960455579448,-0.058252478713952095,-0.013849498507075586
2023-08-02,-0.06915255077402833,-0.025466155908725946,-0.06915255077402833,-0.06167148741545518,-0.06915255077402833,-0.06915255077402833,0.38382746557114206,0.11617253442885796,-0.06709960280567713,-0.06915255077402833
2023-08-03,-0.06830273732385389,0.035270110372215516,-0.06830273732385389,-0.05944343049530111,-0.06830273732385389,-0.033001829923537195,0.46472988962778444,-0.06830273732385389,-0.06604105296189232,-0.06830273732385389
2023-08-04,-0.0754266445186446,0.03346937738856513,-0.027996971803149667,-0.0754266445186446,-0.024038092371666816,-0.0754266445186446,0.46653062261143496,-0.0754266445186446,-0.0754266445186446,-0.07083171323196051
2023-08-07,0.2572489012709448,-0.07588859973736645,0.24275109872905515,-0.015186889847658966,-0.07588859973736645,-0.07588859973736645,-0.07588859973736645,-0.07588859973736645,-0.06002029568797724,-0.04534981577753158
2023-08-08,-0.07842055653818153,-0.07842055653818153,0.2998788846572348,-0.00530685674043899,-0.07842055653818153,0.20012111534276525,-0.07842055653818153,-0.07842055653818153,-0.05998941843091352,-0.04260094213773978
2023-08-09,-0.08167109613778724,0.13341023405243402,-0.08167109613778724,-0.08167109613778724,0.016354585704783237,-0.014485422718576625,-0.08167109613778724,0.3502351802427826,-0.07715909659248711,-0.08167109613778724
2023-08-10,0.2610830449304971,-0.07629344974900665,0.23891695506950303,-0.011998766242473098,-0.07629344974900665,-0.07629344974900665,-0.07629344974900665,-0.07629344974900665,-0.0602674187440004,-0.046266566268493285
2023-08-11,-0.03679206269964802,0.012916707510075101,-0.0390235048437558,-0.07530682358047411,-0.07530682358047411,-0.04765031455422567,0.4870832924899249,-0.07530682358047411,-0.07530682358047411,-0.07530682358047411
2023-08-14,-0.05957275489711145,-0.05957275489711145,-0.05957275489711145,-0.055505946867050064,-0.05957275489711145,-0.03342254544739183,0.5000000000000001,-0.05957275489711145,-0.05764671058626721,-0.05556102261373364
2023-08-15,-0.07556307113446453,-0.07556307113446453,0.30935357652628304,-0.03311450497811325,-0.07556307113446453,0.1906464234737169,-0.07556307113446453,-0.07556307113446453,-0.055518117235010184,-0.03355202211455383
2023-08-16,-0.07541582471970089,0.35797374288875167,0.09779865361662403,-0.056908236458483086,-0.07541582471970089,0.04422760349462427,-0.07541582471970089,-0.07541582471970089,-0.06601263994301237,-0.07541582471970089
2023-08-17,0.3095914948258716,-0.07945523944751719,-0.07945523944751719,-0.04237114193107904,-0.07945523944751719,0.16241252813822854,-0.07945523944751719,-0.07945523944751719,-0.06035266083133504,0.027995977035899827
2023-08-18,-0.04843915977606365,-0.012640032671051172,-0.07820111366527671,-0.07820111366527671,-0.04791523922650156,-0.07820111366527671,0.46957507728150794,0.030424922718491985,-0.07820111366527671,-0.07820111366527671
2023-08-21,0.05195771139972104,-0.0840461820431732,0.038077919997108224,-0.0840461820431732,-0.0840461820431732,-0.001998761216027852,-0.0840461820431732,0.4099643686031708,-0.07777032856810621,-0.0840461820431732
2023-08-22,-0.0465147790684034,-0.014973984426053558,-0.06225712954135533,-0.07525082139283752,-0.07525082139283752,-0.07525082139283752,0.4734778389301526,0.02652216106984736,-0.07525082139283752,-0.07525082139283752
2023-08-23,-0.05791193644009604,-0.05791193644009604,-0.05791193644009604,-0.0557037849382686,-0.05791193644009604,-0.04780780504901003,0.4999999999999999,-0.05791193644009604,-0.0567282380612272,-0.05020048975101403
2023-08-24,0.03657151452011091,0.15519451501740195,-0.07974308390204009,-0.07974308390204009,-0.07974308390204009,-0.05101857059149851,-0.07974308390204009,0.3082339704624872,-0.07974308390204009,-0.050266009898301066
2023-08-25,-0.04089934179623923,-0.06852011196635098,-0.05834553158888413,-0.06852011196635098,-0.05815456678312186,-0.06852011196635098,0.47742247122649484,0.022577528773505228,-0.06852011196635098,-0.06852011196635098
2023-08-28,-0.046335771228729436,-0.021381975817386285,-0.06353000425057007,-0.07375044974066283,-0.07375044974066283,-0.07375044974066283,0.4726458088405016,0.027354191159498394,-0.07375044974066283,-0.07375044974066283
2023-08-29,-0.0369941545605323,-0.012540417741772369,-0.05652939608135049,-0.06682093401233098,-0.06682093401233098,-0.06682093401233098,0.5,-0.06682093401233098,-0.06682093401233098,-0.05983136155469009
2023-08-30,-0.044758441265384016,-0.02112400386165655,-0.07347775420676436,-0.07347775420676436,-0.07347775420676436,-0.07347775420676436,0.47282953290711155,0.02717046709288849,-0.07347775420676436,-0.06672878383913766
2023-08-31,0.22518822897687585,0.2711410394841537,-0.07690266493723333,-0.05205919696772429,-0.07690266493723333,0.0036707315389705565,-0.07690266493723333,-0.07690266493723333,-0.06342747834610911,-0.07690266493723333
2023-09-01,-0.049943788720740824,-0.06636562877961753,-0.06636562877961753,-0.06636562877961753,-0.05750803612383669,-0.060720031257334675,0.45915296907641767,0.04084703092358223,-0.06636562877961753,-0.06636562877961753
2023-09-05,-0.08501613383913594,-0.08501613383913594,-0.08501613383913594,-0.021772750748603815,0.23570290145518039,0.11445912791998722,-0.08501613383913594,-0.08501613383913594,-0.05314658005571654,0.14983797062483237
2023-09-06,-0.08653350278285997,0.24509403527827525,0.09833561141429388,-0.08653350278285997,0.10032145016196321,-0.08653350278285997,-0.08653350278285997,-0.08653350278285997,-0.06733248608570006,0.05624890314546765
2023-09-07,0.3003354231561064,0.14977223508834042,0.040950487637926664,-0.09829475494148848,-0.09829475494148848,-0.008526225292557574,-0.09829475494148848,-0.09829475494148848,-0.09829475494148848,0.00894185411762642
2023-09-08,0.026457731754423255,-0.004998340081869341,-0.07979996395454438,-0.07979996395454438,-0.04001575307434907,-0.055986087071059724,-0.07979996395454438,0.47354226824557677,-0.07979996395454438,-0.07979996395454438
2023-09-11,-0.0851626465234416,-0.0851626465234416,0.22569287686928086,-0.01981674114473195,-0.0851626465234416,0.12400296914240766,-0.0851626465234416,-0.0851626465234416,-0.05437002623806006,0.1503041539883114
2023-09-12,-0.0667268713117405,-0.04801804162039411,-0.05780901169032906,-0.0667268713117405,-0.0667268713117405,-0.06053859013057441,0.42973107099222957,0.0702689290077704,-0.0667268713117405,-0.0667268713117405
2023-09-13,-0.04013568647512581,-0.06840738289572561,-0.05943863280782904,-0.06840738289572561,-0.05838876623841726,-0.06840738289572561,0.43187888712663286,0.06812111287336721,-0.06840738289572561,-0.06840738289572561
2023-09-14,0.4076385085490397,-0.07975234118027098,0.07681542192979098,-0.04384823542628502,-0.07975234118027098,-0.07975234118027098,-0.07975234118027098,-0.07975234118027098,-0.05739005867236006,0.015546069521169346
2023-09-15,-0.028126706458964704,-0.06171742999017267,-0.05325243178729776,-0.06171742999017267,-0.05029904801486081,-0.06171742999017267,0.5,-0.06171742999017267,-0.05973466378801329,-0.06171742999017267
2023-09-18,0.056016718699688633,-0.0703854200574541,-0.0703854200574541,-0.061818809452115486,-0.03279394031639696,-0.0703854200574541,-0.0703854200574541,0.4439832813003114,-0.0703854200574541,-0.05346014994421712
2023-09-19,-0.09057232333017808,-0.09057232333017808,-0.09057232333017808,-0.025680885688943538,0.2578076716124133,0.17872920800864522,-0.09057232333017808,-0.09057232333017808,-0.021457497660166105,0.06346312037894146
2023-09-20,-0.09183312111459063,-0.09183312111459063,-0.09183312111459063,-0.025991927313789555,0.26002659298934483,0.17473866051919437,-0.09183312111459063,-0.09183312111459063,-0.014842467113257294,0.06523474649146077
2023-09-21,-0.015655403906919427,-0.06354356053322822,-0.06354356053322822,-0.06354356053322822,-0.04933949572076675,-0.06354356053322822,0.4999999999999999,-0.06354356053322822,-0.06030724971490303,-0.0569800479912697
2023-09-22,-0.03065265788541497,-0.03473787597896179,-0.0611032209403565,-0.07470124903905336,-0.07470124903905336,-0.07470124903905336,0.3809552912038905,0.11904470879610952,-0.07470124903905336,-0.07470124903905336
2023-09-25,-0.09430384611143719,-0.09430384611143719,-0.09430384611143719,-0.017874192557329596,0.253075767287755,0.17647710188099797,-0.09430384611143719,-0.09430384611143719,-0.010606576885484446,0.07044713083124714
2023-09-26,-0.06853865037991165,0.012118650475430655,-0.043492252884348166,-0.0632851812100061,-0.06853865037991165,-0.05052931400608765,0.48788134952456946,-0.06853865037991165,-0.06853865037991165,-0.06853865037991165
2023-09-27,-0.016649185220768473,-0.0743532480333683,-0.056552450544478265,-0.0743532480333683,-0.05503212406791165,-0.0743532480333683,0.32946796610116424,0.17053203389883564,-0.0743532480333683,-0.0743532480333683
2023-09-28,-0.02078091862652597,-0.02067069419810506,-0.07865948617172791,-0.07865948617172791,-0.07865948617172791,-0.06525095631672956,0.3321960160433805,0.16780398395661944,-0.07865948617172791,-0.07865948617172791
2023-09-29,-0.02249402237646155,-0.02029656500497288,-0.0590577583459565,-0.0796303308545218,-0.0796303308545218,-0.0796303308545218,0.3510119727800434,0.14898802721995658,-0.0796303308545218,-0.0796303308545218
2023-10-02,-0.09018217174939927,-0.09018217174939927,0.2327990716304254,-0.022479769920742323,0.23409051555512655,-0.09018217174939927,-0.09018217174939927,-0.09018217174939927,-0.02660937133226131,0.03311041281444805
2023-10-03,-0.07497496053782304,-0.012405054303169292,-0.05389302462529315,-0.07497496053782304,-0.07497496053782304,-0.058827118382422466,0.35379514812920143,0.14620485187079868,-0.07497496053782304,-0.07497496053782304
2023-10-04,-0.00842298843543996,-0.06550970909819519,-0.06550970909819519,-0.05988947115609946,-0.06550970909819519,-0.04414044922219313,0.5000000000000001,-0.06550970909819519,-0.059998545695291575,-0.06550970909819519
2023-10-05,-0.018893406193801015,0.00525268741824222,-0.07595791239817615,-0.07595791239817615,-0.047248493414892165,-0.05406853840042612,0.49474731258175786,-0.07595791239817615,-0.07595791239817615,-0.07595791239817615
2023-10-06,0.17038919357895335,0.26307242747630677,0.03314098031531191,-0.09999999999999999,0.030070275719810805,0.0033271229096170814,-0.09999999999999999,-0.09999999999999999,-0.09999999999999999,-0.09999999999999999
2023-10-09,-0.07465397591344247,-0.009606313755050219,-0.07465397591344247,-0.07465397591344247,-0.05220260090170732,-0.07465397591344247,0.40957763398964864,0.09042236601035131,-0.07465397591344247,-0.0649212057760302
2023-10-10,-0.02559565194223435,-0.0008904463682862235,-0.0470965386148926,-0.07550059806391418,-0.04891437275501579,-0.07550059806391418,0.5,-0.07550059806391418,-0.07550059806391418,-0.07550059806391418
2023-10-11,-0.022347283928715586,0.0032125614547596727,-0.07055509585782561,-0.07055509585782561,-0.07055509585782561,-0.07055509585782561,0.4967874385452403,-0.07055509585782561,-0.0656402524564706,-0.05923698432568577
2023-10-12,-0.09101539849334392,-0.09101539849334392,0.2824221236206961,-0.01766215107069472,-0.09101539849334392,0.15952754966397123,-0.09101539849334392,-0.09101539849334392,-0.02726085646258567,0.05805032671533264
2023-10-13,-0.07501759066035776,-0.013996364198833922,-0.07501759066035776,-0.07501759066035776,-0.052705671820567734,-0.05821001067880936,0.42221616061065775,0.07778383938934227,-0.07501759066035776,-0.07501759066035776
2023-10-16,-0.0771185753654309,-0.0771185753654309,0.01279383037455931,-0.0771185753654309,0.004698820271483282,-0.0771185753654309,-0.0771185753654309,0.48250734935395745,-0.06529356581625041,-0.049113557356595144
2023-10-17,-0.09134937602506944,-0.09134937602506944,0.2927973623073167,-0.007289804247999905,-0.09134937602506944,0.17214313576926102,-0.09134937602506944,-0.09134937602506944,-0.03596331562665285,0.03505950192342231
2023-10-18,-0.08638034691049332,0.37090577545939996,0.08314797081919094,-0.04420286708354099,-0.08638034691049332,0.04594625372140914,-0.08638034691049332,-0.08638034691049332,-0.08638034691049332,-0.023895398363992414
2023-10-19,-0.09277548799706081,-0.09277548799706081,-0.09277548799706081,-0.0010693441917986003,0.2886961060369324,0.17617530010951196,-0.09277548799706081,-0.09277548799706081,-0.035053215822897416,0.035128593853555705
2023-10-20,-0.06462280710554141,-0.020094605299148048,-0.06462280710554141,-0.06462280710554141,-0.04656744050866343,-0.051987849097303765,0.5,-0.06462280710554141,-0.06462280710554141,-0.05823606956717761
2023-10-23,-0.06928323219918373,-0.03462615870782849,-0.05552868793812604,-0.06928323219918373,-0.06928323219918373,-0.06928323219918373,0.4156986227399958,0.0843013772600042,-0.06928323219918373,-0.06342899235812696
2023-10-24,0.2893072055079699,-0.08948641502257734,-0.08948641502257734,-0.009958720202400973,-0.08948641502257734,0.17964302776034058,-0.08948641502257734,-0.08948641502257734,-0.0426092046847123,0.031049766731689587
2023-10-25,0.14579278229990913,0.3542072177000909,-0.07856024493054449,-0.040939225073643226,-0.07856024493054449,-0.07856024493054449,-0.07856024493054449,-0.07856024493054449,-0.04675970401381688,-0.019499846259817447
2023-10-26,-0.05555669279701376,-0.0022453134160649968,-0.07832083949285713,-0.07832083949285713,-0.0505937963226356,-0.07832083949285713,0.4303205596507522,0.06967944034924774,-0.07832083949285713,-0.07832083949285713
2023-10-27,-0.05013440859279197,0.021082589783115138,-0.024929310185621726,-0.07524888077717425,-0.07524888077717425,-0.04869187733571517,0.47891741021688483,-0.07524888077717425,-0.07524888077717425,-0.07524888077717425
2023-10-30,-0.01787544671466496,0.1543633319740347,-0.08015348667528391,-0.06599851046996343,-0.08015348667528391,-0.015358609438952012,-0.08015348667528391,0.34563666802596527,-0.08015348667528391,-0.08015348667528391
2023-10-31,-0.055630334143434386,0.004485101306574404,-0.07865896222375095,-0.07865896222375095,-0.05107485473781087,-0.07865896222375095,0.43424492772595136,0.061269970967474253,-0.07865896222375095,-0.07865896222375095
2023-11-01,-0.05666989224784591,-0.0008343156072356427,-0.03778668556087597,-0.08094182131680851,-0.08094182131680851,-0.08094182131680851,0.4257042662291823,0.07429573377081775,-0.08094182131680851,-0.08094182131680851
2023-11-02,-0.07353131178011699,-0.07353131178011699,-0.03194048214881979,-0.07353131178011699,-0.048244607872485336,-0.052158351078109934,0.4234168743517117,0.07658312564828829,-0.07353131178011699,-0.07353131178011699
2023-11-03,-0.047146077919912564,0.012155821619220412,-0.027933465643933,-0.07483792299102465,-0.07483792299102465,-0.050730841481031165,0.4878441783807795,-0.07483792299102465,-0.07483792299102465,-0.07483792299102465
2023-11-06,-0.0522860679291679,4.134891611706395e-05,-0.07823570206008448,-0.07823570206008448,-0.07823570206008448,-0.056535421770409655,0.42615596206598133,0.07380268901790166,-0.07823570206008448,-0.07823570206008448
2023-11-07,-0.04049709709212219,-0.07009184853017444,-0.022377764880450988,-0.07009184853017444,-0.041230935426251544,-0.04543495995030305,0.5000000000000001,-0.07009184853017444,-0.07009184853017444,-0.07009184853017444
2023-11-08,-0.06018475318078858,-0.06018475318078858,-0.06018475318078858,-0.05470594629244547,-0.03197355098916609,-0.06018475318078858,0.5,-0.06018475318078858,-0.05672690828861961,-0.05566982852582593
2023-11-09,-0.05127562316317605,-0.001040934545699831,-0.07826810256089894,-0.07826810256089894,-0.07826810256089894,-0.05634292948662939,0.41935635625710477,0.08064364374289525,-0.07826810256089894,-0.07826810256089894
2023-11-10,-0.06630428734920779,-0.06630428734920779,-0.06630428734920779,-0.06630428734920779,-0.042938335252205494,-0.06630428734920779,0.4071575776708074,0.09284242232919263,-0.0633381280200759,-0.06220209998167962
2023-11-13,-0.05117300284597958,-0.0011632314368953337,-0.0787289117521452,-0.0787289117521452,-0.05401920695639901,-0.0787289117521452,0.3949337009563847,0.10506629904361527,-0.0787289117521452,-0.0787289117521452
2023-11-14,0.0028431233092082167,-0.07536659420794624,0.04668656025166149,-0.061359176326940275,-0.07536659420794624,-0.07536659420794624,-0.07536659420794624,0.4504703164391302,-0.07536659420794624,-0.06180785263332859
2023-11-15,-0.0306363744363922,-0.0720136950260823,-0.006888236434429687,-0.06454915034092137,-0.0720136950260823,-0.03785776365784521,0.5000000000000001,-0.0720136950260823,-0.0720136950260823,-0.0720136950260823
2023-11-16,-0.07401297881700607,0.1450251819429533,-0.07401297881700607,-0.06070561721134491,-0.003447600642077791,-0.07401297881700607,-0.07401297881700607,0.35497481805704667,-0.06578188806154694,-0.07401297881700607
2023-11-17,-0.047228842625180685,0.0186037024553251,-0.08056403881996085,-0.08056403881996085,-0.08056403881996085,-0.049950963275015095,0.36811950945303273,0.11327678809164228,-0.08056403881996085,-0.08056403881996085
2023-11-20,-0.0748099758849117,-0.0748099758849117,0.0685492466381535,-0.060596694322998426,-0.0748099758849117,-0.0748099758849117,-0.0748099758849117,0.4223850810088311,-0.06535342625244299,0.009065672353015405
2023-11-21,0.049497256978849234,0.33315486225128205,0.03752898189854108,-0.1,0.03929151066608276,0.04052738820524499,-0.1,-0.1,-0.1,-0.1
2023-11-22,-0.07389598309457157,0.1357027410717418,-0.07389598309457157,-0.06140134754888127,-0.07389598309457157,-0.07389598309457157,-0.07389598309457157,0.362815445571379,-0.06911873697826086,0.0014818133568792059
2023-11-24,-0.07647403933241673,-0.01609342908625006,-0.07647403933241673,-0.07647403933241673,-0.07647403933241673,-0.05840858439662174,0.38337370069587157,0.11662629930412842,-0.07647403933241673,-0.04312778985504457
2023-11-27,-0.07724450113563776,-0.07724450113563776,-0.04169727028629639,-0.07724450113563776,-0.045730907182440855,-0.026349316853073953,-0.07724450113563776,0.4775394724869623,-0.07724450113563776,0.022460527513037634
2023-11-28,-0.06313326630908316,-0.02231060730490219,-0.06313326630908316,-0.059604451198128516,-0.06313326630908316,-0.041572922885455346,0.5,-0.06313326630908316,-0.060845687066098206,-0.06313326630908316
2023-11-29,0.18884715901998578,0.2182451552810871,-0.0781004167196804,-0.04939966854095401,-0.0781004167196804,0.09290768569892716,-0.0781004167196804,-0.0781004167196804,-0.06009824786064394,-0.0781004167196804
2023-11-30,-0.03138693934306048,-0.024628159069282236,-0.06421656265110061,-0.060846040720311766,-0.06421656265110061,-0.06421656265110061,0.5,-0.06421656265110061,-0.06205604761184241,-0.06421656265110061
2023-12-01,0.18935377716181392,-0.07778636228987963,-0.07778636228987963,-0.051774285933412496,0.02602454948588069,-0.07778636228987963,-0.07778636228987963,-0.07778636228987963,-0.05929390261718936,0.28462167335230526
2023-12-04,-0.046578177543790934,-0.0382674946181653,-0.05512782703011783,-0.07200530016158517,-0.07200530016158517,-0.07200530016158517,0.37876322290727565,0.12123677709272435,-0.07200530016158517,-0.07200530016158517
2023-12-05,-0.06607668185224906,-0.06607668185224906,-0.016089172900716295,-0.0571792878547862,-0.03570275164903478,-0.06607668185224906,-0.06607668185224906,0.5,-0.060645378334217376,-0.06607668185224906
2023-12-06,-0.04844923957219074,-0.0392783238007377,-0.05041655735913482,-0.07237117585358734,-0.07237117585358734,-0.07237117585358734,0.3850086854172236,0.11499131458277637,-0.07237117585358734,-0.07237117585358734
2023-12-07,-0.045391828968485065,-0.06937602296753391,-0.06937602296753391,-0.06937602296753391,-0.058079981747367476,-0.04964807444647791,0.3980477219425639,0.10195227805743609,-0.06937602296753391,-0.06937602296753391
2023-12-08,-0.07835434120926951,-0.07835434120926951,-0.07835434120926951,-0.046745139051407626,0.045954337902752225,0.1317744237882074,-0.07835434120926951,-0.07835434120926951,-0.06148315490224473,0.3222712383090403
2023-12-11,-0.04104220053479588,-0.026764049043563255,-0.06753972785394642,-0.06753972785394642,-0.05018594006614914,-0.044309171085759616,0.5,-0.06753972785394642,-0.06753972785394642,-0.06753972785394642
2023-12-12,-0.04994654176349508,-0.03922140841828812,-0.07529549059299147,-0.07529549059299147,-0.07529549059299147,-0.07529549059299147,0.4293639427882211,0.07063605721177901,-0.07529549059299147,-0.03435459685325952
2023-12-13,-0.042269207006994526,-0.06618917873041975,-0.06618917873041975,-0.06263260160436629,-0.06618917873041975,-0.06618917873041975,0.4063356857256163,0.09366431427438367,-0.06415229773654038,-0.06618917873041975
