date,AAPL,MSFT,GOOGL,AMZN,META,NVDA,TSLA,JPM,V,WMT
2022-03-01,-0.05555555555555556,-0.05555555555555556,-0.05555555555555556,-0.05555555555555556,-0.05555555555555556,-0.05555555555555556,0.4999999999999999,-0.05555555555555556,-0.05555555555555556,-0.05555555555555556
2022-03-02,0.11771987098814869,-0.0923468935250709,-0.038827911083342714,-0.09178451481637363,-0.0923468935250709,0.06942106700034215,-0.0923468935250709,-0.0923468935250709,0.3001149179327784,0.012744144078730769
2022-03-03,0.09653958348410252,-0.13776312634322063,-0.04207047771610678,-0.08945709241904223,0.08805786728917357,0.053775003315285556,-0.08945709241904223,-0.14125221110258812,0.25803525135670524,0.0035922945547330557
2022-03-04,0.09653785954711004,-0.13788157701153372,-0.04214125548258323,-0.08905328990106558,0.08805191786538179,0.053751974589871805,-0.08955147761475712,-0.14137239999006038,0.25811398257726137,0.003544265420375034
2022-03-07,-0.06369375896821637,-0.06369375896821637,-0.007066412292089864,-0.06369375896821637,0.14843789944656083,-0.06369375896821637,-0.04887549313860535,-0.12558929972822297,0.35156210055343917,-0.06369375896821637
2022-03-08,-0.05555555555555556,-0.05555555555555556,-0.05555555555555556,-0.05555555555555556,-0.05555555555555556,-0.05555555555555556,0.4999999999999999,-0.05555555555555556,-0.05555555555555556,-0.05555555555555556
2022-03-09,-0.04730456021464493,-0.16886807849748545,-0.04730456021464493,-0.04730456021464493,-0.04730456021464493,0.31314311213658225,-0.04730456021464493,-0.04730456021464493,-0.04730456021464493,0.18685688786341773
2022-03-10,0.09653785954711004,-0.13788157701153372,-0.04214125548258323,-0.08905328990106558,0.08805191786538179,0.053751974589871805,-0.08955147761475712,-0.14137239999006038,0.25811398257726137,0.003544265420375034
2022-03-11,0.09669457068516843,-0.12711404947651464,-0.08097157504238814,-0.08049593741429871,0.08859273865945672,0.05584535606690682,-0.08097157504238814,-0.13044686302441041,0.2509570741589619,0.007910260429506202
2022-03-14,-0.05555555555555556,-0.05555555555555556,-0.05555555555555556,-0.05555555555555556,-0.05555555555555556,-0.05555555555555556,0.4999999999999999,-0.05555555555555556,-0.05555555555555556,-0.05555555555555556
2022-03-15,-0.05555555555555556,-0.05555555555555556,-0.05555555555555556,-0.05555555555555556,-0.05555555555555556,-0.05555555555555556,0.4999999999999999,-0.05555555555555556,-0.05555555555555556,-0.05555555555555556
2022-03-16,0.053112884104101546,-0.23943482151059728,0.053112884104101546,0.053112884104101546,0.053112884104101546,0.053112884104101546,0.12820981127128922,-0.26056517848940264,0.053112884104101546,0.053112884104101546
2022-03-17,-0.05555555555555556,-0.05555555555555556,-0.05555555555555556,-0.05555555555555556,-0.05555555555555556,-0.05555555555555556,0.4999999999999999,-0.05555555555555556,-0.05555555555555556,-0.05555555555555556
2022-03-18,0.5,-0.042781806594929375,-0.042781806594929375,-0.042781806594929375,-0.042781806594929375,-0.042781806594929375,-0.006595275573917016,-0.19393207826157738,-0.042781806594929375,-0.042781806594929375
2022-03-21,0.24387782970488192,-0.1250914977954947,0.02560096426223028,-0.04823720395950675,0.23052120603288784,-0.049021336830006756,-0.049021336830006756,-0.13058595092497147,-0.049021336830006756,-0.049021336830006756
2022-03-22,0.09916490305773469,-0.12045478780782537,-0.030758898566587787,-0.07470920681794385,0.09121470952342806,0.059080245549536295,-0.0751759421419433,-0.12372522252375653,0.250540141869301,-0.0751759421419433
2022-03-23,-0.05555555555555556,-0.05555555555555556,-0.05555555555555556,-0.05555555555555556,-0.05555555555555556,-0.05555555555555556,0.4999999999999999,-0.05555555555555556,-0.05555555555555556,-0.05555555555555556
2022-03-24,0.09653785954711004,-0.13788157701153372,-0.04214125548258323,-0.08905328990106558,0.08805191786538179,0.053751974589871805,-0.08955147761475712,-0.14137239999006038,0.25811398257726137,0.003544265420375034
2022-03-25,-0.028323046762887837,-0.028323046762887837,-0.028323046762887837,-0.028323046762887837,-0.028323046762887837,-0.028323046762887837,0.037134745135548604,-0.3017386726597851,-0.028323046762887837,0.4628652548644514
2022-03-28,-0.06471460720352634,-0.06471460720352634,-0.06471460720352634,-0.06471460720352634,-0.06471460720352634,-0.06471460720352634,-0.046997749575315606,-0.06471460720352634,0.43176919373653055,0.06823080626346942
2022-03-29,-0.0587159267513912,-0.14902249553004612,-0.00547694542202063,0.012657582957598591,-0.04135537226588013,-0.013848887657656307,0.09170673404632403,-0.036137419699248614,-0.19544295267375703,0.3956356829960774
2022-03-30,-0.09580595147522492,-0.07750007365566136,-0.10414239711108766,0.23318130752952657,-0.07661289197991862,-0.07798342189320141,0.23318130752952657,-0.012902296300741837,0.033637384940946966,-0.05505296758416407
2022-03-31,-0.14071320401030996,-0.09122190279562163,0.021567325933155523,-0.04403025459036083,-0.0015110133066413764,-0.04904503172154658,-0.04403025459036083,-0.1294483389851588,0.17708963776343573,0.30134303630340875
2022-04-01,-0.055555555555555566,-0.055555555555555566,-0.055555555555555566,-0.055555555555555566,-0.055555555555555566,-0.055555555555555566,0.5000000000000001,-0.055555555555555566,-0.055555555555555566,-0.055555555555555566
2022-04-04,-0.08605735729621347,-0.16573831357575378,-0.051060112606328034,0.025884889535092877,0.05064852695579891,-0.03262341255411456,0.2407296341290902,-0.16116867609911112,-0.0033521278684790186,0.18273694938001797
2022-04-05,-0.008156411712092946,-0.07059674275087999,-0.07498905160963587,0.02204265838507049,-0.05833801333816063,-0.13395084282565023,0.1311736479174361,-0.024439543363406216,-0.1295293944001741,0.3467836936974935
2022-04-06,-0.12651512184747016,-0.007726470185960024,-0.007726470185960024,-0.007726470185960024,-0.2590836957722524,0.12184476271396262,-0.007726470185960024,-0.07576883145047733,-0.007726470185960024,0.37815523728603734
2022-04-07,-0.08375085881322529,-0.10554043851866549,-0.10947917299801335,0.262180622534309,0.0008670447211244141,-0.08740171304933614,0.08508816801229922,-0.11382781662075987,0.06885532524400788,0.08300883948825946
2022-04-08,-0.10814010528175731,-0.009537718393445175,-0.12245234908174961,0.11670113327933078,-0.030780263154684535,-0.1516565643640866,0.16971970395765715,-0.07743299972427688,0.043859458805354856,0.16971970395765715
2022-04-11,0.21085836272189898,0.035903510164269126,-0.042854683199799126,-0.10481391419520603,-0.08802134641993285,-0.07747047199710574,0.08913965323793854,0.07495882063795477,-0.18683958418795626,0.08913965323793854
2022-04-12,-0.0625,-0.0625,-0.0625,-0.0625,-0.0625,-0.0625,0.16725475353728958,-0.0625,-0.0625,0.33274524646271036
2022-04-13,-0.18635935416838834,-0.06280759995730137,-0.0756939816917379,0.0985485730734796,-0.028426724337594425,-0.0912622375096295,0.17002702645665893,-0.055450102335348465,0.14123160917422614,0.09019279129563532
2022-04-14,-0.06250000000000001,-0.06250000000000001,-0.06250000000000001,0.32504062955297086,-0.06250000000000001,-0.06250000000000001,0.17495937044702917,-0.06250000000000001,-0.06250000000000001,-0.06250000000000001
2022-04-18,-0.07142857142857144,0.3375960009069024,-0.07142857142857144,-0.07142857142857144,-0.07142857142857144,-0.07142857142857144,0.1122910791157779,-0.07142857142857144,-0.07142857142857144,0.050112919977319745
2022-04-19,0.01347406347855211,-0.17467228151173564,-0.09819319148378328,0.10457888764708592,0.0222916386094606,0.08412771087675171,0.0222916386094606,-0.22713452700448106,0.13419546456459586,0.11904059621409317
2022-04-20,0.058619846204118496,-0.1386926745651015,-0.09621100280480964,0.04247155158604007,-0.2185029587857819,-0.04659336384430697,0.09916140005390875,0.24220425554992103,0.025570878108448093,0.03197206849756356
2022-04-21,-0.08156229844941495,0.004773432405847692,-0.1424180342570493,-0.09154492755965138,0.06966018395310446,-0.011798861384261172,0.1477439642676424,0.13007845510576319,-0.17267587834962325,0.1477439642676424
2022-04-22,-0.0625,-0.0625,0.3193400194672549,-0.0625,-0.0625,-0.0625,0.18065998053274515,-0.0625,-0.0625,-0.0625
2022-04-25,-0.07421892510872082,-0.03380281570815305,0.011285033932654225,-0.012129268211213162,0.11645174156675643,-0.021224537302789375,0.28851807252860384,-0.2516334266351803,-0.10699102703394342,0.08374515197198547
2022-04-26,-0.03211006741716611,-0.06594891299990625,-0.06654417571793617,-0.11767424781846916,-0.06654417571793617,0.2121759317547382,-0.06654417571793617,-0.01809006889271372,0.28782406824526174,-0.06654417571793617
2022-04-27,-0.0625,-0.0625,-0.0625,-0.0625,0.3021204490199616,-0.0625,0.19787955098003823,-0.0625,-0.0625,-0.0625
2022-04-28,-0.09213001078579121,0.14080258738686005,-0.05104890833948311,-0.11217033431812973,0.07613602917638317,-0.08364689739832915,0.14080258738686005,0.14225879604989677,-0.04923388604905357,-0.11176996310921317
2022-04-29,-0.055555555555555566,-0.055555555555555566,-0.055555555555555566,-0.055555555555555566,-0.055555555555555566,-0.055555555555555566,0.5000000000000001,-0.055555555555555566,-0.055555555555555566,-0.055555555555555566
2022-05-02,0.10136921349069178,-0.09311722490976554,0.07567860884650715,0.30455155903483877,-0.09311722490976554,-0.09311722490976554,0.018400618627962318,-0.09311722490976554,-0.09311722490976554,-0.03441387545117228
2022-05-03,-0.055555555555555566,-0.055555555555555566,-0.055555555555555566,-0.055555555555555566,-0.055555555555555566,-0.055555555555555566,0.5,-0.055555555555555566,-0.055555555555555566,-0.055555555555555566
2022-05-04,-0.15166639260809256,-0.09608295861934606,-0.036819522147213804,0.03769859234137633,0.0485945592279094,-0.038263412665176015,0.2767720129985153,-0.12596799464732605,-0.05119971931284554,0.13693483543219903
2022-05-05,0.2770957734186356,0.007536687996083518,0.04742856092917055,0.06786021082760658,-0.18637418774118714,-0.10436032791707012,0.039085214488954016,0.0219083378505957,-0.20926548434174266,0.039085214488954016
2022-05-06,-0.05681476747234697,-0.05295106699012347,0.0020997111679407457,0.032873131707048614,0.03586513562860094,-0.0659622647400881,0.12846487659238087,-0.1888042681447868,-0.13546763265265463,0.3006971449040288
2022-05-09,-0.055555555555555566,-0.055555555555555566,-0.055555555555555566,-0.055555555555555566,-0.055555555555555566,-0.055555555555555566,0.5000000000000001,-0.055555555555555566,-0.055555555555555566,-0.055555555555555566
2022-05-10,-0.18508240100834092,0.00817942740974442,0.08677265506385538,0.0851766912359779,-0.01971783284889149,-0.08752681472317277,0.09891300163848993,-0.1878959448453612,0.22095822465193227,-0.019777006574233764
2022-05-11,-0.22582971877227512,0.2766631924549725,-0.0060009039254158335,0.042820986274346905,0.08651858744803412,-0.17223135728014502,0.0006013406290923673,0.03965586920110872,-0.09593802002216403,0.05374002399244529
2022-05-12,-0.05555555555555556,-0.05555555555555556,-0.05555555555555556,-0.05555555555555556,-0.05555555555555556,-0.05555555555555556,0.4999999999999999,-0.05555555555555556,-0.05555555555555556,-0.05555555555555556
2022-05-13,-0.093145869387344,-0.09780156980926909,-0.1701550974877231,-0.07866485519843404,0.09982720808888537,0.12911094496924422,0.030922297580186286,0.030922297580186286,-0.060232608117229865,0.20921725178149797
2022-05-16,-0.07142857142857142,0.14663008621107482,-0.07142857142857142,0.23610439705741698,-0.07142857142857142,-0.07142857142857142,0.11726551673150826,-0.07142857142857142,-0.07142857142857142,-0.07142857142857142
2022-05-17,-0.15539676234897506,-0.10577600104352866,-0.05688863364251558,0.04821378356595724,0.004631324004944669,-0.11114846739113345,0.1879865346546353,-0.07079013557384715,0.07118182311982765,0.1879865346546353
2022-05-18,-0.05864722059520935,0.19075325656381922,-0.05864722059520935,-0.05864722059520935,-0.1624517013425452,-0.044312195681408,0.16960641575686602,0.13964032767931472,-0.05864722059520935,-0.05864722059520935
2022-05-19,0.08927507821816821,0.10985741503351254,-0.20968292296954075,-0.1640457366491607,0.00884516239866237,-0.03097118557562233,-0.047650077402838095,-0.047650077402838095,0.11497638090496433,0.1770459634446926
2022-05-20,-0.06963171149714584,-0.06963171149714584,-0.06963171149714584,0.34277399924495683,-0.06963171149714584,-0.06963171149714584,-0.012578019519978965,-0.06963171149714584,-0.06963171149714584,0.15722600075504312
2022-05-23,-0.02694927711790612,-0.03416306219928358,0.05892476026538652,0.14765777742898742,-0.174114266571649,0.04146942509727038,0.05892476026538652,-0.1794347985816085,-0.08533859552955282,0.1930232769429692
2022-05-24,-0.055555555555555566,-0.055555555555555566,-0.055555555555555566,-0.055555555555555566,-0.055555555555555566,-0.055555555555555566,0.5000000000000001,-0.055555555555555566,-0.055555555555555566,-0.055555555555555566
2022-05-25,-0.055555555555555566,-0.055555555555555566,-0.055555555555555566,-0.055555555555555566,-0.055555555555555566,-0.055555555555555566,0.5000000000000001,-0.055555555555555566,-0.055555555555555566,-0.055555555555555566
2022-05-26,-0.055555555555555566,-0.055555555555555566,-0.055555555555555566,-0.055555555555555566,-0.055555555555555566,-0.055555555555555566,0.5000000000000001,-0.055555555555555566,-0.055555555555555566,-0.055555555555555566
2022-05-27,-0.07584458081103823,0.3610744063307649,0.11786915011871782,-0.04493251513377047,-0.07584458081103823,-0.07584458081103823,-0.07584458081103823,-0.07584458081103823,-0.07584458081103823,0.021056443550517355
2022-05-31,0.06859226908365167,0.15125792037439248,0.0779135183348232,-0.22681068023460074,-0.13993307824736712,0.09387276064049849,0.05418176578331704,-0.04328475633552,-0.08997148518251215,0.05418176578331704
2022-06-01,-0.055555555555555566,-0.055555555555555566,-0.055555555555555566,-0.055555555555555566,-0.055555555555555566,-0.055555555555555566,0.5000000000000001,-0.055555555555555566,-0.055555555555555566,-0.055555555555555566
2022-06-02,-0.12602858758812813,0.010761318089269618,-0.07234023173981605,0.009673916484709562,-0.09921874123244111,0.018210559469667993,0.24446733346675686,-0.20241243943961462,0.06841260421105068,0.1484742682785452
2022-06-03,-0.08401008731434001,0.06809539215097245,0.2138547521624099,-0.08401008731434001,0.14721513992907553,-0.08401008731434001,-0.07994956342829994,0.07083471575754213,-0.08401008731434001,-0.08401008731434001
2022-06-06,0.24623039565692217,-0.07523744811610329,-0.07523744811610329,-0.07523744811610329,0.024955506493604673,0.22881409784947315,-0.08199680595125551,-0.07523744811610329,-0.041815953468228015,-0.07523744811610329
2022-06-07,-0.00024200145143986204,-0.2055295877349672,0.03373106252886274,0.058499132195603584,0.11475590823856975,-0.12428681489134916,0.058499132195603584,0.17601563264575673,-0.16994159592224373,0.058499132195603584
2022-06-08,-0.057250572188846924,-0.06792777740773462,0.02222083867370187,-0.03596570960541389,-0.15839875801681852,-0.035036080397509335,0.1765040292213702,0.13991491779849113,-0.1454211023836767,0.16136021430643682
2022-06-09,-0.03652930870356555,-0.07022131292507922,-0.016637176035419445,-0.13536107772462666,-0.01799006482008503,-0.15678313712980804,0.1732073958659086,0.08096018014471128,-0.06647792266141615,0.24583242398938013
2022-06-10,-0.00957108258101348,-0.06396801824306714,-0.071717685478805,-0.0030984346891730734,-0.10135768101445003,-0.14760943632061543,0.2931085476027636,-0.01251676542415149,-0.09016089624872418,0.2068914523972364
2022-06-13,-0.06250000000000001,-0.06250000000000001,-0.06250000000000001,-0.06250000000000001,-0.06250000000000001,-0.06250000000000001,0.18545638050188049,0.31454361949811954,-0.06250000000000001,-0.06250000000000001
2022-06-14,-0.06250000000000001,0.3014822104058275,-0.06250000000000001,-0.06250000000000001,-0.06250000000000001,-0.06250000000000001,0.19851778959417252,-0.06250000000000001,-0.06250000000000001,-0.06250000000000001
2022-06-15,-0.0877867815956876,-0.03538567709254939,-0.049419935749812356,0.045827990364323175,-0.053752927552822724,-0.049837319017603215,0.16467367733096552,-0.11593660797978343,-0.10788075101174117,0.28949833230471134
2022-06-16,-0.0625,0.3139448525736318,-0.0625,-0.0625,-0.0625,-0.0625,0.1860551474263682,-0.0625,-0.0625,-0.0625
2022-06-17,-0.0625,-0.0625,-0.0625,-0.0625,-0.0625,-0.0625,0.15721484091145252,-0.0625,-0.0625,0.34278515908854745
2022-06-21,-0.05763094754186548,0.11556636742721225,-0.006619796643211979,-0.15566709310527818,0.15923210604640733,-0.05099594662116228,0.07500943760357784,-0.229086216088482,0.07518265131922473,0.07500943760357784
2022-06-22,0.07572439219692684,0.062071096695010444,-0.10000000000000002,-0.10000000000000002,0.05279547917436808,0.11034790406040199,-0.10000000000000002,-0.10000000000000002,-0.10000000000000002,0.1990611278732927
2022-06-23,-0.055555555555555566,-0.055555555555555566,-0.055555555555555566,-0.055555555555555566,-0.055555555555555566,-0.055555555555555566,0.5,-0.055555555555555566,-0.055555555555555566,-0.055555555555555566
2022-06-24,0.0588750580313405,0.05767635851582173,0.05767635851582173,-0.06087108007066773,0.06338640917971654,-0.2241737467135088,0.05767635851582173,-0.02889276724078508,-0.1860624059750383,0.20470945724147777
2022-06-27,-0.04722878045363191,-0.13162895673040756,-0.08870019125422618,0.24271687271897452,-0.07539951922960854,-0.09462415342156281,0.2311852987114903,-0.017809532055912403,-0.04460886685465055,0.026097828569535256
2022-06-28,0.11018399922575933,0.08162667671430832,-0.10456372590509486,-0.04988549357388509,0.1331860903003264,0.1279866834945319,-0.0776445149143986,-0.167275552999665,0.04701655026507403,-0.10063071260695645
2022-06-29,-0.05563213936246658,-0.05763888710174712,-0.1668026692679792,-0.21718702586326835,0.07719171913800543,-6.452893796179203e-05,0.20096664202154668,0.06251990787382823,-0.002674749466577038,0.15932173096661975
2022-06-30,0.07189391280454291,0.16792053154503575,-0.14415339429068302,0.1630104995325844,-0.14804241922771164,-0.00016088386627964978,-0.15629490212032465,-0.05134840049500099,0.039282237456526724,0.057892818661310325
2022-07-01,-0.06249999999999999,-0.06249999999999999,0.29676060440300256,-0.06249999999999999,-0.06249999999999999,-0.06249999999999999,0.20323939559699739,-0.06249999999999999,-0.06249999999999999,-0.06249999999999999
2022-07-05,-0.06249999999999999,-0.06249999999999999,-0.06249999999999999,-0.06249999999999999,-0.06249999999999999,-0.06249999999999999,0.27467710463240635,-0.06249999999999999,-0.06249999999999999,0.22532289536759365
2022-07-06,-0.055555555555555566,-0.055555555555555566,-0.055555555555555566,-0.055555555555555566,-0.055555555555555566,-0.055555555555555566,0.5000000000000001,-0.055555555555555566,-0.055555555555555566,-0.055555555555555566
2022-07-07,0.060684791110804825,-0.07602772354027303,0.006019246245301781,-0.07602772354027303,-0.07602772354027303,-0.07602772354027303,-0.07602772354027303,0.30868061159877663,0.12461535104511677,-0.11986138229863495
2022-07-08,-0.01664836208349624,-0.07363000576861149,-0.10991462585826525,0.024079327447442272,-0.12445977173919703,0.01596685317847623,0.1360962066578799,-0.17534723455042994,0.2146696607956522,0.10918795192054942
2022-07-11,0.1347117145374177,0.015017123140750918,0.015017123140750918,0.1782986446660356,0.12692114823354309,0.015017123140750918,0.015017123140750918,-0.11929543988864114,-0.10880916513833404,-0.27189539497302484
2022-07-12,-0.06876374486282619,0.17558235121521792,-0.06876374486282619,-0.06876374486282619,-0.06876374486282619,-0.06876374486282619,0.1272486648640617,0.1971689839207205,-0.06876374486282619,-0.08741753082304284
2022-07-13,0.1417535876387679,-0.07142857142857142,-0.07142857142857142,-0.07142857142857142,-0.07142857142857142,-0.07142857142857142,0.06076678096055425,-0.07142857142857142,-0.07142857142857142,0.29747963140067796
2022-07-14,-0.0625,-0.0625,-0.0625,0.4035127584991022,-0.0625,-0.0625,0.09648724150089787,-0.0625,-0.0625,-0.0625
2022-07-15,-0.0625,-0.0625,-0.0625,-0.0625,0.18086674209228323,-0.0625,0.3191332579077167,-0.0625,-0.0625,-0.0625
2022-07-18,-0.055555555555555546,-0.055555555555555546,-0.055555555555555546,-0.055555555555555546,-0.055555555555555546,-0.055555555555555546,0.4999999999999999,-0.055555555555555546,-0.055555555555555546,-0.055555555555555546
2022-07-19,-0.05555555555555556,-0.05555555555555556,-0.05555555555555556,-0.05555555555555556,-0.05555555555555556,-0.05555555555555556,0.4999999999999999,-0.05555555555555556,-0.05555555555555556,-0.05555555555555556
2022-07-20,-0.06720732846496244,-0.06720732846496244,-0.06720732846496244,-0.06720732846496244,-0.06720732846496244,-0.06720732846496244,-0.02954870074526292,0.3815493437427126,-0.06720732846496244,0.11845065625728739
2022-07-21,-0.08770631265148816,-0.08207733110047523,0.12603038457099702,0.044493352962834604,0.12603038457099702,-0.1331958921203855,0.12603038457099702,0.07741549332417437,-0.1229800033149977,-0.07404046081265346
2022-07-22,-0.15132667695770677,-0.07184802532632231,0.10365606262374726,0.18527296938251947,-0.06641737192837126,-0.0009080293079710422,0.10092336178410229,-0.09018898829902867,0.11014760620963097,-0.1193109081806
2022-07-25,0.030508614622796724,-0.2292311358292973,0.0229030463694778,0.013543640340591974,-0.08895006661927947,-0.14315961422247045,0.20885963230005306,-0.038659183328952816,0.015325434067027438,0.20885963230005306
2022-07-26,-0.0625,-0.0625,-0.0625,-0.0625,-0.0625,-0.0625,0.2571355789697534,-0.0625,-0.0625,0.24286442103024647
2022-07-27,-0.05898997894191006,-0.05898997894191006,-0.05898997894191006,-0.05898997894191006,-0.05898997894191006,-0.05898997894191006,-0.028080168464719526,-0.05898997894191006,-0.05898997894191006,0.5
2022-07-28,-0.06181560590444611,0.44315885623784573,-0.06181560590444611,-0.06181560590444611,-0.06181560590444611,-0.06181560590444611,-0.06729075866887718,-0.06181560590444611,-0.06181560590444611,0.05684114376215429
2022-07-29,0.01519905522126278,0.01519905522126278,0.01519905522126278,0.01519905522126278,0.01519905522126278,0.01519905522126278,0.3784075582298978,0.01519905522126278,0.01519905522126278,-0.5
2022-08-01,0.05145048925618834,0.05145048925618834,0.07963269768411654,0.05145048925618834,0.16311485603494175,0.05145048925618834,-0.2727215243616217,-0.10291478503016077,0.05145048925618834,-0.12436369060821757
2022-08-02,0.21799999075705792,0.045187661922807716,0.05329169737209019,-0.08930879341777864,0.1835206499480442,-0.08930879341777864,-0.05345603291110676,-0.08930879341777864,-0.08930879341777864,-0.08930879341777864
2022-08-03,-0.0804042323509848,0.00404385945463186,-0.0804042323509848,-0.0804042323509848,0.011462212662110567,-0.0804042323509848,-0.01757460589409109,-0.0804042323509848,0.4844939278832576,-0.0804042323509848
2022-08-04,-0.14849646461865146,-0.040256515811885094,-0.08988112437107362,0.35612509960017846,-0.040256515811885094,-0.10059634776273454,-0.040256515811885094,-0.040256515811885094,0.1093818352153112,0.03449306518451044
2022-08-05,-0.07209759858310408,-0.08192440520060507,0.051220003671492785,-0.10596897263481661,0.1837741406638347,-0.056435446727907415,0.07660576807572099,0.03746367955380774,-0.18357357685356684,0.15093640803514385
2022-08-08,-0.01896932060681853,-0.09816986923382341,0.009639716599480147,0.17486378779923972,-0.012077208534159289,0.08454081594385919,0.07426639790196463,-0.1703701246455647,-0.20041347697963402,0.15668928175545627
2022-08-09,-0.055555555555555546,-0.055555555555555546,-0.055555555555555546,-0.055555555555555546,-0.055555555555555546,-0.055555555555555546,0.4999999999999999,-0.055555555555555546,-0.055555555555555546,-0.055555555555555546
2022-08-10,-0.1796088637562384,0.03543243202242992,0.03543243202242992,0.2061010952534217,-0.06942906553263331,-0.17710247589299055,0.03543243202242992,0.03543243202242992,-0.07385959481813768,0.15216917665685864
2022-08-11,-0.0625,-0.0625,-0.0625,-0.0625,-0.0625,-0.0625,0.2830781374343119,-0.0625,-0.0625,0.21692186256568807
2022-08-12,-0.055555555555555566,-0.055555555555555566,-0.055555555555555566,-0.055555555555555566,-0.055555555555555566,-0.055555555555555566,0.5000000000000001,-0.055555555555555566,-0.055555555555555566,-0.055555555555555566
2022-08-15,-0.0625,-0.0625,-0.0625,0.052595547887466544,-0.0625,-0.0625,-0.0625,-0.0625,-0.0625,0.4474044521125334
2022-08-16,0.18680029900715656,-0.07740454043818092,-0.08167826420662205,-0.11728287197177809,-0.056370025012113294,0.034701979941642126,0.15913671996412806,-0.006556980659160553,-0.16070731771214522,0.11936100108707311
2022-08-17,-0.05555555555555556,-0.05555555555555556,-0.05555555555555556,-0.05555555555555556,-0.05555555555555556,-0.05555555555555556,0.4999999999999999,-0.05555555555555556,-0.05555555555555556,-0.05555555555555556
2022-08-18,-0.08885645188872424,-0.004604660425797837,-0.08475653025018923,-0.24875074834342087,-0.07303160909186783,0.02834364659632426,0.30053177603516673,0.059469570574959794,0.011724015618532627,0.09993099117501661
2022-08-19,-0.16343805626500973,-0.027105178211905667,-0.0444531748592215,-0.02599559041752815,0.04040739506788594,-0.12062076477395536,0.30684031656568544,0.05912982901059379,-0.1183872354723798,0.0936224593558346
2022-08-22,-0.0625,-0.0625,-0.0625,-0.0625,-0.0625,-0.0625,0.10307324962394401,0.39692675037605596,-0.0625,-0.0625
2022-08-23,-0.07142857142857142,-0.07142857142857142,-0.07142857142857142,-0.07142857142857142,0.40387968657963186,-0.07142857142857142,0.01714667274522797,-0.07142857142857142,-0.07142857142857142,0.07897364067514008
2022-08-24,-0.055555555555555566,-0.055555555555555566,-0.055555555555555566,-0.055555555555555566,-0.055555555555555566,-0.055555555555555566,0.5000000000000001,-0.055555555555555566,-0.055555555555555566,-0.055555555555555566
2022-08-25,-0.0925932250222682,-0.055986749444917036,-0.16644212685546114,-0.022292760377923253,0.0264509279225938,-0.10750185325729902,0.3182110213476891,0.13880611314045682,-0.055183285042131124,0.016531937589260384
2022-08-26,-0.2050961121646858,0.005174919161673674,-0.022526072129038212,0.041117979443476435,-0.12671161263437644,-0.10719411341156014,0.09995673960507105,-0.038472089660339374,0.07832646167184776,0.2754239001179311
2022-08-29,-0.22710835154999326,0.023011391004781053,0.10202508539155236,0.12322803752054709,-0.04319085893697507,-0.034549588880850295,0.14602740152352323,-0.19515120063218144,0.03564221222272038,0.07006587233687572
2022-08-30,-0.12131248049735437,-0.11550652986465494,-0.007606921143953047,-0.06564749183896758,0.44258112155170337,-0.011279336440721216,0.0337892498120137,0.0015583820480405816,-0.1786472402143488,0.022071246588242426
2022-08-31,-0.00413566581308894,0.07940649765766108,0.19073764883213043,-0.05927375699836557,0.04908205494649414,-0.20423029771500223,-0.1969385630665465,-0.03542171640699687,0.11854659878300994,0.062227199780704234
2022-09-01,-0.04159419546947223,0.23158138447217522,-0.0325944629724117,0.06739534972039346,-0.14833441603671846,-0.08592505060529529,0.20011757485129453,-0.12774510337945894,0.000905690956136685,-0.0638067715366435
2022-09-02,-0.08167947345129259,-0.07452722804637016,-0.06213640211861921,0.02902591746214777,-0.06798633828169627,-0.11244091175745632,0.022251900409686536,0.25194947776594334,0.19677270436222244,-0.10122964634456551
2022-09-06,-0.06250000000000001,-0.06250000000000001,-0.06250000000000001,-0.06250000000000001,-0.06250000000000001,-0.06250000000000001,0.1861146659374303,-0.06250000000000001,-0.06250000000000001,0.3138853340625697
2022-09-07,-0.0625,-0.0625,-0.0625,0.31384934177159474,-0.0625,-0.0625,0.18615065822840526,-0.0625,-0.0625,-0.0625
2022-09-08,-0.055555555555555566,-0.055555555555555566,-0.055555555555555566,-0.055555555555555566,-0.055555555555555566,-0.055555555555555566,0.5,-0.055555555555555566,-0.055555555555555566,-0.055555555555555566
2022-09-09,0.34720724887654736,0.1346157625145762,-0.08043820598876282,-0.08043820598876282,-0.08043820598876282,-0.08043820598876282,0.01817698860887647,-0.08043820598876282,-0.08043820598876282,-0.01737076406742302
2022-09-12,-0.10174209978919814,-0.09207258071562198,-0.06364793197923894,0.007789429770335167,-0.11528018282779694,-0.11179637289811352,0.3213702047942686,0.047305528086456855,-0.015460831790030785,0.12353483734893908
2022-09-13,0.08027029826055246,0.09209321540765454,0.058278045725439584,-0.08333333333333334,-0.08333333333333334,-0.08333333333333334,-0.08333333333333334,0.2693584406063534,-0.08333333333333334,-0.08333333333333334
2022-09-14,-0.06769929626494234,-0.04272763320580633,-0.06590382385085725,0.26809852248613986,0.017409868248722572,-0.16052267174120205,0.062198993923999496,0.09009362141713863,-0.16314657493719198,0.062198993923999496
2022-09-15,-0.05555555555555556,-0.05555555555555556,-0.05555555555555556,-0.05555555555555556,-0.05555555555555556,-0.05555555555555556,0.4999999999999999,-0.05555555555555556,-0.05555555555555556,-0.05555555555555556
2022-09-16,-0.06250000000000001,-0.06250000000000001,-0.06250000000000001,-0.06250000000000001,-0.06250000000000001,-0.06250000000000001,0.2573614106528374,-0.06250000000000001,-0.06250000000000001,0.24263858934716265
2022-09-19,0.31373862528871244,-0.10897146477121361,-0.0973188144017118,-0.24738208867612807,-0.005680074610458048,0.03978968610895532,0.07895186331161963,0.022895940468252635,0.044623884822460005,-0.04064755754048841
2022-09-20,-0.0625,-0.0625,-0.0625,-0.0625,-0.0625,-0.0625,0.20077825674796754,-0.0625,-0.0625,0.2992217432520325
2022-09-21,0.005914212808106021,-0.012672940325061145,0.165283859246968,-0.0850525967696759,0.10239598650505033,0.19569330806526478,0.027141341946484727,-0.2802513988331438,0.003571291428126143,-0.12202306407211912
2022-09-22,-0.007022755169742162,0.1272005985931935,0.02583354581677835,-0.14217326023957644,0.023138767548042373,0.02722926627264989,0.1272005985931935,-0.3508039845906814,0.042196624582948934,0.1272005985931935
2022-09-23,0.05910553267402101,0.1890335061699494,-0.016561314872025022,-0.008913721100237687,-0.2092129864083576,0.04436055292931856,-0.008913721100237687,0.027818418710747243,-0.256398256519142,0.17968198951596379
2022-09-26,-0.06250000000000001,-0.06250000000000001,-0.06250000000000001,-0.06250000000000001,-0.06250000000000001,-0.06250000000000001,0.22848019003604328,0.27151980996395675,-0.06250000000000001,-0.06250000000000001
2022-09-27,-0.07142857142857142,-0.07142857142857142,-0.07142857142857142,-0.07142857142857142,0.2576813780767645,-0.07142857142857142,0.10713997024564456,-0.07142857142857142,-0.07142857142857142,0.13517865167759102
2022-09-28,-0.18404371503009784,-0.01880779783442455,-0.04465930621223353,0.0020156136605295047,-0.030548308205013718,0.03780863475432132,0.14107780592037145,-0.2219408727182304,0.26162962651487937,0.05746831914989831
2022-09-29,0.11511972190137848,-0.03130512669455436,-0.09823842109159109,-0.11907184251060464,0.1492967058382225,-0.16250114579416206,0.11511972190137848,0.005344128457642142,-0.08888346390908786,0.11511972190137848
2022-09-30,-0.06249999999999998,-0.06249999999999998,-0.06249999999999998,-0.06249999999999998,-0.06249999999999998,-0.06249999999999998,0.20305052872823184,-0.06249999999999998,-0.06249999999999998,0.29694947127176813
2022-10-03,-0.05555555555555556,-0.05555555555555556,-0.05555555555555556,-0.05555555555555556,-0.05555555555555556,-0.05555555555555556,0.4999999999999999,-0.05555555555555556,-0.05555555555555556,-0.05555555555555556
2022-10-04,0.02574628791789239,-0.05698319357241924,-0.055320639739058354,-0.0906952343243308,-0.0906952343243308,-0.010880136579702342,-0.014035092811496827,-0.0906952343243308,0.4742537120821076,-0.0906952343243308
2022-10-05,-0.05241176763043476,-0.002636896081786211,0.13183288810862387,0.053932616093339075,0.2063692636113588,-0.1794589092035756,0.053932616093339075,-0.01683260844047108,-0.2486598186437323,0.053932616093339075
2022-10-06,-0.026856120583679238,-0.07853773679546903,0.016128946118532293,0.08237266824666677,-0.006170823196032761,-0.18926465320701233,0.23269936786831522,-0.11196947642192961,0.1687990177664857,-0.08720118979587713
2022-10-07,0.09586336505737084,-0.022151021701575423,-0.06227184237153685,-0.07553006662866359,0.1203942084665544,-0.22708287855848164,-0.021704104845943376,0.10247419931007799,-0.09126008589379912,0.18126822716599675
2022-10-10,-0.056632406795204836,-0.06842376438135421,-0.04017961439777609,0.011113240777176271,0.011113240777176271,-0.13672837399536167,0.011113240777176271,0.011113240777176271,-0.19803584043030317,0.45554703689129483
2022-10-11,-0.09197541028599769,0.08210675694564482,0.04263499028578752,0.24850879215981245,-0.10927208061481761,0.016429629107827016,-0.10070946729995091,0.11031983150092826,-0.09733357449928288,-0.10070946729995091
2022-10-12,-0.0625,-0.0625,-0.0625,0.3277085330193036,-0.0625,-0.0625,0.17229146698069642,-0.0625,-0.0625,-0.0625
2022-10-13,-0.06494105390261642,-0.1673814595502684,-0.058951799346020274,0.27937490804016035,-0.005330751298687875,-0.020713742480966992,0.15570895670337515,-0.18268119342144,0.06064779903151434,0.0042683362249502695
2022-10-14,-0.055555555555555546,-0.055555555555555546,-0.055555555555555546,-0.055555555555555546,-0.055555555555555546,-0.055555555555555546,0.4999999999999999,-0.055555555555555546,-0.055555555555555546,-0.055555555555555546
2022-10-17,-0.08173063757028097,0.12781634846576512,-0.08173063757028097,0.11852728104023932,-0.08173063757028097,-0.08173063757028097,-0.009616174578314127,-0.08173063757028097,-0.08173063757028097,0.2536563704939956
2022-10-18,-0.07142857142857142,-0.07142857142857142,-0.07142857142857142,-0.07142857142857142,0.07667702445458352,-0.07142857142857142,0.128146283568697,0.2951766919767194,-0.07142857142857142,-0.07142857142857142
2022-10-19,-0.055555555555555566,-0.055555555555555566,-0.055555555555555566,-0.055555555555555566,-0.055555555555555566,-0.055555555555555566,0.5000000000000001,-0.055555555555555566,-0.055555555555555566,-0.055555555555555566
2022-10-20,-0.07142857142857142,-0.07142857142857142,-0.07142857142857142,0.25677298590014763,-0.07142857142857142,-0.07142857142857142,0.059095600938517824,-0.07142857142857142,-0.07142857142857142,0.1841314131613346
2022-10-21,-0.06250000000000001,-0.06250000000000001,-0.06250000000000001,-0.06250000000000001,-0.06250000000000001,-0.06250000000000001,0.05367834229437783,-0.06250000000000001,-0.06250000000000001,0.44632165770562215
2022-10-24,-0.055555555555555566,-0.055555555555555566,-0.055555555555555566,-0.055555555555555566,-0.055555555555555566,-0.055555555555555566,0.5000000000000001,-0.055555555555555566,-0.055555555555555566,-0.055555555555555566
2022-10-25,-0.07702070893536944,-0.1407103450532585,0.018069892953290194,0.029174372130523554,0.018069892953290194,-0.2822689460113721,0.018069892953290194,0.07426183460799253,0.2889347871212365,0.05341932728037682
2022-10-26,0.03345574302642906,0.03345574302642906,0.03345574302642906,-0.06227989594176463,0.03345574302642906,-0.25940291939886884,0.2382141266124963,0.12796290128178742,-0.02062138437776967,-0.15769580028159683
2022-10-27,0.3817078847145631,-0.0625,-0.0625,-0.0625,-0.0625,-0.0625,0.1182921152854369,-0.0625,-0.0625,-0.0625
2022-10-28,-0.12892217572495185,0.08385358294329226,-0.09717890341064524,-0.004788393990645186,0.14554834965580546,-0.05109353698552837,0.14554834965580546,0.12000999679899878,-0.21801698988822923,0.005039720946098133
2022-10-31,-0.04469452829812791,-0.04469452829812791,-0.04469452829812791,0.1453672595610082,0.34164371041913527,-0.04469452829812791,-0.03215068159608135,0.012989030019856457,-0.24437667691327905,-0.04469452829812791
2022-11-01,-0.1187270666248808,0.12406657998387347,0.12406657998387347,0.0037336800645060625,0.12406657998387347,-0.07027970942944663,0.12406657998387347,-0.11614833362542325,-0.18589157330075762,-0.008953317019491673
2022-11-02,0.01056574846304385,0.01056574846304385,0.01056574846304385,-0.253987126011894,0.01056574846304385,0.01056574846304385,0.30794865833857116,0.12865685088316575,0.01056574846304385,-0.24601287398810598
2022-11-03,-0.055555555555555566,-0.055555555555555566,-0.055555555555555566,-0.055555555555555566,-0.055555555555555566,-0.055555555555555566,0.5000000000000001,-0.055555555555555566,-0.055555555555555566,-0.055555555555555566
2022-11-04,-0.06993576828439776,-0.06993576828439776,0.14527324784011542,-0.06993576828439776,0.31049627680011116,-0.06993576828439776,-0.08038539029361336,-0.06993576828439776,-0.06993576828439776,0.04423047535977346
2022-11-07,-0.05555555555555556,-0.05555555555555556,-0.05555555555555556,-0.05555555555555556,-0.05555555555555556,-0.05555555555555556,0.4999999999999999,-0.05555555555555556,-0.05555555555555556,-0.05555555555555556
2022-11-08,-0.030790266853101114,-0.022388171381110808,0.06654128306946565,-0.023000468870187717,0.2711189858151421,0.03689447264210305,0.12544525847328922,-0.10491474662408344,-0.1339121896737816,-0.18499415659773538
2022-11-09,-0.055555555555555566,-0.055555555555555566,-0.055555555555555566,-0.055555555555555566,-0.055555555555555566,-0.055555555555555566,0.5000000000000001,-0.055555555555555566,-0.055555555555555566,-0.055555555555555566
2022-11-10,-0.06249999999999999,0.4153900339339935,-0.06249999999999999,-0.06249999999999999,-0.06249999999999999,-0.06249999999999999,0.08460996606600647,-0.06249999999999999,-0.06249999999999999,-0.06249999999999999
2022-11-11,-0.043970048403720645,0.07635109509704896,0.01852306987063558,-0.228228848245724,0.1400504642009189,-0.15039315301105438,-0.0774079503395009,0.07635109509704896,0.11237318063729872,0.07635109509704896
2022-11-14,-0.05621059644354909,-0.05621059644354909,-0.05621059644354909,-0.05621059644354909,-0.05621059644354909,-0.05621059644354909,-0.050315228451607324,-0.05621059644354909,-0.05621059644354909,0.5
2022-11-15,-0.03913710630800685,-0.021090417099565377,0.14667200388520424,-0.04865894114545107,-0.09976537220654129,0.10157282223462161,0.1087378199455579,-0.27870314290923265,-0.012645020331202607,0.14301735393461631
2022-11-16,0.2207093534311401,0.08962969580210939,0.01891653226073596,-0.23395201204993918,-0.008023248622624489,0.05224445788183338,0.08962969580210939,-0.12657839255332168,0.02887026482207179,-0.13144634677411463
2022-11-17,-0.0012545534089458805,-0.0024110695829289396,-0.023595255927627123,0.1940100109340688,0.037916663192800126,-0.07339172101581104,-0.023595255927627123,-0.18623728528775801,-0.1895148588493019,0.2680733258731311
2022-11-18,-0.11424747270979559,0.06411302443778107,0.06411302443778107,-0.15586868995945596,0.06411302443778107,0.09180340151839007,0.06411302443778107,0.06411302443778107,-0.2298838373307485,0.0876314762927046
2022-11-21,-0.05555555555555556,-0.05555555555555556,-0.05555555555555556,-0.05555555555555556,-0.05555555555555556,-0.05555555555555556,0.4999999999999999,-0.05555555555555556,-0.05555555555555556,-0.05555555555555556
2022-11-22,-0.0625,-0.0625,-0.0625,-0.0625,-0.0625,-0.0625,0.013785937425469692,0.48621406257453037,-0.0625,-0.0625
2022-11-23,0.04661644673089963,0.02988090594938403,-0.19167588130963173,-0.07925594541841074,-0.16398370697926548,-0.06508446629269202,0.04661644673089963,0.128763809634284,0.21385034127444502,0.034272049680087756
2022-11-25,-0.07838105653906029,0.15626061202595196,-0.008210518239696825,-0.22600511968991027,-0.05901311526390091,-0.10030209624641585,0.1027268021770659,0.15324677558911143,-0.02808809402101583,0.08776581020787069
2022-11-28,0.03705532502870609,0.03705532502870609,-0.10234670139728279,0.3803746078591795,-0.005815122238598404,-0.09266794494856997,0.03705532502870609,0.008459417054702201,-0.17638901504292664,-0.12278121637262214
2022-11-29,-0.055555555555555566,-0.055555555555555566,-0.055555555555555566,-0.055555555555555566,-0.055555555555555566,-0.055555555555555566,0.5000000000000001,-0.055555555555555566,-0.055555555555555566,-0.055555555555555566
2022-11-30,-0.03003467050553759,-0.03003467050553759,-0.03003467050553759,-0.03003467050553759,0.2578169797543174,-0.03003467050553759,-0.28975730646123693,-0.03003467050553759,-0.03003467050553759,0.24218302024568267
2022-12-01,-0.018670947078823136,0.09618959445596237,-0.16163458298444563,-0.23868779476405821,0.1485663645530363,-0.04692964151664834,0.09618959445596237,0.1329001029733674,0.026154343561671567,-0.03407703365602468
2022-12-02,0.05304826152971182,0.14898391282342943,-0.003618468732967804,-0.2956117554285696,-0.010042985214288562,-0.07182362248523781,0.14898391282342943,0.14898391282342943,-0.0976468842418791,-0.021256283897057034
2022-12-05,-0.08590006152253304,-0.05663714002650712,-0.1236413349081306,0.1577685189882632,0.13511426421014072,-0.07652690149443021,0.13511426421014072,0.07200295259145535,-0.12058415462832393,-0.03671040742007501
2022-12-06,-0.011715412032933078,0.3795507845071528,-0.011715412032933078,-0.41799211576946843,-0.011715412032933078,-0.011715412032933078,0.12044921549284718,-0.011715412032933078,-0.011715412032933078,-0.011715412032933078
2022-12-07,-0.055555555555555566,-0.055555555555555566,-0.055555555555555566,-0.055555555555555566,-0.055555555555555566,-0.055555555555555566,0.5,-0.055555555555555566,-0.055555555555555566,-0.055555555555555566
2022-12-08,-0.021375209441775615,0.023519120141003793,-0.14681068810577155,-0.12246766126236965,0.0526023679696549,-0.15691635029135872,0.023519120141003793,0.37684027160733374,-0.05243009089872452,0.023519120141003793
2022-12-09,-0.0625,-0.0625,-0.0625,-0.0625,-0.0625,-0.0625,0.22988208834346827,-0.0625,-0.0625,0.27011791165653176
2022-12-12,-0.07142857142857144,-0.07142857142857144,0.19195959751384054,-0.07142857142857144,0.2368177871411963,-0.07142857142857144,0.07122261534496319,-0.07142857142857144,-0.07142857142857144,-0.07142857142857144
2022-12-13,-0.18416008912997586,-0.027091299527216606,0.01258811314482517,-0.07090883332036453,0.21766399058567704,0.054569992629256964,0.10378693617776981,-0.08718189511021164,0.11139096746247104,-0.13065788291223138
2022-12-14,-0.14098139759082373,-0.05860590743197716,0.1430235090737783,-0.1054833093844521,-0.05539733005810147,-0.07549205496857364,0.1430235090737783,0.19028458607844825,-0.06404000056607191,0.0236683957739953
2022-12-15,-0.11594294932158557,-0.005575996267382582,0.005318167884183118,-0.08730637898799515,0.3274212287930147,-0.2551063859738496,0.05575353444093406,0.05575353444093406,-0.03606828944918701,0.05575353444093406
2022-12-16,-0.08702732700296288,0.041568056429333824,-0.150733351451962,0.18615585063270076,0.041568056429333824,-0.16713035711006427,0.041568056429333824,0.07652081199290878,-0.09510896443501075,0.112619168086389
2022-12-19,-0.05535139837255072,-0.010307625332588506,0.04352971455058232,0.03264162103769005,0.08394937976719823,-0.046691432393455225,-0.15324354927019188,-0.15324354927019188,-0.08116244536102182,0.3398792846445293
2022-12-20,-0.055555555555555566,-0.055555555555555566,-0.055555555555555566,-0.055555555555555566,-0.055555555555555566,-0.055555555555555566,0.5000000000000001,-0.055555555555555566,-0.055555555555555566,-0.055555555555555566
2022-12-21,-0.057406001101017665,-0.20318473416871993,-0.01746708354215879,-0.010790027506242122,-0.014417170860377655,-0.12732789539911513,0.21484607908803996,0.21484607908803996,0.07030784182392008,-0.06940708742236866
2022-12-22,-0.11826125666347494,0.2013019244689203,0.20466120898682713,0.05156637419411393,-0.08179813438323957,-0.06331389223835251,-0.11826125666347494,-0.11826125666347494,-0.00010420338798314757,0.04247049235013857
2022-12-23,-0.07099812142370528,-0.18684607139490697,-0.15126174168036033,0.14545885873201286,-0.05922918872646859,-0.03166487677455889,0.0532273452438826,0.0532273452438826,0.10954905878736564,0.1385373919928563
2022-12-27,-0.019688379578866894,-0.019688379578866894,-0.019688379578866894,0.13932276273339472,-0.13772817895334422,-0.1418928047890801,-0.019688379578866894,0.36067723726660533,-0.12193711836324125,-0.019688379578866894
2022-12-28,-0.06249999999999999,-0.06249999999999999,-0.06249999999999999,-0.06249999999999999,-0.06249999999999999,-0.06249999999999999,0.17257101712521816,0.32742898287478184,-0.06249999999999999,-0.06249999999999999
2022-12-29,0.11550408039254191,-0.08333333333333334,-0.08333333333333334,0.1916103149959613,-0.08333333333333334,-0.08333333333333334,0.010310376681049917,0.18257522793044687,-0.08333333333333334,-0.08333333333333334
2022-12-30,-0.10555541015272431,0.12125803917191634,0.06255099997795717,0.02158144848821629,0.11953726512402471,-0.08484867664769899,-0.10555541015272431,-0.10555541015272431,-0.09848509289412813,0.17507224723788545
2023-01-03,-0.06250000000000001,-0.06250000000000001,-0.06250000000000001,-0.06250000000000001,-0.06250000000000001,-0.06250000000000001,0.20311740871347325,0.2968825912865267,-0.06250000000000001,-0.06250000000000001
2023-01-04,0.07256730045442158,-0.13637950035642327,-0.1062901377365007,0.07884616763960535,0.04295897626559788,-0.22943229783417463,0.13887700338065495,0.06627224712780408,-0.02789806407290137,0.10047830513191609
2023-01-05,-0.06249999999999999,-0.06249999999999999,-0.06249999999999999,-0.06249999999999999,-0.06249999999999999,-0.06249999999999999,0.17745095676621192,-0.06249999999999999,-0.06249999999999999,0.3225490432337881
2023-01-06,-0.0625,-0.0625,-0.0625,-0.0625,-0.0625,-0.0625,0.27059039109097793,0.2294096089090221,-0.0625,-0.0625
2023-01-09,-0.07142857142857145,0.27780354353688397,-0.07142857142857145,-0.07142857142857145,0.12971672317072366,-0.07142857142857145,0.09247973329239245,-0.07142857142857145,-0.07142857142857145,-0.07142857142857145
2023-01-10,-0.07678802807591845,0.2388365528539344,0.20788664085476924,-0.07678802807591845,-0.07678802807591845,-0.07678802807591845,-0.03927183154448936,0.05327680629129636,-0.07678802807591845,-0.07678802807591845
2023-01-11,-0.0625,-0.0625,-0.0625,-0.0625,0.22375376260534177,-0.0625,0.27624623739465815,-0.0625,-0.0625,-0.0625
2023-01-12,-0.06249999999999999,0.2960461572281006,-0.06249999999999999,-0.06249999999999999,-0.06249999999999999,-0.06249999999999999,0.20395384277189943,-0.06249999999999999,-0.06249999999999999,-0.06249999999999999
2023-01-13,-0.06249999999999999,-0.06249999999999999,-0.06249999999999999,-0.06249999999999999,-0.06249999999999999,-0.06249999999999999,0.22292542679313196,0.2770745732068681,-0.06249999999999999,-0.06249999999999999
2023-01-17,0.06687683039990956,0.05216028785529265,0.08844397820345137,-0.3067028888099745,-0.03652925189771347,-0.02836130946138707,0.11198650012637595,0.06854590328859454,-0.12840654983092498,0.11198650012637595
2023-01-18,0.017029162806165562,-0.14963002238856085,0.24009973518675506,-0.2195298151140797,0.15611434533709861,-0.1297801389395838,0.026698357666048573,-0.0010600235577755625,0.033360041337883534,0.026698357666048573
2023-01-19,-0.055555555555555546,-0.055555555555555546,-0.055555555555555546,-0.055555555555555546,-0.055555555555555546,-0.055555555555555546,0.4999999999999999,-0.055555555555555546,-0.055555555555555546,-0.055555555555555546
2023-01-20,-0.05555555555555556,-0.05555555555555556,-0.05555555555555556,-0.05555555555555556,-0.05555555555555556,-0.05555555555555556,0.4999999999999999,-0.05555555555555556,-0.05555555555555556,-0.05555555555555556
2023-01-23,0.15503994829768158,-0.03544913263073396,-0.03544913263073396,0.2350103285858348,-0.03544913263073396,-0.03544913263073396,-0.18613551640666987,-0.13661882043966037,-0.03544913263073396,0.10994972311648371
2023-01-24,0.03569601202438314,0.10344492416927471,0.03569601202438314,0.1969463695222004,0.03569601202438314,0.03569601202438314,-0.34563008491670794,-0.15436991508329212,0.02112864618660926,0.03569601202438314
2023-01-25,-0.060010737113061464,-0.060010737113061464,-0.060010737113061464,-0.060010737113061464,-0.060010737113061464,-0.060010737113061464,-0.019914103095508146,0.5,-0.060010737113061464,-0.060010737113061464
2023-01-26,-0.062477571015401356,-0.062477571015401356,-0.062477571015401356,-0.062477571015401356,-0.062477571015401356,-0.062477571015401356,-0.00017943187678908776,0.4999999999999999,-0.062477571015401356,-0.062477571015401356
2023-01-27,-0.10665214608946787,0.008539546914103486,-0.08258462769827947,0.05962293280595266,-0.24916121041748795,0.0015888072810249388,0.32208936185971304,-0.03818745579113446,-0.023414560003630173,0.10815935113920606
2023-01-30,-0.07278390276469472,0.15464795519114213,-0.07278390276469472,-0.07278390276469472,-0.07278390276469472,-0.07278390276469472,-0.06329658341183172,0.010671387112224835,-0.07278390276469472,0.3346806576966331
2023-01-31,-0.055555555555555566,-0.055555555555555566,-0.055555555555555566,-0.055555555555555566,-0.055555555555555566,-0.055555555555555566,0.5000000000000001,-0.055555555555555566,-0.055555555555555566,-0.055555555555555566
2023-02-01,-0.07520357156198577,0.10008399653138021,0.13110669729866292,-0.07520357156198577,0.26880930616995685,-0.07520357156198577,-0.0487785706280854,-0.07520357156198577,-0.07520357156198577,-0.07520357156198577
2023-02-02,0.18960629961421713,0.01996275272761055,0.01996275272761055,0.23054268947534062,-0.09975457909315268,-0.29745376506195315,0.01996275272761055,-0.08562911505951161,-0.01716254078538247,0.01996275272761055
2023-02-03,0.0747116801125447,0.0747116801125447,0.0747116801125447,0.20115327954982112,-0.07187712239792289,-0.15898521777122324,-0.12593685009119415,-0.007891542627871853,-0.1353092671117878,0.0747116801125447
2023-02-06,-0.0625,-0.0625,0.3259026703532957,-0.0625,-0.0625,-0.0625,0.17409732964670432,-0.0625,-0.0625,-0.0625
2023-02-07,-0.3427196059773206,0.13779845082402004,0.13779845082402004,-0.06328433369099608,0.13779845082402004,-0.01677223478669593,-0.002665799986947679,0.06553591242654504,-0.07455802555803959,0.02106873510139494
2023-02-08,-0.011036866379681176,-0.011036866379681176,-0.011036866379681176,-0.011036866379681176,-0.011036866379681176,-0.011036866379681176,-0.18719730511846489,-0.06201285264446901,-0.18456864395897904,0.5
2023-02-09,-0.04369131484670967,-0.04274054140111413,-0.030541357178486783,0.08842161533772418,-0.11092608773495621,-0.056534602301911076,0.022538873440438093,0.022538873440438093,-0.21556609653682207,0.36650063778139963
2023-02-10,-0.06250000000000001,-0.06250000000000001,-0.06250000000000001,-0.06250000000000001,-0.06250000000000001,-0.06250000000000001,0.01875133086667164,-0.06250000000000001,-0.06250000000000001,0.48124866913332837
2023-02-13,-0.0625,-0.0625,-0.0625,-0.0625,-0.0625,-0.0625,0.27113347904325885,0.22886652095674112,-0.0625,-0.0625
2023-02-14,0.08577808098290246,0.07769217139474176,0.1815517041261543,-0.011493669284276392,-0.0825568160846781,-0.0825568160846781,-0.0825568160846781,-0.1582790663770112,-0.0825568160846781,0.1549780434962015
2023-02-15,-0.017730790409797987,-0.02515790485607531,0.08344902971436996,-0.16743014134055406,0.05630997357891257,-0.09149664623839901,0.1801204983533587,-0.09210713767981592,-0.10607737947535788,0.1801204983533587
2023-02-16,-0.12671637434924946,-0.03389882558462989,0.043893483621575406,0.04867186632328264,0.0013068407510340714,-0.14924351595911198,0.043893483621575406,0.04232513683465876,-0.1901412841070087,0.31990918884787367
2023-02-17,-0.13177568127090555,-0.013181241199479,0.11852859503782079,-0.18125676332700577,0.07809517174165496,-0.034609155259859255,0.11852859503782079,-0.06663006610700087,-0.07254709283574962,0.18484763818270344
2023-02-21,-0.021471521193249313,0.4999999999999999,-0.0436519574297331,-0.0436519574297331,-0.0436519574297331,-0.0436519574297331,-0.057693274323811,-0.15892345990454104,-0.0436519574297331,-0.0436519574297331
2023-02-22,-0.05555555555555556,-0.05555555555555556,-0.05555555555555556,-0.05555555555555556,-0.05555555555555556,-0.05555555555555556,0.4999999999999999,-0.05555555555555556,-0.05555555555555556,-0.05555555555555556
2023-02-23,-0.16825375074684307,0.0552245601895155,0.0552245601895155,0.23446535104412952,-0.0084747531728833,-0.15097048902097793,0.0552245601895155,-0.1004009294258418,-0.07190007763345388,0.0998609683873239
2023-02-24,-0.06183981810848737,-0.06183981810848737,0.1146157803799581,-0.06183981810848737,-0.06183981810848737,-0.06183981810848737,-0.0671212732405885,0.3853842196200419,-0.06183981810848737,-0.06183981810848737
2023-02-27,-0.07792109216426349,0.050216610257375005,0.003723164278199222,0.24893868393962515,0.06787985581789065,-0.18919943195059422,-0.07792109216426349,-0.07792109216426349,-0.07703729155661518,0.12924168570690997
2023-02-28,-0.1535769518337932,0.1037942525832621,0.1730011115467621,-0.08507066161574735,0.015616130703451617,-0.07285303904809481,0.1037942525832621,-0.07925480236644061,-0.10924454513592405,0.1037942525832621
2023-03-01,-0.06249999999999999,-0.06249999999999999,0.3373218978320409,-0.06249999999999999,-0.06249999999999999,-0.06249999999999999,0.16267810216795908,-0.06249999999999999,-0.06249999999999999,-0.06249999999999999
2023-03-02,-0.06983898639948286,0.18555988651088023,-0.06983898639948286,-0.06983898639948286,0.3144401134891197,-0.06983898639948286,-0.011127095203620109,-0.06983898639948286,-0.06983898639948286,-0.06983898639948286
2023-03-03,0.16322835390774582,-0.06125994876788446,0.09359667478885118,-0.18158589065919375,-0.07655242944888319,0.005245009310914163,-0.06125994876788446,-0.06125994876788446,0.23792996199248884,-0.05808183358826974
2023-03-06,-0.14063548139130172,0.11118954218076701,-0.010720153623883868,0.08196630797314414,0.06094522592665637,-0.06132043486628973,0.08196630797314414,0.08196630797314414,-0.2873239301185247,0.08196630797314414
2023-03-07,-0.055555555555555566,-0.055555555555555566,-0.055555555555555566,-0.055555555555555566,-0.055555555555555566,-0.055555555555555566,0.5,-0.055555555555555566,-0.055555555555555566,-0.055555555555555566
2023-03-08,-0.08895093332121112,-0.06684720673679655,-0.10123826860216237,0.17663719241038767,-0.041890507396857624,0.11838957164972817,0.17663719241038767,-0.15152581859253472,-0.04954726535043763,0.028336043529496365
2023-03-09,-0.11264172742711691,0.030167302466733322,0.030167302466733322,0.30049112809668166,-0.06902078953960901,-0.10639746638070229,0.030167302466733322,0.07734957453568646,-0.21194001665257178,0.03165738996743193
2023-03-10,0.08279359899128731,0.18293585248630576,-0.0020111872279841396,-0.11177339499474216,-0.050895232793047196,0.22485911691618296,-0.11177339499474216,-0.11177339499474216,-0.11177339499474216,0.00941143160622388
2023-03-13,-0.06249999999999999,-0.06249999999999999,-0.06249999999999999,-0.06249999999999999,0.40414218884436626,-0.06249999999999999,0.09585781115563372,-0.06249999999999999,-0.06249999999999999,-0.06249999999999999
2023-03-14,-0.10195886279043812,0.06585613560921172,0.1432314609278874,-0.10195886279043812,-0.0016321521314311116,0.12209915026745943,-0.09053239670681643,-0.10195886279043812,-0.10195886279043812,0.16881325319544135
2023-03-15,-0.07142857142857144,0.20425893340600088,0.22666566942816946,-0.07142857142857144,-0.07142857142857144,-0.07142857142857144,0.06907539716582974,-0.07142857142857144,-0.07142857142857144,-0.07142857142857144
2023-03-16,-0.07550263845176682,-0.07550263845176682,0.10206757486500861,-0.07550263845176682,-0.07550263845176682,0.09069680306691086,-0.09620326471949385,-0.07550263845176682,-0.02628354302167222,0.30723562206808047
2023-03-17,0.10846433074115207,-0.07893911300461359,-0.07893911300461359,0.0773514262649576,-0.07893911300461359,-0.07893911300461359,-0.1053044349769321,0.08076823044190573,-0.07893911300461359,0.2334160125519845
2023-03-20,-0.08174547764620221,0.09355074008036439,0.11052586261192066,0.08584206672666049,-0.08174547764620221,-0.08174547764620221,-0.09127261176898896,0.21008133058105444,-0.08174547764620221,-0.08174547764620221
2023-03-21,-0.1564875292479831,0.08881730363953533,0.08881730363953533,0.08881730363953533,-0.12163382620196046,-0.07812753477965886,0.055913481802323334,0.08881730363953533,-0.14375110977039748,0.08881730363953533
2023-03-22,-0.07142857142857142,-0.07142857142857142,0.10842819013363832,-0.07142857142857142,-0.07142857142857142,-0.07142857142857142,0.13329605160868438,-0.07142857142857142,-0.07142857142857142,0.2582757582576773
2023-03-23,0.07742356209672913,-0.00033266744075717184,-0.18211621049173546,-0.00033266744075717184,-0.030245997490746045,0.07129147695450112,-0.00033266744075717184,-0.08066857761041146,-0.20597121208483551,0.35128496094876976
2023-03-24,-0.07136692952823072,-0.1083744053958559,-0.07136692952823072,0.1999022466573138,-0.07136692952823072,-0.07136692952823072,-0.07136692952823072,-0.014785635263868904,-0.020005311699121585,0.30009775334268624
2023-03-27,-0.10858823093276421,0.06605898108814882,0.06605898108814882,0.16970509455925592,-0.14511267429962055,-0.11618259614695985,0.06605898108814882,0.06605898108814882,-0.1301164986206554,0.06605898108814882
2023-03-28,-0.0625,0.4029203964651677,-0.0625,-0.0625,-0.0625,-0.0625,0.0970796035348324,-0.0625,-0.0625,-0.0625
2023-03-29,-0.07142857142857142,0.16157478319002683,-0.07142857142857142,-0.07142857142857142,-0.07142857142857142,-0.07142857142857142,0.012542569931861584,-0.07142857142857142,-0.07142857142857142,0.3258826468781115
2023-03-30,-0.07736913634609269,-0.07736913634609269,0.12082104952577576,-0.07736913634609269,-0.07736913634609269,-0.07736913634609269,-0.03578518192344384,0.2369578283231467,-0.07736913634609269,0.14222112215107746
2023-03-31,0.026635488826081074,-0.06270473328147527,-0.051160099918540154,-0.06270473328147527,-0.09607122440056402,-0.06270473328147527,-0.10194974255499485,-0.06270473328147527,0.3393118232350719,0.13405268793884703
2023-04-03,-0.18159345059614565,0.2376095902486015,0.016911618131014508,0.06490350710755628,0.05076827029771509,-0.08272644342462225,0.06490350710755628,-0.07276364894256616,-0.162916457036666,0.06490350710755628
2023-04-04,-0.19481193460333146,0.030439307440927307,-0.041667049665679155,0.06440781511363275,-0.12293051986293696,-0.14059049586805236,0.030439307440927307,0.030439307440927307,0.043287603346054186,0.30098665921753115
2023-04-05,-0.06610080176779459,-0.06610080176779459,0.3845804379736824,-0.06610080176779459,0.08036405826792796,-0.06610080176779459,-0.1033951893932324,-0.06610080176779459,-0.06610080176779459,0.03505550375838959
2023-04-06,-0.055555555555555566,-0.055555555555555566,-0.055555555555555566,-0.055555555555555566,-0.055555555555555566,-0.055555555555555566,0.5000000000000001,-0.055555555555555566,-0.055555555555555566,-0.055555555555555566
2023-04-10,-0.12098141617286075,0.05171194712749174,0.05171194712749174,0.09826654286648855,-0.039318919841379,-0.22426469176803218,0.05171194712749174,0.09553316379334878,0.15106445195768733,-0.11543497221772814
2023-04-11,-0.0962568690571301,0.0989560341681679,-0.09218260624643017,0.12290363149627671,0.02392729041617405,0.056300975583045525,0.0989560341681679,0.0989560341681679,-0.07029479738429216,-0.2412657273121475
2023-04-12,0.22632743556431445,0.19236534568496003,0.047555044636043924,-0.08333333333333334,-0.08333333333333334,-0.08333333333333334,-0.08333333333333334,0.03375217411468149,-0.08333333333333334,-0.08333333333333334
2023-04-13,-0.07142857142857144,-0.07142857142857144,0.00809854688304791,0.46677689784603654,-0.07142857142857144,-0.07142857142857144,0.025124555270915554,-0.07142857142857144,-0.07142857142857144,-0.07142857142857144
2023-04-14,-0.07840221536942224,-0.07840221536942224,-0.07840221536942224,-0.029586707783466525,-0.07840221536942224,-0.07840221536942224,0.210481779334833,0.09878588066599578,-0.07840221536942224,0.1907323399991712
2023-04-17,-0.062499999999999986,-0.062499999999999986,-0.062499999999999986,0.02445180424436592,-0.062499999999999986,-0.062499999999999986,0.4755481957556341,-0.062499999999999986,-0.062499999999999986,-0.062499999999999986
2023-04-18,0.07663063419221687,0.3346266152640041,-0.07142857142857144,-0.07142857142857144,-0.07142857142857144,-0.07142857142857144,0.08874275054377914,-0.07142857142857144,-0.07142857142857144,-0.07142857142857144
2023-04-19,-0.1057491204112547,-0.04390427406280125,0.1517306659202417,-0.04993747135109071,-0.17948776766700716,-0.12092136650784606,0.04145373429315402,0.04145373429315402,0.16340018535783288,0.10196168013561735
2023-04-20,-0.06813340782431371,0.3603620908873253,-0.06813340782431371,-0.06813340782431371,-0.06813340782431371,-0.06813340782431371,-0.06813340782431371,0.13963790911267457,-0.06813340782431371,-0.02306614522980403
2023-04-21,-0.006358272195152238,-0.016825677780797715,0.2082028416424947,-0.2558722950898264,-0.15364104381103277,-0.016825677780797715,-0.016825677780797715,-0.016825677780797715,-0.016825677780797715,0.2917971583575053
2023-04-24,0.014370329459850041,0.17036447904452678,-0.03893702172246163,-0.04968151644582884,-0.13203093115699668,-0.10704805240512172,0.17036447904452678,0.14490071245109634,-0.10267359793386165,-0.06962888033572945
2023-04-25,-0.07142857142857142,0.04245682407275814,-0.07142857142857142,-0.07142857142857142,-0.07142857142857142,0.3446891067817892,0.1128540691454528,-0.07142857142857142,-0.07142857142857142,-0.07142857142857142
2023-04-26,-0.09154260439676587,0.07719186843630181,0.08631071676938311,-0.09154260439676587,0.27584171357127796,-0.09154260439676587,-0.04228697801617063,0.060655701223037164,-0.09154260439676587,-0.09154260439676587
2023-04-27,-0.07142857142857144,-0.07142857142857144,-0.07142857142857144,-0.07142857142857144,-0.07142857142857144,-0.07142857142857144,0.135255602539775,0.1376678013684829,0.22707659609174202,-0.07142857142857144
2023-04-28,-0.0625,-0.0625,-0.0625,0.11976052719656875,-0.0625,-0.0625,0.38023947280343123,-0.0625,-0.0625,-0.0625
2023-05-01,-0.016508501381788717,0.19447453964489583,0.086908181449824,-0.09072273321019955,-0.02837844516410669,0.05440277018617,0.086908181449824,0.07730632726928627,-0.3479392805849251,-0.016451039658979913
2023-05-02,-0.12280971781481265,0.07376793818338395,0.0813997537582687,0.07571034738200076,-0.06724841842981846,-0.02553590933184179,0.07571034738200076,0.19341161329434586,-0.07308996881353116,-0.2113159856099959
2023-05-03,-0.053467978559381076,-0.008361396451338033,-0.053467978559381076,-0.053467978559381076,-0.053467978559381076,-0.07918320781823142,-0.053467978559381076,0.19851411809603695,-0.14511550293352513,0.301485881903963
2023-05-04,0.2385653196209631,-0.07142857142857144,-0.07142857142857144,-0.07142857142857144,-0.07142857142857144,-0.07142857142857144,0.119566809436048,0.14186787094298883,-0.07142857142857144,-0.07142857142857144
2023-05-05,-0.07142857142857144,-0.07142857142857144,0.24018646977028177,-0.07142857142857144,-0.07142857142857144,-0.07142857142857144,0.07332649747821986,-0.07142857142857144,-0.07142857142857144,0.1864870327514984
2023-05-08,-0.2496378094748172,0.1149419730356831,-0.06020886021446013,-0.08232643479842014,0.007357864002217332,-0.10782689551230257,0.058783426398214406,0.058783426398214406,0.1627262679754017,0.09740704219026905
2023-05-09,-0.06940359191491423,0.15341956097636478,0.3465804390236353,-0.06940359191491423,-0.06940359191491423,-0.06940359191491423,-0.014174856595600534,-0.06940359191491423,-0.06940359191491423,-0.06940359191491423
2023-05-10,-0.09085614562726525,0.03891670527432381,0.36192887191732165,-0.09085614562726525,-0.045719271863673645,-0.09085614562726525,-0.09085614562726525,0.08240389455589203,-0.09085614562726525,0.0167505282524626
2023-05-11,-0.1763683963075641,0.05708994929221926,0.1346500187725248,0.05708994929221926,-0.08440093408741586,-0.10064199451406676,0.05708994929221926,0.05708994929221926,0.13699018405859814,-0.13858867509095327
2023-05-12,-0.07142857142857141,0.014658877094043411,-0.07142857142857141,-0.07142857142857141,0.15406470991110371,-0.07142857142857141,0.33127641299485294,-0.07142857142857141,-0.07142857142857141,-0.07142857142857141
2023-05-15,-0.07142857142857142,0.16384350249599627,0.3015272152517673,-0.07142857142857142,-0.07142857142857142,-0.07142857142857142,0.0346292822522364,-0.07142857142857142,-0.07142857142857142,-0.07142857142857142
2023-05-16,-0.07142857142857144,-0.07142857142857144,-0.07142857142857144,0.2549881184775039,-0.07142857142857144,-0.07142857142857144,0.11113782929023572,0.13387405223226032,-0.07142857142857144,-0.07142857142857144
2023-05-17,-0.05555555555555556,-0.05555555555555556,-0.05555555555555556,-0.05555555555555556,-0.05555555555555556,-0.05555555555555556,0.4999999999999999,-0.05555555555555556,-0.05555555555555556,-0.05555555555555556
2023-05-18,-0.04428529113035839,0.05719536930718043,-0.1870546130613239,-0.01749475711676261,-0.13688962805153687,-0.10708169048490807,0.05719536930718043,0.3284138920784587,-0.00719402015511019,0.05719536930718043
2023-05-19,-0.06709542726875967,-0.06709542726875967,0.08548067825300522,-0.06709542726875967,-0.053151863669767624,-0.04427557271767445,-0.06709542726875967,0.4145193217469947,-0.06709542726875967,-0.06709542726875967
2023-05-22,-0.17473583821192945,0.048083687982178006,0.12025986778274216,-0.05421693329029271,0.010177478975028997,-0.18117911882675716,0.12025986778274216,-0.08986810967102077,0.12025986778274216,0.08095922969456647
2023-05-23,-0.03182635772995179,0.33449520092801804,0.025178677956513778,0.025178677956513778,0.014432731332899271,-0.46817364227004815,0.025178677956513778,0.025178677956513778,0.025178677956513778,0.025178677956513778
2023-05-24,-0.055555555555555566,-0.055555555555555566,-0.055555555555555566,-0.055555555555555566,-0.055555555555555566,-0.055555555555555566,0.5000000000000001,-0.055555555555555566,-0.055555555555555566,-0.055555555555555566
2023-05-25,-0.06329341999021348,0.29158584922176933,-0.06329341999021348,-0.06329341999021348,-0.06329341999021348,-0.06329341999021348,-0.05694606006850564,0.20841415077823064,-0.06329341999021348,-0.06329341999021348
2023-05-26,-0.06909590346438897,0.02692435794394555,-0.06909590346438897,-0.06909590346438897,-0.06909590346438897,-0.06909590346438897,-0.016328675749277072,0.47307564205605446,-0.06909590346438897,-0.06909590346438897
2023-05-30,0.011208002167545895,-0.1387135350562324,-0.10535345577343438,-0.131336836649545,0.09849141822531927,-0.12459617252078817,0.05608817011354141,0.05267691559240654,0.025756997219306698,0.25577849668188024
2023-05-31,-0.055555555555555546,-0.055555555555555546,-0.055555555555555546,-0.055555555555555546,-0.055555555555555546,-0.055555555555555546,0.4999999999999999,-0.055555555555555546,-0.055555555555555546,-0.055555555555555546
2023-06-01,-0.07146933485522156,-0.04628562471916142,-0.09636770100473087,0.243234234992811,-0.07146933485522156,-0.07146933485522156,-0.07146933485522156,0.03623627101043636,-0.07146933485522156,0.22052949399675267
2023-06-02,-0.05942676423328577,-0.09698623155231893,-0.037405485685623574,-0.05942676423328577,-0.05942676423328577,-0.05942676423328577,-0.05942676423328577,-0.00904769736234277,-0.05942676423328577,0.5
2023-06-05,-0.015373629561582988,-0.0010489368606580096,0.020059006266052615,0.028178340527779216,-0.45283017445459306,-0.015373629561582988,-0.015373629561582988,0.028689847505132555,0.3683772038017858,0.05469560189924991
2023-06-06,-0.06857269460404201,0.06520043793495205,0.06520043793495205,0.14270068418022086,-0.19346001564565565,-0.18943172545807116,0.06520043793495205,0.05641107278694526,-0.04853556429223119,0.1052869292279777
2023-06-07,-0.07419903594370154,0.1009565039169765,-0.07419903594370154,-0.07419903594370154,-0.07419903594370154,-0.07419903594370154,-0.05480578433779072,0.11011549986854614,-0.07419903594370154,0.2889279962144774
2023-06-08,-0.052292174836951026,-0.052292174836951026,-0.052292174836951026,-0.052292174836951026,-0.052292174836951026,-0.052292174836951026,-0.13395477614134277,0.24334313502739333,-0.052292174836951026,0.2566568649726066
2023-06-09,-0.05925321842737975,0.2717569598255777,-0.05925321842737975,-0.05925321842737975,-0.05925321842737975,-0.05925321842737975,-0.08522747100834172,-0.05925321842737975,-0.05925321842737975,0.22824304017442232
2023-06-12,-0.07142857142857142,-0.07142857142857142,-0.07142857142857142,-0.07142857142857142,-0.07142857142857142,-0.07142857142857142,0.037514606308569745,0.0909299092041788,-0.07142857142857142,0.37155548448725145
2023-06-13,-0.0625,-0.0625,-0.0625,-0.0625,-0.0625,-0.0625,0.07219994562591117,-0.0625,-0.0625,0.4278000543740888
2023-06-14,0.015546973657087999,-0.14219091275492554,-0.00320479632689594,0.06527398926758814,0.15395689950214259,0.18399055305787937,-0.14219091275492554,-0.14219091275492554,0.08123158451530181,-0.07022246540832752
2023-06-15,-0.25388397280569097,0.03185015528766258,0.03185015528766258,0.024167728323780738,-0.16171920975322326,0.03185015528766258,-0.046005291687343554,-0.03839152575374218,0.348431650525569,0.03185015528766258
2023-06-16,-0.056995138446167624,-0.056995138446167624,-0.056995138446167624,-0.056995138446167624,-0.056995138446167624,-0.056995138446167624,-0.04403889243065904,0.5000000000000001,-0.056995138446167624,-0.056995138446167624
2023-06-20,-0.13812436414599347,-0.07143535534395909,0.08475822072643771,0.0009849244540410596,-0.16193606498692234,-0.12850421552312505,0.08475822072643771,0.08475822072643771,0.16327575755174725,0.08146465581489865
2023-06-21,0.13063586179844794,0.18371266941469552,0.14855624465290804,-0.08333333333333333,-0.08333333333333333,-0.08333333333333333,-0.08333333333333333,-0.08333333333333333,-0.08333333333333333,0.037095224133948466
2023-06-22,-0.08452491028579794,-0.05506303139832519,-0.04667293423935922,-0.08639726910602535,0.1689336990566317,-0.15914991368257358,0.08505826075000149,0.08505826075000149,0.16094977944336536,-0.0681919412879188
2023-06-23,-0.06962336499037657,-0.03522902449647537,0.12060139677116692,0.13819580968649917,-0.223152572987154,-0.07424307039549775,0.12060139677116692,0.12060139677116692,-0.08588026489810742,-0.011871702232388872
2023-06-26,-0.0625,-0.0625,-0.0625,-0.0625,-0.0625,-0.0625,0.2814036899845552,0.21859631001544477,-0.0625,-0.0625
2023-06-27,0.040987902641869765,-0.18162846223993678,0.3732314045845911,-0.08758912589877767,-0.08758912589877767,-0.01243656514309708,-0.08758912589877767,0.04450992062507766,-0.043167594920633226,0.04127077214846146
2023-06-28,-0.07517866563088853,-0.05136941488644253,-0.05136941488644253,0.2948537629578085,-0.05136941488644253,-0.08051761137671379,-0.05136941488644253,-0.08745664856018506,0.20514623704219143,-0.05136941488644253
2023-06-29,-0.0625,-0.0625,-0.0625,-0.0625,-0.0625,-0.0625,0.18912122533888795,-0.0625,-0.0625,0.3108787746611121
2023-06-30,-0.06846692773013462,-0.06846692773013462,-0.06846692773013462,0.07780687852172566,-0.06846692773013462,-0.06846692773013462,-0.08919843361919227,0.37240873612582603,-0.06846692773013462,0.049784385352448265
2023-07-03,-0.06502104513754221,-0.06502104513754221,0.21885639617526984,-0.06502104513754221,0.27036956011461,-0.06502104513754221,-0.06502104513754221,-0.10987372917474673,0.010774043710120178,-0.06502104513754221
2023-07-05,-0.021007360326098665,0.03494098643486409,0.03494098643486409,0.03494098643486409,-0.29283026316588734,0.2903540813908155,0.03494098643486409,0.03494098643486409,-0.186162376508014,0.03494098643486409
2023-07-06,-0.02775772278256149,0.21723593487439624,-0.02775772278256149,0.25728599243030165,-0.33345366330463105,-0.02775772278256149,0.025478072695302067,-0.02775772278256149,-0.02775772278256149,-0.02775772278256149
2023-07-07,-0.08333333333333333,-0.08333333333333333,-0.08333333333333333,0.05555331651650495,0.0800013311419766,-0.08333333333333333,-0.08333333333333333,-0.08333333333333333,0.07311299897057824,0.2913323533709402
2023-07-10,-0.08372226796828819,0.12178952687492098,0.08645517627662379,0.24169011735003537,0.050065179498420015,-0.08372226796828819,-0.08138866015855904,-0.08372226796828819,-0.08372226796828819,-0.08372226796828819
2023-07-11,-0.055555555555555566,-0.055555555555555566,-0.055555555555555566,-0.055555555555555566,-0.055555555555555566,-0.055555555555555566,0.5000000000000001,-0.055555555555555566,-0.055555555555555566,-0.055555555555555566
2023-07-12,-0.07142857142857144,0.11139745931199498,0.25193221383927344,-0.07142857142857144,-0.07142857142857144,-0.07142857142857144,0.13667032684873168,-0.07142857142857144,-0.07142857142857144,-0.07142857142857144
2023-07-13,-0.09331563483798415,-0.05832596867995313,0.10331729006945514,0.054425500786694885,-0.04111221099541402,0.13751320885106777,-0.04111221099541402,0.04960413527074399,-0.2661339744912347,0.1551398650220383
2023-07-14,0.2004154402347204,-0.08333333333333336,-0.08333333333333336,0.20549646953617268,-0.08333333333333336,-0.08333333333333336,0.04786213070056123,0.04622595952854569,-0.08333333333333336,-0.08333333333333336
2023-07-17,-0.0625,-0.0625,-0.0625,-0.0625,-0.0625,0.4256693793329335,0.07433062066706643,-0.0625,-0.0625,-0.0625
2023-07-18,0.1132042976932728,0.3036251204571365,-0.06434784147721509,-0.09021390794197233,0.0831705818495906,-0.06434784147721509,-0.06434784147721509,-0.06434784147721509,-0.0931489815960784,-0.05924574455308895
2023-07-19,-0.1639854049273809,0.020218759978009954,0.020218759978009954,0.09925645740127048,0.020218759978009954,-0.20433134149814344,0.020218759978009954,0.020218759978009954,-0.13168325357447572,0.2996497427086798
2023-07-20,-0.13073638819028638,0.056351147323832555,0.15897168725559208,-0.21610405817413073,0.05421318238571352,-0.08997442323914402,0.05421318238571352,-0.02173548360386209,-0.041449646792576816,0.17625080064914833
2023-07-21,-0.08974836284968331,-0.08974836284968331,0.10328335132557133,0.19099053640150737,-0.08974836284968331,-0.08974836284968331,-0.051258185751583446,0.16141675419184462,-0.08974836284968331,0.04430935808107674
2023-07-24,-0.055555555555555566,-0.055555555555555566,-0.055555555555555566,-0.055555555555555566,-0.055555555555555566,-0.055555555555555566,0.5,-0.055555555555555566,-0.055555555555555566,-0.055555555555555566
2023-07-25,-0.06487240409769443,-0.06487240409769443,0.4411000849490038,-0.08432911875677136,0.0588999150509961,-0.06487240409769443,-0.06487240409769443,-0.06487240409769443,-0.06487240409769443,-0.026436456657062055
2023-07-26,-0.05818786988930593,-0.041198199256530635,-0.10211089899460118,-0.05818786988930593,0.5,-0.05818786988930593,-0.007563682413032573,-0.05818786988930593,-0.05818786988930593,-0.05818786988930593
2023-07-27,-0.08333333333333336,0.25215707560709205,0.07878062755807108,-0.08333333333333336,-0.08333333333333336,-0.08333333333333336,0.012850092711163675,0.1562122041236733,-0.08333333333333336,-0.08333333333333336
2023-07-28,0.031048876108611356,0.13020144317602914,-0.08425170277963046,-0.013351904203017169,-0.08425170277963046,-0.08425170277963046,-0.08425170277963046,-0.06538958189883062,0.3387496807153595,-0.08425170277963046
2023-07-31,-0.21258396457542456,0.004783806507889599,0.004783806507889599,-0.28741603542457544,0.0854492952132547,0.027805751686530437,0.004783806507889599,0.004783806507889599,0.36282592056076685,0.004783806507889599
2023-08-01,-0.17121231383313157,0.15781659275537513,-0.04776929858537805,-0.09937086458848698,-0.059282426457709786,-0.07789959328140153,0.15781659275537513,0.020644368752593744,-0.04446550325389201,0.1637224457366561
2023-08-02,-0.07976613855090386,0.08981660673064866,-0.07976613855090386,0.00961284731905772,-0.07976613855090386,-0.07976613855090386,-0.021403168694576896,0.40057054595029357,-0.07976613855090386,-0.07976613855090386
2023-08-03,-0.056124190105685624,0.4999999999999999,-0.056124190105685624,-0.056124190105685624,-0.056124190105685624,-0.056124190105685624,-0.051006479154514894,-0.056124190105685624,-0.056124190105685624,-0.056124190105685624
2023-08-04,-0.08333333333333334,0.01646161932992004,0.11651946203994726,-0.08333333333333334,-0.08333333333333334,-0.08333333333333334,0.033093844793080175,-0.08333333333333334,-0.08333333333333334,0.3339250738370526
2023-08-07,0.22846001068675556,0.08731909558616537,0.0010212431885244587,-0.1395660721119427,-0.07363635972394372,-0.07672494112853498,0.08731909558616537,0.048780297239339535,-0.21007262703557864,0.04710025771304964
2023-08-08,0.023654518296438845,-0.023042378388126974,-0.05919727569444936,-0.23041072052807246,-0.10649331395220747,0.0027890736215798566,0.13567932201843372,-0.08085631143714382,0.21412107826417248,0.12375600779937501
2023-08-09,-0.07919816006730966,-0.024612155037950365,-0.13503935807698755,-0.07919816006730966,-0.023555846615823422,0.0615441742482031,-0.07919816006730966,0.2469450649939184,0.1915107607578785,-0.07919816006730966
2023-08-10,0.1043739174952582,-0.05095626601144376,-0.06659082809465595,0.1621375304729394,-0.23097703610428288,-0.068038288384894,-0.004358622998512432,-0.07595749400075312,-0.003121464405457866,0.2334885520318024
2023-08-11,-0.05555555555555556,-0.05555555555555556,-0.05555555555555556,-0.05555555555555556,-0.05555555555555556,-0.05555555555555556,0.4999999999999999,-0.05555555555555556,-0.05555555555555556,-0.05555555555555556
2023-08-14,-0.081881630616077,0.06566106290253361,0.06566106290253361,0.06566106290253361,-0.07830399597278888,0.03553581999289128,0.13615886549444056,0.06566106290253361,-0.33981437341113413,0.06566106290253361
2023-08-15,0.05100189010989877,0.07115394082581565,-0.2788430665310561,-0.10578966464154152,0.07115394082581565,0.16438234658683862,0.07115394082581565,0.07115394082581565,-0.07413396897883144,-0.041233299848570944
2023-08-16,-0.1229297328893591,-0.02029946800065779,0.15926048251985417,-0.13416626690065483,0.0889314683074334,-0.047276456417904796,0.07394511255784561,0.0889314683074334,-0.1753280757914235,0.0889314683074334
2023-08-17,0.06200014222028442,-0.08333333333333331,-0.08333333333333331,0.026017900609988515,-0.08333333333333331,-0.08333333333333331,-0.08333333333333331,-0.08333333333333331,0.027730255216161733,0.3842517019535653
2023-08-18,-0.06250000000000001,-0.06250000000000001,-0.06250000000000001,-0.06250000000000001,-0.06250000000000001,-0.06250000000000001,0.2170864425271445,0.2829135574728555,-0.06250000000000001,-0.06250000000000001
2023-08-21,0.22074824181450547,-0.11164215122213733,-0.007763585051100586,-0.04549047420337221,-0.143665862494915,0.0718853247376908,-0.04549047420337221,0.10011319672247534,0.10725323672532847,-0.14594745282510266
2023-08-22,-0.0625,-0.0625,0.3630576755540288,-0.0625,-0.0625,-0.0625,0.13694232444597115,-0.0625,-0.0625,-0.0625
2023-08-23,0.06782209808254369,0.06782209808254369,0.06782209808254369,0.09953047434296051,-0.1067365321411586,-0.19385818245153755,0.06135903524432099,0.06782209808254369,-0.1994052854073039,0.06782209808254369
2023-08-24,0.08984525483649917,-0.04479824766623436,-0.09701204071671017,-0.11939657053901849,-0.11939657053901849,0.07432166593304748,-0.11939657053901849,0.16332792657396406,0.14411663771269254,0.028388514943796718
2023-08-25,-0.0625,-0.0625,-0.0625,-0.0625,-0.0625,-0.0625,0.18248703895335577,-0.0625,-0.0625,0.3175129610466442
2023-08-28,-0.07142857142857141,-0.07142857142857141,0.1711802279762865,-0.07142857142857141,-0.07142857142857141,-0.07142857142857141,0.07525382835645132,0.25356594366726215,-0.07142857142857141,-0.07142857142857141
2023-08-29,0.2831209753983299,-0.07532550568006001,0.06770003573067535,-0.07532550568006001,-0.07532550568006001,-0.07532550568006001,-0.04804696591963993,-0.07532550568006001,-0.07532550568006001,0.14917898887099482
2023-08-30,-0.05628628940038558,0.22777926230988427,-0.05628628940038558,-0.05628628940038558,-0.05628628940038558,-0.05628628940038558,-0.10599597419730097,-0.05628628940038558,-0.05628628940038558,0.27222073769011573
2023-08-31,0.07636707347379361,-0.045092991045281396,-0.23066739442155082,0.15763075407237348,-0.006135513665835793,0.005398795933414189,-0.07270136695577735,-0.07270136695577735,0.2606033765204187,-0.07270136695577735
2023-09-01,-0.09317852755994732,-0.06182032453318225,-0.07648587213643308,-0.06182032453318225,0.1070728683047283,0.20632660830447033,-0.0830543021708906,0.18660052339080133,-0.06182032453318225,-0.06182032453318225
2023-09-05,0.016280849150208734,0.016280849150208734,-0.250282333134754,0.08174991697253604,-0.009877125684842288,-0.08611860308085537,0.016280849150208734,-0.15372193809954843,0.09061066053795347,0.27879687503888423
2023-09-06,-0.07505365629747317,0.26188357272895607,-0.004209504415643635,-0.07505365629747317,-0.08801342060010378,-0.07505365629747317,-0.07505365629747317,-0.10744858719938995,-0.0001138625949699596,0.2381164272710438
2023-09-07,-0.009010520334982326,-0.006778200673996606,0.0829905148400325,0.08643988088763987,-0.12304146850801075,0.3305696042723276,-0.0858655570613819,-0.0858655570613819,-0.13234147637473254,-0.057097219985514064
2023-09-08,-0.07142857142857144,0.18079743514726573,-0.07142857142857144,-0.07142857142857144,0.12938132997427254,-0.07142857142857144,-0.07142857142857144,0.18982123487846173,-0.07142857142857144,-0.07142857142857144
2023-09-11,-0.05083161917779014,-0.05083161917779014,-0.05083161917779014,0.5,-0.05083161917779014,-0.05083161917779014,-0.05083161917779014,-0.05083161917779014,-0.07907563785302821,-0.06510302790244077
2023-09-12,-0.07142857142857142,0.34981784750035766,0.10023878602000469,-0.07142857142857142,-0.07142857142857142,-0.07142857142857142,0.04994336647963776,-0.07142857142857142,-0.07142857142857142,-0.07142857142857142
2023-09-13,0.018228175849399057,-0.09463596154032487,0.01322616916641294,0.3512619489645629,0.11728370601962505,-0.09463596154032487,-0.10284382457710817,-0.07156468557116508,-0.09463596154032487,-0.04168360523075208
2023-09-14,0.07087458344478714,0.11984169675178419,0.014280122711638176,0.06349669825824476,-0.22505803616085004,-0.2323830938871612,0.11984169675178419,0.04361576011387667,0.06804944196788489,-0.04255886995198869
2023-09-15,0.17787380767278096,-0.08101751922775165,-0.04461293218217347,-0.022759893523584093,-0.026257224037017052,-0.08101751922775165,-0.08229987334621883,-0.08101751922775165,0.32212619232721906,-0.08101751922775165
2023-09-18,0.19155555041156147,0.05440754370162713,-0.14525431713506115,-0.0034215624058591618,0.19415459870991783,-0.037129460479064305,0.05440754370162713,0.005474763475266309,-0.21561037213816928,-0.09858428784184602
2023-09-19,-0.0950789406969263,-0.0690717147221309,0.14334340411158653,0.010382413474900251,-0.0831523776953278,-0.2315889338112244,0.14334340411158653,0.025667069896578912,-0.021108033074390714,0.1772637084053478
2023-09-20,0.016955623922037328,0.1057989683610675,0.1057989683610675,-0.09650662563054767,-0.04897059817699306,0.05984850263369264,0.1057989683610675,-0.05483585115211225,-0.29968692504034694,0.1057989683610675
2023-09-21,0.047974341292083916,-0.07854845730650004,-0.07854845730650004,-0.07854845730650004,0.12310402468546112,-0.07854845730650004,0.32892163402245506,-0.07854845730650004,-0.07854845730650004,-0.028709256160999688
2023-09-22,-0.07142857142857142,0.21343830180397683,-0.07142857142857142,-0.07142857142857142,-0.07142857142857142,-0.07142857142857142,0.23020459237843066,-0.07142857142857142,-0.07142857142857142,0.05635710581759252
2023-09-25,0.11395995982231179,0.11395995982231179,0.11395995982231179,-0.13084335273157155,0.011192148241534043,-0.15706270524126262,0.11395995982231179,0.03296801246921886,-0.17210965921437874,-0.03998428281278709
2023-09-26,-0.07142857142857144,-0.07142857142857144,0.2152127088398613,0.09911740128916674,-0.07142857142857144,-0.07142857142857144,0.18566988987097197,-0.07142857142857144,-0.07142857142857144,-0.07142857142857144
2023-09-27,-0.09999999999999998,-0.09999999999999998,0.11854470772300933,0.16314306420730243,-0.09999999999999998,-0.09999999999999998,0.13578885558195986,0.04712904817554095,-0.09999999999999998,0.03539432431218747
2023-09-28,0.05957863232059852,0.10090002613934142,-0.09999999999999998,-0.09999999999999998,-0.09999999999999998,0.11839770938258881,0.1734263066990119,0.047697325458459346,-0.09999999999999998,-0.09999999999999998
2023-09-29,-0.07142857142857144,0.09183508438180271,0.2072193460640624,-0.07142857142857144,-0.07142857142857144,-0.07142857142857144,0.20094556955413492,-0.07142857142857144,-0.07142857142857144,-0.07142857142857144
2023-10-02,0.11956539302860365,0.18269047056252177,-0.034121418578280265,-0.008338267929080656,-0.10841271524936652,-0.2763599139049599,0.18269047056252177,0.015053665846352692,-0.019768445962059483,-0.05299923837625326
2023-10-03,-0.10000000000000002,0.04835977689243851,0.10662148017827278,-0.10000000000000002,-0.10000000000000002,-0.10000000000000002,0.02033198036363619,0.16415144978186308,-0.10000000000000002,0.1605353127837894
2023-10-04,0.09610685617478697,-0.08333333333333334,-0.08333333333333334,0.03542041009823326,-0.08333333333333334,-0.08333333333333334,0.13728515977671474,-0.08333333333333334,0.2311875739502651,-0.08333333333333334
2023-10-05,-0.09999999999999999,0.04049288693570415,0.07792669839635324,0.1377184146169992,0.1575925808660671,-0.09999999999999999,0.08626941918487632,-0.09999999999999999,-0.09999999999999999,-0.09999999999999999
2023-10-06,0.1804086003912028,0.05691884083942674,0.048681609108863,-0.1809214617432999,0.07285913773797065,0.14113181192253682,-0.07405669453024004,-0.09378803992498819,-0.07717710927123182,-0.07405669453024004
2023-10-09,-0.07142857142857142,0.0943367972903754,-0.07142857142857142,-0.07142857142857142,-0.07142857142857142,-0.07142857142857142,0.05605234052418638,-0.07142857142857142,-0.07142857142857142,0.3496108621854382
2023-10-10,-0.07142857142857142,0.18462370981855153,0.16117368961053094,-0.07142857142857142,-0.07142857142857142,-0.07142857142857142,0.15420260057091756,-0.07142857142857142,-0.07142857142857142,-0.07142857142857142
2023-10-11,0.04365148786232173,0.06917479047953153,-0.08697695895851984,-0.08697695895851984,-0.08697695895851984,-0.08697695895851984,-0.06511520520740077,-0.08697695895851984,0.1504549141679271,0.23671880749021965
2023-10-12,-0.11589156562327885,0.017868967544288083,-0.07719563736300203,0.23940819813608716,-0.22652422171731135,-0.08038857529640776,0.017868967544288083,0.017868967544288083,0.07800843391804418,0.12897646531300438
2023-10-13,-0.08333333333333333,0.18948076189800694,0.08993715262792802,-0.08333333333333333,-0.08333333333333333,-0.08333333333333333,0.0477426052597276,-0.08333333333333333,-0.08333333333333333,0.17283948021433748
2023-10-16,-0.2586920705869011,-0.10334491630052398,0.07095553094704621,-0.07937035895194507,0.10346527802283609,-0.05769111045039811,-0.0009015437102317498,0.0789066109202013,0.1769411104427679,0.06973146966714842
2023-10-17,-0.029996175082290126,0.1156444831231455,-0.06262759537271237,-0.09883173139235316,-0.14825030134317133,0.006790404578475216,0.1156444831231455,0.1156444831231455,-0.16029419680947302,0.1462761460520882
2023-10-18,0.01838209415030086,0.12329015849412268,0.006705047419843221,-0.024930705347500377,-0.15113217738132398,0.12575824241328792,0.042712680565095716,0.09157588847867483,-0.32393711727117563,0.09157588847867483
2023-10-19,-0.12294958976575035,0.10553869586638837,-0.09582960022044355,-0.15980091109784225,-0.03455311730394926,-0.08686678161201455,0.10553869586638837,0.10553869586638837,0.07784521653444652,0.10553869586638837
2023-10-20,-0.06249999999999999,-0.06249999999999999,-0.06249999999999999,-0.06249999999999999,-0.06249999999999999,-0.06249999999999999,0.2550458587599304,-0.06249999999999999,-0.06249999999999999,0.24495414124006953
2023-10-23,-0.08333333333333333,0.10780876643415065,0.12356140396997452,-0.08333333333333333,-0.08333333333333333,-0.08333333333333333,0.047521303442069805,-0.08333333333333333,-0.08333333333333333,0.221108526153805
2023-10-24,-0.17949160098100808,0.028800277227333516,0.028800277227333516,-0.027725015956567275,-0.24051216757792215,0.2741116479207581,0.028800277227333516,-0.03562446327905477,0.13948752039724135,-0.016646752205447687
2023-10-25,-0.14280012678879106,0.04303811365014219,0.1123914446490125,0.16828827962683285,-0.0739903953376684,-0.1461044951267688,0.1123914446490125,0.017840154351533515,-0.13710498274677185,0.04605056307346641
2023-10-26,-0.06826325174455006,0.3466200937545161,-0.06826325174455006,-0.06826325174455006,0.1533799062454838,-0.06826325174455006,-0.02215723778814951,-0.06826325174455006,-0.06826325174455006,-0.06826325174455006
2023-10-27,-0.08333333333333336,0.17771453770507342,0.10542076513731607,-0.08333333333333336,-0.08333333333333336,-0.08333333333333336,0.080279238065064,-0.08333333333333336,-0.08333333333333336,0.13658545909254657
2023-10-30,0.00573766006586294,-0.09187913265971458,-0.08098207864522078,0.21508166002206994,-0.08098207864522078,-0.11234545826112873,-0.08098207864522078,0.17842612456868437,0.10075455534338282,-0.05282917314349428
2023-10-31,-0.06249999999999999,0.15944542091091107,-0.06249999999999999,-0.06249999999999999,-0.06249999999999999,-0.06249999999999999,0.3405545790890889,-0.06249999999999999,-0.06249999999999999,-0.06249999999999999
2023-11-01,-0.0625,-0.0625,-0.0625,-0.0625,-0.0625,-0.0625,0.1396614326400726,0.36033856735992736,-0.0625,-0.0625
2023-11-02,-0.055555555555555566,-0.055555555555555566,-0.055555555555555566,-0.055555555555555566,-0.055555555555555566,-0.055555555555555566,0.5000000000000001,-0.055555555555555566,-0.055555555555555566,-0.055555555555555566
2023-11-03,0.37197274233272537,-0.06249999999999999,-0.06249999999999999,-0.06249999999999999,-0.06249999999999999,-0.06249999999999999,0.12802725766727457,-0.06249999999999999,-0.06249999999999999,-0.06249999999999999
2023-11-06,0.2818662354262014,0.09168135699116864,-0.09016660998549551,-0.09016660998549551,-0.09016660998549551,-0.09016660998549551,-0.049166950072522475,0.11752182564523318,-0.09016660998549551,0.008930581937396972
2023-11-07,0.11574047917581191,-0.08333333333333333,0.11097956059437171,0.12907939340860283,-0.08333333333333333,-0.08333333333333333,0.14420056682121354,-0.08333333333333333,-0.08333333333333333,-0.08333333333333333
2023-11-08,-0.09437467500740908,0.04419771594724857,0.04419771594724857,-0.06449898373022936,0.10456977152226053,-0.3411263412623616,0.1744416487414966,0.04419771594724857,0.04419771594724857,0.04419771594724857
2023-11-09,-0.0625,-0.0625,-0.0625,-0.0625,-0.0625,-0.0625,0.16674793584432784,-0.0625,-0.0625,0.33325206415567216
2023-11-10,-0.0653387667909609,-0.0653387667909609,-0.0653387667909609,-0.0653387667909609,-0.0653387667909609,-0.0653387667909609,-0.04262863246327372,0.31676333713789084,-0.0653387667909609,0.18323666286210916
2023-11-13,-0.07142857142857144,0.0770706209856204,-0.07142857142857144,-0.07142857142857144,-0.07142857142857144,-0.07142857142857144,0.06318451006744041,0.3597448689469392,-0.07142857142857144,-0.07142857142857144
2023-11-14,-0.10857334608191413,-0.09108906330596471,0.01821582407646853,0.09087519284000299,-0.09108906330596471,-0.09108906330596471,-0.09108906330596471,0.08029888824587297,-0.027070400694227,0.3106100948376555
2023-11-15,0.04765235397937729,-0.1680054048886061,0.154797047975414,0.15342607181348178,-0.057532277711406225,0.14412452623172697,-0.031205895762836444,-0.06622406974450983,-0.11080828214813153,-0.06622406974450983
2023-11-16,-0.301121008529044,0.19975430498208388,-0.00813142355675606,0.28875208280417003,-0.08221355511140921,-0.00813142355675606,-0.00813142355675606,-0.08413974213252248,0.011493612213745993,-0.00813142355675606
2023-11-17,-0.05555555555555556,-0.05555555555555556,-0.05555555555555556,-0.05555555555555556,-0.05555555555555556,-0.05555555555555556,0.4999999999999999,-0.05555555555555556,-0.05555555555555556,-0.05555555555555556
2023-11-20,-0.08333333333333333,-0.08333333333333333,0.03639426767624323,-0.08333333333333333,-0.08333333333333333,-0.08333333333333333,-0.08333333333333333,0.18559306041495544,0.19026179173730806,0.08775088017149328
2023-11-21,-0.16074978330770429,0.10541206092806252,0.14795045559580744,-0.14941319164418634,0.08869089341051462,0.1300239165115055,-0.06327900834936978,-0.06327900834936978,0.027922673554110017,-0.06327900834936978
2023-11-22,0.07347426232972791,-0.06737635934082416,0.07347426232972791,0.00020774053082800575,-0.2827519072755704,-0.12584053524993008,0.07347426232972791,0.04686275727135968,-0.024031198133675383,0.23250671520862862
2023-11-24,-0.03589970472772545,-0.18468201005965904,-0.03589970472772545,-0.03589970472772545,-0.03589970472772545,-0.03589970472772545,-0.06402005684626286,-0.03589970472772545,-0.03589970472772545,0.5000000000000001
2023-11-27,-0.0740810357596881,-0.0740810357596881,-0.05551378544187154,-0.0740810357596881,0.09173935354756955,-0.0740810357596881,-0.0740810357596881,0.2531693922231672,-0.0740810357596881,0.1550912542292633
2023-11-28,-0.17563744541439963,-0.09314839403468904,0.07456208671099301,0.05978453499499452,0.07456208671099301,-0.23121416055091132,0.03987055624345663,0.07456208671099301,0.10209656191757681,0.07456208671099301
2023-11-29,-0.0019718016645190422,-0.04984880858613874,0.0356469591435178,0.18519673618366647,-0.267988532223085,-0.05200049798990728,0.0356469591435178,-0.12819035953634988,0.20841797673814863,0.03509136879114929
2023-11-30,0.2114410366826755,0.1668914125196255,0.02433351015953981,-0.02863768440510276,0.02433351015953981,0.02433351015953981,-0.11593350459914943,0.02433351015953981,-0.3554288109957478,0.02433351015953981
2023-12-01,-0.12850187124173423,0.08657143183139167,0.08657143183139167,0.1333614395167903,-0.0993539699572674,-0.11334411785836483,0.08657143183139167,-0.003801074178422002,-0.15499896676421152,0.10692426498903473
2023-12-04,0.27096271734757615,-0.07142857142857142,-0.07142857142857142,-0.07142857142857142,-0.07142857142857142,-0.07142857142857142,0.18120315201233894,-0.07142857142857142,-0.07142857142857142,0.04783413064008493
2023-12-05,-0.08361768661612826,0.11175705041682144,-0.017359671434070464,-0.3138013789619842,0.06750384555564957,-0.08272767183044288,0.11175705041682144,0.09722500319388624,-0.0024935911573742294,0.11175705041682144
2023-12-06,-0.06249999999999998,-0.06249999999999998,0.3748153483839469,-0.06249999999999998,-0.06249999999999998,-0.06249999999999998,0.12518465161605305,-0.06249999999999998,-0.06249999999999998,-0.06249999999999998
2023-12-07,0.009802189799717486,-0.08333333333333333,-0.08333333333333333,0.12276725147917587,0.20442969154508586,-0.08333333333333333,0.16300086717602075,-0.08333333333333333,-0.08333333333333333,-0.08333333333333333
2023-12-08,-0.1993107782728394,0.07194050261919682,0.07194050261919682,0.05523308445614301,-0.17793070226174681,-0.049012065108318334,0.07194050261919682,-0.07374645435709534,0.09773090880396812,0.13121449888229847
2023-12-11,-0.07142857142857142,0.06963734862826307,-0.07142857142857142,-0.07142857142857142,0.26230638076397395,-0.07142857142857142,0.16805627060776293,-0.07142857142857142,-0.07142857142857142,-0.07142857142857142
2023-12-12,0.2724216606447312,-0.07142857142857144,-0.07142857142857144,-0.07142857142857144,-0.07142857142857144,-0.07142857142857144,0.05013325034139619,-0.07142857142857144,-0.07142857142857144,0.17744508901387257
2023-12-13,-0.09611782858051805,-0.0639805979591103,-0.0639805979591103,0.24132335909620228,-0.0639805979591103,-0.0639805979591103,-0.019998583664820206,0.2586766409037977,-0.0639805979591103,-0.0639805979591103
