date,AAPL,MSFT,GOOGL,AMZN,META,NVDA,TSLA,JPM,V,WMT
2023-12-14,-0.006818937234657145,-0.4407430442758688,-0.006818937234657145,-0.006818937234657145,-0.006818937234657145,-0.006818937234657145,0.49999999999999994,-0.006818937234657145,-0.006818937234657145,-0.011524395081531183
2023-12-15,0.01411053802100226,-0.3204330253988511,-0.17956697460114887,0.01411053802100226,0.01411053802100226,0.01411053802100226,0.40485401255914777,0.01411053802100226,0.01411053802100226,0.010482759314838686
2023-12-18,-0.09088748340812224,0.05215046649645166,-0.03118401024533755,-0.15000001820838602,-0.22792848813815433,0.05215046649645166,0.05215046649645166,0.15026376203509156,0.1426953123077963,0.05058952616775719
2023-12-19,-0.07167741234253491,-0.07261311213221369,-0.01012434786371325,-0.13262123140891494,-0.21296389625262316,0.10348290919690707,0.07579179986542105,0.07579179986542105,0.16914169120682976,0.07579179986542105
2023-12-20,-0.03942770945582598,-0.03942770945582598,-0.22061226109181864,-0.03942770945582598,-0.03942770945582598,-0.03942770945582598,0.3261112748092306,0.17388872519076948,-0.03942770945582598,-0.042821482173225456
2023-12-21,0.056714203192960014,0.056714203192960014,-0.5000000000000001,0.056714203192960014,0.056714203192960014,0.056714203192960014,0.056714203192960014,0.056714203192960014,0.056714203192960014,0.04628637445631992
2023-12-22,-0.01264484928534098,-0.01264484928534098,-0.01264484928534098,-0.41148605500261326,-0.01264484928534098,-0.01264484928534098,0.31906814257270183,0.18093185742729812,-0.01264484928534098,-0.01264484928534098
2023-12-26,-0.012321698109069008,-0.012321698109069008,-0.012321698109069008,-0.41067218030701846,-0.012321698109069008,-0.012321698109069008,0.3189831629830544,0.1810168370169456,-0.012321698109069008,-0.015397631038567373
2023-12-27,-0.08221569217238729,-0.08300388049702406,0.04200525196782086,-0.13355182281679656,-0.20122860451379218,0.06533090546487905,0.18801464539025606,0.04200525196782086,0.12063869324140236,0.04200525196782086
2023-12-28,-0.015675109739032255,-0.015675109739032255,-0.015675109739032255,-0.4029588623248489,-0.015675109739032255,0.03578192569482946,0.30642564220613694,-0.015675109739032255,0.1577924320990336,-0.018665588979989833
2023-12-29,0.0312982953590259,0.0312982953590259,0.0312982953590259,-0.20454208316023087,-0.29545791683976924,0.06263358023264493,0.0312982953590259,0.14576290716240686,0.1369331185467847,0.02947721262205997
2024-01-02,-0.08882540813315874,0.06285907534173278,-0.025512906140535727,-0.1515112499957653,-0.23415043573054026,0.0913417094651868,0.06285907534173278,0.06285907534173278,0.1588772871335695,0.061203777376045314
2024-01-03,0.01065759118340449,0.01065759118340449,0.01065759118340449,-0.20787762919591557,-0.29212237080408443,0.039693600320177345,0.19241155927708212,0.11672318233934259,0.10854129332977998,0.01065759118340449
2024-01-04,0.020817925553621892,0.020817925553621892,0.020817925553621892,0.020817925553621892,-0.4999999999999999,0.020817925553621892,0.33345659557102486,0.020817925553621892,0.020817925553621892,0.020817925553621892
2024-01-05,-0.055555555555555566,-0.055555555555555566,-0.055555555555555566,-0.055555555555555566,-0.055555555555555566,-0.055555555555555566,0.5000000000000001,-0.055555555555555566,-0.055555555555555566,-0.055555555555555566
2024-01-08,0.01411053802100226,-0.3204330253988511,-0.17956697460114887,0.01411053802100226,0.01411053802100226,0.01411053802100226,0.40485401255914777,0.01411053802100226,0.01411053802100226,0.010482759314838686
2024-01-09,-0.006818937234657145,-0.4407430442758688,-0.006818937234657145,-0.006818937234657145,-0.006818937234657145,-0.006818937234657145,0.49999999999999994,-0.006818937234657145,-0.006818937234657145,-0.011524395081531183
2024-01-10,-0.013811289341766531,-0.40332097460763433,-0.013811289341766531,-0.013811289341766531,-0.013811289341766531,0.05886794435193875,0.44113205564806124,-0.013811289341766531,-0.013811289341766531,-0.013811289341766531
2024-01-11,-0.13355436212792304,0.05017206649694591,-0.05686767927196032,0.05017206649694591,-0.30957795860011667,0.08467139382067482,0.05017206649694591,0.05017206649694591,0.16647323805600378,0.0481671021355377
2024-01-12,-0.05498304136403838,-0.05498304136403838,-0.05498304136403838,-0.05498304136403838,-0.05498304136403838,-0.05498304136403838,0.5,-0.05498304136403838,-0.05498304136403838,-0.06013566908769293
2024-01-16,-0.010512945689885178,0.04297346945087093,0.04297346945087093,-0.2972185918673511,-0.023841098994892816,-0.1684273634478709,0.04297346945087093,0.04297346945087093,0.2851326527456453,0.04297346945087093
2024-01-17,0.29638941113609735,-0.08175392113419654,0.07787073538819075,-0.08175392113419654,-0.08175392113419654,-0.08175392113419654,-0.00947647319482086,-0.08175392113419654,-0.08175392113419654,0.12573985347571198
2024-01-18,-0.06250000000000001,-0.06250000000000001,0.27092052210034134,-0.06250000000000001,-0.06250000000000001,-0.06250000000000001,0.22907947789965877,-0.06250000000000001,-0.06250000000000001,-0.06250000000000001
2024-01-19,0.41258249048707024,0.014569584918821628,0.014569584918821628,0.014569584918821628,0.014569584918821628,0.014569584918821628,-0.182805404465892,0.014569584918821628,-0.14452890541498212,-0.1726656901191259
2024-01-22,0.14659447247560878,0.20771554028649145,0.14568998723789978,-0.048075209131559195,-0.048075209131559195,-0.048075209131559195,-0.2047131902836874,-0.048075209131559195,-0.048075209131559195,-0.054910764058516574
2024-01-23,-0.09980674457827322,-0.0009662771086339455,0.1348214878519087,0.23246065146509814,0.07769499217733766,-0.09980674457827322,0.05502286850565543,-0.09980674457827322,-0.09980674457827322,-0.09980674457827322
2024-01-24,-0.07998052289819492,-0.031271840018563035,0.1495466545897539,0.1844464671092102,-0.07259556083505117,-0.05040625528729405,-0.138685659841712,-0.07998052289819492,-0.047079638220989956,0.1660068783010358
2024-01-25,-0.05435495814596917,0.1106919018583634,-0.1144390311976723,-0.05435495814596917,-0.11378617807248186,-0.05435495814596917,-0.05435495814596917,0.17308588994577348,-0.05435495814596917,0.21622220819586305
2024-01-26,-0.06250000000000001,-0.06250000000000001,-0.06250000000000001,-0.06250000000000001,-0.06250000000000001,-0.06250000000000001,0.046896400804295635,0.4531035991957044,-0.06250000000000001,-0.06250000000000001
2024-01-29,-0.06443359347029994,-0.06443359347029994,-0.06443359347029994,0.317507186187152,-0.06443359347029994,-0.06443359347029994,-0.130499773381256,0.023575072826877822,0.15891774098597017,-0.0473322592672444
2024-01-30,-0.04218300498125206,0.12021014744503733,0.12021014744503733,-0.03222141609482192,-0.11465472041916894,-0.20624735287020438,0.12021014744503733,0.0770032820932181,-0.10469350563455282,0.062366275571669946
2024-01-31,-0.0711409760079696,0.2237372542339169,-0.0711409760079696,-0.0711409760079696,-0.0711409760079696,-0.0711409760079696,-0.0020131679442127685,-0.0711409760079696,-0.0711409760079696,0.27626274576608306
2024-02-01,-0.07142857142857142,0.20284653980853018,-0.07142857142857142,-0.07142857142857142,0.26021618247373135,-0.07142857142857142,0.0369372777177384,-0.07142857142857142,-0.07142857142857142,-0.07142857142857142
2024-02-02,0.14324795678105057,-0.07142857142857142,0.03801265670875987,-0.07142857142857142,-0.07142857142857142,-0.07142857142857142,0.3187393865101896,-0.07142857142857142,-0.07142857142857142,-0.07142857142857142
2024-02-05,0.122406471114969,-0.09534661596600295,-0.08415588514109483,0.006515595227176858,-0.09534661596600295,-0.09534661596600295,-0.09534661596600295,0.3284969500892814,-0.034457650994893285,0.042580983568572706
2024-02-06,-0.0625,-0.0625,-0.0625,-0.0625,-0.0625,-0.0625,0.18846932071900244,0.31153067928099754,-0.0625,-0.0625
2024-02-07,0.01571148878599525,0.01571148878599525,0.04163241246781885,0.01571148878599525,-0.13731483736428013,-0.1881735367689941,0.01571148878599525,0.37981014360220494,0.01571148878599525,-0.17451162586672583
2024-02-08,-0.08333333333333336,0.12748209083845452,0.13657404370850518,-0.08333333333333336,-0.08333333333333336,-0.08333333333333336,0.1097980995654783,0.12614576588756202,-0.08333333333333336,-0.08333333333333336
2024-02-09,0.034681185205607104,0.034681185205607104,0.034681185205607104,0.1425060690411558,-0.053721067153540566,0.034681185205607104,-0.1992893628551254,0.034681185205607104,-0.24698956999133395,0.18408800493080865
2024-02-12,-0.08007833718014545,0.09801282089068838,0.09801282089068838,-0.13918438097899094,-0.0168995511565151,-0.23277255786182566,-0.031065172822522788,0.09801282089068838,0.10794871643724649,0.09801282089068838
2024-02-13,-0.07142857142857142,0.060572084990508944,-0.07142857142857142,-0.07142857142857142,-0.07142857142857142,-0.07142857142857142,0.08783223545797875,0.35159567955151216,-0.07142857142857142,-0.07142857142857142
2024-02-14,-0.08041565288349321,-0.08041565288349321,-0.08041565288349321,0.21644480203710345,-0.06209434334749122,-0.08041565288349321,-0.08041565288349321,0.20864481863695258,0.074910379325944,-0.0358273922350427
2024-02-15,0.040467168318048634,-0.09227853321060966,0.040467168318048634,0.040467168318048634,0.040467168318048634,-0.2046415046521765,-0.2030799621372138,0.025485516236070437,0.040467168318048634,0.27217864217368637
2024-02-16,-0.07127218004924771,-0.047012606198793896,0.007107466110645584,-0.025920758068062315,-0.10625456540902169,-0.10850207167849264,-0.047012606198793896,-0.047012606198793896,-0.047012606198793896,0.49289253388935433
2024-02-20,0.2426017182389866,-0.00649996375313412,0.1298896766716194,0.04233481536719314,-0.20260808945313258,-0.13591357037494306,-0.07555763362048647,-0.003863109177817301,0.08517378972220077,-0.07555763362048647
2024-02-21,-0.05555555555555555,-0.05555555555555555,-0.05555555555555555,-0.05555555555555555,-0.05555555555555555,-0.05555555555555555,0.5000000000000001,-0.05555555555555555,-0.05555555555555555,-0.05555555555555555
2024-02-22,0.08211054456252953,-0.010830581016274888,0.12411952711500014,0.21165938375994078,-0.11855438384378944,-0.10519001926380095,-0.07557607214939376,0.08211054456252953,-0.06684465370586488,-0.12300429002087614
2024-02-23,-0.05458572681007722,-0.05458572681007722,-0.05458572681007722,-0.05458572681007722,-0.05458572681007722,-0.05458572681007722,-0.11789991232945944,0.23477006583960028,-0.05458572681007722,0.2652299341603998
2024-02-26,0.3273917583378169,-0.058858457213475324,0.17260824166218314,-0.058858457213475324,-0.07120889088835482,-0.058858457213475324,-0.058858457213475324,-0.07564036583079335,-0.058858457213475324,-0.058858457213475324
2024-02-27,-0.017597834232058407,-0.13501376955989866,-0.017597834232058407,0.12618994743790288,-0.15044225533841454,-0.004820403771560114,-0.017597834232058407,0.10598075550796493,0.26782929705413216,-0.15693006863395143
2024-02-28,-0.0835420553765395,0.05260028337889539,0.17436169486901026,0.11401533205109982,-0.09415224763572314,0.1590226897009945,-0.07167953085811883,-0.0835420553765395,-0.0835420553765395,-0.0835420553765395
2024-02-29,-0.055555555555555566,-0.055555555555555566,-0.055555555555555566,-0.055555555555555566,-0.055555555555555566,-0.055555555555555566,0.5000000000000001,-0.055555555555555566,-0.055555555555555566,-0.055555555555555566
2024-03-01,-0.06046015245250539,-0.06046015245250539,-0.06046015245250539,0.1780404979871977,-0.06046015245250539,-0.13723908528496764,0.11278232187348017,-0.06046015245250539,-0.06046015245250539,0.20917718013932207
2024-03-04,-0.03520871999541742,-0.03520871999541742,-0.03520871999541742,0.24626391278412102,-0.03520871999541742,-0.03520871999541742,-0.07064028090492247,-0.03520871999541742,-0.21810739912257293,0.2537360872158789
2024-03-05,-0.0625,-0.0625,-0.0625,-0.0625,-0.0625,-0.0625,0.17917775437797007,-0.0625,-0.0625,0.3208222456220299
2024-03-06,-0.07142857142857144,0.17116141239579058,0.28895311018730446,-0.07142857142857144,-0.07142857142857144,-0.07142857142857144,0.03988547741690491,-0.07142857142857144,-0.07142857142857144,-0.07142857142857144
2024-03-07,0.26801990726543634,-0.11062183885789366,0.1184925731982086,-0.043493339763752394,-0.14821208118463577,-0.08630115388257234,0.002042271460504405,0.002042271460504405,0.10940297661534625,-0.11137158631114583
2024-03-08,0.24647610739936848,-0.07202818251595257,0.17793471456136106,-0.1628725736061151,-0.07202818251595257,-0.07202818251595257,-0.07202818251595257,0.054627689367557276,-0.04901469633007457,0.02096148867171314
2024-03-11,-0.0625,-0.0625,-0.0625,-0.0625,-0.0625,-0.0625,0.3026672228717025,-0.0625,-0.0625,0.19733277712829755
2024-03-12,-0.03616313463333225,0.07725214865258938,0.21797878414762767,0.13469494750245822,-0.26445215298178476,-0.09089530848488635,-0.03616313463333225,-0.03616313463333225,0.0700741196973247,-0.03616313463333225
2024-03-13,0.12981696888633334,0.038972593019226634,0.14403941024808598,-0.06635375233245101,-0.1388160369660467,0.18717102784635406,-0.06635375233245101,-0.06635375233245101,-0.020869311179334854,-0.14125339485726537
2024-03-14,-0.0075974576451304605,-0.027867795981838417,-0.027867795981838417,0.3339347860788667,-0.25363039765395906,-0.027867795981838417,-0.09943316479171838,0.16606521392113335,-0.027867795981838417,-0.027867795981838417
2024-03-15,-0.06249999999999999,-0.06249999999999999,0.2308681722893418,-0.06249999999999999,-0.06249999999999999,-0.06249999999999999,-0.06249999999999999,0.2691318277106582,-0.06249999999999999,-0.06249999999999999
2024-03-18,0.30394576026196524,0.017945443276518685,-0.09054471275644753,-0.014574644580202927,-0.09054471275644753,0.06653043585738892,-0.1232465043940069,-0.09054471275644753,0.11157836060412724,-0.09054471275644753
2024-03-19,0.2574645301342141,-0.07708397590122784,0.03643175636122472,-0.07708397590122784,-0.07708397590122784,-0.07708397590122784,-0.11458012049386077,0.18414111593402607,-0.07708397590122784,0.02196259757053512
2024-03-20,-0.07975996321470748,-0.11222571257932078,-0.07975996321470748,0.33509865896753205,-0.04494589212326755,0.11278941984436608,-0.045084821245364004,-0.07975996321470748,0.05211192118810187,-0.05846368440792521
2024-03-21,0.11217859635296727,-0.007052640331659512,0.22868086357755163,-0.08215789327805674,-0.08215789327805674,-0.08215789327805674,0.15914054006948103,-0.08215789327805674,-0.08215789327805674,-0.08215789327805674
2024-03-22,-0.053249668241826434,0.12109038459845499,-0.053249668241826434,-0.053249668241826434,-0.053249668241826434,-0.053249668241826434,-0.127252322307215,0.378909615401545,-0.053249668241826434,-0.053249668241826434
2024-03-25,-0.019206414035295848,-0.019206414035295848,-0.030574497936736052,0.03519112285561613,-0.019206414035295848,-0.16037420159824262,-0.019206414035295848,0.46480887714438385,-0.10284731022890205,-0.12937833409493588
2024-03-26,0.23166180217109328,0.011136457629065894,-0.09420666990377877,0.23344025703744783,-0.09420666990377877,-0.09420666990377877,-0.09420666990377877,0.023761483162392943,-0.09420666990377877,-0.02896665048110618
2024-03-27,0.038783680966963066,0.18100474109764444,-0.19053275616075052,0.03949128258162879,0.038783680966963066,-0.14435623175549422,-0.16511101208375523,0.038783680966963066,0.1243692524528745,0.038783680966963066
2024-03-28,-0.0794178639635072,-0.023492816218956873,0.2964758585206323,-0.0794178639635072,0.11613459299192462,0.08738954848744326,-0.0794178639635072,-0.0794178639635072,-0.0794178639635072,-0.0794178639635072
2024-04-01,-0.0642481850697451,-0.012816168145254617,-0.220595612032959,-0.06616364861501907,0.25440978853497476,-0.13617638613702224,0.05274310721084091,0.05274310721084091,0.0873608898325025,0.05274310721084091
2024-04-02,0.017362471573702642,0.09900239379150846,-0.09999999999999999,-0.09999999999999999,0.18492716086370697,-0.09999999999999999,-0.09999999999999999,0.06144352749341497,-0.09999999999999999,0.1372644462776669
2024-04-03,-0.03907548606972854,0.03908172782993817,0.03908172782993817,-0.15694359089176252,0.10759669935548002,-0.10341485582588462,0.03908172782993817,0.17451135104279797,-0.20056606721262438,0.10064676611190752
2024-04-04,-0.08107720276327549,0.2992402949950479,-0.013536783420346959,-0.08107720276327549,-0.08107720276327549,-0.08107720276327549,0.10328078688768023,-0.08107720276327549,-0.08107720276327549,0.09747891811727181
2024-04-05,-0.07024164432024478,-0.07024164432024478,0.07099701690111937,-0.008308489758286684,-0.07024164432024478,-0.07024164432024478,-0.07024164432024478,0.42900298309888063,-0.07024164432024478,-0.07024164432024478
2024-04-08,0.20923974172453097,-0.13675222913827045,0.03745266583331674,-0.07655549088808795,-0.07655549088808795,-0.031873950748307234,-0.07655549088808795,0.25330759244215223,-0.07655549088808795,-0.025151856561070562
2024-04-09,-0.0625,-0.0625,-0.0625,-0.0625,-0.0625,-0.0625,0.15862196815598434,-0.0625,-0.0625,0.34137803184401566
2024-04-10,0.27146594497274007,-0.07142857142857144,0.03008177419121062,-0.07142857142857144,-0.07142857142857144,-0.07142857142857144,0.19845228083604927,-0.07142857142857144,-0.07142857142857144,-0.07142857142857144
2024-04-11,0.12328486913586358,-0.14803569460688304,-0.06485086202943482,0.05926643156949749,-0.15037063432822123,-0.13674280903546093,0.05926643156949749,0.05926643156949749,0.10743897474724089,0.09147686140840308
2024-04-12,0.09024704310526993,-0.10259372567843719,0.09024704310526993,0.10522765608620877,-0.10366359073072219,-0.16288665448388473,0.09024704310526993,0.09024704310526993,-0.13085602910695587,0.03378417149271152
2024-04-15,-0.01976773832725415,-0.1856968763029512,-0.17457503487367063,-0.01976773832725415,-0.06065713551436158,0.08891945714412686,0.30046191821669277,-0.01976773832725415,0.11061862463918042,-0.01976773832725415
2024-04-16,-0.03343216872197274,-0.2217666120137265,0.11049666156025673,0.03378964045608402,-0.12575853894349107,-0.08865220204192399,0.04786909900734278,0.04786909900734278,0.2599754999689738,-0.03039047827888576
2024-04-17,-0.06377248639855314,-0.06377248639855314,-0.0446543062317428,0.13586751441880673,0.28140262930446136,-0.06377248639855314,0.08272985627673184,-0.06377248639855314,-0.1364832617754915,-0.06377248639855314
2024-04-18,-0.023475605307313577,-0.1711405959313794,-0.05673037295854409,0.24888128199233345,-0.19591741358612064,-0.05273601221664227,0.05845927806586641,0.002791912031155436,0.02352628213032435,0.1663412457803204
2024-04-19,-0.08333333333333333,-0.08333333333333333,0.05344664704715661,0.1002798990305207,-0.08333333333333333,-0.08333333333333333,0.17860121525518638,-0.08333333333333333,-0.08333333333333333,0.16767223866713638
2024-04-22,-0.09999999999999999,0.10726433264886809,0.04269748437984919,0.06463558588040907,-0.09999999999999999,-0.09999999999999999,0.17284342800330532,0.11255916908756837,-0.09999999999999999,-0.09999999999999999
2024-04-23,0.035075145876722315,-0.07142857142857144,-0.07142857142857144,-0.07142857142857144,-0.07142857142857144,-0.07142857142857144,-0.07142857142857144,0.33106847316614196,-0.07142857142857144,0.13385638095713565
2024-04-24,-0.07142857142857144,-0.07142857142857144,-0.07142857142857144,-0.07142857142857144,-0.07142857142857144,-0.07142857142857144,0.20421851209459196,0.19806383424306676,-0.07142857142857144,0.0977176536623413
2024-04-25,-0.07142857142857144,0.14391496480995097,0.2665122481600911,-0.07142857142857144,-0.07142857142857144,-0.07142857142857144,0.08957278702995793,-0.07142857142857144,-0.07142857142857144,-0.07142857142857144
2024-04-26,0.17600872099708362,-0.0625,-0.0625,-0.0625,-0.0625,-0.0625,-0.0625,0.3239912790029165,-0.0625,-0.0625
2024-04-29,-0.10066695234757199,0.0932118298422424,-0.03428505749830227,0.03192133781768573,0.09523134281334468,-0.23814800223710014,0.0932118298422424,0.0932118298422424,-0.12689998791702578,0.0932118298422424
2024-04-30,-0.12919787943519317,0.18858162506765813,-0.03646512715024709,-0.037118234217614426,0.1367861579643028,0.17463221696803916,-0.05454937522144205,-0.05454937522144205,-0.13357063353261914,-0.05454937522144205
2024-05-01,0.1172091859839976,0.16287804246923826,-0.08333333333333333,-0.08333333333333333,-0.08333333333333333,-0.08333333333333333,0.046954016891654564,-0.08333333333333333,-0.08333333333333333,0.1729587546551097
2024-05-02,0.4159614930867672,-0.0625,-0.0625,-0.0625,-0.0625,-0.0625,0.08403850691323267,-0.0625,-0.0625,-0.0625
2024-05-03,-0.0625,-0.0625,-0.0625,-0.0625,-0.0625,-0.0625,0.42142590830445253,0.07857409169554738,-0.0625,-0.0625
2024-05-06,-0.08329356710194293,-0.08965323323979553,0.01891671652032836,-0.07931412316242682,-0.009796707008554246,-0.07931412316242682,-0.07931412316242682,-0.07931412316242682,0.2851792253878732,0.19590405809179845
2024-05-07,-0.12843097614729992,-0.07431380477054002,-0.07431380477054002,0.35249004804469053,0.0962840988139526,0.026534640206548995,-0.07431380477054002,-0.07431380477054002,0.02469121293480778,-0.07431380477054002
2024-05-08,0.029170106912239625,0.04465999894815282,-0.17568191930290747,0.09321821523231047,0.013198363267272622,0.03974053918955918,-0.16215904034854625,-0.16215904034854625,0.11920005074097462,0.16081272570949082
2024-05-09,-0.09726209360948843,-0.09726209360948843,-0.09726209360948843,0.004975300716517552,-0.021905946797283027,0.12140281529262385,0.03233752643536253,-0.09726209360948843,0.3412843575554961,-0.08904567876476328
2024-05-10,0.3910600976135773,-0.06566523745164343,-0.06566523745164343,-0.06566523745164343,-0.06566523745164343,-0.06566523745164343,-0.040343337838496154,0.10893990238642276,-0.06566523745164343,-0.06566523745164343
2024-05-13,-0.07464215930073309,-0.07464215930073309,-0.05214704419560153,0.34567969902986256,-0.07464215930073309,-0.07464215930073309,0.00794373199527976,0.14637656897485782,-0.07464215930073309,-0.07464215930073309
2024-05-14,0.10181241724534529,-0.07142857142857141,0.059762194936843094,-0.07142857142857141,-0.07142857142857141,-0.07142857142857141,0.3384253878178116,-0.07142857142857141,-0.07142857142857141,-0.07142857142857141
2024-05-15,-0.05555555555555556,-0.05555555555555556,-0.05555555555555556,-0.05555555555555556,-0.05555555555555556,-0.05555555555555556,-0.05555555555555556,-0.05555555555555556,-0.05555555555555556,0.5
2024-05-16,-0.08435959229695086,0.01085325832843329,-0.02192231887279296,0.39392908946800637,-0.08435959229695086,-0.08435959229695086,-0.08435959229695086,-0.056279719642452646,-0.08435959229695086,0.09521765220356036
2024-05-17,-0.10689316832452128,-0.04925830903440662,-0.09755697746903907,-0.04925830903440662,-0.04925830903440662,0.286197318120805,0.21380268187919507,-0.04925830903440662,-0.04925830903440662,-0.04925830903440662
2024-05-20,-0.07142857142857142,-0.07142857142857142,-0.07142857142857142,0.27928364306649,-0.07142857142857142,-0.07142857142857142,-0.07142857142857142,0.16133827462981634,-0.07142857142857142,0.05937808230369371
2024-05-21,0.046908649257247935,-0.04030573288330354,0.046908649257247935,-0.3107143068071414,0.24367022186754642,0.06869518110346184,0.046908649257247935,0.046908649257247935,-0.08013118402418946,-0.06884877628536554
2024-05-22,-0.05555555555555556,-0.05555555555555556,-0.05555555555555556,-0.05555555555555556,-0.05555555555555556,-0.05555555555555556,0.4999999999999999,-0.05555555555555556,-0.05555555555555556,-0.05555555555555556
2024-05-23,0.07459534555707241,-0.09309419106494507,-0.09309419106494507,0.2926110498936175,-0.09309419106494507,-0.09309419106494507,0.0439894059948019,0.08880419855450813,-0.09309419106494507,-0.034529044675274616
2024-05-24,-0.055555555555555566,-0.055555555555555566,-0.055555555555555566,-0.055555555555555566,-0.055555555555555566,-0.055555555555555566,0.5,-0.055555555555555566,-0.055555555555555566,-0.055555555555555566
2024-05-28,-0.05147474851344189,-0.044739797120370496,0.08333333333333333,0.08333333333333333,0.08333333333333333,-0.35852631363713233,-0.04525914072905523,0.08333333333333333,0.08333333333333333,0.08333333333333333
2024-05-29,-0.029337464533465186,-0.0040157762635961766,-0.0040157762635961766,0.07441849481303961,-0.35825922647136227,-0.0040157762635961766,-0.0040157762635961766,0.14698109429430356,0.2786004108926568,-0.09634020394078782
2024-05-30,-0.08326063924025234,-0.05953419439424968,-0.05953419439424968,0.3616372574078085,-0.05953419439424968,-0.05953419439424968,-0.05953419439424968,-0.05953419439424968,-0.05953419439424968,0.1383627425921916
2024-05-31,-0.06249999999999999,0.32545264484305814,-0.06249999999999999,-0.06249999999999999,-0.06249999999999999,-0.06249999999999999,0.17454735515694184,-0.06249999999999999,-0.06249999999999999,-0.06249999999999999
2024-06-03,-0.06944870394196316,0.24554939451908148,-0.06944870394196316,-0.06944870394196316,-0.06944870394196316,-0.06944870394196316,-0.08330777634822105,-0.06944870394196316,0.2275275309847045,0.026923074496214068
2024-06-04,-0.061435603353642156,-0.061435603353642156,-0.061435603353642156,-0.061435603353642156,-0.061435603353642156,-0.061435603353642156,0.4999999999999999,-0.061435603353642156,-0.061435603353642156,-0.008515173170862662
2024-06-05,-0.08333333333333333,0.31143561220690114,0.02132427155573412,-0.08333333333333333,-0.08333333333333333,-0.08333333333333333,-0.08333333333333333,0.030002110321463514,0.1372380059159013,-0.08333333333333333
2024-06-06,0.17554774213425217,-0.0805251621496607,-0.0252181482487674,0.18980236031486,-0.0755666879146486,-0.08678627016354772,-0.1416850481691798,-0.0650005351054284,0.1346498975508878,-0.0252181482487674
2024-06-07,-0.0807221631873633,0.24289185107301192,-0.02863488440307435,-0.0807221631873633,0.14385554880964882,0.07027222385358808,-0.1484764628474724,-0.0807221631873633,-0.0807221631873633,0.04298037626375107
2024-06-10,0.4427481697738924,-0.07839247433896848,0.024792029650950908,-0.07839247433896848,-0.029645153966189084,0.03245980057515674,-0.07839247433896848,-0.07839247433896848,-0.07839247433896848,-0.07839247433896848
2024-06-11,0.18513589301173655,-0.0714285714285714,-0.0714285714285714,-0.0714285714285714,-0.0714285714285714,-0.0714285714285714,0.025131578972419678,0.28973252801584376,-0.0714285714285714,-0.0714285714285714
2024-06-12,-0.07105961045592249,-0.07105961045592249,-0.07105961045592249,0.18836167376551605,-0.07105961045592249,-0.07105961045592249,0.055842486410806594,0.2557958398236774,-0.07105961045592249,-0.07364233726446509
2024-06-13,-0.056339053838580865,-0.056339053838580865,0.41033977427380697,-0.056339053838580865,-0.056339053838580865,-0.056339053838580865,-0.10562662312993407,-0.056339053838580865,-0.056339053838580865,0.08966022572619314
2024-06-14,0.07888385393872252,-0.07142857142857144,-0.07142857142857144,-0.07142857142857144,-0.07142857142857144,-0.07142857142857144,-0.07142857142857144,0.3814228570767411,-0.07142857142857144,0.039693288984536355
2024-06-17,-0.07121230252703555,-0.07121230252703555,-0.07121230252703555,0.17293848671726983,-0.07121230252703555,-0.07121230252703555,0.025531861483417986,-0.07121230252703555,0.30152965179931224,-0.07272618483778676
2024-06-18,-0.08891986092548154,0.21537966480085696,0.049872540577838194,0.054088547302566216,-0.08653077288670379,-0.14670964433685144,-0.08891986092548154,-0.08891986092548154,0.1800925509281234,0.0005666963906151993
2024-06-20,-0.07986214662307001,0.18551958172339075,0.2723139833568655,-0.07986214662307001,-0.07986214662307001,0.04216643491974371,-0.07986214662307001,-0.020827120261580043,-0.07986214662307001,-0.07986214662307001
2024-06-21,-0.06470399984590218,-0.03505405318653299,-0.11823337118280924,0.17941254671844079,0.02816801163637163,-0.16239006613474746,-0.03505405318653299,-0.08456445646347512,0.05051180309371108,0.2419076385514766
2024-06-24,-0.07142857142857142,-0.07142857142857142,0.24616403721457095,-0.07142857142857142,-0.07142857142857142,-0.07142857142857142,0.16357539857599035,0.09026056420943872,-0.07142857142857142,-0.07142857142857142
2024-06-25,0.0056016718841909304,0.262419636856996,-0.08333333333333331,-0.08333333333333331,-0.08333333333333331,-0.08333333333333331,-0.08333333333333331,0.16837413358501196,-0.08333333333333331,0.06360455767380117
2024-06-26,-0.10456209533742063,0.24147981672170973,0.055442502683292934,0.12983964695950348,0.07323803363549393,-0.10219649093965556,-0.07045229083500353,-0.08188454121791329,-0.07045229083500353,-0.07045229083500353
2024-06-27,0.037060553333863294,0.037060553333863294,0.037060553333863294,0.30912133095807703,0.037060553333863294,-0.4020240522043899,-0.03267144156755649,0.005575902372606577,0.037060553333863294,-0.06530450622805364
2024-06-28,0.08103301279350442,0.06844298325746233,-0.08333333333333333,0.12598497930297006,-0.08333333333333333,-0.08333333333333333,-0.08333333333333333,0.22453902464606315,-0.08333333333333333,-0.08333333333333333
2024-07-01,-0.0625,-0.0625,-0.0625,-0.0625,-0.0625,-0.0625,-0.0625,0.4268937376992866,-0.0625,0.07310626230071345
2024-07-02,-0.0625,-0.0625,-0.0625,-0.0625,-0.0625,-0.0625,0.2586326660974319,0.24136733390256807,-0.0625,-0.0625
2024-07-03,-0.01980415552025351,-0.07922165353642713,0.10234389939249133,-0.07922165353642713,0.249184546193251,-0.07922165353642713,-0.07922165353642713,-0.08408757679761082,-0.07922165353642713,0.14847155441425772
2024-07-05,-0.09000317091499944,0.007862044357305763,0.007862044357305763,-0.04613064812756452,0.007862044357305763,0.007862044357305763,0.45282773385616537,-0.3638661809574359,0.007862044357305763,0.007862044357305763
2024-07-08,-0.07151008068328997,-0.07151008068328997,-0.07151008068328997,0.2649519002017343,-0.07151008068328997,-0.07151008068328997,0.18545449503456904,0.049593604763696675,-0.07151008068328997,-0.07093951590026024
2024-07-09,0.06145309133378197,-0.08333333333333333,0.1484296089192636,-0.08333333333333333,-0.08333333333333333,-0.08333333333333333,0.17895241473536525,-0.08333333333333333,-0.08333333333333333,0.11116488501158914
2024-07-10,-0.0940995592534771,-0.07472398562578618,0.1124824755537706,0.0456691766840737,-0.13511762857706033,-0.17554984614606212,0.1124824755537706,0.1124824755537706,0.11688339665461456,-0.020508980397614163
2024-07-11,0.11195816263795967,-0.08002956374693944,-0.08002956374693944,-0.08002956374693944,-0.08002956374693944,-0.08002956374693944,0.037906173094803666,-0.019822617518363457,0.3501356642672366,-0.08002956374693944
2024-07-12,0.06575353370568165,-0.08851531914089122,-0.019685897216795475,0.31461652644366633,-0.08851531914089122,-0.08851531914089122,-0.08851531914089122,-0.10047621037026139,0.11962993985065203,-0.025776615849378157
2024-07-15,-0.13290944165563642,-0.07319720617384609,-0.04371194471459866,0.3564146520213002,-0.04371194471459866,-0.04371194471459866,-0.04371194471459866,-0.11904557331212287,0.06853586461336374,0.07504948336533612
2024-07-16,-0.03798475589567334,-0.03798475589567334,-0.03798475589567334,0.1254759226057892,-0.03798475589567334,-0.2720914646259599,-0.03798475589567334,-0.03798475589567334,0.1845412784210807,0.1899827989731301
2024-07-17,-0.031900799183041624,-0.031900799183041624,-0.031900799183041624,-0.031900799183041624,0.30484405639625356,-0.1809568917402359,0.19515594360374647,-0.12763831316151433,-0.031900799183041624,-0.031900799183041624
2024-07-18,-0.033410286449125894,-0.015095468257153452,0.0556956158171149,-0.09579168628158899,0.18402948884004305,-0.2717772419259304,0.086758298447614,0.086758298447614,0.086758298447614,-0.08392531708620131
2024-07-19,-0.07142857142857142,-0.07142857142857142,0.2261756773875586,-0.07142857142857142,-0.07142857142857142,-0.07142857142857142,0.20175599888543486,0.07206832372700653,-0.07142857142857142,-0.07142857142857142
2024-07-22,-0.0686827823614211,0.40718432628406515,-0.08550727299208497,-0.07885834355423658,-0.030376570429547563,0.07851111397123922,-0.07885834355423658,-0.07885834355423658,-0.07885834355423658,0.01430455974469565
2024-07-23,-0.07546691394447877,-0.047624273563009946,0.12638321590255724,0.03297691676628738,-0.07985211129550143,-0.14129768920394264,0.12638321590255724,0.12638321590255724,-0.15575901199306716,0.08787343552604095
2024-07-24,-0.17108834684436508,-0.0307896596880364,0.048401977050733506,-0.08210328715844807,-0.2160187063091505,0.048401977050733506,0.048401977050733506,0.18351350809624764,0.12287858370081833,0.048401977050733506
2024-07-25,-0.11185886598874685,0.09401857795581711,-0.11185886598874685,0.04849495590477781,0.08626953410078421,0.105588204788707,-0.052564536045012517,-0.11185886598874685,0.16562872724991393,-0.11185886598874685
2024-07-26,-0.07142857142857142,-0.07142857142857142,0.22314080773336206,-0.07142857142857142,-0.07142857142857142,-0.07142857142857142,-0.07142857142857142,0.18391414336593342,0.09294504890070453,-0.07142857142857142
2024-07-29,-0.0033457124905475213,-0.13912641933599998,0.08576745184748374,0.33954618963382044,-0.06568406813653999,-0.16162941024212277,-0.043404796598263254,-0.043404796598263254,0.07468635851869575,-0.043404796598263254
2024-07-30,-0.07142857142857144,0.18265976653999477,-0.07142857142857144,-0.07142857142857144,-0.07142857142857144,-0.07142857142857144,0.28051044067980435,0.03682979278020096,-0.07142857142857144,-0.07142857142857144
2024-07-31,-0.23710027922536714,-0.04186209288363848,-0.05026608210750191,-0.04186209288363848,0.24778890838601444,-0.020701867641984083,-0.04186209288363848,-0.04186209288363848,-0.024483399490593,0.2522110916139856
2024-08-01,0.18226602734407113,0.04468407255853774,-0.20425618994785233,0.04468407255853774,-0.07947691147172814,-0.2162668985804195,0.04468407255853774,0.04468407255853774,0.0943136098632402,0.04468407255853774
2024-08-02,0.12285220381429411,0.12285220381429411,0.12285220381429411,-0.04816761499106066,0.007340822481038473,-0.1517736323730026,0.12285220381429411,0.0012503622617850768,-0.22549809219003528,-0.0745606604459015
2024-08-05,-0.07142857142857144,-0.07142857142857144,-0.07142857142857144,0.21143176984183792,0.17525331111410578,-0.07142857142857144,0.11331491904405629,-0.07142857142857144,-0.07142857142857144,-0.07142857142857144
2024-08-06,0.2389637300259331,0.1073711743837377,0.13083755973564545,-0.03400418255772475,-0.12600001199200483,0.02282753585468371,-0.05985123770818722,-0.05985123770818722,-0.1604420923257087,-0.05985123770818722
2024-08-07,-0.07142857142857142,-0.07142857142857142,-0.07142857142857142,-0.07142857142857142,-0.07142857142857142,-0.07142857142857142,0.18360800208194078,0.1349490923620941,-0.07142857142857142,0.18144290555596518
2024-08-08,0.19633627617642244,0.06479156929973229,0.14530699452066398,0.02384213616631793,-0.09999999999999999,-0.09999999999999999,-0.09999999999999999,-0.09999999999999999,-0.09999999999999999,0.06972302383686345
2024-08-09,-0.0625,-0.0625,-0.0625,-0.0625,-0.0625,-0.0625,0.19966332389808236,-0.0625,-0.0625,0.30033667610191767
2024-08-12,-0.07142857142857142,0.12564902996103086,-0.07142857142857142,-0.07142857142857142,-0.07142857142857142,-0.07142857142857142,0.16147117470567576,0.21287979533329332,-0.07142857142857142,-0.07142857142857142
2024-08-13,-0.04220916934100241,-0.1088715929245762,-0.1088715929245762,0.12495803475550642,-0.1088715929245762,0.10551545684555601,-0.022304458960692813,-0.1088715929245762,0.018109025684522825,0.2514174827144147
2024-08-14,-0.08144173123162265,0.09963793874710918,-0.08144173123162265,-0.08144173123162265,-0.08144173123162265,-0.08144173123162265,-0.011349612610264006,0.08610564005817012,-0.08144173123162265,0.3142564211947207
2024-08-15,-0.09507253826108106,-0.09507253826108106,0.26004875489867,0.19273684333859276,-0.09507253826108106,-0.09507253826108106,-0.024637308694594715,0.03367845514770862,-0.09507253826108106,0.01353594661502844
2024-08-16,-0.07142857142857144,-0.07142857142857144,0.2819842946390135,-0.07142857142857144,-0.07142857142857144,-0.07142857142857144,0.09386796957817096,0.12414773578281554,-0.07142857142857144,-0.07142857142857144
2024-08-19,-0.04171693490170808,-0.009377983604841777,0.07589160339244276,-0.11222627037336251,-0.11222627037336251,0.23421207827822524,-0.11222627037336251,-0.11222627037336251,0.0658195059376243,0.12407681239170779
2024-08-20,-0.08532688735877338,0.11165917696328596,-0.08532688735877338,-0.08532688735877338,0.1687910515361224,-0.08532688735877338,-0.0733655632061332,0.057691002048685665,-0.08532688735877338,0.16185876945190597
2024-08-21,-0.09623248472791424,0.06592186752671372,0.06592186752671372,0.16923656638643797,-0.09368528249559747,-0.29648670260257476,0.06592186752671372,0.06592186752671372,-0.013595530173913559,0.06707596350670708
2024-08-22,-0.0625,-0.0625,-0.0625,-0.0625,-0.0625,-0.0625,0.1608084073306225,0.33919159266937743,-0.0625,-0.0625
2024-08-23,0.01842163048323463,0.0418041238831427,0.15022539581348693,0.08423257707296872,-0.3198319958385007,-0.18016800416149928,0.0418041238831427,0.0418041238831427,0.09589288008469232,0.025815144896189263
2024-08-26,0.0006485845936588443,-0.059068043784159203,-0.059068043784159203,0.0701392821268678,-0.059068043784159203,0.030570268145956092,-0.05415823218789065,-0.059068043784159203,0.39864186513351724,-0.2095695926754725
2024-08-27,-0.11443195560405761,0.08709477979265035,0.08709477979265035,0.1516208808293986,-0.07397188523647635,-0.13077860641484243,0.08709477979265035,0.08709477979265035,-0.13297634912562462,-0.047841203618998976
2024-08-28,0.12452899363931777,0.022991265001277614,-0.08914364265123147,-0.0800785020497285,-0.084241443316977,0.04949364877621025,-0.08914364265123147,-0.05718305037800706,0.30298609258319437,-0.10020971895282436
2024-08-29,-0.07426815445017362,0.33616804006902185,-0.07426815445017362,-0.07426815445017362,-0.07426815445017362,-0.07426815445017362,-0.03094873798429303,0.16383195993097818,-0.07426815445017362,-0.02344233531466528
2024-08-30,-0.18284949704796,-0.003460579732773708,0.11427399400548746,-0.1808405863052796,-0.02268026598533406,-0.11016907092865265,0.11427399400548746,0.04823147033431881,0.16265108393732153,0.06056945771738476
2024-09-03,-0.028329368974052346,-0.028329368974052346,-0.028329368974052346,-0.028329368974052346,-0.032831441977216144,-0.14067317828685055,-0.028329368974052346,0.3946153353408591,0.10538466465914094,-0.18484853486567152
2024-09-04,-0.06595144617113748,0.2599743340874082,-0.06595144617113748,-0.06595144617113748,-0.06595144617113748,-0.06595144617113748,-0.03833987680203776,0.24002566591259183,-0.06595144617113748,-0.06595144617113748
2024-09-05,-0.004924785654249312,0.10034752754067,0.10034752754067,-0.22154815450739068,-0.17653194067122027,-0.09699511916713979,0.10034752754067,0.10034752754067,0.08011640025758068,0.018493489579739328
2024-09-06,-0.0869747320045804,0.12011677037357582,-0.0869747320045804,0.25894054270012157,-0.0869747320045804,-0.0869747320045804,0.09990452912865877,0.021038157797643828,-0.0869747320045804,-0.065126339977098
2024-09-09,-0.08333333333333336,0.18384512533782393,-0.08333333333333336,-0.08333333333333336,-0.08333333333333336,-0.08333333333333336,0.030254716731727863,0.17910122346229568,-0.08333333333333336,0.1067989344681525
2024-09-10,-0.0625,0.15001633335041537,-0.0625,-0.0625,-0.0625,-0.0625,0.3499836666495845,-0.0625,-0.0625,-0.0625
2024-09-11,-0.07678781986026413,0.04118078252534598,0.40167293927210695,-0.07678781986026413,-0.07678781986026413,-0.07678781986026413,0.057146278202547085,-0.07678781986026413,-0.07678781986026413,-0.03927308083841517
2024-09-12,-0.07142857142857142,-0.07142857142857142,0.2359980784202638,-0.07142857142857142,-0.07142857142857142,-0.07142857142857142,-0.07142857142857142,-0.07142857142857142,0.037719788258426354,0.22628213332130986
2024-09-13,-0.05461833669280851,-0.05461833669280851,0.004435620622041008,0.18783378609245555,0.1967324360340041,-0.05356879670633048,-0.05461833669280851,-0.05461833669280851,0.11099815725149931,-0.22795785652243553
2024-09-16,0.049060882132040406,0.05022334074714184,0.13802606741885787,0.09616654020847801,0.033301807910576534,0.1332213615829052,-0.11848508852317924,-0.08785118551610968,-0.17517863743753198,-0.11848508852317924
2024-09-17,0.4704007818301522,-0.077173886558327,0.018876283075271137,-0.077173886558327,-0.03695668065003802,-0.077173886558327,-0.077173886558327,-0.077173886558327,-0.077173886558327,0.01072293509457666
2024-09-18,0.27220355720336986,-0.07142857142857142,-0.07142857142857142,-0.07142857142857142,-0.07142857142857142,-0.07142857142857142,0.07033735355732017,0.15745908923930996,-0.07142857142857142,-0.07142857142857142
2024-09-19,-0.08737723736673662,0.00029043967032187426,0.11725760143294357,0.010869721925461494,-0.0631138131663169,-0.08737723736673662,-0.08737723736673662,-0.08737723736673662,-0.08737723736673662,0.3715822369712731
2024-09-20,-0.08213306338932395,-0.007201619664056211,-0.08213306338932395,-0.08213306338932395,-0.08213306338932395,-0.08213306338932395,-0.08213306338932395,0.1520266987979005,0.14488662732418536,0.20308667387791415
2024-09-23,-0.06985354175549668,-0.06985354175549668,-0.06985354175549668,-0.06985354175549668,-0.06985354175549668,-0.06985354175549668,0.47808741465696636,0.02191258534303369,-0.06985354175549668,-0.011025207711523289
2024-09-24,-0.059485551103186825,-0.059485551103186825,-0.059485551103186825,-0.059485551103186825,-0.059485551103186825,-0.059485551103186825,0.25489850155113797,-0.08360114227769215,-0.059485551103186825,0.24510149844886203
2024-09-25,0.12416212352176711,-0.025519050337017214,0.17873061318089012,-0.013611566171135734,-0.2058559139744223,-0.20397536884339038,0.010446433040035862,-0.025519050337017214,0.18666083025730704,-0.025519050337017214
2024-09-26,-0.023717018279812162,-0.06447599344845106,0.09299149658886112,0.08593619658687023,-0.2183790079263835,-0.06447599344845106,-0.06447599344845106,0.04538891307413805,0.27568339375013057,-0.06447599344845106
2024-09-27,0.28077262945343184,-0.07142857142857144,0.07954940185951122,-0.07142857142857144,-0.07142857142857144,-0.07142857142857144,-0.07142857142857144,-0.07142857142857144,-0.07142857142857144,0.13967796868705698
2024-09-30,-0.03562283957393938,-0.30207865488084074,0.08841180348993928,-0.03562283957393938,-0.019807147249462444,-0.03562283957393938,-0.03562283957393938,-0.03562283957393938,0.28381208785134776,0.12777610865871303
2024-10-01,0.07013690147727185,-0.06060732736217261,0.048812512735620095,0.1290484138734946,-0.22533840656150003,-0.21405426607632738,0.1441356271967699,0.048812512735620095,0.010241519245603351,0.048812512735620095
2024-10-02,-0.06250000000000001,-0.06250000000000001,-0.06250000000000001,-0.06250000000000001,0.2263277949179683,-0.06250000000000001,0.27367220508203177,-0.06250000000000001,-0.06250000000000001,-0.06250000000000001
2024-10-03,-0.07541584127213445,0.15461219619140865,-0.07541584127213445,0.25848094401078864,-0.07541584127213445,-0.07541584127213445,-0.0475049523671933,0.08690685979780265,-0.07541584127213445,-0.07541584127213445
2024-10-04,0.06305632771518815,0.06305632771518815,0.06305632771518815,0.05751927566638198,-0.25433336323438877,-0.16294391008138948,0.1271990857576773,0.06305632771518815,-0.08272272668422179,0.06305632771518815
2024-10-07,0.22393783896101552,-0.07142857142857142,-0.07142857142857142,-0.07142857142857142,-0.07142857142857142,-0.07142857142857142,0.1837631150284803,-0.07142857142857142,-0.07142857142857142,0.09229904601050412
2024-10-08,0.129651884648321,0.1454234849714188,-0.1,0.12798971943670262,-0.1,-0.1,-0.1,-0.1,0.04067904546255306,0.05625586548100447
2024-10-09,-0.06229111221145479,0.2877644439672367,-0.1262533267312713,-0.06229111221145479,-0.06229111221145479,-0.06229111221145479,0.14979112866369731,-0.06229111221145479,0.06244442736906593,-0.06229111221145479
2024-10-10,-0.11023995521352356,0.053850267159772966,0.003867434281434189,0.4422822985587929,-0.047616654245240496,-0.05062362512925599,-0.11023995521352356,-0.11023995521352356,-0.0705699763828243,-0.0004698786021085162
2024-10-11,0.18941648324089239,-0.07142857142857142,0.19616333348089104,-0.07142857142857142,-0.07142857142857142,-0.07142857142857142,0.11442018327821663,-0.07142857142857142,-0.07142857142857142,-0.07142857142857142
2024-10-14,0.08464438002350211,-0.06719142770919764,-0.03990132487173527,-0.06655010184324908,-0.07852926655049978,-0.04515612459823815,-0.07852926655049978,-0.04561322132608051,-0.07852926655049978,0.41535561997649795
2024-10-15,-0.07303094517044588,-0.07303094517044588,-0.07303094517044588,-0.052995849116916446,-0.07303094517044588,-0.07303094517044588,0.12554252554530815,-0.008818479860408386,0.3744574744546918,-0.07303094517044588
2024-10-16,-0.044198940157273756,0.09023033031234982,-0.07528026096715906,-0.08615855492518665,-0.07528026096715906,0.18410204361637997,-0.06852146104890328,-0.07528026096715906,0.22566762607127017,-0.07528026096715906
2024-10-17,0.24500526690333796,0.18705843661559257,-0.06609418675146568,-0.06609418675146568,-0.06609418675146568,-0.06609418675146568,-0.10343487949120599,-0.06609418675146568,-0.06609418675146568,0.0679362964810696
2024-10-18,0.04982483217153949,-0.07142857142857144,0.06894286144335567,-0.07142857142857144,-0.07142857142857144,-0.07142857142857144,0.3812323063851048,-0.07142857142857144,-0.07142857142857144,-0.07142857142857144
2024-10-21,-0.07142857142857142,-0.07142857142857142,0.03012850063845826,-0.07142857142857142,-0.07142857142857142,0.3142915334195849,-0.07142857142857142,-0.07142857142857142,-0.07142857142857142,0.1555799659419569
2024-10-22,0.014346137666282899,0.014346137666282899,0.014346137666282899,-0.12760119281920285,0.014346137666282899,-0.18646562309573095,0.014346137666282899,0.014346137666282899,-0.1859331840850661,0.41392317400230255
2024-10-23,-0.055555555555555566,-0.055555555555555566,-0.055555555555555566,-0.055555555555555566,-0.055555555555555566,-0.055555555555555566,-0.055555555555555566,0.5000000000000001,-0.055555555555555566,-0.055555555555555566
2024-10-24,-0.07007993861662494,0.09267893066207951,0.34977725846989394,-0.07007993861662494,-0.07007993861662494,-0.07007993861662494,-0.07952036830025037,0.057543810868026485,-0.07007993861662494,-0.07007993861662494
2024-10-25,0.08207956306531448,-0.06642354865207398,0.1434273236661222,0.09358058516851968,0.07184500604513637,-0.12096123817723216,-0.12096123817723216,-0.12096123817723216,0.1090675220549073,-0.07069273681622955
2024-10-28,-0.08348805589694848,0.04742984796455404,0.1547226119008663,-0.07569005407029529,0.17861060299798792,0.11923693713659167,-0.11375172782187033,-0.07569005407029529,-0.07569005407029529,-0.07569005407029529
2024-10-29,-0.07436056097201942,0.008064077726751658,0.22606050877750453,-0.05383663416788352,-0.07436056097201942,-0.07436056097201942,-0.07436056097201942,-0.07436056097201942,0.26587541349574384,-0.07436056097201942
2024-10-30,-0.1442343253903589,0.06574475529054705,0.06574475529054705,-0.0839149315071272,-0.2718507431025139,0.06574475529054705,0.06574475529054705,0.06574475529054705,0.022964062997142543,0.14831216055012228
2024-10-31,-0.0625,0.45420066340449644,-0.0625,-0.0625,-0.0625,-0.0625,0.04579933659550362,-0.0625,-0.0625,-0.0625
2024-11-01,-0.13131792861875405,0.057232580952517535,0.057232580952517535,0.057232580952517535,-0.26617403982313687,-0.10250803155810903,0.07771364044209969,0.057232580952517535,0.07686257651728053,0.11649345923054967
2024-11-04,-0.08333333333333333,0.08096747410037382,-0.08333333333333333,-0.08333333333333333,-0.08333333333333333,-0.08333333333333333,0.16105220960410815,0.028802614717572613,-0.08333333333333333,0.22917770157794543
2024-11-05,-0.08333333333333334,-0.08333333333333334,0.1328840906666011,0.24565981738485973,-0.08333333333333334,-0.08333333333333334,0.04055606042911258,0.08090003151942657,-0.08333333333333334,-0.08333333333333334
2024-11-06,0.20396419813018105,-0.04523093341382387,0.08684935332530669,-0.10446879364190696,0.20918644854451227,-0.10446879364190696,-0.000899043221203011,-0.07829227292629808,-0.10446879364190696,-0.062171369512954086
2024-11-07,-0.0625,-0.0625,-0.0625,-0.0625,-0.0625,-0.0625,-0.0625,0.19784635818907276,-0.0625,0.3021536418109273
2024-11-08,-0.08333333333333331,-0.08333333333333331,0.12909946839724024,0.005920773522907289,-0.08333333333333331,-0.08333333333333331,-0.08333333333333331,0.30006790849020887,0.06491184958964355,-0.08333333333333331
2024-11-11,-0.08669486639277385,-0.022766120908813647,-0.04375954712731722,-0.08669486639277385,-0.08669486639277385,0.15541506570251543,0.12954969431783658,-0.08669486639277385,-0.08669486639277385,0.21503523997964788
2024-11-12,0.13667740420070043,0.24807937793638293,-0.06930447698794748,-0.04212883445364611,-0.06930447698794748,0.02316967284814257,-0.06930447698794748,-0.18065325759456394,-0.06930447698794748,0.0920735450147741
2024-11-13,0.4669706228153015,-0.02166934341197045,-0.02166934341197045,-0.04095898243425341,-0.13279801242948433,0.03302937718469843,-0.033197210087292504,-0.02166934341197045,-0.20636842140108788,-0.02166934341197045
2024-11-14,0.012607841748718148,0.012607841748718148,0.012607841748718148,0.30546963797337623,0.012607841748718148,0.012607841748718148,0.012607841748718148,0.04067982751324392,0.0782034840210709,-0.5
2024-11-15,0.34189842028565803,-0.08280434216693448,0.15221096257779798,-0.08280434216693448,-0.08280434216693448,-0.08280434216693448,-0.08280434216693448,0.0058906171365440485,-0.003173946998393093,-0.08280434216693448
2024-11-18,-0.0625,-0.0625,-0.0625,-0.0625,-0.0625,-0.0625,0.20445824609840305,-0.0625,-0.0625,0.29554175390159704
2024-11-19,0.1290686592271967,-0.0491075665410064,-0.0491075665410064,-0.0491075665410064,0.18528063166478997,-0.20535460075396156,-0.0491075665410064,-0.0491075665410064,-0.0491075665410064,0.18565070910801326
2024-11-20,-0.11103189585712897,-0.043413314943948775,-0.043413314943948775,0.09926128212945129,-0.13719766216968643,-0.1203635134889209,-0.0011669836524173865,-0.043413314943948775,0.04400979600749789,0.3567289218630509
2024-11-21,0.06222539757710373,-0.0946369026990613,-0.0946369026990613,-0.017675048142027333,-0.0946369026990613,0.08039675704058338,-0.0946369026990613,-0.009140438362666212,-0.0946369026990613,0.3573778453823128
2024-11-22,0.2199490082417807,0.0929549860040588,0.11962310025263735,-0.10718095850783335,0.06747290550152303,-0.035930694553654885,-0.1150136766158006,-0.1150136766158006,-0.01184731709110998,-0.1150136766158006
2024-11-25,-0.06250000000000001,0.22705567964571777,-0.06250000000000001,-0.06250000000000001,-0.06250000000000001,-0.06250000000000001,-0.06250000000000001,-0.06250000000000001,-0.06250000000000001,0.2729443203542823
2024-11-26,-0.18738414463653547,-0.006520880367729892,0.09627246831402349,-0.24838053627604412,-0.006520880367729892,-0.006520880367729892,-0.006520880367729892,-0.006520880367729892,0.4037275316859766,-0.03163091724877101
2024-11-27,-0.07274060558030314,0.024528324505470222,-0.07274060558030314,-0.07274060558030314,-0.07274060558030314,-0.07274060558030314,0.4021735004683315,0.07329817502619836,-0.07274060558030314,-0.06355636651818121
2024-11-29,0.023441454771738555,-0.0010747473235477353,0.05435080108327031,-0.1069101378179601,0.26892231898082036,0.15328542516417076,-0.1069101378179601,-0.07128470140461174,-0.1069101378179601,-0.1069101378179601
2024-12-02,0.13190118074788787,0.011624948793402217,-0.09285785929124957,-0.09285785929124957,0.3438850700907589,-0.09285785929124957,0.01258880036795091,-0.09285785929124957,-0.09285785929124957,-0.035710703543752144
2024-12-03,-0.08235144323986211,0.12910552408243214,0.12030774536898736,-0.08235144323986211,-0.08235144323986211,-0.08235144323986211,0.2505867305485805,-0.08235144323986211,-0.08235144323986211,-0.005891340560827229
2024-12-04,-0.09416370929992736,0.06390745297895839,-0.09416370929992736,0.1730091371055426,-0.09416370929992736,0.20867791776975525,-0.09416370929992736,0.054405492145743736,-0.09416370929992736,-0.0291814535003631
2024-12-05,-0.07483915818885498,0.17610907269039222,0.08114203467182247,-0.07483915818885498,0.16481975785767441,-0.07483915818885498,-0.07483915818885498,0.07792913478011085,-0.07483915818885498,-0.12580420905572512
2024-12-06,0.28970469744237737,-0.06703601092875956,0.08556414370277839,0.020575902647487675,-0.18581124217500836,0.06300345091238119,0.020575902647487675,-0.028382741956994896,-0.21877000493923723,0.020575902647487675
2024-12-09,-0.07379647817046817,-0.07379647817046817,0.31462988833346966,-0.07379647817046817,-0.07379647817046817,-0.07379647817046817,-0.07379647817046817,0.006637900342444075,0.17873221132408618,-0.05722113097719097
2024-12-10,-0.08333333333333333,0.046015146387008043,0.2227805122579269,-0.08333333333333333,-0.08333333333333333,-0.08333333333333333,0.13345244302755258,0.09775189832751251,-0.08333333333333333,-0.08333333333333333
2024-12-11,0.10970421357500817,-0.11392619739630301,0.07030860748338144,-0.29245695676688327,-0.09361684583681369,0.008950620911138109,0.07030860748338144,0.07030860748338144,0.10011073558032792,0.07030860748338144
2024-12-12,-0.18579757272876196,0.025254950616358487,0.025254950616358487,0.025254950616358487,0.025254950616358487,-0.26002625227212295,0.025254950616358487,0.31918571484096087,0.05453953207724669,-0.054176174999115145
2024-12-13,0.10321112908085535,0.11423193646449148,0.13675537679952507,-0.08345934387797783,-0.08345934387797783,-0.08345934387797783,-0.08345934387797783,0.14580155765512817,-0.08345934387797783,-0.08270328061011092
2024-12-16,0.17092982577911275,-0.0749466741601367,-0.0749466741601367,-0.0749466741601367,-0.0749466741601367,-0.012774047350124558,-0.0749466741601367,0.09208972041265659,0.23698045380823057,-0.112492581849192
2024-12-17,-0.146320581017451,0.08718116083934818,0.08718116083934818,0.08718116083934818,-0.08310940658720482,-0.15003269386362933,0.06409419580325912,0.08718116083934818,-0.12053731853171484,0.08718116083934818
2024-12-18,-0.031823648353693716,-0.013542299925861194,-0.09092681034408903,0.15416349036440735,-0.09092681034408903,-0.09092681034408903,0.10989073142771909,-0.09092681034408903,0.23594577820787344,-0.09092681034408903
2024-12-19,0.14040426631154504,-0.0764915538348282,-0.030171218347729394,0.19699899459446232,-0.07866744556348848,-0.07866744556348848,0.16259673909399258,-0.07866744556348848,-0.07866744556348848,-0.07866744556348848
2024-12-20,-0.07957156541902552,-0.07957156541902552,-0.002978469804687576,-0.07957156541902552,0.1882044828453805,-0.07957156541902552,0.3117955171546195,-0.019592137681159225,-0.07957156541902552,-0.07957156541902552
2024-12-23,-0.06249999999999999,-0.06249999999999999,-0.06249999999999999,-0.06249999999999999,-0.06249999999999999,-0.06249999999999999,-0.06249999999999999,0.19962322412754485,-0.06249999999999999,0.30037677587245515
2024-12-24,-0.17140444920107767,0.02109219823112432,0.02109219823112432,0.36378079539763647,0.02109219823112432,-0.2860188871973336,0.02109219823112432,0.02109219823112432,-0.04257666360158873,0.030758213446741896
2024-12-26,-0.21734573994620532,-0.08835608559520856,0.11507660804549638,0.01454545459743695,0.025148113220577663,-0.1670832173704104,0.11507660804549638,0.11507660804549638,-0.027214957088175708,0.11507660804549638
2024-12-27,0.09254979559714631,0.09254979559714631,-0.055494818146020794,-0.01834318751110437,-0.1107441975679039,-0.16705590647849727,0.1298008176114148,0.09254979559714631,-0.14836189029647362,0.09254979559714631
2024-12-30,-0.19166468127004152,-0.11462379701592089,0.06685656630727643,0.13574714924515127,-0.09016060371096433,-0.1035509180030733,0.06685656630727643,0.06685656630727643,0.13190022975090562,0.03178292208211387
2024-12-31,-0.06438996971984767,-0.03988456682545463,-0.11219376201610551,-0.02597182255920146,0.26914243824256995,-0.06438996971984767,0.2308575617574301,-0.06438996971984767,-0.06438996971984767,-0.06438996971984767
2025-01-02,-0.07142857142857144,-0.07142857142857144,-0.07142857142857144,-0.07142857142857144,-0.07142857142857144,-0.07142857142857144,0.23061397585205978,0.1974808724562808,-0.07142857142857144,0.07190515169165944
2025-01-03,-0.1,0.03593922987652189,0.03785838230788376,-0.1,0.2709453737856776,-0.1,0.12069441164755002,-0.1,-0.1,0.03456260238236663
2025-01-06,-0.13742188698567348,0.07830802778315214,-0.04642096093540939,0.2650759166505436,-0.15282680945812693,-0.12536230762169986,0.07830802778315214,0.07830802778315214,-0.028980840199042245,-0.008987194800048073
2025-01-07,-0.07142857142857142,-0.07142857142857142,-0.07142857142857142,-0.07142857142857142,-0.07142857142857142,0.16813584047169294,-0.07142857142857142,-0.07142857142857142,0.01572169444294547,0.31614246508536153
2025-01-08,-0.023136744389330534,-0.023136744389330534,-0.023136744389330534,-0.023136744389330534,0.1266450239247585,-0.3246849701163801,-0.023136744389330534,-0.03649456354763666,-0.023136744389330534,0.3733549760752415
2025-01-10,-0.023681703694758784,-0.020985482816676827,-0.10164067543444218,0.3691526601133579,-0.19148340331591446,-0.043931915782765986,-0.023681703694758784,0.1308473398866421,-0.07091341156592426,-0.023681703694758784
2025-01-13,-0.1112311405467244,-0.07397558438161014,-0.05238945360431105,0.26515283063747375,-0.05238945360431105,-0.052846007050110326,-0.05238945360431105,-0.05238945360431105,0.2348471693625263,-0.05238945360431105
2025-01-14,-0.08333333333333334,0.1250453246411822,0.14648639260327415,-0.08333333333333334,-0.08333333333333334,-0.08333333333333334,0.08168052463311669,0.14678775812242698,-0.08333333333333334,-0.08333333333333334
2025-01-15,-0.011665095767715553,-0.011665095767715553,-0.011665095767715553,0.23709679114728865,-0.3498440867087718,-0.09183043445265039,-0.011665095767715553,-0.011665095767715553,0.18658055261819648,0.07632265623451484
2025-01-16,-0.12500000000000003,0.17912151311584382,0.08206680220648874,0.08940119106560965,-0.12500000000000003,-0.12500000000000003,0.08589415748290478,0.03357644839002968,-0.12500000000000003,0.0299398877391233
2025-01-17,-0.09999999999999999,0.19933614370140035,0.03311814526629587,0.06733747650952374,-0.09999999999999999,-0.09999999999999999,0.04610281206628188,-0.09999999999999999,-0.09999999999999999,0.15410542245649816
2025-01-21,-0.07142857142857144,0.07319892064547583,-0.07142857142857144,-0.07142857142857144,-0.07142857142857144,0.3224841833418464,0.10431689601267764,-0.07142857142857144,-0.07142857142857144,-0.07142857142857144
2025-01-22,-0.08333333333333333,-0.08333333333333333,-0.08333333333333333,0.0531660265290583,0.13702027428356076,-0.08333333333333333,-0.08333333333333333,-0.08333333333333333,0.2727576582790329,0.03705604090834809
2025-01-23,-0.08333333333333331,-0.08333333333333331,0.15455804705475015,-0.08333333333333331,0.1412824733354727,-0.08333333333333331,-0.08333333333333331,-0.08333333333333331,0.052078924856082495,0.15208055475369478
2025-01-24,0.19495293051742804,-0.04358795721090394,-0.04945972576042333,-0.06433788252996608,0.030514921583213003,-0.1956132590032697,-0.04945972576042333,-0.09754144973501368,0.07110675790971197,0.20342538998964704
2025-01-27,0.26019034092671944,-0.06249999999999999,-0.06249999999999999,-0.06249999999999999,-0.06249999999999999,-0.06249999999999999,0.23980965907328058,-0.06249999999999999,-0.06249999999999999,-0.06249999999999999
2025-01-28,0.18703776598701213,-0.11261771563686851,0.053786764511388474,-0.19139054455817028,0.003834074229169602,-0.1959917398049612,0.06083241842591781,0.06083241842591781,0.10921391932514377,0.024462639095450423
2025-01-29,-0.08955141142919022,-0.08955141142919022,0.17666141595753695,-0.08955141142919022,-0.08955141142919022,-0.08955141142919022,-0.05224294285404888,0.06152682318921802,0.22011796859522564,0.04169379225801937
2025-01-30,0.012641040570303679,0.17016495892086803,0.18738370468458038,-0.2428730878445372,-0.0677207332445018,0.01918537081628773,0.012641040570303679,0.0853428438673528,-0.18940617891096093,0.012641040570303679
2025-01-31,-0.002617570456781287,-0.10936312471510203,-0.002617570456781287,-0.23727295281882718,0.05058548005546979,-0.1428936406389456,-0.002617570456781287,-0.002617570456781287,0.19527829805978617,0.25413622188474405
2025-02-03,0.14781674260315494,0.1328285827293542,0.15305806990845794,-0.10000000000000002,-0.10000000000000002,-0.10000000000000002,0.016645068526186045,-0.10000000000000002,-0.10000000000000002,0.04965153623284687
2025-02-04,-0.08316020629970679,-0.08316020629970679,-0.08316020629970679,-0.0010387622017592282,-0.08316020629970679,-0.08316020629970679,0.23697909869944211,-0.08316020629970679,0.08739477165903069,0.1756261296415271
2025-02-05,-0.07142857142857142,0.05710027502987582,-0.07142857142857142,0.3427750226806248,-0.07142857142857142,-0.07142857142857142,0.10012470228949932,-0.07142857142857142,-0.07142857142857142,-0.07142857142857142
2025-02-06,0.07230448593237565,0.07230448593237565,0.07230448593237565,-0.2578461818074793,-0.036819080147297324,-0.14287577795472517,0.13847757033812172,0.07230448593237565,-0.06245896009049811,0.07230448593237565
2025-02-07,-0.07142857142857144,0.1746575792736677,-0.07142857142857144,-0.07142857142857144,-0.07142857142857144,-0.07142857142857144,0.0905697899306659,-0.07142857142857144,-0.07142857142857144,0.23477263079566646
2025-02-10,0.28810593743919294,-0.09120513273545917,-0.005495747607530237,0.21189406256080703,-0.12066754512925257,-0.028437701309379913,-0.005495747607530237,-0.005495747607530237,-0.2377066303957873,-0.005495747607530237
2025-02-11,0.17839773316824092,-0.026370081988604296,-0.026370081988604296,-0.12660166624251135,-0.09926246058894019,-0.026370081988604296,-0.026370081988604296,0.24880845649496972,-0.16865554521413126,0.07279381033678932
2025-02-12,0.07987245895505482,-0.08333333333333333,-0.08333333333333333,-0.08333333333333333,-0.08333333333333333,-0.08333333333333333,0.026120360214578604,0.36010941030609933,-0.08333333333333333,0.033897770524267186
2025-02-13,0.25711480226511857,-0.07142857142857144,-0.07142857142857144,-0.07142857142857144,0.005378994471946733,-0.07142857142857144,0.23750620326293476,-0.07142857142857144,-0.07142857142857144,-0.07142857142857144
2025-02-14,-0.15654353274189356,-0.05809357232294569,-0.05809357232294569,0.35471120851183596,-0.05809357232294569,0.06638211598197051,-0.05298860564337805,-0.05809357232294569,0.07890667550619351,-0.05809357232294569
2025-02-18,-0.055444136876729624,-0.055444136876729624,0.10320309908478816,-0.055444136876729624,-0.055444136876729624,0.17752801097669546,-0.055444136876729624,0.21926888993851637,-0.055444136876729624,-0.16733517873962228
2025-02-19,0.05597574518177598,-0.09235158264982272,0.06235023972115924,0.068382217047337,-0.16083698888132147,0.1485211640665222,0.08656180144308352,0.009826615492785122,-0.24681142846885584,0.068382217047337
2025-02-20,0.02061515741843645,0.09587696851631272,0.09587696851631272,-0.05552956134872202,-0.22982741653286717,-0.0937831369337952,0.09587696851631272,0.09587696851631272,-0.12085988518461561,0.09587696851631272
2025-02-21,0.06947413142720639,0.06415191389169542,0.09105289545233985,-0.12212964016137302,-0.3551067833177662,-0.022763576520860692,0.06415191389169542,0.06415191389169542,0.08286531755367196,0.06415191389169542
2025-02-24,-0.12376011116831306,0.017981960906695106,-0.0627066481386145,-0.0627066481386145,-0.0627066481386145,-0.0627066481386145,-0.0627066481386145,-0.0627066481386145,0.04057302924951611,0.4414450098437888
2025-02-25,-0.09999675156075402,0.06590884087484548,-0.09999675156075402,-1.624219622998903e-05,0.26617578855892077,0.02825900992764023,0.13965636063859352,-0.09999675156075402,-0.09999675156075402,-0.09999675156075402
2025-02-26,-0.11799418551328626,0.025937974653673774,0.025937974653673774,0.056202490949478906,-0.25128399298613624,-0.1307218215005775,0.025937974653673774,0.025937974653673774,0.2617645228935925,0.07828108754223355
2025-02-27,0.0,0.0,0.0,0.0,0.0,0.0,0.0,0.0,0.0,0.0
