date,AAPL,MSFT,GOOGL,AMZN,META,NVDA,TSLA,JPM,V,WMT
2023-12-14,-0.0913811330444196,0.016393269502360117,-0.0913811330444196,-0.04309433477790203,-0.0913811330444196,-0.0913811330444196,0.4006685754592881,0.009314249872151271,-0.0913811330444196,0.0736239051662005
2023-12-15,-0.09145671887121845,0.017449819591925472,0.0015067197174579595,-0.09145671887121845,-0.04271640564390782,-0.09145671887121845,0.4057618157588209,-0.09145671887121845,-0.09145671887121845,0.0752816449317955
2023-12-18,-0.09999999999999999,-0.09999999999999999,0.10253944285262069,0.006307565306194152,0.006190520008628087,-0.09999999999999999,-0.09999999999999999,0.12168960005075122,-0.09999999999999999,0.26327287178180586
2023-12-19,0.16162496211737304,-0.09821841009996798,0.2526399735927713,-0.09821841009996798,0.0857350642898558,-0.002368230210799671,-0.09821841009996798,-0.09821841009996798,-0.006539719289360482,-0.09821841009996798
2023-12-20,-0.09922176280569395,0.012457874805819322,-0.003891185971530215,-0.09922176280569395,-0.09922176280569395,-0.09922176280569395,0.4106575019732763,0.00512234495583144,-0.09922176280569395,0.07176227826507299
2023-12-21,-0.09369840246047112,-0.09369840246047112,0.1339488323188168,0.025787574874242016,0.025656020062203643,-0.031507987697644325,-0.09369840246047112,-0.09369840246047112,-0.09369840246047112,0.3146075727447375
2023-12-22,-0.07924118502459412,-0.07924118502459412,-0.07924118502459412,-0.025599230287462523,-0.025658290416778334,-0.07924118502459412,0.46737837020644396,0.03262162979355607,-0.05253655417278857,-0.07924118502459412
2023-12-26,-0.08517681337526943,-0.08517681337526943,-0.08517681337526943,-0.037031462394810165,-0.03708447072884265,-0.08517681337526943,0.4054315260923413,0.015223600954783542,-0.08517681337526943,0.07934487295287516
2023-12-27,0.002762588204205861,-0.07670987259965088,-0.07670987259965088,-0.020386138923443257,-0.07670987259965088,-0.04739432916561218,0.49723741179579406,-0.07670987259965088,-0.048670168912690076,-0.07670987259965088
2023-12-28,-0.07453416666723951,-0.07453416666723951,-0.07453416666723951,-0.026834288035157597,-0.07453416666723951,-0.049707192804392335,0.4115347428312169,-0.07453416666723951,-0.05078768582425245,0.0884652571687831
2023-12-29,-0.08855804830806577,-0.08855804830806577,-0.08855804830806577,0.029191817578940037,-0.08855804830806577,-0.027271249964636524,-0.08855804830806577,0.15699287367320294,-0.029938508495034603,0.31381530874785707
2024-01-02,-0.08908559442330703,-0.08908559442330703,0.14216307507215264,-0.08908559442330703,0.03215704414213471,-0.02591131214740847,-0.08908559442330703,-0.08908559442330703,-0.028660715736056393,0.32567988078571264
2024-01-03,-0.07924118502459412,-0.07924118502459412,-0.07924118502459412,-0.025599230287462523,-0.025658290416778334,-0.07924118502459412,0.46737837020644396,0.03262162979355607,-0.05253655417278857,-0.07924118502459412
2024-01-04,-0.07903315547221024,0.03920601196303928,-0.07903315547221024,-0.026057767158935093,-0.026116093394428733,-0.07903315547221024,0.4607939880369608,-0.07903315547221024,-0.05266036208558515,-0.07903315547221024
2024-01-05,-0.024996293722083722,0.01567539621177361,-0.0005117756529291545,-0.09489838612499743,-0.09489838612499743,-0.09489838612499743,0.4099320381804844,-0.09489838612499743,-0.09489838612499743,0.07439256560774182
2024-01-08,-0.08730419705271734,0.019513070264194826,0.0038758240053069523,-0.08730419705271734,-0.08730419705271734,-0.08730419705271734,0.4003756601715966,-0.08730419705271734,-0.06347901473641325,0.07623544555890165
2024-01-09,-0.09145671887121845,0.017449819591925472,0.0015067197174579595,-0.09145671887121845,-0.04271640564390782,-0.09145671887121845,0.4057618157588209,-0.09145671887121845,-0.09145671887121845,0.0752816449317955
2024-01-10,-0.07572346609920619,0.041326353364798084,-0.07572346609920619,-0.07572346609920619,-0.023338687881262695,-0.048428029400882894,0.4586736466352018,-0.07572346609920619,-0.04961595222182349,-0.07572346609920619
2024-01-11,0.06609014369771034,-0.09312158425442621,0.12185703558695685,-0.09312158425442621,0.019590740368215828,-0.03439207872786891,-0.09312158425442621,-0.09312158425442621,-0.09312158425442621,0.292462080347117
2024-01-12,-0.0782395116003593,-0.0782395116003593,-0.0782395116003593,-0.0782395116003593,-0.0782395116003593,-0.05387094974794116,0.3988544891057015,0.019395264435553183,-0.054931492250262365,0.08175024645874536
2024-01-16,0.22008677941053492,-0.09999999999999999,-0.09999999999999999,0.1268772429655956,0.12672409498244522,0.013797231184610645,-0.09999999999999999,-0.09999999999999999,0.012514651456813594,-0.09999999999999999
2024-01-17,-0.007529350361409532,0.004004531874417072,-0.006042775419815145,-0.09728557484375507,-0.09728557484375507,-0.09728557484375507,0.4185681349236161,-0.09728557484375507,-0.09728557484375507,0.07742733320196683
2024-01-18,0.005193729431425504,0.016439324989483382,0.0095106350645977,-0.036479691724914394,-0.09270406165501713,-0.09270406165501713,0.46885631051449345,-0.09270406165501713,-0.09270406165501713,-0.09270406165501713
2024-01-19,0.012586340447838752,-0.0816796540347763,-0.0816796540347763,-0.03235832075290521,-0.0816796540347763,-0.0816796540347763,0.40566776488676476,-0.0816796540347763,-0.059243409073213245,0.08174589466539646
2024-01-22,0.0010360058897643269,0.008049524610492187,-0.0003714517682758789,-0.09992570964634483,-0.09992570964634483,-0.09992570964634483,0.41866605225918874,-0.09992570964634483,-0.09992570964634483,0.07224841724055468
2024-01-23,-0.08754681154546888,0.02619181656045963,0.018294703626943448,-0.029151528546867183,-0.03311441372578838,-0.08754681154546888,0.455513479812597,-0.08754681154546888,-0.08754681154546888,-0.08754681154546888
2024-01-24,-0.09261572321129799,0.008660466821669937,0.007264223277274196,-0.03692138394350992,-0.09261572321129799,-0.09261572321129799,0.3915754967472497,-0.09261572321129799,-0.09261572321129799,0.09249981315380616
2024-01-25,-0.09634177700189435,0.06832370022367242,0.06048786730826469,-0.09634177700189435,-0.018291114990528257,-0.09634177700189435,-0.09634177700189435,0.17006073058676902,-0.09634177700189435,0.20112770188129386
2024-01-26,-0.08841756733965955,0.0034204367297155937,-0.08841756733965955,-0.08841756733965955,-0.08841756733965955,-0.08841756733965955,0.34817598221160556,0.07456932150134576,-0.057912163301702194,0.073834259557333
2024-01-29,-0.08385060911248667,-0.08385060911248667,-0.08385060911248667,-0.028258129919618364,-0.08385060911248667,-0.08385060911248667,0.345504690859281,0.07821827092020121,-0.05248882451794832,0.0762770382205178
2024-01-30,-0.0981369481324632,-0.0981369481324632,-0.0981369481324632,0.07664848257343483,0.030072685088200116,-0.009315259337684028,-0.0981369481324632,-0.0981369481324632,0.006947175882603724,0.3863316564557614
2024-01-31,-0.011326747887255557,0.014182496859662838,0.06886196374454435,-0.09773465042254892,-0.09773465042254892,-0.09773465042254892,0.32640658233883746,-0.09773465042254892,-0.09773465042254892,0.09054895705695529
2024-02-01,-0.09999999999999999,0.044832998014957055,0.05050027733607194,-0.09999999999999999,0.0272633510395042,-0.09999999999999999,0.31271438961597253,-0.09999999999999999,-0.09999999999999999,0.06468898399349424
2024-02-02,0.0048338605579294446,-0.0868276309804715,0.08792086525209593,-0.02093660845816379,-0.0868276309804715,-0.0868276309804715,0.4072452741899745,-0.0868276309804715,-0.04492523663947875,-0.0868276309804715
2024-02-05,0.019993382739576526,-0.09870119204685135,0.1381599282131745,-0.00649403976574329,-0.09870119204685135,-0.09870119204685135,-0.09870119204685135,0.17988229562673577,-0.09870119204685135,0.16196439342051316
2024-02-06,-0.08898722839286057,-0.08898722839286057,0.06351421579368818,-0.08898722839286057,0.04934086717406469,-0.05506385803569721,0.29239824303535916,0.094746673996888,-0.08898722839286057,-0.08898722839286057
2024-02-07,-0.09064289126181294,-0.09064289126181294,0.11422001158290586,-0.09064289126181294,0.09492588565562271,-0.04678554369093531,-0.09064289126181294,0.15980690095594904,-0.09064289126181294,0.13104720180552243
2024-02-08,-0.08863484867300324,0.060143633263624235,0.06007043182941916,-0.08863484867300324,-0.08863484867300324,-0.056825756634983904,0.28812006852643934,0.09166586638051723,-0.08863484867300324,-0.08863484867300324
2024-02-09,-0.0865398989630502,-0.0865398989630502,-0.0865398989630502,-0.0248125017485082,0.06433194531968517,-0.0865398989630502,0.34197243345100686,-0.0865398989630502,-0.04248800343624078,0.093695621229308
2024-02-12,-0.0840985400719011,-0.0840985400719011,-0.0840985400719011,-0.011030616313301765,0.09115884527125018,-0.03564947873830716,0.40884115472874966,-0.0840985400719011,-0.03282720458888561,-0.0840985400719011
2024-02-13,-0.09290841300258659,0.06687656187920518,-0.09290841300258659,-0.035457934987067063,0.04500941634436547,-0.09290841300258659,0.28711854155067473,0.10099548022575458,-0.09290841300258659,-0.09290841300258659
2024-02-14,-0.09380396804554783,-0.09380396804554783,-0.09380396804554783,0.0035440445467064515,0.11538405002564213,-0.09380396804554783,-0.09380396804554783,0.23184153257896492,-0.030980159772260853,0.1492303728486865
2024-02-15,-0.08932391766796355,0.06311227513658105,-0.08932391766796355,-0.08932391766796355,-0.08932391766796355,-0.05338041166018235,0.2629719430277143,0.11418839192226704,-0.08932391766796355,0.05972738991343761
2024-02-16,-0.09297175899204876,-0.09297175899204876,0.15481031706946705,6.283659143815029e-05,0.12031566137404989,-0.03514120503975622,-0.09297175899204876,-0.09297175899204876,-0.09297175899204876,0.22481118496504493
2024-02-20,-0.017909785400520958,0.14067467460909144,0.13992752107030537,-0.009404787192523205,-0.09453708548139116,-0.09453708548139116,-0.09453708548139116,0.21939780432060327,-0.09453708548139116,-0.09453708548139116
2024-02-21,-0.08892613941243227,0.026142294753888008,-0.08892613941243227,-0.08892613941243227,0.006274886960604251,-0.08892613941243227,0.4187303789634422,-0.08892613941243227,-0.05536930293783856,0.04885243932206564
2024-02-22,-0.0815948284605462,0.03174825122115172,-0.0815948284605462,-0.04350562222915119,-0.0815948284605462,-0.0815948284605462,0.41835935975399907,-0.0815948284605462,-0.04852023546811788,0.04989238902484928
2024-02-23,-0.08838356101389862,0.024553300460383027,-0.08838356101389862,-0.08838356101389862,-0.08838356101389862,-0.08838356101389862,0.40572365742647637,0.02139473749172521,-0.05808219493050687,0.04832830462141531
2024-02-26,0.0014903905844011946,-0.09939998760463414,0.1955084685150781,-0.0030000619768294295,0.1388039173044753,-0.09939998760463414,-0.09939998760463414,0.16419722359604536,-0.09939998760463414,-0.09939998760463414
2024-02-27,-0.09302401284892756,-0.09302401284892756,-0.09302401284892756,0.000740341125967446,-0.09302401284892756,-0.01907846547387771,-0.09302401284892756,0.2014358244437148,-0.015801470281484535,0.2978238344303178
2024-02-28,-0.07983150486887086,0.036742090682746815,0.01173189212345135,-0.046735803199349175,-0.07983150486887086,-0.054106672456296606,0.45152601719380187,-0.07983150486887086,-0.07983150486887086,-0.07983150486887086
2024-02-29,-0.09981585875255437,0.01292111702807809,-0.09981585875255437,-0.09981585875255437,-0.000920706237228211,-0.09981585875255437,0.427495029681182,0.008345532091617702,-0.09981585875255437,0.05123832119912226
2024-03-01,-0.07336185048581316,-0.07336185048581316,-0.07336185048581316,-0.04150122624291146,-0.040844694793270644,-0.050844826534752106,0.4268091573044336,-0.07336185048581316,-0.07336185048581316,0.07319084269556632
2024-03-04,-0.07379295611373342,-0.07379295611373342,-0.07379295611373342,-0.04118625204687295,-0.04325034548996128,-0.07379295611373342,0.42420885664952623,-0.07379295611373342,-0.04659862189449873,0.07579114335047372
2024-03-05,-0.07381469854442471,-0.07381469854442471,-0.07381469854442471,-0.04097855819762343,-0.043475879180555524,-0.07381469854442471,0.42278987997266293,-0.07381469854442471,-0.04647206989969745,0.07721012002733701
2024-03-06,-0.08669980407144942,-0.011143014928738926,0.017167932814427883,-0.08669980407144942,-0.05535796471401387,-0.08669980407144942,0.435839844758536,0.04699222242703619,-0.08669980407144942,-0.08669980407144942
2024-03-07,0.09858652397293441,-0.09999999999999999,0.3301164349924829,0.047899792131512874,-0.09999999999999999,0.00993941249816934,-0.09999999999999999,-0.09999999999999999,0.013457836404900515,-0.09999999999999999
2024-03-08,0.0066372083333602555,-0.09226435730171988,0.10855648214799783,-0.09226435730171988,-0.09226435730171988,-0.09226435730171988,-0.09226435730171988,0.1658474015300278,-0.03867821349140057,0.21895890798861414
2024-03-11,-0.07871087390850633,-0.010183702875044411,-0.07871087390850633,-0.07871087390850633,-0.043339785179176755,-0.052922142403247274,0.43057400123955475,-0.07871087390850633,-0.07871087390850633,0.0694259987604453
2024-03-12,-0.09999999999999999,0.1692992039333114,0.2948798944504657,0.027732694120138186,-0.09999999999999999,0.00011512949212307766,-0.09999999999999999,-0.09999999999999999,0.00797307800396157,-0.09999999999999999
2024-03-13,0.08588950386543034,0.14103229829916314,0.27307819783540643,-0.09891500248512915,-0.09891500248512915,-0.0028483833806132097,-0.09891500248512915,-0.09891500248512915,-0.002576604193741124,-0.09891500248512915
2024-03-14,-0.025749636676993714,-0.07751501238802407,-0.07751501238802407,-0.043808292464500236,-0.04286700891838568,-0.07751501238802407,0.46285590711713426,0.037144092882865756,-0.07751501238802407,-0.07751501238802407
2024-03-15,-0.08057159235869563,-0.08057159235869563,0.027499752132858914,-0.04895410502137091,-0.048187933185150966,-0.08057159235869563,0.42276401127429913,0.04973623659284184,-0.08057159235869563,-0.08057159235869563
2024-03-18,-0.017335872484897884,-0.0006799862374903919,-0.07828135368038625,-0.04055088131082925,-0.07828135368038625,-0.07828135368038625,0.5,-0.07828135368038625,-0.050026491564851255,-0.07828135368038625
2024-03-19,-0.0359638062786419,-0.09280723874427163,0.02287727655736181,-0.09280723874427163,-0.09280723874427163,-0.09280723874427163,0.41197009417950947,0.04807145739981716,-0.09280723874427163,0.017081171863311533
2024-03-20,-0.08030097197960674,-0.08030097197960674,-0.08030097197960674,-0.019030201855516606,-0.08030097197960674,-0.03364151265492502,0.39208336935785615,-0.08030097197960674,-0.045823425591524726,0.1079166306421438
2024-03-21,0.023025273771492022,0.007209454828701382,0.1054488143529449,-0.09213388468009137,-0.0393305765995431,-0.09213388468009137,0.3643164570468618,-0.09213388468009137,-0.09213388468009137,-0.09213388468009137
2024-03-22,-0.08481898425601692,0.011552260553001192,-0.08481898425601692,-0.08481898425601692,-0.03297827822175627,-0.08481898425601692,0.3574216932579968,0.13102604618900204,-0.04292680049815919,-0.08481898425601692
2024-03-25,-0.09257772203009845,-0.09257772203009845,0.18932888305606463,0.017628899511372146,-0.09257772203009845,-0.01653069172629528,-0.09257772203009845,0.29304221743256315,-0.02058069812321254,-0.09257772203009845
2024-03-26,0.07532270936194736,0.044051621600500024,-0.1,0.0016538346780793412,-0.1,-0.1,-0.1,0.23296751154041148,-0.1,0.1460043228190618
2024-03-27,-0.08808216568949011,0.010767862406812392,0.07971215326477388,-0.014471585581439803,-0.08808216568949011,-0.08808216568949011,0.4095199843284137,-0.08808216568949011,-0.04511758597110971,-0.08808216568949011
2024-03-28,-0.0862735052423941,0.01308205138554409,0.08843831384678695,-0.0862735052423941,-0.03014117274304428,-0.038491301044985035,0.398479634767669,-0.0862735052423941,-0.0862735052423941,-0.0862735052423941
2024-04-01,-0.1,0.2081693745168732,-0.1,0.13449243055450477,0.0757802674038704,0.04988859207809902,-0.1,-0.1,0.03166933544665271,-0.1
2024-04-02,0.07048839427806636,0.03925902589707575,-0.09733293109703313,-0.09733293109703313,-0.013335344514834348,-0.09733293109703313,-0.09733293109703313,0.2471788722391807,-0.09733293109703313,0.1430737075856773
2024-04-03,0.08339880152250795,-0.09335342427791006,-0.09335342427791006,-0.09335342427791006,-0.005148901275672403,-0.028083977334777292,-0.09335342427791006,0.2692471315975309,-0.09335342427791006,0.14735406687996117
2024-04-04,-0.09266274135444037,0.009002848089040085,0.07034738187514229,-0.09266274135444037,-0.036686293227798275,-0.09266274135444037,0.3565997052732971,-0.09266274135444037,-0.09266274135444037,0.06405006476252054
2024-04-05,-0.0942846917762453,0.05211273653470631,0.1466416180169186,0.015606195140816159,-0.0942846917762453,-0.0942846917762453,-0.0942846917762453,0.28563945030755894,-0.028576541118773478,-0.0942846917762453
2024-04-08,0.061424320896224655,0.03305131206355002,0.13381903554255514,-0.09281470147557856,-0.09281470147557856,-0.03592649262210718,-0.09281470147557856,0.2717053314976702,-0.09281470147557856,-0.09281470147557856
2024-04-09,-0.08734750858373735,0.03268834932507083,-0.08734750858373735,-0.08734750858373735,-0.027056327386984234,-0.036206129694329,0.33976879029266527,-0.08734750858373735,-0.08734750858373735,0.12754286038226387
2024-04-10,0.03980724990403166,-0.011041600467988327,0.0668834271835747,-0.09779167990640232,-0.09779167990640232,-0.09779167990640232,0.23963404574380254,0.15367527716859114,-0.09779167990640232,-0.09779167990640232
2024-04-11,0.22364439297055527,-0.09623901103229732,-0.09623901103229732,-0.09623901103229732,0.005677416003880327,-0.018804944838513537,-0.09623901103229732,-0.09623901103229732,0.0018744967400391632,0.26880369428552525
2024-04-12,-0.0962824474712591,-0.0962824474712591,-0.0962824474712591,0.20935118308417303,0.010396861249783248,-0.018587762643704535,-0.0962824474712591,-0.0962824474712591,0.008876974311462768,0.271374981354581
2024-04-15,-0.08539007858936858,0.04200484164953531,-0.08539007858936858,-0.08539007858936858,-0.02054600269124219,-0.03430283685953872,0.4579951583504648,-0.08539007858936858,-0.018200767502376213,-0.08539007858936858
2024-04-16,-0.09717633515555892,-0.09717633515555892,0.24464150671838492,0.23071834047172451,0.012291676474574591,-0.014118324222205473,-0.09717633515555892,-0.09717633515555892,0.012348476335316013,-0.09717633515555892
2024-04-17,-0.0856597694031216,-0.0856597694031216,0.07183517531502961,0.0648045392394568,-0.035410542140525705,-0.0856597694031216,0.3633602854455136,-0.0856597694031216,-0.036290610843866256,-0.0856597694031216
2024-04-18,0.142912096041055,-0.09126721421798983,-0.09126721421798983,0.1582453048449078,-0.09126721421798983,-0.02853343448686778,-0.09126721421798983,-0.09126721421798983,-0.015130494423183077,0.1988425991140372
2024-04-19,-0.0987021581365358,-0.006489209317321034,0.018950068730392428,0.0267796764794283,-0.0987021581365358,-0.0987021581365358,0.40632899124673383,-0.0987021581365358,-0.0987021581365358,0.047941263543445384
2024-04-22,-0.09727979364511587,-0.013601031774420671,0.0075677713044269915,0.015255654939818284,-0.09727979364511587,-0.09727979364511587,0.3712443066626722,0.10593226709308257,-0.09727979364511587,-0.09727979364511587
2024-04-23,0.030240469760286562,-0.1,0.03310946358421779,0.04280872064350708,-0.1,-0.1,-0.1,0.2883145977522174,-0.1,0.10552674825977117
2024-04-24,-0.016587786004393385,-0.09527895521796631,-0.09527895521796631,-0.007017437905775121,-0.09527895521796631,-0.09527895521796631,0.30175452703614564,0.16135079127817128,-0.09527895521796631,0.03689468168568313
2024-04-25,-0.08503094531541827,0.008215526412538395,0.09826396357223817,-0.08503094531541827,-0.0219027579703011,-0.052942515452607454,0.39352051001522353,-0.08503094531541827,-0.08503094531541827,-0.08503094531541827
2024-04-26,-0.0193064961692664,-0.01774364767458251,-0.0925899712312302,-0.0925899712312302,-0.0925899712312302,-0.0925899712312302,0.2897988418594251,0.18983084559579425,-0.0925899712312302,0.02037031254478062
2024-04-29,0.19223997777140697,-0.0979277150500494,-0.0979277150500494,0.2005201158692629,0.09451929039333114,0.012720615965998895,-0.0979277150500494,-0.0979277150500494,-0.010361424749752995,-0.0979277150500494
2024-04-30,-0.09543375202779947,0.11052217622185113,0.2706685486425939,0.0922451192572702,0.026564155878284743,-0.02283123986100274,-0.09543375202779947,-0.09543375202779947,-0.09543375202779947,-0.09543375202779947
2024-05-01,-0.005013850556091493,0.008489282891008367,0.07516793889230801,-0.09899722988878168,-0.09899722988878168,-0.09899722988878168,0.3666738324337055,-0.09899722988878168,-0.09899722988878168,0.049668945782978154
2024-05-02,0.04524985587275281,0.025789752682340402,-0.08652749728157341,-0.08652749728157341,-0.021455755192382898,-0.04590675839974993,0.4289603914449067,-0.08652749728157341,-0.08652749728157341,-0.08652749728157341
2024-05-03,-0.08196858845158375,0.0031472995366155815,-0.08196858845158375,-0.08196858845158375,-0.031089409310462075,-0.08196858845158375,0.31037577414201367,0.18647692632137078,-0.059067648431619185,-0.08196858845158375
2024-05-06,0.11282936049151888,-0.09188960604391093,0.20347350143952447,-0.09188960604391093,0.013606416581798921,-0.09188960604391093,-0.09188960604391093,-0.09188960604391093,-0.040551969780445396,0.17009072148715773
2024-05-07,0.23902241540833272,-0.09724155677739799,-0.09724155677739799,0.16975284410160207,0.0790437219624526,0.012181018527612584,-0.09724155677739799,-0.09724155677739799,-0.013792216113010076,-0.09724155677739799
2024-05-08,0.07130458499104975,0.06469194749655639,0.17882024618410702,0.052802980399063594,-0.09999999999999999,-0.09999999999999999,-0.09999999999999999,-0.09999999999999999,-0.09999999999999999,0.1323802409292232
2024-05-09,-0.07879492826032035,-0.07879492826032035,-0.07879492826032035,-0.022153376849722118,-0.07879492826032035,-0.037772343269483435,0.42199609801482946,-0.07879492826032035,-0.046099638579192644,0.07800390198517047
2024-05-10,-0.005508480618434452,-0.08949488779686728,0.04843364205207417,-0.047017080397229113,-0.08949488779686728,-0.08949488779686728,0.2808644809410832,0.17070187700684264,-0.08949488779686728,-0.08949488779686728
2024-05-13,-0.008533388289061146,-0.08857920950257964,0.048955376790709534,-0.04857056419804065,-0.08857920950257964,-0.08857920950257964,0.28090734321816674,0.17013727999112366,-0.08857920950257964,-0.08857920950257964
2024-05-14,0.01760144831138415,-0.08526867420994655,0.0944212093820497,-0.08526867420994655,-0.018945029574037587,-0.08526867420994655,0.38797734230656616,-0.08526867420994655,-0.0547115993762297,-0.08526867420994655
2024-05-15,0.003943402428727079,-0.0912912362385638,0.07687755235992176,-0.04354381880718101,-0.0912912362385638,-0.0912912362385638,-0.0912912362385638,0.21920546734331886,-0.0912912362385638,0.1999735778680323
2024-05-16,-0.09019602634789206,0.002564958449812796,0.0764016387176052,-0.049019868260539626,-0.09019602634789206,-0.09019602634789206,-0.09019602634789206,0.218299223148033,-0.09019602634789206,0.20273417968454902
2024-05-17,0.031994837148865585,-0.08914542385259748,0.12854658277862233,-0.08914542385259748,-0.010997616061868044,-0.04327526467514459,0.33945858007251206,-0.08914542385259748,-0.08914542385259748,-0.08914542385259748
2024-05-20,-0.0123158065909194,-0.09069331421061658,-0.09069331421061658,-0.03421762235599766,-0.09069331421061658,-0.09069331421061658,0.1775187024690301,0.17163807197185765,-0.09069331421061658,0.1508432255591122
2024-05-21,-0.08732100788601485,0.06882526343592037,-0.08732100788601485,-0.08732100788601485,0.015645462310137713,-0.026496882178731314,-0.08732100788601485,-0.08732100788601485,-0.036898078391194404,0.4155292742539419
2024-05-22,-0.0806697078656769,-0.0806697078656769,-0.0806697078656769,0.027574994618026608,-0.03104882897108149,-0.030765916208279953,0.47242500538197346,-0.0806697078656769,-0.03483671549225399,-0.0806697078656769
2024-05-23,-0.0034743746101822625,-0.09346175329111599,-0.09346175329111599,-0.029216858934237883,-0.09346175329111599,-0.09346175329111599,0.19181789190499393,0.14263118696181162,-0.09346175329111599,0.16555092113319447
2024-05-24,-0.0848690378707761,0.03416460421290728,0.012255191990307654,-0.0848690378707761,-0.03756376564448272,-0.038091045001636716,0.45358020379678504,-0.0848690378707761,-0.0848690378707761,-0.0848690378707761
2024-05-28,0.056919725377954554,0.008907254626382748,-0.005256414660983542,-0.08807104355010985,-0.08807104355010985,-0.05438836758846733,0.43417301999566277,-0.08807104355010985,-0.08807104355010985,-0.08807104355010985
2024-05-29,0.04192486741079906,-0.0904614667475172,-0.0904614667475172,0.014549489179089398,-0.0904614667475172,-0.0904614667475172,-0.0904614667475172,0.12846191527188539,-0.04769266626241409,0.3150637281382262
2024-05-30,0.06195194629287528,-0.09190691227395499,0.009583113291783355,0.03675081537537513,-0.09190691227395499,-0.09190691227395499,-0.09190691227395499,-0.09190691227395499,-0.04046543863022502,0.39171412503996617
2024-05-31,-0.0042745286321363915,-0.008195787327107846,0.013528779405466686,-0.09029580550632871,-0.036050656509112204,-0.09029580550632871,0.48647122059453335,-0.09029580550632871,-0.09029580550632871,-0.09029580550632871
2024-06-03,-0.08045495952846937,-0.032561837987915336,-0.01586431576625905,-0.08045495952846937,-0.08045495952846937,-0.08045495952846937,0.27135292821813695,-0.08045495952846937,-0.0492990486034787,0.22864707178186305
2024-06-04,-0.08094276031472751,-0.0294309156975369,-0.020446839156338416,-0.08094276031472751,-0.04540844357248721,-0.08094276031472751,0.27146709648858247,-0.08094276031472751,-0.08094276031472751,0.22853290351141756
2024-06-05,-0.08960521146613146,-0.0020760202224231524,-0.0048490910882904,-0.08960521146613146,-0.08960521146613146,-0.08960521146613146,-0.08960521146613146,0.1415494091675209,-0.045048831358629166,0.35845059083247904
2024-06-06,0.1317709735258391,-0.1,-0.1,0.25802380815053483,0.05280877060484435,0.02527985417513205,-0.1,-0.1,0.032116593543649666,-0.1
2024-06-07,-0.08206694449164133,-0.021437434710344854,-0.022375403666576744,-0.08206694449164133,-0.04585243916487178,-0.08206694449164133,0.26184745359867995,-0.08206694449164133,-0.08206694449164133,0.2381525464013201
2024-06-10,0.2636412449385334,0.10746741849786652,0.10841141425994257,-0.09999999999999999,0.01913247273916871,0.001347449564488883,-0.09999999999999999,-0.09999999999999999,-0.09999999999999999,-0.09999999999999999
2024-06-11,0.04798762250794685,-0.08756800887874552,-0.012854290272223094,-0.08756800887874552,-0.08756800887874552,-0.04930566533404927,0.34430893935467116,0.10770343813738202,-0.08756800887874552,-0.08756800887874552
2024-06-12,0.00680208792106512,-0.09757358224007473,-0.09757358224007473,-0.012132088799626368,-0.09757358224007473,-0.09757358224007473,0.23211762522269946,0.0552341903803624,-0.09757358224007473,0.205846096475873
2024-06-13,-0.08866448134384794,-0.08866448134384794,-0.00648664244550645,0.029013241147281855,-0.08866448134384794,-0.05019095083525375,0.36135202039219605,-0.08866448134384794,-0.08866448134384794,0.10963473846052212
2024-06-14,0.09168462480829062,-0.09147311188032932,-0.09147311188032932,0.05413105020473943,-0.09147311188032932,-0.04263444059835345,-0.09147311188032932,0.20188706523494054,-0.09147311188032932,0.15229725975202943
2024-06-17,-0.08360358348900541,-0.08360358348900541,-0.08360358348900541,0.013231327910857486,-0.08360358348900541,-0.0431576001020938,0.3738455177562902,-0.08360358348900541,-0.03882448245287913,0.1129231543328522
2024-06-18,-0.09845433284878016,0.07914601418463109,0.07282517339897276,0.08157528416928574,-0.09845433284878016,-0.09845433284878016,-0.09845433284878016,-0.09845433284878016,-0.007728335756099177,0.26645352824711044
2024-06-20,-0.0969101231754933,0.0958399228808718,0.09272176139199878,-0.0969101231754933,-0.0969101231754933,-0.01385758435353366,-0.0969101231754933,0.3114383157271294,-0.0015917997689999124,-0.0969101231754933
2024-06-21,0.18188063800170465,-0.09475569135613546,-0.09475569135613546,0.074681541712659,-0.014018685432711684,-0.09475569135613546,-0.09475569135613546,-0.09475569135613546,-0.012202857786611045,0.24343782028563626
2024-06-24,-0.09076109663977108,0.008590079911285478,0.008098080727398017,-0.09076109663977108,-0.04619451680114466,-0.09076109663977108,0.38971830058270823,0.09359353877860845,-0.09076109663977108,-0.09076109663977108
2024-06-25,0.03805470017283406,0.005732619842960121,-0.10000000000000002,-0.10000000000000002,-0.10000000000000002,-0.10000000000000002,0.27920155171182554,0.07523057979068017,-0.10000000000000002,0.10178054848170003
2024-06-26,-0.0958244684868043,0.11930168661210587,0.07405138946162587,0.05978630986818812,-0.020877657565978428,-0.0958244684868043,-0.0958244684868043,0.24686061405808013,-0.0958244684868043,-0.0958244684868043
2024-06-27,-0.08716864200053123,-0.08716864200053123,-0.08716864200053123,-0.003160766723436307,-0.08716864200053123,-0.060996023273907476,0.2868747084853687,0.0905337461574701,-0.08716864200053123,0.12259154535716123
2024-06-28,0.06190858080015357,0.023233097722034083,-0.09834237168903193,-0.008288141554840443,-0.09834237168903193,-0.09834237168903193,0.30211599597524263,0.11274232550256974,-0.09834237168903193,-0.09834237168903193
2024-07-01,0.08831678176633115,0.042801895091730935,-0.09999999999999998,0.009060065017493636,-0.09999999999999998,-0.09999999999999998,-0.09999999999999998,0.19980171525259013,-0.09999999999999998,0.16001954287185416
2024-07-02,0.041102495682753294,-0.09653339950508019,-0.017333002474599134,-0.09653339950508019,-0.09653339950508019,-0.09653339950508019,0.242488925749025,0.12826806181111555,-0.09653339950508019,0.08814051675710603
2024-07-03,0.09064463972517528,-0.09297638995001707,0.020411317090089125,-0.09297638995001707,-0.03511805024991469,-0.09297638995001707,-0.09297638995001707,0.20249613089580246,-0.09297638995001707,0.18644791228893312
2024-07-05,0.0654811903713891,-0.08780214300747247,-0.08780214300747247,-0.0010422158426784676,-0.08780214300747247,-0.059947069119959145,0.27152590839626645,0.16299290123234433,-0.08780214300747247,-0.08780214300747247
2024-07-08,0.0422340983040134,-0.09617186298457804,-0.09617186298457804,-0.019140685077109792,-0.09617186298457804,-0.09617186298457804,0.23144862694431995,0.12849725093819597,-0.09617186298457804,0.09782002381347064
2024-07-09,0.06573465793462134,-0.08879189995340364,0.010269450531302498,-0.08879189995340364,-0.08879189995340364,-0.05604050023298173,0.2970743674636304,-0.08879189995340364,-0.08879189995340364,0.12692152407044574
2024-07-10,0.22567278821312092,-0.1,-0.1,0.1163181592941029,0.07308266238977643,0.012447748572818659,-0.1,-0.1,0.07247864153018112,-0.1
2024-07-11,0.014523577398561959,-0.08438898621125324,-0.08438898621125324,-0.08438898621125324,-0.08438898621125324,-0.04997386209540085,0.3028663952185533,0.1826100273828847,-0.028081206848332953,-0.08438898621125324
2024-07-12,0.032249283455248016,-0.09984824210903101,0.03905831706189258,-0.0007587894548449045,-0.09984824210903101,-0.09984824210903101,-0.09984824210903101,0.2497488309652242,-0.09984824210903101,0.17894356851763518
2024-07-15,-0.09612336505787217,0.06477926345090518,-0.09612336505787217,0.006596145251326801,-0.09612336505787217,-0.09612336505787217,-0.09612336505787217,0.24318445287202078,-0.01938317471063924,0.1854401384257472
2024-07-16,-0.09432504572369739,-0.09432504572369739,0.11668641957253215,0.05243077748899083,-0.09432504572369739,-0.02837477138151309,-0.09432504572369739,-0.09432504572369739,0.01706084633865221,0.31382195659982476
2024-07-17,-0.08471793252077282,-0.08471793252077282,-0.08471793252077282,-0.08471793252077282,-0.022212790104009488,-0.054197547292126426,0.264907885399747,0.13075481069592537,-0.08471793252077282,0.10433730390432755
2024-07-18,0.06625974701472485,-0.1,0.09067049578241755,0.059021699456636746,0.020295629300973072,-0.1,-0.1,-0.1,-0.1,0.26375242844524777
2024-07-19,-0.09012477395592738,-0.09012477395592738,0.023110273093264373,-0.09012477395592738,-0.018700945280810708,-0.09012477395592738,0.31591907895978566,0.16097064794694996,-0.03067518493955242,-0.09012477395592738
2024-07-22,0.07324191437699341,0.1273244881551178,-0.0937268818517125,-0.0937268818517125,0.03148945846245982,-0.03136559074143747,-0.0937268818517125,-0.0937268818517125,-0.0937268818517125,0.267944139005429
2024-07-23,0.111892802802338,-0.09749581255312233,-0.09749581255312233,0.07981641409302373,0.05653254274376713,-0.012520937234388334,-0.09749581255312233,-0.09749581255312233,-0.09749581255312233,0.25175824036087124
2024-07-24,0.04942980204660252,0.06982886328436567,-0.09999999999999999,0.029750870243838448,-0.09999999999999999,-0.09999999999999999,-0.09999999999999999,0.34226661093270205,0.008723853492491324,-0.09999999999999999
2024-07-25,-0.1,0.0553098993473647,-0.1,0.025026414111680974,0.010478717455661351,-0.1,0.40450379032953965,-0.1,0.004681178755753415,-0.1
2024-07-26,-0.0941889720216216,0.05537759366142643,0.10306829726803313,-0.0941889720216216,-0.0941889720216216,-0.029055139891891953,-0.0941889720216216,0.3329209556240593,0.008633153446481204,-0.0941889720216216
2024-07-29,0.08753485747394876,-0.09999999999999999,0.20003785770634328,0.09089342186777866,0.06468567884544514,-0.09999999999999999,-0.09999999999999999,-0.09999999999999999,0.056848184106484324,-0.09999999999999999
2024-07-30,-0.019080170721138875,0.00020215729251207604,-0.09100634156925323,-0.09100634156925323,-0.02588812143259496,-0.09100634156925323,0.37198426481196994,0.127813577895518,-0.09100634156925323,-0.09100634156925323
2024-07-31,-0.09647241141117324,-0.09647241141117324,0.15944858065181153,-0.09647241141117324,0.06119362787497284,-0.01763794294413391,-0.09647241141117324,-0.09647241141117324,0.034086295011282235,0.24527149646193344
2024-08-01,0.107854756309395,-0.10000000000000002,0.22628150084495394,-0.10000000000000002,0.09036865063551827,0.0027538718665025518,-0.10000000000000002,-0.10000000000000002,0.0727412203436302,-0.10000000000000002
2024-08-02,-0.09870438414350025,-0.09870438414350025,-0.09870438414350025,0.1337589481705021,0.05772067876214837,-0.006478079282498802,-0.09870438414350025,-0.09870438414350025,0.06352223184382558,0.24499814122352398
2024-08-05,-0.0931975580468246,0.0444920358603648,-0.0931975580468246,-0.0019748590854079245,-0.03203735068046911,-0.0931975580468246,0.35418109418073485,0.10132686995890033,-0.0931975580468246,-0.0931975580468246
2024-08-06,0.06673511402671395,0.19896539191692172,0.13550907685071795,0.0987904172056464,-0.09528184865913465,-0.023590756704326685,-0.09528184865913465,-0.09528184865913465,-0.09528184865913465,-0.09528184865913465
2024-08-07,-0.09999999999999998,0.03465338873869285,0.006102981923536592,-0.09999999999999998,-0.09999999999999998,-0.09999999999999998,0.3482988515701671,0.08499414209518524,-0.09999999999999998,0.02595063567241832
2024-08-08,0.03822228688754667,0.15558890040079199,0.1035560260501456,0.06645107029104753,-0.1,-0.1,-0.1,-0.1,-0.1,0.13618171637046814
2024-08-09,-0.006683706211543114,-0.08849453369834108,-0.08849453369834108,0.007692232869284917,-0.08849453369834108,-0.05084362529675142,0.4330448441812257,-0.08849453369834108,-0.08849453369834108,0.05926292294948946
2024-08-12,-0.02383529267310889,0.03905153003772058,0.009384186894181764,-0.09523294146537822,-0.09523294146537822,-0.09523294146537822,0.36311582076771853,0.0884484623003792,-0.09523294146537822,-0.09523294146537822
2024-08-13,-0.08600853500537249,-0.08600853500537249,-0.08600853500537249,0.006928991898152759,-0.08600853500537249,-0.046372855263602394,0.4392207587235574,-0.08600853500537249,-0.023584469709535115,0.05385024937828985
2024-08-14,-0.09112038232936169,0.029480856856474672,-0.09112038232936169,-0.09112038232936169,-0.09112038232936169,-0.09112038232936169,0.2890542314977965,0.07619817016200871,-0.044398088353191506,0.10526674148372007
2024-08-15,-0.09430871878215924,-0.09430871878215924,0.0019568140865813526,-0.028456406089203745,-0.09430871878215924,-0.09430871878215924,0.30430139282032376,0.08065078084444863,-0.09430871878215924,0.11309101224864618
2024-08-16,-0.09939985554498154,0.027252761832209788,-0.0030007222750923026,-0.09939985554498154,-0.09939985554498154,-0.09939985554498154,0.2953339545346782,0.07171046142020651,-0.09939985554498154,0.10570282221290551
2024-08-19,-0.09148297626190027,0.1346489635366464,0.0834783388636629,-0.09148297626190027,-0.09148297626190027,-0.036803926098295615,-0.09148297626190027,-0.09148297626190027,-0.0057811925922030315,0.28187269759969075
2024-08-20,-0.08949096201863647,0.032862066177053256,-0.08949096201863647,-0.08949096201863647,-0.052545189906817724,-0.08949096201863647,0.2931257812580117,0.055854055318220006,-0.08949096201863647,0.11815809724671507
2024-08-21,0.03673643657658318,-0.09683619311597136,-0.09683619311597136,0.06291920910406916,-0.009690430404217115,-0.09683619311597136,-0.09683619311597136,-0.09683619311597136,-0.006128604015926127,0.4003443543193477
2024-08-22,-0.02388536604178921,-0.09272437911338902,0.007101339022046841,-0.012492738391265665,-0.09272437911338902,-0.09272437911338902,0.39063430750396033,0.10226435347399293,-0.09272437911338902,-0.09272437911338902
2024-08-23,0.026149085525494036,-0.09585668953750871,0.0771048102642301,0.04543146779529009,-0.09585668953750871,-0.09585668953750871,-0.09585668953750871,-0.09585668953750871,-0.020716552312456452,0.3513146364149858
2024-08-26,-0.019550064182323947,-0.08488060845917483,-0.08488060845917483,-0.011728657494180136,-0.08488060845917483,-0.08488060845917483,0.3477033489953744,-0.08488060845917483,-0.044318236027621784,0.1522966510046256
2024-08-27,-0.09359324793672548,-0.09359324793672548,-0.09359324793672548,0.06798952403449485,-0.0006872871303973354,-0.028228529341628887,-0.09359324793672548,-0.09359324793672548,-0.003117943844346344,0.4320104759655051
2024-08-28,0.01479563354853043,0.15257812921799804,-0.0958663899546601,0.02201650364016256,-0.0958663899546601,-0.0958663899546601,-0.0958663899546601,-0.0958663899546601,-0.020668050226699573,0.31060973359330896
2024-08-29,-0.09955281362478577,0.015125468294570244,-0.002235931876071154,-0.09955281362478577,-0.09955281362478577,-0.09955281362478577,0.2751013169523599,0.07288040648555753,-0.09955281362478577,0.13689280826751218
2024-08-30,-0.08568614139136327,0.11457508324456266,-0.08568614139136327,-0.08568614139136327,-0.011475221479970241,-0.03410328229223289,-0.08568614139136327,-0.08568614139136327,-0.025990789270980526,0.3854249167554373
2024-09-03,-0.07984067226149552,-0.07984067226149552,-0.07984067226149552,-0.07984067226149552,-0.028980514395394383,-0.039642448242006495,-0.07984067226149552,0.20234254717598643,-0.032173676055121406,0.2976574528240136
2024-09-04,-0.033942804553039614,0.03290287033583824,0.016325282531813458,-0.09321143908939208,-0.09321143908939208,-0.09321143908939208,0.34550319104058774,0.10526865609176055,-0.09321143908939208,-0.09321143908939208
2024-09-05,0.03129089633617812,-0.08749440899587446,-0.08749440899587446,-0.08749440899587446,-0.019243551645846176,-0.02409056280992797,-0.08749440899587446,-0.08749440899587446,-0.01919384056485357,0.4687091036638219
2024-09-06,-0.09147414704231,0.023899679768123922,-0.09147414704231,-0.042629264788450034,-0.09147414704231,-0.09147414704231,0.2584864883081278,0.0922111862721319,-0.09147414704231,0.12540264565161638
2024-09-09,-0.08783027502797196,0.028507381305456193,-0.08783027502797196,-0.08783027502797196,-0.08783027502797196,-0.060848624860140234,0.24751550939367273,0.0962151407445997,-0.08783027502797196,0.12776196855627142
2024-09-10,-0.029558449922356365,0.07162581207786299,0.0478750371980653,-0.08451461294400582,-0.08451461294400582,-0.04786848535761466,0.38049915072407176,-0.08451461294400582,-0.08451461294400582,-0.08451461294400582
2024-09-11,-0.08819269437932283,0.04031595334631692,0.02445300148987206,-0.08819269437932283,-0.05903652810338589,-0.08819269437932283,0.29421539845268324,-0.08819269437932283,-0.08819269437932283,0.14101564671112782
2024-09-12,-0.08886880843310355,-0.08886880843310355,0.1510925489684236,-0.08886880843310355,-0.08886880843310355,-0.027033360648380356,-0.08886880843310355,0.2679790569163733,-0.02862259718610198,0.08092839411520306
2024-09-13,-0.09944021432993402,-0.09944021432993402,0.30475853241035195,0.18595199167014792,-0.0027989283503298337,0.004518861176325716,-0.09944021432993402,-0.09944021432993402,0.004770614743174472,-0.09944021432993402
2024-09-16,-0.09232316838129588,0.11891878662152827,0.10771355713694951,0.05528170809915788,-0.09232316838129588,-0.03838415809352067,-0.09232316838129588,0.2180859481423644,-0.09232316838129588,-0.09232316838129588
2024-09-17,0.027803665532064474,0.1613763693449314,0.14753033449118308,-0.09334330821268468,-0.03328345893657658,-0.09334330821268468,-0.09334330821268468,-0.09334330821268468,-0.09334330821268468,0.1632896306318211
2024-09-18,-0.018695099049234238,0.03614569274058767,0.029696685709811894,-0.09626098019015314,-0.09626098019015314,-0.09626098019015314,0.3220282489807407,0.11212937256885976,-0.09626098019015314,-0.09626098019015314
2024-09-19,-0.09382078453950686,0.1330499125670872,0.13051872593847402,0.07238761864161979,-0.030896077302465793,-0.09382078453950686,-0.09382078453950686,-0.09382078453950686,-0.09382078453950686,0.16404374285281895
2024-09-20,-0.08966639433377108,0.03532471671695621,-0.08966639433377108,-0.08966639433377108,-0.08966639433377108,-0.08966639433377108,0.30273075019687273,0.10292426660605075,-0.051668028331144575,0.05902026648012028
2024-09-23,-0.01858304992868984,-0.09628339001426203,0.030318369010411614,-0.09628339001426203,-0.09628339001426203,-0.09628339001426203,0.3175134072955703,0.09538419788688544,-0.09628339001426203,0.05678402580713258
2024-09-24,-0.0809266916958678,-0.0809266916958678,-0.0809266916958678,-0.0809266916958678,-0.04766051956108817,-0.04770602195957281,0.32655748480896346,0.10332056982739068,-0.0809266916958678,0.07012194536364591
2024-09-25,0.0070932114238383,-0.08966871759672204,0.06687880416615478,-0.08966871759672204,-0.04758722348796993,-0.08966871759672204,0.426027984410007,-0.08966871759672204,-0.004069188528419864,-0.08966871759672204
2024-09-26,0.03810875045125271,-0.1,0.12925979078947533,0.06910046633586409,-0.1,-0.1,-0.1,0.24087934392854582,0.022651648494862116,-0.1
2024-09-27,0.03214562728003353,-0.09208922244286391,0.10286722355459303,-0.09208922244286391,-0.03955388778568055,-0.09208922244286391,-0.09208922244286391,0.19184703683774726,-0.09208922244286391,0.17314011232762622
2024-09-30,-0.0932834268260944,0.12446992568748892,0.11005031843219061,-0.0932834268260944,-0.03358286586952794,-0.0932834268260944,-0.0932834268260944,-0.0932834268260944,0.03377457937695849,0.23170517650336203
2024-10-01,0.01951554833291421,0.0652789280427362,-0.09987491815801182,0.03558964813185001,-0.09987491815801182,-0.09987491815801182,0.3796158754924995,-0.09987491815801182,-0.0006254092099409101,-0.09987491815801182
2024-10-02,-0.0891459471289214,-0.0891459471289214,0.045795208643312844,-0.0891459471289214,-0.048434962067112126,-0.0891459471289214,0.3226359747418588,-0.0891459471289214,-0.005835302288280932,0.13156881661482842
2024-10-03,-0.1,0.015183449111604035,-0.1,0.02242533241846981,-0.1,-0.1,0.2695479234224555,0.07892612397065168,-0.1,0.11391717107681906
2024-10-04,-0.08645735752592462,-0.08645735752592462,-0.08645735752592462,0.07428169244958281,-0.038464087869428065,-0.02924912450094877,0.4054953078764581,-0.08645735752592462,0.02022299967395911,-0.08645735752592462
2024-10-07,0.007641343006495081,0.01881695979550445,-0.09999999999999999,-0.09999999999999999,-0.09999999999999999,-0.09999999999999999,0.27067757592452174,0.07717847115202388,-0.09999999999999999,0.12568565012145486
2024-10-08,0.07815978728102407,0.07927967787191496,-0.09999999999999999,0.03928534598366812,-0.09999999999999999,-0.09999999999999999,-0.09999999999999999,-0.09999999999999999,0.030194082442317506,0.27308110642107547
2024-10-09,-0.09229473183977131,0.07286499471351046,0.05299508721219044,-0.09229473183977131,-0.09229473183977131,-0.03852634080114333,0.34462933434289594,-0.09229473183977131,0.029510583731403223,-0.09229473183977131
2024-10-10,-0.0926984878277742,0.08793966221466065,0.05351609390790269,0.0808844917694626,-0.036507560861129065,-0.0926984878277742,-0.0926984878277742,-0.0926984878277742,-0.0926984878277742,0.27765975210797406
2024-10-11,0.03164077875077658,-0.10000000000000002,0.016876240245000163,-0.10000000000000002,-0.10000000000000002,-0.10000000000000002,0.25863563392900224,-0.10000000000000002,0.002007046275816509,0.19084030079940442
2024-10-14,0.04120883984260866,-0.1,0.023488173336464812,0.04280437567887668,-0.1,-0.1,-0.1,0.20413845879949677,-0.1,0.1883601523425531
2024-10-15,-0.09999999999999999,-0.09999999999999999,0.012317109608647877,0.027122441627272342,-0.09999999999999999,-0.09999999999999999,0.2763575669463134,0.17623580037033226,0.007967081447434127,-0.09999999999999999
2024-10-16,0.028688970708567393,0.05541487460278423,-0.09999999999999999,0.0519662881765021,-0.09999999999999999,-0.09999999999999999,0.33351700415057434,-0.09999999999999999,0.030412862361571907,-0.09999999999999999
2024-10-17,0.012974071763387558,0.03388084401179099,-0.1,0.03135236082172957,-0.1,-0.1,0.2634388585632297,-0.1,-0.1,0.15835386483986227
2024-10-18,0.041266537283041915,0.06344268334959037,0.04207521550251,-0.09096681453879829,-0.09096681453879829,-0.04516592730600851,0.35321556386485775,-0.09096681453879829,-0.09096681453879829,-0.09096681453879829
2024-10-21,-0.08899440153047497,-0.08899440153047497,0.08290100783894123,0.1145739322463944,-0.03312750499707344,-0.021900487350551768,-0.08899440153047497,-0.08899440153047497,-0.08899440153047497,0.30252505991466444
2024-10-22,-0.09234825495746554,-0.09234825495746554,-0.09234825495746554,0.1288715927166318,-0.019144565040418723,-0.019114160172253626,-0.09234825495746554,-0.09234825495746554,0.02165627747060459,0.34947212981276354
2024-10-23,-0.08878367704805312,0.01757628349919855,-0.08878367704805312,0.008916343964417001,-0.056081614759734506,-0.08878367704805312,0.18494831937074233,0.2885590531656421,-0.08878367704805312,-0.08878367704805312
2024-10-24,-0.08889408700350956,0.017204291826989373,0.004199358763154214,-0.08889408700350956,-0.08889408700350956,-0.055529564982452075,0.18013739906303455,0.29845895034682174,-0.08889408700350956,-0.08889408700350956
2024-10-25,0.06554625466665201,-0.09990927967495924,0.0792137461469521,0.1030034294914975,-0.09990927967495924,-0.09990927967495924,-0.09990927967495924,-0.09990927967495924,-0.0004536016252037743,0.25223656969489855
2024-10-28,-0.08770480582677474,0.09504836529739051,0.08010111429738767,-0.08770480582677474,-0.02445719067559234,-0.03701878019053393,0.32485052040522194,-0.08770480582677474,-0.08770480582677474,-0.08770480582677474
2024-10-29,-0.09429334396673698,0.15396901821495354,0.16023479260531828,0.13878929241736032,-0.09429334396673698,-0.028533280166315123,-0.09429334396673698,-0.09429334396673698,0.0470068967623679,-0.09429334396673698
2024-10-30,0.07087158578332409,-0.09807145808711529,-0.09807145808711529,0.11217612922984285,-0.009642709564423509,-0.09807145808711529,-0.09807145808711529,-0.09807145808711529,0.0293210958717991,0.2876311891150339
2024-10-31,-0.09522721649980503,0.10217602594021938,-0.09522721649980503,0.013485234012375122,-0.09522721649980503,-0.02386391750097476,0.2461081154448357,-0.09522721649980503,-0.09522721649980503,0.13823062460256988
2024-11-01,0.025122514137855757,-0.09711857507812224,-0.09711857507812224,-0.09711857507812224,-0.09711857507812224,-0.009004816014634208,0.3265412484929582,-0.09711857507812224,-0.005402308594754635,0.14833623736918605
2024-11-04,-0.08948369105744673,0.0436291025150318,-0.08948369105744673,-0.08948369105744673,-0.05258154471276622,-0.08948369105744673,0.13999083176974858,0.2602834413082636,-0.08948369105744673,0.056096624406956015
2024-11-05,-0.09999999999999999,0.033617591229054104,0.006311896467841119,0.06418243468327399,-0.09999999999999999,-0.09999999999999999,0.12911208621519343,0.2667759914046373,-0.09999999999999999,-0.09999999999999999
2024-11-06,-0.02769778610221381,0.04545843136085736,0.02099762727584117,-0.09446044277955722,-0.09446044277955722,-0.09446044277955722,0.14596908303910935,0.28757485832419205,-0.09446044277955722,-0.09446044277955722
2024-11-07,-0.01706268002015922,-0.09380546636462013,-0.09380546636462013,0.10756266680165529,-0.09380546636462013,-0.09380546636462013,-0.09380546636462013,0.32624662926250425,-0.013909988156740228,0.06619070393584041
2024-11-08,-0.08962361002703811,-0.08962361002703811,0.049690961603890034,0.1125120578841664,-0.04242660789538901,-0.08962361002703811,-0.08962361002703811,0.3377969805119436,-0.009455341969420444,-0.08962361002703811
2024-11-11,-0.09610767887272754,0.10853445614495114,0.0775410220920531,-0.09610767887272754,-0.09610767887272754,-0.019461605636362237,0.2159915556044947,-0.09610767887272754,-0.09610767887272754,0.09793296615850099
2024-11-12,-0.02871766349946837,0.0574334429930052,-0.09425646730010631,0.09067193232888099,-0.09425646730010631,-0.09425646730010631,-0.09425646730010631,0.3063353639263234,-0.09425646730010631,0.04555926075179051
2024-11-13,0.018533140377054412,-0.09454986151843618,-0.09454986151843618,0.20938289603336216,-0.02485090434943921,-0.00239978805837988,0.2720839635895833,-0.09454986151843618,-0.09454986151843618,-0.09454986151843618
2024-11-14,-0.019982760328742685,-0.09169385982861292,-0.09169385982861292,0.10205776378672254,-0.09169385982861292,-0.09169385982861292,-0.09169385982861292,0.3342458887125535,-0.021547940528192738,0.06369634750072393
2024-11-15,-0.0040477519834592746,-0.09319035795416004,0.08405102652365486,-0.09319035795416004,-0.09319035795416004,-0.017740396182497325,-0.09319035795416004,0.41594897347634513,-0.012260062063242972,-0.09319035795416004
2024-11-18,-0.09999999999999998,0.05096288680786766,0.025655950183581584,-0.09999999999999998,-0.09999999999999998,-0.09999999999999998,0.11609768006239682,0.2551955861340284,-0.09999999999999998,0.05208789681212566
2024-11-19,-0.009817365136937406,-0.0874710631055207,-0.0874710631055207,-0.0874710631055207,-0.03418238787146382,-0.018644931463995203,-0.0874710631055207,0.3899691729506631,-0.0874710631055207,0.11003082704933705
2024-11-20,-0.09204822824395438,-0.09204822824395438,-0.09204822824395438,0.15161913112053313,-0.033528077759991004,-0.09204822824395438,0.21818397723513172,-0.09204822824395438,-0.0062307810202371,0.13019689164433518
2024-11-21,-0.011659744433946828,-0.09345767931315008,-0.09345767931315008,0.13675641989213536,-0.09345767931315008,-0.021051859000302802,-0.09345767931315008,0.23309482236219772,-0.09345767931315008,0.13014875774566692
2024-11-22,0.0012855702459475358,0.16060397416667369,0.16063905475194182,0.17747140083543708,-0.09956604586412272,-0.09956604586412272,-0.09956604586412272,-0.09956604586412272,-0.0021697706793863524,-0.09956604586412272
2024-11-25,-0.09432032240827275,0.10154218904895536,0.0933354616838911,-0.09432032240827275,-0.09432032240827275,-0.028398387958636386,0.19808506593032388,-0.09432032240827275,-0.09432032240827275,0.10703728333682966
2024-11-26,1.642815373121459e-05,-0.09782084252886179,0.14675610294865535,0.1796209821434457,-0.09782084252886179,-0.09782084252886179,-0.09782084252886179,-0.09782084252886179,-0.010895787355691071,0.17360648675416773
2024-11-27,-0.03257501632452954,0.07941644277262712,-0.09348499673509408,-0.09348499673509408,-0.09348499673509408,-0.09348499673509408,0.15890990132108573,0.1709150660293384,-0.09348499673509408,0.09075858987694872
2024-11-29,-0.0876223663439173,0.10049286241098898,0.13386039362392707,-0.0876223663439173,-0.030759006299489324,-0.031129161980924237,-0.0876223663439173,0.2656467439650839,-0.0876223663439173,-0.0876223663439173
2024-12-02,-0.014663172634519472,0.09604429238376605,-0.0910553266963286,-0.0910553266963286,-0.03006019388383747,-0.0910553266963286,0.24570299545073407,-0.0910553266963286,-0.0910553266963286,0.15825271216549985
2024-12-03,-0.1,0.03921951365738919,0.0663586674003047,-0.1,-0.1,-0.1,0.15371832865542873,0.15901533927126582,-0.1,0.08168815101561151
2024-12-04,-0.09359946238015796,0.10045154677043382,-0.09359946238015796,0.028332667591802505,-0.09359946238015796,-0.03200268809921033,-0.09359946238015796,0.1928675721796642,-0.09359946238015796,0.1783482134580995
2024-12-05,-0.09283927767439289,0.08571344639457515,0.1009008908882944,-0.09283927767439289,-0.03580361162803552,-0.09283927767439289,-0.09283927767439289,0.16435014350538651,-0.09283927767439289,0.14903551921174388
2024-12-06,-0.0026495757803742083,0.136133766520447,0.1552555616731194,-0.09432671313162609,-0.09432671313162609,-0.02571685856149533,-0.09432671313162609,0.2086106718064337,-0.09432671313162609,-0.09432671313162609
2024-12-09,-0.020291483588833197,-0.08893516229371574,0.1721678882920785,-0.08893516229371574,-0.08893516229371574,-0.08893516229371574,-0.08893516229371574,0.1301981083897307,-0.03503270494258803,0.1976340033181908
2024-12-10,-0.1,0.04568078314609986,0.11876101326495979,-0.1,-0.1,-0.1,0.1765428100471977,0.04843316366683813,-0.1,0.1105822298749045
2024-12-11,0.06161738995599262,0.3391764240345105,-0.09999999999999999,-0.09999999999999999,0.047004184395100276,0.028989051323446577,-0.09999999999999999,-0.09999999999999999,0.02321295029095012,-0.09999999999999999
2024-12-12,0.007406495144427584,-0.09520407697116014,-0.09520407697116014,-0.09520407697116014,-0.09520407697116014,-0.009171968079323864,-0.09520407697116014,0.1688910060554818,-0.014807647064875463,0.32370249880009055
2024-12-13,-0.03876493157492403,0.060251895521020615,0.19064740823940063,-0.09224701368501519,-0.09224701368501519,-0.09224701368501519,-0.09224701368501519,0.07977252292982533,-0.09224701368501519,0.16932817330975353
2024-12-16,-0.008368682577601165,-0.09189517032856108,-0.09189517032856108,-0.09189517032856108,-0.09189517032856108,-0.02289133286647146,-0.09189517032856108,0.17137000853699122,-0.00926413291312198,0.32862999146300875
2024-12-17,0.02645585908207249,-0.1,-0.1,-0.1,0.007433226638065242,0.0075863834231881914,0.44315957736864436,-0.1,0.015364953488029656,-0.1
2024-12-18,-0.0027769300244133597,0.14740953860371925,-0.09735642124255361,0.03409166611226391,-0.09735642124255361,-0.09735642124255361,0.3184987952840168,-0.09735642124255361,-0.010440963762818618,-0.09735642124255361
2024-12-19,-0.020329617653339,0.07903253701140166,0.1680772487061536,0.007623507264956919,-0.09593407646933222,-0.09593407646933222,0.24526670701748782,-0.09593407646933222,-0.09593407646933222,-0.09593407646933222
2024-12-20,-0.09380934202696371,-0.09380934202696371,0.15265525143671638,0.0012508590557644334,-0.030953289865181373,-0.09380934202696371,0.2501311765538244,0.09596271295369481,-0.09380934202696371,-0.09380934202696371
2024-12-23,-0.009304096674135315,0.10418787934787907,-0.09813918066517294,0.02516169832864294,-0.09813918066517294,-0.09813918066517294,-0.09813918066517294,0.13252838082989407,-0.09813918066517294,0.23812204149358396
2024-12-24,0.03127080524913221,-0.09989140099376312,-0.09989140099376312,0.08415421092945208,-0.09989140099376312,-0.0005429950311844179,-0.09989140099376312,-0.09989140099376312,0.0170935142531538,0.3674814695682619
2024-12-26,0.11568021327024056,-0.1,-0.1,0.1801642299456272,0.07305318211138496,0.05458283217683099,-0.1,-0.1,0.07651954249591628,-0.1
2024-12-27,-0.0992692013968866,-0.0992692013968866,-0.0992692013968866,0.06906729951680725,0.005960742475516504,-0.0036539930155671503,0.41560840050505055,-0.0992692013968866,0.009363557502625616,-0.0992692013968866
2024-12-30,-0.1,-0.1,-0.1,0.08287706508938784,0.008304588180166585,0.0009624672807290116,-0.1,-0.1,0.02024837032318657,0.3876075091265301
2024-12-31,-0.09275280113877096,0.06912141687576329,0.16936813648677093,0.009307762550435115,-0.03623599430614521,-0.09275280113877096,0.25220268408703067,-0.09275280113877096,-0.09275280113877096,-0.09275280113877096
2025-01-02,-0.1,0.02366565416850782,0.10234968725394374,-0.1,-0.1,-0.1,0.17935309297175023,0.08758731928738821,-0.1,0.10704424631840999
2025-01-03,-0.09225488405788755,0.038885926904304965,0.12143655697189132,-0.09225488405788755,-0.03872557971056231,-0.09225488405788755,0.21546164900717021,-0.09225488405788755,-0.09225488405788755,0.12421586711663354
2025-01-06,-0.09999999999999999,-0.09999999999999999,0.3752278182510574,0.08947341831026252,0.01719035783978172,0.002703104344410277,-0.09999999999999999,-0.09999999999999999,0.01540530125448803,-0.09999999999999999
2025-01-07,0.03394116015516665,-0.09401038777931246,-0.09401038777931246,-0.09401038777931246,-0.09401038777931246,-0.01867519807876056,-0.09401038777931246,0.2195720653342854,-0.011272863024677166,0.24648677451054796
2025-01-08,-0.09469401667568013,-0.09469401667568013,-0.09469401667568013,-0.09469401667568013,-0.005774352604322205,-0.014341555693158495,-0.09469401667568013,0.229859612533626,-0.006414008324118712,0.2701403874663739
2025-01-10,-0.09840622325009958,0.1458030646622579,-0.09840622325009958,0.08114919807361412,-0.09840622325009958,-0.007968883749502088,-0.09840622325009958,0.2682779658702847,0.00476977139384323,-0.09840622325009958
2025-01-13,0.11768788049750184,0.2076535777246688,-0.1,0.1287907839774304,-0.1,0.013498219734049952,-0.1,-0.1,0.032369538066348964,-0.1
2025-01-14,0.0026752702991775686,0.04360911574174397,0.06653800175962547,-0.1,-0.1,-0.1,0.2727584157479244,0.11441919645152862,-0.1,-0.1
2025-01-15,-0.10000000000000002,-0.10000000000000002,-0.10000000000000002,0.09375666446260754,0.020202072359026203,0.005939439893658132,-0.10000000000000002,-0.10000000000000002,0.024211264816027464,0.3558905584686806
2025-01-16,-0.1,0.04099581115979886,0.04910614854745449,0.0017842969326064802,-0.1,-0.1,0.27176814103484304,-0.1,-0.1,0.13634560232529716
2025-01-17,-0.09668786641526503,0.02754441686958224,0.036799731409848435,-0.01656066792367484,-0.09668786641526503,-0.09668786641526503,0.29231305862208895,-0.09668786641526503,-0.09668786641526503,0.14334279309848033
2025-01-21,0.05878417393977801,0.05641331024460578,-0.09194769980795846,-0.09194769980795846,-0.021874691182163123,-0.01838680977804461,0.3848025158156163,-0.09194769980795846,-0.09194769980795846,-0.09194769980795846
2025-01-22,-0.09995857900926887,0.1287918008132897,-0.09995857900926887,0.039427192007647265,0.007058033351385996,-0.09995857900926887,-0.09995857900926887,-0.09995857900926887,-0.00020710495365562506,0.324722973827677
2025-01-23,-0.09890229079459567,0.11675406612402359,0.11833009446738402,-0.09890229079459567,-0.0005508429729835738,-0.09890229079459567,-0.09890229079459567,-0.09890229079459567,-0.004937703054038168,0.26491583940859237
2025-01-24,0.15306432359910513,-0.1,-0.1,0.03991695894010306,0.007286440872976816,-0.1,-0.1,-0.1,0.002715652831619062,0.2970166237561959
2025-01-27,0.024699638726570404,-0.0012713803391987421,0.027795918457850528,-0.09200629745217657,-0.09200629745217657,-0.03869713239991826,0.44750444281557916,-0.09200629745217657,-0.09200629745217657,-0.09200629745217657
2025-01-28,0.1425161840631559,-0.09575520554168161,0.14386143694539932,-0.09575520554168161,-0.007770420352515912,-0.09575520554168161,-0.09575520554168161,-0.09575520554168161,-0.013453551939076089,0.2136223789914448
2025-01-29,-0.0895949600732115,-0.0895949600732115,0.022866334696926408,-0.0895949600732115,-0.0895949600732115,-0.0895949600732115,0.40891092082637803,0.027479267913697925,-0.05202519963394244,0.04074347656299757
2025-01-30,-0.09830069373720143,0.09285298329644961,0.17380861170685333,-0.09830069373720143,-0.008496531313992734,0.05196946247401684,-0.09830069373720143,0.18136894252268024,-0.09830069373720143,-0.09830069373720143
2025-01-31,-0.1,0.13753018847947826,-0.1,0.04445867585173829,0.008735780809151997,-0.1,-0.1,-0.1,0.013200393846969935,0.2960749610126617
2025-02-03,0.020093912992310375,-0.015033126198429418,0.025530007093617624,-0.0969933747603141,-0.0969933747603141,-0.0969933747603141,0.41369278122735564,-0.0969933747603141,-0.0969933747603141,0.04068329868671629
2025-02-04,-0.0810016888097712,-0.0810016888097712,-0.0810016888097712,-0.034171247811063725,-0.0810016888097712,-0.018071472088898935,0.4404323938487676,-0.0810016888097712,-0.04274883605118127,0.05956760615123241
2025-02-05,-0.08753802967942537,-0.004617258776445054,-0.08753802967942537,-0.035159618096115945,-0.08753802967942537,-0.022532974730312075,0.44772698611697415,-0.08753802967942537,-0.08753802967942537,0.05227301388302569
2025-02-06,-0.0782038582147464,-0.0782038582147464,-0.0782038582147464,-0.02077523948344374,-0.04584967949649928,-0.0073493984398072905,0.5,-0.0782038582147464,-0.035006391506517534,-0.0782038582147464
2025-02-07,-0.08831271818614041,-9.4943901319003e-05,0.06420364929900338,-0.08831271818614041,-0.08831271818614041,-0.08831271818614041,0.3857167727198476,-0.08831271818614041,-0.05834146516797897,0.050079577981149065
2025-02-10,0.30354589474858523,-0.09873104175991809,-0.09873104175991809,0.0730506250985102,-0.006344791200409489,0.1137421490727116,-0.09873104175991809,-0.09873104175991809,0.009661331080193082,-0.09873104175991809
2025-02-11,0.16442871710805212,-0.08767471409789913,-0.08767471409789913,-0.08767471409789913,-0.041323137102212526,-0.08767471409789913,-0.08767471409789913,0.15111527842679778,-0.020303292408291672,0.18445600446515015
2025-02-12,0.016635535233813805,-0.1,0.054544687155929576,-0.1,-0.1,-0.1,0.39572352371484887,0.005884360720467776,-0.1,0.027211893174940032
2025-02-13,0.029817872215207535,-0.0801726260027085,-0.0801726260027085,-0.03300768288446062,-0.06612918710199689,-0.0801726260027085,0.4406326873677635,0.02954944041702903,-0.0801726260027085,-0.0801726260027085
2025-02-14,0.035641728806415564,-0.08017581189776869,-0.08017581189776869,-0.03354136265375468,-0.08017581189776869,-0.016757323707219225,0.4643582711935844,-0.08017581189776869,-0.04882225415018271,-0.08017581189776869
2025-02-18,0.07401897674175206,-0.1,0.17898612530522162,-0.1,-0.1,0.007404472607175779,-0.1,0.09000000199398116,-0.1,0.14959042335186926
2025-02-19,0.014514490376138018,-0.08228728009460762,0.0727305057310463,-0.08228728009460762,-0.058070042135807846,-0.03049355739115401,0.41275500389281555,-0.08228728009460762,-0.08228728009460762,-0.08228728009460762
2025-02-20,0.252772684566105,-0.098238685182675,-0.098238685182675,0.13529850081578687,-0.008806574086624917,0.09346611286411818,-0.098238685182675,-0.098238685182675,0.018462701753989934,-0.098238685182675
2025-02-21,0.15108510896046518,-0.092503889336538,0.30687926075656974,-0.092503889336538,-0.02628848250847802,0.04203563028296514,-0.092503889336538,-0.092503889336538,-0.011192070808832052,-0.092503889336538
2025-02-24,0.06243814212744609,0.06247342209724397,-0.08479290082707826,-0.08479290082707826,-0.042139895721838475,-0.08479290082707826,-0.08479290082707826,-0.08479290082707826,-0.03389560014277012,0.3750884357753099
2025-02-25,-0.08924339332663853,0.06016013102632611,-0.08924339332663853,0.024708517622806923,-0.0447774764314769,-0.009005556935330535,0.41513135135086693,-0.08924339332663853,-0.08924339332663853,-0.08924339332663853
2025-02-26,-0.0880944040796912,-0.0880944040796912,-0.0880944040796912,0.040904149350677516,-0.03428980361825739,0.004283330801698796,-0.0880944040796912,-0.0880944040796912,-0.025238175983286527,0.45481251984762366
2025-02-27,0.0,0.0,0.0,0.0,0.0,0.0,0.0,0.0,0.0,0.0
